%YAML:1.0
opencv_ml_svm:
   format: 3
   svmType: C_SVC
   kernel:
      type: LINEAR
   C: 1.
   term_criteria: { iterations:100 }
   var_count: 256
   class_count: 10
   class_labels: !!opencv-matrix
      rows: 10
      cols: 1
      dt: i
      data: [ 0, 1, 2, 3, 4, 5, 6, 7, 8, 9 ]
   sv_total: 45
   support_vectors:
      - [ 5.55111512e-016, 5.55111512e-016, 5.55111512e-016,
          5.55111512e-016, 5.55111512e-016, 5.55111512e-016,
          5.55111512e-016, 5.55111512e-016, 5.55111512e-016,
          5.55111512e-016, 5.55111512e-016, 5.55111512e-016,
          5.55111512e-016, 5.55111512e-016, 5.55111512e-016,
          5.55111512e-016, 5.55111512e-016, 5.55111512e-016,
          5.55111512e-016, 5.55111512e-016, 5.55111512e-016,
          5.55111512e-016, 5.55111512e-016, 5.55111512e-016,
          5.55111512e-016, 5.55111512e-016, 5.55111512e-016,
          5.55111512e-016, 5.55111512e-016, 5.55111512e-016,
          5.55111512e-016, 5.55111512e-016, 5.55111512e-016,
          5.55111512e-016, 2.39629492e-001, 4.32794183e-001,
          7.42148161e-002, -1.15639105e-001, 8.18875879e-002,
          2.78043628e-001, 7.98358619e-002, 3.79190058e-001,
          9.14536696e-003, -2.66181946e-001, 7.99910277e-002,
          5.75245032e-003, 5.55111512e-016, 5.55111512e-016,
          5.55111512e-016, 5.55111512e-016, 8.00288841e-002,
          3.57381940e-001, -1.49055570e-001, -4.16259915e-002,
          1.15801066e-001, 2.46364862e-001, -1.11436486e-001,
          3.38951826e-001, 4.29631136e-002, 2.71402323e-003,
          4.41718221e-001, 2.04437524e-001, 5.55111512e-016,
          5.55111512e-016, 5.55111512e-016, 5.55111512e-016,
          8.00288841e-002, 1.40062263e-002, 2.56765813e-001,
          1.38929054e-001, 3.75702173e-001, -1.03676029e-001,
          3.32222730e-001, 9.82792024e-003, 1.73398480e-001,
          9.97195840e-002, 1.23841435e-001, 4.47944850e-001,
          5.55111512e-016, 5.55111512e-016, 5.55111512e-016,
          5.55111512e-016, -3.81224304e-002, -1.67781442e-001,
          -2.70278037e-001, -3.06956261e-001, 2.23839208e-001,
          -1.84046924e-001, -1.40855789e-001, -2.92606443e-001,
          -1.48464963e-001, -2.72088666e-002, 2.88711846e-001,
          2.89688289e-001, 5.55111512e-016, 5.55111512e-016,
          5.55111512e-016, 5.55111512e-016, -7.75157511e-002,
          -3.36009234e-001, 1.63755715e-001, 1.10834904e-001,
          -1.06421009e-001, -2.54913215e-002, -1.81933865e-001,
          -2.41183832e-001, -1.36345416e-001, 6.83069751e-002,
          1.80232540e-001, 7.88138956e-002, 5.55111512e-016,
          5.55111512e-016, 5.55111512e-016, 5.55111512e-016,
          -1.65512815e-001, 1.31799772e-001, -9.31159109e-002,
          1.72752142e-001, 1.58685148e-001, 1.60290316e-001,
          3.02514791e-001, 2.03005150e-001, 1.58771902e-001,
          5.12599386e-003, -1.63599208e-001, -3.90435994e-001,
          5.55111512e-016, 5.55111512e-016, 5.55111512e-016,
          5.55111512e-016, 1.04698129e-001, 2.20230386e-001,
          -6.80143535e-002, -1.49108320e-001, -9.03761107e-003,
          -7.44870976e-002, -2.47296780e-001, -9.94487628e-002,
          -5.75852282e-002, -1.93612906e-003, -1.04969695e-001,
          -2.72766769e-001, 5.55111512e-016, 5.55111512e-016,
          5.55111512e-016, 5.55111512e-016, -2.04413816e-001,
          -1.13898106e-001, -7.83098936e-002, 1.17388345e-001,
          -2.45784178e-001, -1.30121797e-001, -1.51937991e-001,
          1.64185204e-002, -1.24324085e-002, 7.38078058e-002,
          3.45749468e-001, -3.41370739e-002, 5.55111512e-016,
          5.55111512e-016, 5.55111512e-016, 5.55111512e-016,
          -9.58823692e-003, -3.16725194e-001, -1.85708523e-001,
          -2.76038889e-002, -2.04236433e-001, -2.69457966e-001,
          -3.28317955e-002, -1.60659134e-001, 4.09360528e-002,
          9.04261917e-002, 8.01188201e-002, 1.69346690e-001,
          5.55111512e-016, 5.55111512e-016, 5.55111512e-016,
          5.55111512e-016, -2.90697455e-001, -4.12151754e-001,
          -3.28783020e-002, -2.25380436e-001, 8.85301828e-002,
          6.68063611e-002, -4.53415215e-002, 1.82771549e-001,
          -8.66198838e-002, 1.34724879e-003, 2.45017838e-002,
          -1.07592888e-001, 5.55111512e-016, 5.55111512e-016,
          5.55111512e-016, 5.55111512e-016, -8.01879242e-002,
          -2.57565945e-001, -8.38538185e-002, 2.96098590e-001,
          1.41551182e-001, 1.33620068e-001, -6.47609979e-002,
          -2.68189043e-001, -2.17315882e-001, -1.86906740e-001,
          -3.80882949e-001, -2.70621628e-001, 5.55111512e-016,
          5.55111512e-016, 5.55111512e-016, -1.24390125e-001,
          -1.76945135e-001, -4.68676805e-001, 1.45210652e-002,
          7.27906302e-002, 2.98782401e-002, 9.11883414e-002,
          6.59563318e-002, -1.72996894e-001, -1.04934148e-001,
          -1.58534870e-001, -2.76190251e-001, -2.00390726e-001,
          5.55111512e-016, 5.55111512e-016, 5.55111512e-016,
          5.55111512e-016, 5.55111512e-016, 5.55111512e-016,
          5.55111512e-016, 5.55111512e-016, 5.55111512e-016,
          5.55111512e-016, 5.55111512e-016, 5.55111512e-016,
          5.55111512e-016, 5.55111512e-016, 5.55111512e-016,
          5.55111512e-016, 5.55111512e-016, 5.55111512e-016,
          5.55111512e-016, 5.55111512e-016, 5.55111512e-016,
          5.55111512e-016, 5.55111512e-016, 5.55111512e-016,
          5.55111512e-016, 5.55111512e-016, 5.55111512e-016,
          5.55111512e-016, 5.55111512e-016, 5.55111512e-016,
          5.55111512e-016, 5.55111512e-016, 5.55111512e-016,
          5.55111512e-016 ]
      - [ -9.15933995e-016, -9.15933995e-016, -9.15933995e-016,
          -9.15933995e-016, -9.15933995e-016, -9.15933995e-016,
          -9.15933995e-016, -9.15933995e-016, -9.15933995e-016,
          -9.15933995e-016, -9.15933995e-016, -9.15933995e-016,
          -9.15933995e-016, -9.15933995e-016, -9.15933995e-016,
          -9.15933995e-016, -9.15933995e-016, -9.15933995e-016,
          -9.15933995e-016, -9.15933995e-016, -9.15933995e-016,
          -9.15933995e-016, -9.15933995e-016, -9.15933995e-016,
          -9.15933995e-016, -9.15933995e-016, -9.15933995e-016,
          -9.15933995e-016, -9.15933995e-016, -9.15933995e-016,
          -9.15933995e-016, -9.15933995e-016, -9.15933995e-016,
          -9.15933995e-016, -9.15933995e-016, -9.15933995e-016,
          -8.65271762e-002, -3.65254045e-001, 5.32747693e-002,
          3.52167428e-001, 3.30330938e-001, 4.89458889e-001,
          -1.24742664e-001, 1.03835709e-001, 3.68876666e-001,
          3.95257175e-001, -9.15933995e-016, -9.15933995e-016,
          -9.15933995e-016, -9.15933995e-016, -9.15933995e-016,
          5.09265959e-002, -1.68435737e-001, -5.15787363e-001,
          -2.20172435e-001, 5.63520610e-001, -2.38554373e-001,
          2.87044138e-001, 3.35305959e-001, 1.20845832e-001,
          2.27624193e-001, 2.80088991e-001, -9.15933995e-016,
          -9.15933995e-016, -9.15933995e-016, -9.15933995e-016,
          6.62950650e-002, 8.96988995e-003, 1.42792270e-001,
          -1.82687223e-001, 9.21313241e-002, -2.07274631e-001,
          1.36803254e-001, -3.09344698e-002, 2.76980460e-001,
          9.55562368e-002, 3.80126387e-001, 1.58011362e-001,
          -9.15933995e-016, -9.15933995e-016, -9.15933995e-016,
          -9.15933995e-016, 9.42595527e-002, 1.68006178e-002,
          1.53708458e-001, 1.95750268e-003, 3.63329083e-001,
          -1.74372509e-001, 8.52873027e-002, 4.58865762e-002,
          -3.09555791e-002, -3.80087942e-002, -4.43929993e-002,
          1.72263473e-001, -9.15933995e-016, -9.15933995e-016,
          -9.15933995e-016, -9.15933995e-016, 1.41831651e-001,
          -6.50089886e-003, -1.06917664e-001, 1.04811475e-001,
          -1.25869632e-001, 3.11121404e-001, -5.63695371e-001,
          -2.06038609e-001, 1.05053429e-002, 2.14106396e-001,
          -1.37808070e-001, 1.78436562e-002, -9.15933995e-016,
          -9.15933995e-016, -9.15933995e-016, -9.15933995e-016,
          2.28154045e-002, 9.62381214e-002, 1.48779005e-002,
          1.85755759e-001, 1.95438638e-001, -1.28925173e-002,
          -2.69521683e-001, -4.61734265e-001, -3.54648978e-001,
          -4.73874539e-001, -6.60516769e-002, -7.12439343e-002,
          -9.15933995e-016, -9.15933995e-016, -9.15933995e-016,
          -9.15933995e-016, 1.99648261e-001, 3.07946354e-002,
          1.34287730e-001, 1.11913711e-001, -2.14093655e-001,
          -7.13851154e-001, -5.44540100e-002, -1.45503655e-001,
          -3.46854955e-001, -2.50848740e-001, 1.02447167e-001,
          -9.60478261e-002, -9.15933995e-016, -9.15933995e-016,
          -9.15933995e-016, -9.15933995e-016, -6.35028183e-002,
          1.09022953e-001, 2.31270626e-001, -1.29450947e-001,
          -2.18218952e-001, 5.52254096e-002, -2.23356456e-001,
          -4.28772241e-001, -5.54936146e-003, -2.72063494e-001,
          1.03083700e-001, -1.20384544e-001, -9.15933995e-016,
          -9.15933995e-016, -9.15933995e-016, -9.15933995e-016,
          1.93762317e-001, 2.20601708e-001, 5.43026738e-002,
          3.82267952e-001, -1.33045554e-001, -8.53734314e-002,
          -2.93779731e-001, 2.26149540e-002, -3.87815446e-001,
          7.64661282e-003, 1.27223983e-001, -1.19129367e-001,
          -9.15933995e-016, -9.15933995e-016, -9.15933995e-016,
          -9.15933995e-016, 2.02012360e-001, -2.88421303e-001,
          -4.17435840e-002, -2.24832878e-001, 5.03102392e-002,
          -8.62985551e-002, -2.60288358e-001, 2.47024879e-001,
          -1.34682178e-001, -4.04516272e-002, -2.58120477e-001,
          -1.56561539e-001, -9.15933995e-016, -9.15933995e-016,
          -9.15933995e-016, -9.15933995e-016, -8.65614936e-002,
          -3.27809989e-001, 2.01069444e-001, 1.08621813e-001,
          -6.84607103e-002, 2.17809781e-001, 3.07906777e-001,
          -5.87054230e-002, -1.83682535e-002, 6.06218837e-002,
          -2.40670398e-001, -1.39368072e-001, -9.15933995e-016,
          -9.15933995e-016, -9.15933995e-016, -2.25059986e-001,
          -3.07740271e-001, -7.67690539e-001, -3.51282090e-001,
          4.75924611e-001, 1.50852561e-001, 2.08847523e-001,
          1.80551782e-001, 3.17508318e-002, -1.30115494e-001,
          -1.73537210e-001, 1.45223271e-002, -2.24004999e-001,
          -9.15933995e-016, -9.15933995e-016, -9.15933995e-016,
          -9.15933995e-016, -9.15933995e-016, -9.15933995e-016,
          -9.15933995e-016, -9.15933995e-016, -9.15933995e-016,
          -9.15933995e-016, -9.15933995e-016, -9.15933995e-016,
          -9.15933995e-016, -9.15933995e-016, -9.15933995e-016,
          -9.15933995e-016, -9.15933995e-016, -9.15933995e-016,
          -9.15933995e-016, -9.15933995e-016, -9.15933995e-016,
          -9.15933995e-016, -9.15933995e-016, -9.15933995e-016,
          -9.15933995e-016, -9.15933995e-016, -9.15933995e-016,
          -9.15933995e-016, -9.15933995e-016, -9.15933995e-016,
          -9.15933995e-016, -9.15933995e-016, -9.15933995e-016,
          -9.15933995e-016 ]
      - [ 2.03309591e-015, 2.03309591e-015, 2.03309591e-015,
          2.03309591e-015, 2.03309591e-015, 2.03309591e-015,
          2.03309591e-015, 2.03309591e-015, 2.03309591e-015,
          2.03309591e-015, 2.03309591e-015, 2.03309591e-015,
          2.03309591e-015, 2.03309591e-015, 2.03309591e-015,
          2.03309591e-015, 2.03309591e-015, 2.03309591e-015,
          2.03309591e-015, 2.03309591e-015, 2.03309591e-015,
          2.03309591e-015, 2.03309591e-015, 2.03309591e-015,
          2.03309591e-015, 2.03309591e-015, 2.03309591e-015,
          2.03309591e-015, 2.03309591e-015, 2.03309591e-015,
          2.03309591e-015, 2.03309591e-015, 2.03309591e-015,
          2.03309591e-015, 1.50600880e-001, 2.32258067e-001,
          8.89361799e-002, -9.00505781e-002, 6.74718171e-002,
          2.90912569e-001, 2.46026069e-001, 2.40779698e-001,
          1.39962941e-001, -8.99760649e-002, 3.74463536e-002,
          -2.81035174e-002, 2.03309591e-015, 2.03309591e-015,
          2.03309591e-015, 2.03309591e-015, 1.50600880e-001,
          4.25549418e-001, -1.04021817e-001, -2.85844468e-002,
          -1.04255438e-001, 2.13117108e-001, -2.20897898e-001,
          2.77914435e-001, -5.88086285e-002, 1.60135224e-001,
          1.92365676e-001, 2.97161043e-001, 1.42981419e-002,
          2.03309591e-015, 2.03309591e-015, 2.03309591e-015,
          1.03376150e-001, -6.33558929e-002, -1.43375183e-002,
          1.56317979e-001, 2.90215909e-001, -1.02390535e-001,
          2.27923974e-001, 1.42771885e-001, 2.19976544e-001,
          1.30836949e-001, 1.47678831e-003, -2.35073343e-002,
          5.69691621e-002, 2.03309591e-015, 2.03309591e-015,
          2.03309591e-015, -1.07593089e-001, -2.11454362e-001,
          -1.80924729e-001, -1.02336109e-001, 1.11786909e-001,
          -1.65381506e-001, 4.05970179e-002, -1.13557935e-001,
          1.37280077e-001, -8.75818729e-002, 1.60745993e-001,
          2.64912277e-001, 2.03309591e-015, 2.03309591e-015,
          2.03309591e-015, 2.03309591e-015, -1.48136914e-001,
          3.04992348e-002, 5.29430509e-002, 2.45978892e-001,
          7.17005730e-002, 3.40475067e-002, -1.53065577e-001,
          -6.78601712e-002, -4.35021035e-002, -8.62739086e-002,
          3.54074776e-001, 3.40590447e-001, 2.03309591e-015,
          2.03309591e-015, 2.03309591e-015, 2.03309591e-015,
          -2.69134939e-001, 4.37432714e-002, 1.44643605e-001,
          1.80908576e-001, 1.18789755e-001, -4.62721772e-002,
          -4.36369888e-002, -1.80395380e-001, 1.18387677e-001,
          3.19242179e-001, 1.55379847e-001, 1.11869499e-002,
          2.03309591e-015, 2.03309591e-015, 2.03309591e-015,
          2.03309591e-015, 6.28323108e-002, -3.50623042e-003,
          1.28980493e-002, -1.44259661e-001, -3.31722766e-001,
          -4.79815304e-001, -5.21873236e-002, -2.60282516e-001,
          -1.08474428e-002, -2.63735741e-001, 1.78163365e-001,
          7.51164705e-002, 2.03309591e-015, 2.03309591e-015,
          2.03309591e-015, 2.03309591e-015, -3.12123477e-001,
          2.10352629e-001, 1.17649049e-001, 7.27129579e-002,
          -1.86555922e-001, -8.61164853e-002, -2.55991250e-001,
          -9.98225063e-003, 5.16206250e-002, 1.78542450e-001,
          1.19599529e-001, -6.03817515e-002, 2.03309591e-015,
          2.03309591e-015, 2.03309591e-015, 2.03309591e-015,
          -3.17867994e-001, -1.69007957e-001, 7.16297305e-004,
          1.47875279e-001, 3.71885002e-002, -1.53025582e-001,
          -6.17428459e-002, -1.53407559e-001, 1.91158593e-001,
          -9.42030270e-003, 1.02420375e-002, -2.38892287e-002,
          2.03309591e-015, 2.03309591e-015, 2.03309591e-015,
          2.03309591e-015, 8.42234045e-002, -2.57057071e-001,
          -1.00774981e-001, -1.72512025e-001, 1.60311803e-001,
          5.09585366e-002, -1.62226349e-001, 2.41226479e-002,
          -1.86169222e-001, -3.01817596e-001, -1.34652808e-001,
          -8.86361077e-002, 2.03309591e-015, 2.03309591e-015,
          2.03309591e-015, 2.03309591e-015, 5.25978655e-002,
          -4.53566343e-001, -1.42920628e-001, -3.31301987e-002,
          1.75652713e-001, 1.41630575e-001, 3.58524561e-001,
          -3.78190517e-001, 3.51299569e-002, -7.74124935e-002,
          -3.42973918e-001, -3.05604696e-001, 2.03309591e-015,
          2.03309591e-015, 2.03309591e-015, -1.02007180e-001,
          -2.47133691e-002, -5.02765059e-001, 7.63536915e-002,
          7.26639777e-002, -4.42319140e-002, 1.70779392e-001,
          4.28468026e-002, -4.70377244e-002, -3.12453300e-001,
          -3.08863878e-001, -1.82816252e-001, -2.30133593e-001,
          2.03309591e-015, 2.03309591e-015, 2.03309591e-015,
          2.03309591e-015, 2.03309591e-015, 2.03309591e-015,
          2.03309591e-015, 2.03309591e-015, 2.03309591e-015,
          2.03309591e-015, 2.03309591e-015, 2.03309591e-015,
          2.03309591e-015, 2.03309591e-015, 2.03309591e-015,
          2.03309591e-015, 2.03309591e-015, 2.03309591e-015,
          2.03309591e-015, 2.03309591e-015, 2.03309591e-015,
          2.03309591e-015, 2.03309591e-015, 2.03309591e-015,
          2.03309591e-015, 2.03309591e-015, 2.03309591e-015,
          2.03309591e-015, 2.03309591e-015, 2.03309591e-015,
          2.03309591e-015, 2.03309591e-015, 2.03309591e-015,
          2.03309591e-015 ]
      - [ -8.74300632e-016, -8.74300632e-016, -8.74300632e-016,
          -8.74300632e-016, -8.74300632e-016, -8.74300632e-016,
          -8.74300632e-016, -8.74300632e-016, -8.74300632e-016,
          -8.74300632e-016, -8.74300632e-016, -8.74300632e-016,
          -8.74300632e-016, -8.74300632e-016, -8.74300632e-016,
          -8.74300632e-016, -8.74300632e-016, -8.74300632e-016,
          -8.74300632e-016, -8.74300632e-016, -8.74300632e-016,
          -8.74300632e-016, -8.74300632e-016, -8.74300632e-016,
          -8.74300632e-016, -8.74300632e-016, -8.74300632e-016,
          -8.74300632e-016, -8.74300632e-016, -8.74300632e-016,
          -8.74300632e-016, -8.74300632e-016, -8.74300632e-016,
          -8.74300632e-016, 1.43431634e-001, 3.94482464e-001,
          3.04852556e-002, -1.75548010e-002, 1.28991112e-001,
          2.91319519e-001, 4.77361456e-002, 1.09968305e-001,
          1.40722021e-001, 4.10048544e-001, 9.82107446e-002,
          2.87306994e-001, -8.74300632e-016, -8.74300632e-016,
          -8.74300632e-016, -8.74300632e-016, 1.31090522e-001,
          5.25019646e-001, -1.63707659e-001, -1.39515102e-001,
          1.22094773e-001, 4.82834578e-001, -1.73084125e-001,
          1.76047668e-001, -4.95657651e-003, 1.60233885e-001,
          2.02042133e-001, 1.85352504e-001, -8.74300632e-016,
          -8.74300632e-016, -8.74300632e-016, -8.74300632e-016,
          -8.74300632e-016, 2.32099742e-001, 3.28205496e-001,
          -6.53042924e-003, 2.46648341e-001, -1.82927310e-001,
          1.15695126e-001, 1.01433039e-001, -7.30557367e-003,
          2.87663788e-001, 2.62126088e-001, 3.59499902e-001,
          -8.74300632e-016, -8.74300632e-016, -8.74300632e-016,
          -8.74300632e-016, 3.24965380e-002, -9.90878418e-002,
          -6.41205907e-002, 7.88668636e-003, 9.63237882e-002,
          -1.63775191e-001, -1.74145415e-001, -2.53651887e-001,
          -1.92259416e-001, -2.22064257e-001, 2.58655250e-001,
          2.57414728e-001, -8.74300632e-016, -8.74300632e-016,
          -8.74300632e-016, -8.74300632e-016, 8.34403932e-002,
          -4.14912254e-002, -3.58104587e-001, 1.65193170e-001,
          -2.26004779e-001, -5.62910847e-002, -1.40334427e-001,
          -1.68560967e-002, 4.28091660e-002, -6.87512234e-002,
          5.23621030e-003, -1.44561544e-001, -8.74300632e-016,
          -8.74300632e-016, -8.74300632e-016, -8.74300632e-016,
          -3.33812973e-003, 5.85394725e-002, -8.80938768e-002,
          2.56617069e-001, 1.52801543e-001, 5.84859848e-002,
          6.42331019e-002, -2.21899454e-003, 1.07076742e-001,
          -2.88241357e-001, -2.13245794e-001, -1.77462697e-001,
          -8.74300632e-016, -8.74300632e-016, -8.74300632e-016,
          -8.74300632e-016, 2.12422740e-002, 3.57875340e-002,
          1.55531153e-001, -1.01953618e-001, 2.28285208e-001,
          -2.95704007e-001, 3.98432277e-002, -1.00395411e-001,
          -6.53274823e-003, -1.14584044e-001, -3.44853967e-001,
          -1.87840194e-001, -8.74300632e-016, -8.74300632e-016,
          -8.74300632e-016, -8.74300632e-016, -2.57616580e-001,
          1.05917454e-001, 6.44487068e-002, -1.41872376e-001,
          -9.83434021e-002, -1.22638427e-001, -4.50393021e-001,
          -1.55697837e-001, -7.78123289e-002, -2.54949093e-001,
          -1.47157937e-001, -6.69519156e-002, -8.74300632e-016,
          -8.74300632e-016, -8.74300632e-016, -8.74300632e-016,
          1.29113644e-001, -2.54578263e-001, 1.66660640e-002,
          1.28026363e-002, -1.61531016e-001, -2.94586897e-001,
          -2.28723198e-001, -2.19990849e-001, -1.52251258e-001,
          -6.67442605e-002, 1.45433560e-001, -8.77199844e-002,
          -8.74300632e-016, -8.74300632e-016, -8.74300632e-016,
          -8.74300632e-016, -2.85255071e-002, -2.15577826e-001,
          3.42968218e-002, -5.74506409e-002, 3.82594198e-001,
          -8.43686312e-002, -9.70058367e-002, -2.41213784e-001,
          9.87881571e-002, -1.12768672e-001, 1.45801648e-001,
          1.49287442e-002, -8.74300632e-016, -8.74300632e-016,
          -8.74300632e-016, -8.74300632e-016, 2.38239542e-001,
          -2.82233626e-001, -2.41513532e-002, 1.16354860e-001,
          -1.33306056e-001, -3.45347412e-002, 1.87838003e-001,
          -3.72675836e-001, -7.62397870e-002, -5.78217544e-002,
          -1.37389407e-001, -1.22047938e-001, -8.74300632e-016,
          -8.74300632e-016, -8.74300632e-016, -2.22921103e-001,
          -6.13011122e-002, -5.91762304e-001, -7.54952431e-002,
          5.55850379e-002, 9.04941112e-002, -2.04676375e-001,
          1.55119628e-001, 1.01374306e-001, 3.84398736e-002,
          -5.29942028e-002, -1.38281966e-002, -1.44395024e-001,
          -8.74300632e-016, -8.74300632e-016, -8.74300632e-016,
          -8.74300632e-016, -8.74300632e-016, -8.74300632e-016,
          -8.74300632e-016, -8.74300632e-016, -8.74300632e-016,
          -8.74300632e-016, -8.74300632e-016, -8.74300632e-016,
          -8.74300632e-016, -8.74300632e-016, -8.74300632e-016,
          -8.74300632e-016, -8.74300632e-016, -8.74300632e-016,
          -8.74300632e-016, -8.74300632e-016, -8.74300632e-016,
          -8.74300632e-016, -8.74300632e-016, -8.74300632e-016,
          -8.74300632e-016, -8.74300632e-016, -8.74300632e-016,
          -8.74300632e-016, -8.74300632e-016, -8.74300632e-016,
          -8.74300632e-016, -8.74300632e-016, -8.74300632e-016,
          -8.74300632e-016 ]
      - [ 1.09634524e-015, 1.09634524e-015, 1.09634524e-015,
          1.09634524e-015, 1.09634524e-015, 1.09634524e-015,
          1.09634524e-015, 1.09634524e-015, 1.09634524e-015,
          1.09634524e-015, 1.09634524e-015, 1.09634524e-015,
          1.09634524e-015, 1.09634524e-015, 1.09634524e-015,
          1.09634524e-015, 1.09634524e-015, 1.09634524e-015,
          1.09634524e-015, 1.09634524e-015, 1.09634524e-015,
          1.09634524e-015, 1.09634524e-015, 1.09634524e-015,
          1.09634524e-015, 1.09634524e-015, 1.09634524e-015,
          1.09634524e-015, 1.09634524e-015, 1.09634524e-015,
          1.09634524e-015, 1.09634524e-015, 1.09634524e-015,
          1.09634524e-015, 5.78128034e-003, 2.25304395e-001,
          -1.49300173e-001, -7.51220956e-002, 2.60682076e-001,
          4.26236778e-001, 4.85620424e-002, 9.91346613e-002,
          1.46710604e-001, 1.03108808e-001, 1.60435557e-001,
          3.22831154e-001, 1.09634524e-015, 1.09634524e-015,
          1.09634524e-015, 1.09634524e-015, 5.78128034e-003,
          3.07173103e-001, -2.85215616e-001, -7.38295317e-002,
          -5.80845866e-003, 6.12849891e-001, -3.21529835e-001,
          -1.73112135e-002, 6.84512854e-002, 2.56643981e-001,
          2.25919113e-001, 9.65555236e-002, 1.09634524e-015,
          1.09634524e-015, 1.09634524e-015, 1.09634524e-015,
          1.09634524e-015, 3.02757144e-001, 6.94582984e-002,
          5.81459999e-002, 3.72011095e-001, 1.88963935e-002,
          1.34363160e-001, 1.99346635e-002, 3.78672957e-001,
          -1.70661271e-001, 2.22413599e-001, 4.85315979e-001,
          1.09634524e-015, 1.09634524e-015, 1.09634524e-015,
          1.09634524e-015, 1.09634524e-015, 1.42138511e-001,
          -2.93989360e-001, 2.83275187e-001, 1.78823248e-003,
          9.47113559e-002, -8.26571975e-003, 1.54435173e-001,
          1.67982399e-001, -8.61015171e-002, 6.62600324e-002,
          2.85935760e-001, 1.09634524e-015, 1.09634524e-015,
          1.09634524e-015, 1.09634524e-015, -1.49296418e-001,
          -1.00062671e-003, -5.92451654e-002, 2.33815819e-001,
          4.04898003e-002, 1.22330263e-001, -2.64072180e-001,
          8.30103531e-002, -1.71146110e-001, 8.58260542e-002,
          1.16620563e-001, -1.90783069e-001, 1.09634524e-015,
          1.09634524e-015, 1.09634524e-015, 1.09634524e-015,
          1.09634524e-015, 1.54987341e-002, -7.70382676e-003,
          1.13856733e-001, 9.61882994e-002, 1.27496764e-001,
          9.03263092e-002, 1.88525587e-001, 8.79348814e-002,
          -1.15574466e-003, -2.22729251e-001, -1.90783069e-001,
          1.09634524e-015, 1.09634524e-015, 1.09634524e-015,
          1.09634524e-015, 1.09634524e-015, -9.30513665e-002,
          -1.98647141e-001, -1.84716314e-001, -1.33245289e-001,
          -7.76715800e-002, 2.66333520e-001, -9.65189934e-002,
          -2.52278820e-002, -1.92923963e-001, 7.71366432e-002,
          -1.38801903e-001, 1.09634524e-015, 1.09634524e-015,
          1.09634524e-015, 1.09634524e-015, -1.14761814e-001,
          -1.89845875e-001, 7.47605264e-002, -2.83368587e-001,
          -3.00170302e-001, -4.90003861e-002, -1.93910912e-001,
          -1.15554914e-001, -1.20294765e-001, 2.93608064e-005,
          -1.99374497e-001, -1.90783069e-001, 1.09634524e-015,
          1.09634524e-015, 1.09634524e-015, 1.09634524e-015,
          4.66811135e-002, -8.13444797e-003, 3.96465138e-002,
          -1.26496553e-001, -1.93868041e-001, -5.47084920e-002,
          -3.12424421e-001, -2.18431100e-001, -2.84237236e-001,
          -1.99492753e-001, 1.19562037e-002, -1.90783069e-001,
          1.09634524e-015, 1.09634524e-015, 1.09634524e-015,
          1.09634524e-015, -2.39654452e-001, -2.40870416e-001,
          3.21345061e-001, 1.43586144e-001, 1.96455091e-001,
          7.22177252e-002, -2.80763417e-001, -1.35911986e-001,
          -1.32505089e-001, -2.47004122e-001, -2.13764161e-001,
          -1.90783069e-001, 1.09634524e-015, 1.09634524e-015,
          1.09634524e-015, 1.09634524e-015, -1.28720090e-001,
          -2.70686060e-001, 4.16361988e-002, 1.96873069e-001,
          -5.70699535e-002, -2.87181169e-001, 1.94540113e-001,
          -3.97869706e-001, -2.38916695e-001, -9.83563885e-002,
          -3.78845245e-001, -1.90783069e-001, 1.09634524e-015,
          1.09634524e-015, 1.09634524e-015, -5.88862151e-002,
          -1.62907124e-001, -6.47696435e-001, -8.17134324e-003,
          -6.61660954e-002, -3.53677534e-002, -2.39921719e-001,
          -2.18628068e-002, -6.62371516e-001, -2.10814089e-001,
          -1.71588138e-001, -1.57523051e-001, -3.93505841e-001,
          1.09634524e-015, 1.09634524e-015, 1.09634524e-015,
          1.09634524e-015, 1.09634524e-015, 1.09634524e-015,
          1.09634524e-015, 1.09634524e-015, 1.09634524e-015,
          1.09634524e-015, 1.09634524e-015, 1.09634524e-015,
          1.09634524e-015, 1.09634524e-015, 1.09634524e-015,
          1.09634524e-015, 1.09634524e-015, 1.09634524e-015,
          1.09634524e-015, 1.09634524e-015, 1.09634524e-015,
          1.09634524e-015, 1.09634524e-015, 1.09634524e-015,
          1.09634524e-015, 1.09634524e-015, 1.09634524e-015,
          1.09634524e-015, 1.09634524e-015, 1.09634524e-015,
          1.09634524e-015, 1.09634524e-015, 1.09634524e-015,
          1.09634524e-015 ]
      - [ -3.40005801e-016, -3.40005801e-016, -3.40005801e-016,
          -3.40005801e-016, -3.40005801e-016, -3.40005801e-016,
          -3.40005801e-016, -3.40005801e-016, -3.40005801e-016,
          -3.40005801e-016, -3.40005801e-016, -3.40005801e-016,
          -3.40005801e-016, -3.40005801e-016, -3.40005801e-016,
          -3.40005801e-016, -3.40005801e-016, -3.40005801e-016,
          -3.40005801e-016, -3.40005801e-016, -3.40005801e-016,
          -3.40005801e-016, -3.40005801e-016, -3.40005801e-016,
          -3.40005801e-016, -3.40005801e-016, -3.40005801e-016,
          -3.40005801e-016, -3.40005801e-016, -3.40005801e-016,
          -3.40005801e-016, -3.40005801e-016, -3.40005801e-016,
          -3.40005801e-016, -3.40005801e-016, -3.40005801e-016,
          -1.68128103e-001, -4.04483199e-001, 7.85621107e-002,
          1.91012353e-001, 1.77017733e-001, 3.30804437e-001,
          1.00609057e-001, 2.68761724e-001, 1.78765282e-001,
          2.30739638e-002, -3.40005801e-016, -3.40005801e-016,
          -3.40005801e-016, -3.40005801e-016, -3.40005801e-016,
          8.79081413e-002, -2.21612319e-001, -8.89789015e-002,
          -1.43178076e-001, 4.67691481e-001, -7.81383961e-002,
          4.26757544e-001, 3.03504556e-001, -3.37418951e-002,
          2.55993903e-001, 2.71741539e-001, -3.40005801e-016,
          -3.40005801e-016, -3.40005801e-016, -3.40005801e-016,
          1.32208318e-001, -1.13045871e-001, 1.67356670e-001,
          4.62586358e-002, 1.33988664e-001, -5.79387359e-002,
          6.03856444e-002, 7.43606538e-002, 1.12813279e-001,
          1.08905666e-001, -1.43951565e-001, 1.48057699e-001,
          -3.40005801e-016, -3.40005801e-016, -3.40005801e-016,
          -3.40005801e-016, 8.03644359e-002, -1.20746456e-001,
          9.05194655e-002, -6.17790446e-002, 9.02385488e-002,
          -4.44856465e-001, -2.80156434e-001, -1.18304886e-001,
          6.19227067e-002, -1.31336465e-001, -2.99099386e-001,
          5.98636530e-002, -3.40005801e-016, -3.40005801e-016,
          -3.40005801e-016, -3.40005801e-016, 2.52736986e-001,
          -1.60266444e-001, -9.72292572e-002, 2.54990667e-001,
          -1.49317691e-002, -5.45984413e-003, -5.17157793e-001,
          -2.01902583e-001, -4.27045971e-001, -3.81752074e-001,
          -4.45002280e-002, -6.42179400e-002, -3.40005801e-016,
          -3.40005801e-016, -3.40005801e-016, -3.40005801e-016,
          1.03767961e-001, 3.19625527e-001, 3.96384209e-001,
          4.19616789e-001, 1.02620022e-002, 3.42694521e-002,
          -3.64882909e-002, -5.34660399e-001, -2.86136985e-001,
          -5.61481761e-003, 9.27952379e-002, 3.98934856e-002,
          -3.40005801e-016, -3.40005801e-016, -3.40005801e-016,
          -3.40005801e-016, 2.98435658e-001, 2.23858118e-001,
          6.51521161e-002, -6.85156435e-002, -2.10618168e-001,
          -3.94116640e-001, 7.47158229e-002, 1.84927836e-001,
          3.81190814e-002, -5.53803332e-002, 3.65699798e-001,
          1.80287124e-003, -3.40005801e-016, -3.40005801e-016,
          -3.40005801e-016, -3.40005801e-016, 6.86493069e-002,
          1.56802878e-001, 5.78548796e-002, -1.08041942e-001,
          1.96076687e-002, -1.53449938e-001, -2.35949885e-002,
          4.69068080e-001, 2.53159199e-002, -9.62966159e-002,
          8.20959657e-002, -3.77144963e-002, -3.40005801e-016,
          -3.40005801e-016, -3.40005801e-016, -3.40005801e-016,
          7.04768300e-002, -3.31688792e-001, -9.41164512e-003,
          5.30584790e-002, 2.03484073e-002, -1.24365307e-001,
          -3.37350033e-002, 1.04456998e-001, 1.19184591e-002,
          1.44475743e-001, -3.49661335e-002, -8.79049376e-002,
          -3.40005801e-016, -3.40005801e-016, -3.40005801e-016,
          -3.40005801e-016, -5.40738627e-002, -8.26093778e-002,
          -5.60441101e-003, -9.91150290e-002, 8.65460560e-003,
          2.09339380e-001, -9.36201066e-002, -1.04699098e-002,
          -7.76779279e-002, -3.11339825e-001, -4.92853262e-002,
          -4.38992567e-002, -3.40005801e-016, -3.40005801e-016,
          -3.40005801e-016, -3.40005801e-016, -2.51122326e-001,
          -1.13577351e-001, 1.62908230e-002, -9.63113904e-002,
          1.89465731e-001, 1.55790672e-001, 2.70490527e-001,
          -1.58455670e-001, -8.65466613e-003, 6.52911961e-002,
          -2.45916635e-001, -3.17379571e-002, -3.40005801e-016,
          -3.40005801e-016, -3.40005801e-016, -2.48876661e-001,
          -4.29588944e-001, -6.61060572e-001, -1.50492579e-001,
          1.98871851e-001, 4.12168264e-001, -5.31239994e-002,
          1.87628224e-001, -2.51830854e-002, 1.18714944e-001,
          3.34652551e-002, -4.77566756e-002, -1.27323598e-001,
          -3.40005801e-016, -3.40005801e-016, -3.40005801e-016,
          -3.40005801e-016, -3.40005801e-016, -3.40005801e-016,
          -3.40005801e-016, -3.40005801e-016, -3.40005801e-016,
          -3.40005801e-016, -3.40005801e-016, -3.40005801e-016,
          -3.40005801e-016, -3.40005801e-016, -3.40005801e-016,
          -3.40005801e-016, -3.40005801e-016, -3.40005801e-016,
          -3.40005801e-016, -3.40005801e-016, -3.40005801e-016,
          -3.40005801e-016, -3.40005801e-016, -3.40005801e-016,
          -3.40005801e-016, -3.40005801e-016, -3.40005801e-016,
          -3.40005801e-016, -3.40005801e-016, -3.40005801e-016,
          -3.40005801e-016, -3.40005801e-016, -3.40005801e-016,
          -3.40005801e-016 ]
      - [ 8.04911693e-016, 8.04911693e-016, 8.04911693e-016,
          8.04911693e-016, 8.04911693e-016, 8.04911693e-016,
          8.04911693e-016, 8.04911693e-016, 8.04911693e-016,
          8.04911693e-016, 8.04911693e-016, 8.04911693e-016,
          8.04911693e-016, 8.04911693e-016, 8.04911693e-016,
          8.04911693e-016, 8.04911693e-016, 8.04911693e-016,
          8.04911693e-016, 8.04911693e-016, 8.04911693e-016,
          8.04911693e-016, 8.04911693e-016, 8.04911693e-016,
          8.04911693e-016, 8.04911693e-016, 8.04911693e-016,
          8.04911693e-016, 8.04911693e-016, 8.04911693e-016,
          8.04911693e-016, 8.04911693e-016, 8.04911693e-016,
          8.04911693e-016, 1.78401455e-001, 3.85883838e-001,
          1.19155698e-001, 5.70892878e-002, -1.39020875e-001,
          1.30471319e-001, 4.33921218e-002, 2.85851657e-001,
          5.13436161e-002, -2.01381266e-001, 3.86825830e-001,
          6.99255317e-002, 8.04911693e-016, 8.04911693e-016,
          8.04911693e-016, 8.04911693e-016, 1.25651821e-001,
          4.76908028e-001, 1.59580797e-001, -7.31349215e-002,
          2.08341569e-001, 2.25121453e-001, -8.18988830e-002,
          3.08965165e-002, 1.67109057e-001, 5.41689247e-002,
          4.20985669e-001, 7.82764927e-002, 8.04911693e-016,
          8.04911693e-016, 8.04911693e-016, 8.04911693e-016,
          1.68422356e-001, 1.31481081e-001, -7.64431953e-002,
          4.14991118e-002, 2.47120634e-001, 4.10021283e-003,
          1.75791383e-001, -8.73353492e-005, -1.45729348e-001,
          7.77519494e-002, -1.19238950e-001, 1.67563140e-001,
          8.04911693e-016, 8.04911693e-016, 8.04911693e-016,
          8.04911693e-016, 1.69616386e-001, -4.42923829e-002,
          1.88671332e-002, 1.19428122e-002, -7.00679198e-002,
          -1.93729758e-001, -1.68133318e-001, -6.48501664e-002,
          1.41751289e-001, 5.79463504e-002, 1.94595531e-001,
          1.94497496e-001, 8.04911693e-016, 8.04911693e-016,
          8.04911693e-016, 8.04911693e-016, 1.30883157e-001,
          -1.66772515e-001, 1.06387727e-001, 1.39556244e-001,
          1.29201904e-001, 2.31160745e-001, -7.91660473e-002,
          -1.94773570e-001, 1.32393856e-002, -3.82544361e-002,
          2.16174543e-001, -4.54500541e-002, 8.04911693e-016,
          8.04911693e-016, 8.04911693e-016, 8.04911693e-016,
          -2.69365236e-002, -9.41660851e-002, 9.01370589e-003,
          8.57713819e-002, 1.93309546e-001, 1.48661494e-001,
          2.42625400e-001, 1.89601868e-001, 9.00217518e-003,
          -6.27994314e-002, -7.34407902e-002, -2.33340040e-001,
          8.04911693e-016, 8.04911693e-016, 8.04911693e-016,
          8.04911693e-016, 9.77514312e-002, -3.29782180e-002,
          5.85471792e-003, 1.32726744e-001, -1.11237206e-002,
          -1.55069113e-001, -8.30808803e-002, 6.94622621e-002,
          3.16845402e-002, 1.07512191e-001, 1.17102906e-001,
          9.72193480e-002, 8.04911693e-016, 8.04911693e-016,
          8.04911693e-016, 8.04911693e-016, -2.47846514e-001,
          -1.45770594e-001, 1.54753000e-001, -1.42677814e-001,
          -5.27213514e-002, -3.58376890e-001, -2.18866482e-001,
          -1.77079830e-002, -9.53910351e-002, -2.29995981e-001,
          1.54985487e-001, -2.54717559e-001, 8.04911693e-016,
          8.04911693e-016, 8.04911693e-016, 8.04911693e-016,
          -2.20862642e-001, -1.48877174e-001, -7.83783719e-002,
          -3.49337310e-002, -1.01192586e-001, -1.68737903e-001,
          -1.29643783e-001, 2.13742312e-002, 1.20858446e-001,
          -2.38725588e-001, 2.96860561e-002, -9.91544649e-002,
          8.04911693e-016, 8.04911693e-016, 8.04911693e-016,
          8.04911693e-016, -9.20197442e-002, -2.56846070e-001,
          -4.59753461e-002, -1.46141201e-001, 1.50181055e-001,
          7.84112364e-002, -1.64942384e-001, -9.40742046e-002,
          -5.14295464e-003, -9.38800722e-002, -2.32177421e-001,
          1.66439940e-003, 8.04911693e-016, 8.04911693e-016,
          8.04911693e-016, 8.04911693e-016, -3.94432068e-001,
          -4.21921879e-001, -9.85840335e-002, -1.02668069e-001,
          -1.68886453e-001, 3.62057611e-002, 3.81585769e-002,
          -1.86713949e-001, -9.97444335e-003, 2.26734895e-002,
          -9.63281021e-002, -1.10812262e-001, 8.04911693e-016,
          8.04911693e-016, 8.04911693e-016, -2.35066980e-001,
          -6.54541925e-002, -5.00376582e-001, -1.47085756e-001,
          -5.12302592e-002, 4.33941633e-002, -5.37152588e-003,
          3.43326805e-003, -1.33671537e-001, 1.17687164e-002,
          5.30062094e-002, 3.00422702e-002, -9.64405313e-002,
          8.04911693e-016, 8.04911693e-016, 8.04911693e-016,
          8.04911693e-016, 8.04911693e-016, 8.04911693e-016,
          8.04911693e-016, 8.04911693e-016, 8.04911693e-016,
          8.04911693e-016, 8.04911693e-016, 8.04911693e-016,
          8.04911693e-016, 8.04911693e-016, 8.04911693e-016,
          8.04911693e-016, 8.04911693e-016, 8.04911693e-016,
          8.04911693e-016, 8.04911693e-016, 8.04911693e-016,
          8.04911693e-016, 8.04911693e-016, 8.04911693e-016,
          8.04911693e-016, 8.04911693e-016, 8.04911693e-016,
          8.04911693e-016, 8.04911693e-016, 8.04911693e-016,
          8.04911693e-016, 8.04911693e-016, 8.04911693e-016,
          8.04911693e-016 ]
      - [ 3.20576898e-015, 3.20576898e-015, 3.20576898e-015,
          3.20576898e-015, 3.20576898e-015, 3.20576898e-015,
          3.20576898e-015, 3.20576898e-015, 3.20576898e-015,
          3.20576898e-015, 3.20576898e-015, 3.20576898e-015,
          3.20576898e-015, 3.20576898e-015, 3.20576898e-015,
          3.20576898e-015, 3.20576898e-015, 3.20576898e-015,
          3.20576898e-015, 3.20576898e-015, 3.20576898e-015,
          3.20576898e-015, 3.20576898e-015, 3.20576898e-015,
          3.20576898e-015, 3.20576898e-015, 3.20576898e-015,
          3.20576898e-015, 3.20576898e-015, 3.20576898e-015,
          3.20576898e-015, 3.20576898e-015, 3.20576898e-015,
          3.20576898e-015, 1.68884009e-001, 1.94697425e-001,
          7.25218430e-002, 1.89808041e-001, 3.44859630e-001,
          3.22735429e-001, -1.17100328e-002, 1.16446897e-001,
          2.93983608e-001, -1.27767786e-001, 6.70415342e-001,
          2.72600293e-001, 3.20576898e-015, 3.20576898e-015,
          3.20576898e-015, 3.20576898e-015, 3.20576898e-015,
          3.20576898e-015, 1.24920696e-001, 1.68799475e-001,
          -1.76747255e-002, 4.59517568e-001, 6.87167654e-003,
          6.53088540e-002, -1.75047442e-001, 2.24049300e-001,
          2.83902168e-001, 2.11573556e-001, 3.20576898e-015,
          3.20576898e-015, 3.20576898e-015, 3.20576898e-015,
          3.20576898e-015, -1.34023264e-001, 1.41295418e-001,
          4.84145992e-002, 1.99611351e-001, -1.00260362e-001,
          3.69639158e-001, 2.92199224e-001, 5.46835482e-001,
          2.77446449e-001, 1.36035219e-001, -2.26098076e-001,
          3.20576898e-015, 3.20576898e-015, 3.20576898e-015,
          3.20576898e-015, 1.02791630e-001, -2.99987048e-001,
          -2.44975872e-002, -2.01542433e-002, 1.51744550e-002,
          2.28686184e-001, 7.29376301e-002, 2.27185696e-001,
          2.20560312e-001, -3.00048385e-002, 3.92920732e-001,
          -1.85937405e-001, 3.20576898e-015, 3.20576898e-015,
          3.20576898e-015, 3.20576898e-015, 1.44194523e-002,
          -2.65567780e-001, -1.01437159e-001, -7.90006518e-002,
          3.48691195e-002, -4.61687967e-002, 2.60855723e-002,
          1.33234084e-001, -8.15983303e-003, -5.69069274e-002,
          -8.49368572e-002, -9.28298756e-002, 3.20576898e-015,
          3.20576898e-015, 3.20576898e-015, 3.20576898e-015,
          1.02791630e-001, -1.78133100e-001, -3.11112523e-001,
          2.76928157e-001, 2.68189043e-001, 4.71403673e-002,
          -1.63903698e-001, 1.23415150e-001, -7.57624879e-002,
          -4.80579212e-002, -3.07667971e-001, -1.51173338e-001,
          3.20576898e-015, 3.20576898e-015, 3.20576898e-015,
          3.20576898e-015, 3.20576898e-015, 7.24387094e-002,
          -4.98497449e-002, -3.11023928e-002, -1.14246495e-001,
          9.60760377e-003, 5.04494347e-002, 8.87634605e-002,
          -2.75889069e-001, -4.79477584e-001, -3.13466758e-001,
          -1.75003707e-001, 3.20576898e-015, 3.20576898e-015,
          3.20576898e-015, 3.20576898e-015, -1.14059553e-003,
          -3.44379723e-001, -5.77148385e-002, -3.15474987e-001,
          -3.97169590e-001, 4.96660359e-002, 6.98927492e-002,
          -1.91652790e-001, -2.29226232e-001, 1.28962487e-001,
          -2.85805911e-001, -1.98461726e-001, 3.20576898e-015,
          3.20576898e-015, 3.20576898e-015, 3.20576898e-015,
          1.84376851e-001, -4.20213699e-001, -1.77404180e-001,
          -7.04540536e-002, -1.68703318e-001, -3.34976725e-002,
          -2.28566408e-001, -2.15376750e-001, -7.65072107e-002,
          -1.31432161e-001, -2.53160596e-001, -1.87778994e-001,
          3.20576898e-015, 3.20576898e-015, 3.20576898e-015,
          3.20576898e-015, -3.13014179e-001, -5.28531969e-001,
          1.70054217e-003, -2.21223664e-002, 1.34101987e-001,
          1.32281095e-001, -2.06424609e-001, -1.51998401e-001,
          -3.90692413e-001, -7.23463744e-002, -3.00691485e-001,
          -1.87778994e-001, 3.20576898e-015, 3.20576898e-015,
          3.20576898e-015, 3.20576898e-015, -2.31704727e-001,
          -2.77195722e-001, -1.10308439e-001, 3.25374722e-001,
          2.56285518e-002, -3.37700136e-002, 1.86937556e-001,
          -2.49447837e-001, -1.41350299e-001, -1.39966652e-001,
          -1.92869589e-001, -2.34525561e-001, 3.20576898e-015,
          3.20576898e-015, 3.20576898e-015, -1.84998691e-001,
          -3.13930154e-001, -7.01640427e-001, 5.59637137e-003,
          -1.01291746e-001, 2.67252952e-001, -1.05229683e-001,
          -6.76083714e-002, -4.51036215e-001, -2.00163171e-001,
          -2.12925598e-001, 6.14034943e-002, -1.88949816e-002,
          3.20576898e-015, 3.20576898e-015, 3.20576898e-015,
          3.20576898e-015, 3.20576898e-015, 3.20576898e-015,
          3.20576898e-015, 3.20576898e-015, 3.20576898e-015,
          3.20576898e-015, 3.20576898e-015, 3.20576898e-015,
          3.20576898e-015, 3.20576898e-015, 3.20576898e-015,
          3.20576898e-015, 3.20576898e-015, 3.20576898e-015,
          3.20576898e-015, 3.20576898e-015, 3.20576898e-015,
          3.20576898e-015, 3.20576898e-015, 3.20576898e-015,
          3.20576898e-015, 3.20576898e-015, 3.20576898e-015,
          3.20576898e-015, 3.20576898e-015, 3.20576898e-015,
          3.20576898e-015, 3.20576898e-015, 3.20576898e-015,
          3.20576898e-015 ]
      - [ 2.13717932e-015, 2.13717932e-015, 2.13717932e-015,
          2.13717932e-015, 2.13717932e-015, 2.13717932e-015,
          2.13717932e-015, 2.13717932e-015, 2.13717932e-015,
          2.13717932e-015, 2.13717932e-015, 2.13717932e-015,
          2.13717932e-015, 2.13717932e-015, 2.13717932e-015,
          2.13717932e-015, 2.13717932e-015, 2.13717932e-015,
          2.13717932e-015, 2.13717932e-015, 2.13717932e-015,
          2.13717932e-015, 2.13717932e-015, 2.13717932e-015,
          2.13717932e-015, 2.13717932e-015, 2.13717932e-015,
          2.13717932e-015, 2.13717932e-015, 2.13717932e-015,
          2.13717932e-015, 2.13717932e-015, 2.13717932e-015,
          2.13717932e-015, 2.13717932e-015, 2.13717932e-015,
          1.38779387e-001, 1.07617982e-001, 3.05980116e-001,
          4.41185743e-001, 2.67312974e-001, 1.90200210e-001,
          1.92291707e-001, -2.35713288e-001, 1.48942694e-001,
          5.21618985e-002, 2.13717932e-015, 2.13717932e-015,
          2.13717932e-015, 2.13717932e-015, 2.13717932e-015,
          2.13717932e-015, -2.38835514e-001, 3.41638923e-002,
          3.15953821e-001, 2.52594173e-001, -3.96909043e-002,
          2.87121683e-001, 1.45461500e-001, 2.22456589e-001,
          1.96996227e-001, -8.62371549e-003, 2.13717932e-015,
          2.13717932e-015, 2.13717932e-015, 2.13717932e-015,
          2.13717932e-015, -1.32244155e-001, -1.32428423e-001,
          1.19881351e-002, -1.22406051e-001, 3.52762789e-002,
          2.76118219e-002, -1.23115391e-001, -1.81294121e-002,
          -1.00568021e-002, -1.03008961e-002, -2.63306290e-001,
          2.13717932e-015, 2.13717932e-015, 2.13717932e-015,
          2.13717932e-015, 2.13717932e-015, -2.31122330e-001,
          -3.96870375e-002, -8.87529328e-002, -1.72029570e-001,
          -1.45246521e-001, 1.55604137e-002, -1.18168846e-001,
          7.09570944e-002, 9.82577726e-002, 6.96747974e-002,
          -5.35330474e-002, 2.13717932e-015, 2.13717932e-015,
          2.13717932e-015, 2.13717932e-015, -5.47650121e-002,
          -7.12827146e-002, 5.57526052e-002, 8.38592555e-003,
          -9.87545848e-002, -2.26074517e-001, -2.32827067e-001,
          7.02541042e-003, 1.45566821e-001, 5.31583391e-002,
          1.63945511e-001, -6.44442961e-002, 2.13717932e-015,
          2.13717932e-015, 2.13717932e-015, 2.13717932e-015,
          -5.23508713e-002, -1.51093453e-001, -1.48668392e-002,
          -1.99572384e-001, 3.42585966e-002, -7.12515563e-002,
          -8.05573761e-002, -2.71597654e-002, -8.37614015e-002,
          6.27480522e-002, -1.66340783e-001, -1.00535631e-001,
          2.13717932e-015, 2.13717932e-015, 2.13717932e-015,
          2.13717932e-015, -1.31390411e-002, -3.18507135e-001,
          6.33765534e-002, -2.56406702e-002, -1.97166577e-001,
          -6.07699715e-002, 2.37536415e-001, 1.70534611e-001,
          6.23628646e-002, -3.13090861e-001, -2.23622229e-002,
          -8.73965919e-002, 2.13717932e-015, 2.13717932e-015,
          2.13717932e-015, 2.13717932e-015, 2.56191064e-002,
          -1.79306224e-001, 1.99484825e-001, -2.51212776e-001,
          -8.75181332e-002, -9.25660878e-002, -1.87651396e-001,
          -1.15470000e-001, -1.69251949e-001, -2.71018613e-002,
          1.13741480e-001, -7.42575452e-002, 2.13717932e-015,
          2.13717932e-015, 2.13717932e-015, 2.13717932e-015,
          1.93464011e-001, -1.25903711e-001, 1.52508635e-002,
          1.13789001e-002, -1.71622857e-001, -8.41286704e-002,
          -1.07372768e-001, -2.05926448e-001, -8.41905773e-002,
          -4.06604446e-003, 5.63824289e-002, -4.81847636e-002,
          2.13717932e-015, 2.13717932e-015, 2.13717932e-015,
          4.64121364e-002, 1.08378030e-001, -2.90804893e-001,
          -1.33356959e-001, 8.89923871e-002, 3.14583927e-002,
          1.05353564e-001, -1.58011094e-002, -5.81184328e-002,
          2.03629266e-002, 2.81625916e-003, -2.65872121e-001,
          -1.56206302e-002, 2.13717932e-015, 2.13717932e-015,
          2.13717932e-015, 9.18855220e-002, -2.16463301e-002,
          -3.61101553e-002, 1.57670364e-001, 9.58394036e-002,
          5.05800284e-002, 1.03210900e-002, 2.24352792e-001,
          -7.40101859e-002, 4.53431606e-002, -1.49690971e-001,
          -6.57213390e-001, -1.91679940e-001, 2.13717932e-015,
          2.13717932e-015, 1.47103637e-001, 1.94763839e-002,
          8.50465521e-003, -2.31778771e-001, 1.26623511e-001,
          8.36617723e-002, 1.23516724e-001, -6.84666336e-002,
          -1.07644245e-001, -2.64847368e-001, -2.92751193e-001,
          -5.42034328e-001, -3.52797151e-001, -2.85318643e-001,
          2.13717932e-015, 2.13717932e-015, 2.13717932e-015,
          2.13717932e-015, 2.13717932e-015, 2.13717932e-015,
          2.13717932e-015, 2.13717932e-015, 2.13717932e-015,
          2.13717932e-015, 2.13717932e-015, 2.13717932e-015,
          2.13717932e-015, 2.13717932e-015, 2.13717932e-015,
          2.13717932e-015, 2.13717932e-015, 2.13717932e-015,
          2.13717932e-015, 2.13717932e-015, 2.13717932e-015,
          2.13717932e-015, 2.13717932e-015, 2.13717932e-015,
          2.13717932e-015, 2.13717932e-015, 2.13717932e-015,
          2.13717932e-015, 2.13717932e-015, 2.13717932e-015,
          2.13717932e-015, 2.13717932e-015, 2.13717932e-015,
          2.13717932e-015 ]
      - [ 5.68989300e-016, 5.68989300e-016, 5.68989300e-016,
          5.68989300e-016, 5.68989300e-016, 5.68989300e-016,
          5.68989300e-016, 5.68989300e-016, 5.68989300e-016,
          5.68989300e-016, 5.68989300e-016, 5.68989300e-016,
          5.68989300e-016, 5.68989300e-016, 5.68989300e-016,
          5.68989300e-016, 5.68989300e-016, 5.68989300e-016,
          5.68989300e-016, 5.68989300e-016, 5.68989300e-016,
          5.68989300e-016, 5.68989300e-016, 5.68989300e-016,
          5.68989300e-016, 5.68989300e-016, 5.68989300e-016,
          5.68989300e-016, 5.68989300e-016, 5.68989300e-016,
          5.68989300e-016, 5.68989300e-016, 5.68989300e-016,
          5.68989300e-016, -1.48169443e-001, -1.83825269e-001,
          -2.42976800e-001, -2.74933815e-001, -2.21318230e-001,
          -1.17228040e-002, 3.40443283e-001, 1.28155984e-002,
          2.05841482e-001, 6.57712594e-002, 1.15476467e-001,
          1.20619215e-001, 5.68989300e-016, 5.68989300e-016,
          5.68989300e-016, 5.68989300e-016, -1.48169443e-001,
          -2.00604666e-002, -1.50995657e-001, -4.99275476e-002,
          -2.09480569e-001, -3.13305855e-002, -1.02331918e-002,
          3.14385504e-001, 2.09318608e-001, -1.91969812e-001,
          4.86851344e-003, -5.69012836e-002, 5.68989300e-016,
          5.68989300e-016, 5.68989300e-016, 5.68989300e-016,
          1.88823879e-001, -1.22157767e-001, -1.14471614e-001,
          -2.08535656e-001, -1.51933402e-001, -1.68852299e-001,
          -3.06785083e-003, -9.42651555e-002, 1.22950315e-001,
          2.00268254e-001, 1.79483324e-001, -1.92729443e-001,
          5.68989300e-016, 5.68989300e-016, 5.68989300e-016,
          5.68989300e-016, -1.28620610e-001, 6.96490258e-002,
          3.09898816e-002, 1.24027729e-001, 9.35083851e-002,
          3.15722637e-002, 1.88250288e-001, 4.10233773e-002,
          7.03189522e-002, 1.05297595e-001, -4.80557159e-002,
          -5.13011925e-002, 5.68989300e-016, 5.68989300e-016,
          5.68989300e-016, 5.68989300e-016, 2.16817021e-001,
          2.12803513e-001, 1.43003657e-001, 1.55109882e-001,
          9.90340635e-002, 1.79075733e-001, -3.31180871e-001,
          -5.49699068e-002, -1.94417447e-001, -5.99140264e-002,
          -2.69923210e-001, -6.90001994e-002, 5.68989300e-016,
          5.68989300e-016, 5.68989300e-016, 5.68989300e-016,
          -8.91145412e-003, 9.02827382e-002, 8.18868205e-002,
          7.87255615e-002, 6.74447566e-002, -4.21600968e-001,
          -4.27322775e-001, -2.37566486e-001, -1.39871478e-001,
          -3.71297956e-001, -9.65577513e-002, 5.89225255e-002,
          5.68989300e-016, 5.68989300e-016, 5.68989300e-016,
          5.68989300e-016, 7.39347860e-002, 1.00500062e-001,
          3.21682334e-001, -5.48774283e-003, -9.05963555e-002,
          -6.36884809e-001, 1.13369964e-001, -4.60631281e-001,
          -4.95931357e-001, -3.64432186e-001, 1.10290147e-001,
          -1.43508404e-001, 5.68989300e-016, 5.68989300e-016,
          5.68989300e-016, 5.68989300e-016, 2.44553059e-001,
          1.81268260e-001, 2.70833373e-001, -1.20657548e-001,
          -3.17551084e-002, -1.17447540e-001, -3.48547567e-003,
          -4.56605524e-001, -4.29161221e-001, -2.18232483e-001,
          -1.62684947e-001, -2.20767751e-001, 5.68989300e-016,
          5.68989300e-016, 5.68989300e-016, 5.68989300e-016,
          1.59525365e-001, 2.93902427e-001, 2.43775606e-001,
          3.95162582e-001, 3.47789943e-001, 1.50186449e-001,
          6.49216445e-003, -6.98479116e-002, -1.36515766e-001,
          -2.30207756e-001, 4.35384251e-002, -1.35784090e-001,
          5.68989300e-016, 5.68989300e-016, 5.68989300e-016,
          5.68989300e-016, 2.16535464e-001, 1.88816637e-001,
          -5.65502644e-002, -1.65844992e-001, 1.62152871e-001,
          3.43777351e-002, 9.66055319e-002, 1.89893723e-001,
          1.46976098e-001, 1.39983401e-001, -2.73014605e-001,
          -4.92315963e-002, 5.68989300e-016, 5.68989300e-016,
          5.68989300e-016, 5.68989300e-016, -1.92649946e-001,
          -1.22634999e-001, 3.16798501e-002, -3.42785977e-002,
          -5.26334830e-002, 2.61166185e-001, 1.38136014e-001,
          4.55231545e-003, 4.76124026e-002, -1.67293530e-002,
          -7.77795166e-002, 5.68989300e-016, 5.68989300e-016,
          5.68989300e-016, 5.68989300e-016, 5.68989300e-016,
          -2.37754807e-001, -3.04399103e-001, -1.63985237e-001,
          -8.43773484e-002, 4.05211896e-002, 4.26653385e-001,
          9.00510792e-003, 1.24714389e-001, 6.33696541e-002,
          -1.09618381e-002, 3.31481211e-002, 5.68989300e-016,
          5.68989300e-016, 5.68989300e-016, 5.68989300e-016,
          5.68989300e-016, 5.68989300e-016, 5.68989300e-016,
          5.68989300e-016, 5.68989300e-016, 5.68989300e-016,
          5.68989300e-016, 5.68989300e-016, 5.68989300e-016,
          5.68989300e-016, 5.68989300e-016, 5.68989300e-016,
          5.68989300e-016, 5.68989300e-016, 5.68989300e-016,
          5.68989300e-016, 5.68989300e-016, 5.68989300e-016,
          5.68989300e-016, 5.68989300e-016, 5.68989300e-016,
          5.68989300e-016, 5.68989300e-016, 5.68989300e-016,
          5.68989300e-016, 5.68989300e-016, 5.68989300e-016,
          5.68989300e-016, 5.68989300e-016, 5.68989300e-016,
          5.68989300e-016 ]
      - [ 4.78783679e-016, 4.78783679e-016, 4.78783679e-016,
          4.78783679e-016, 4.78783679e-016, 4.78783679e-016,
          4.78783679e-016, 4.78783679e-016, 4.78783679e-016,
          4.78783679e-016, 4.78783679e-016, 4.78783679e-016,
          4.78783679e-016, 4.78783679e-016, 4.78783679e-016,
          4.78783679e-016, 4.78783679e-016, 4.78783679e-016,
          4.78783679e-016, 4.78783679e-016, 4.78783679e-016,
          4.78783679e-016, 4.78783679e-016, 4.78783679e-016,
          4.78783679e-016, 4.78783679e-016, 4.78783679e-016,
          4.78783679e-016, 4.78783679e-016, 4.78783679e-016,
          4.78783679e-016, 4.78783679e-016, 4.78783679e-016,
          4.78783679e-016, -7.22503737e-002, -1.15356006e-001,
          6.41082302e-002, 9.66301262e-002, -9.64336246e-002,
          5.79971597e-002, 2.58354336e-001, 1.00583375e-001,
          -4.86332737e-002, -1.78078845e-001, -9.86433122e-003,
          4.78783679e-016, 4.78783679e-016, 4.78783679e-016,
          4.78783679e-016, 4.78783679e-016, 8.42030421e-002,
          -6.21700622e-002, -6.10919409e-002, 1.46887871e-002,
          -1.70393661e-001, 8.33657160e-002, 4.61475737e-002,
          2.56127883e-002, 1.42731026e-001, 3.48275416e-002,
          -2.81461682e-002, -4.26898785e-002, 4.78783679e-016,
          4.78783679e-016, 4.78783679e-016, 4.78783679e-016,
          -8.44160188e-003, -6.44500852e-002, 2.28107478e-002,
          -1.16251439e-001, -7.68573210e-002, -7.80540407e-002,
          -1.12786658e-001, 1.47617564e-001, -9.75773036e-002,
          -3.98068689e-002, -6.81518987e-002, -2.76757956e-001,
          4.78783679e-016, 4.78783679e-016, 4.78783679e-016,
          4.78783679e-016, -7.82608539e-002, 2.60763671e-002,
          -5.12579344e-002, 1.50023058e-001, -7.75725469e-002,
          -1.69433299e-002, 1.33542627e-001, 1.09767340e-001,
          1.84268311e-001, 1.55301675e-001, 2.15631686e-002,
          -6.32982850e-002, 4.78783679e-016, 4.78783679e-016,
          4.78783679e-016, 4.78783679e-016, -7.82608539e-002,
          2.32117921e-002, -8.84280875e-002, -4.61129993e-002,
          4.13030796e-002, 1.32325903e-001, -1.57183990e-001,
          -9.98588651e-002, 4.72394191e-002, -2.20941976e-002,
          7.22446386e-003, 3.25643092e-001, 4.78783679e-016,
          4.78783679e-016, 4.78783679e-016, 4.78783679e-016,
          -5.19517921e-002, -1.15954921e-001, 8.81139487e-002,
          -1.79114297e-001, -9.75526571e-002, -1.53440505e-001,
          -2.70934582e-001, -6.37947768e-002, 1.80683166e-001,
          1.88180923e-001, 2.57898390e-001, 5.70603073e-001,
          4.78783679e-016, 4.78783679e-016, 4.78783679e-016,
          4.78783679e-016, -1.03874646e-001, 1.02614515e-001,
          2.90104628e-001, -8.38602185e-002, -4.82043214e-002,
          -5.01005463e-002, 6.94060102e-002, -1.28759637e-001,
          -7.26620555e-002, -1.08343966e-001, 1.36950687e-001,
          2.82077760e-001, 4.78783679e-016, 4.78783679e-016,
          4.78783679e-016, 4.78783679e-016, -2.35405713e-002,
          1.93328969e-002, 6.20212331e-002, 5.24880886e-002,
          -5.30165732e-002, 3.65205645e-003, -1.19493045e-001,
          1.53222069e-001, 1.24640629e-001, 4.02282141e-002,
          -1.95680767e-001, -1.03499725e-001, 4.78783679e-016,
          4.78783679e-016, 4.78783679e-016, 4.78783679e-016,
          -2.34135762e-001, 5.72637729e-002, -1.24962879e-002,
          1.81198180e-001, 3.67887706e-001, 1.82195500e-001,
          1.85644671e-001, 1.55476462e-002, 8.41830950e-003,
          -1.00649586e-002, -1.27502665e-001, -3.56378585e-001,
          4.78783679e-016, 4.78783679e-016, 4.78783679e-016,
          4.78783679e-016, -5.98245971e-002, -2.90599912e-002,
          -4.70075849e-003, -9.61317420e-002, 1.63402930e-001,
          1.80537686e-001, -1.80223864e-002, 4.14513089e-002,
          -1.05273217e-001, -1.55396253e-001, -2.86567926e-001,
          -4.71855402e-002, 4.78783679e-016, 4.78783679e-016,
          4.78783679e-016, 4.78783679e-016, 9.49073136e-002,
          4.57042642e-002, 2.38756925e-001, 4.21048179e-002,
          1.48992658e-001, 1.42846098e-002, 6.79463744e-002,
          1.90764412e-001, 3.59891690e-002, 5.29479375e-003,
          -2.32241333e-001, 4.78783679e-016, 4.78783679e-016,
          4.78783679e-016, 4.78783679e-016, 4.78783679e-016,
          -9.37502384e-002, 5.77081479e-002, -4.90957163e-002,
          9.45583433e-002, 6.13444708e-002, 2.13823980e-003,
          -4.87299412e-002, 7.79642314e-002, -7.19780922e-002,
          -1.90432414e-001, 4.78783679e-016, 4.78783679e-016,
          4.78783679e-016, 4.78783679e-016, 4.78783679e-016,
          4.78783679e-016, 4.78783679e-016, 4.78783679e-016,
          4.78783679e-016, 4.78783679e-016, 4.78783679e-016,
          4.78783679e-016, 4.78783679e-016, 4.78783679e-016,
          4.78783679e-016, 4.78783679e-016, 4.78783679e-016,
          4.78783679e-016, 4.78783679e-016, 4.78783679e-016,
          4.78783679e-016, 4.78783679e-016, 4.78783679e-016,
          4.78783679e-016, 4.78783679e-016, 4.78783679e-016,
          4.78783679e-016, 4.78783679e-016, 4.78783679e-016,
          4.78783679e-016, 4.78783679e-016, 4.78783679e-016,
          4.78783679e-016, 4.78783679e-016, 4.78783679e-016,
          4.78783679e-016 ]
      - [ -1.76247905e-015, -1.76247905e-015, -1.76247905e-015,
          -1.76247905e-015, -1.76247905e-015, -1.76247905e-015,
          -1.76247905e-015, -1.76247905e-015, -1.76247905e-015,
          -1.76247905e-015, -1.76247905e-015, -1.76247905e-015,
          -1.76247905e-015, -1.76247905e-015, -1.76247905e-015,
          -1.76247905e-015, -1.76247905e-015, -1.76247905e-015,
          -1.76247905e-015, -1.76247905e-015, -1.76247905e-015,
          -1.76247905e-015, -1.76247905e-015, -1.76247905e-015,
          -1.76247905e-015, -1.76247905e-015, -1.76247905e-015,
          -1.76247905e-015, -1.76247905e-015, -1.76247905e-015,
          -1.76247905e-015, -1.76247905e-015, -1.76247905e-015,
          -1.76247905e-015, 4.89199087e-002, 1.18049592e-001,
          3.22430804e-002, -8.36874545e-002, -1.75047725e-001,
          -5.41894659e-002, 6.81143105e-002, -8.34062099e-002,
          2.93653887e-002, 3.17196488e-001, -5.76432608e-002,
          1.61004290e-001, -1.76247905e-015, -1.76247905e-015,
          -1.76247905e-015, -1.76247905e-015, 1.16436984e-002,
          8.92039984e-002, 6.16013892e-002, 3.83789279e-002,
          -1.49183616e-001, 1.69178098e-002, 5.04774526e-002,
          1.68847874e-001, -1.74081270e-002, -9.06826630e-002,
          -5.15811294e-002, 2.30379775e-001, -1.76247905e-015,
          -1.76247905e-015, -1.76247905e-015, -1.76247905e-015,
          -3.71917151e-002, -1.09393530e-001, -3.19613367e-002,
          3.10442527e-003, -1.99982841e-002, -2.03015685e-001,
          1.15364298e-001, 2.37226859e-002, -3.74144241e-002,
          1.38288513e-001, 1.51578411e-001, 8.04973766e-002,
          -1.76247905e-015, -1.76247905e-015, -1.76247905e-015,
          -1.76247905e-015, -1.10699840e-001, -3.33175004e-001,
          -3.20548527e-002, 1.41375661e-001, 1.71545044e-001,
          1.77649677e-001, 6.99920254e-003, -2.55824290e-002,
          -1.69756874e-001, -8.68986547e-002, -8.67799856e-003,
          -9.42602307e-002, -1.76247905e-015, -1.76247905e-015,
          -1.76247905e-015, -1.76247905e-015, 5.93978725e-002,
          -8.74969363e-003, -1.82597056e-001, 7.18060359e-002,
          5.67234457e-002, 1.17309526e-001, 6.06675632e-002,
          1.53348650e-004, -5.43486886e-002, -3.46924156e-001,
          -3.09754670e-001, -4.42287654e-001, -1.76247905e-015,
          -1.76247905e-015, -1.76247905e-015, -1.76247905e-015,
          -1.38155064e-002, -1.82521090e-001, 2.39603892e-002,
          -1.01964017e-002, 2.30872005e-001, -8.51861089e-002,
          -3.49780358e-002, 1.97491378e-001, 1.25767425e-001,
          1.54789180e-001, -3.47785391e-002, -7.20990747e-002,
          -1.76247905e-015, -1.76247905e-015, -1.76247905e-015,
          -1.76247905e-015, 3.65716666e-002, 1.18233211e-001,
          6.71108216e-002, -5.80767505e-002, 5.72025105e-002,
          8.28134865e-002, 3.42730522e-001, -9.56241861e-002,
          -2.66612411e-001, -1.93555191e-001, -5.58727741e-001,
          -9.36238617e-002, -1.76247905e-015, -1.76247905e-015,
          -1.76247905e-015, -1.76247905e-015, 1.41075507e-001,
          1.26401976e-001, 7.96963722e-002, -1.83091275e-002,
          5.86062372e-002, -9.20762569e-002, 2.58210097e-002,
          -2.77907312e-001, -1.81275994e-001, -3.29839289e-001,
          -4.82629538e-001, 8.77008121e-003, -1.76247905e-015,
          -1.76247905e-015, -1.76247905e-015, -1.76247905e-015,
          5.64191230e-002, -1.88084561e-002, 2.05597989e-002,
          2.10574299e-001, 4.46941368e-002, 1.23839565e-001,
          -6.48295283e-002, -2.19435573e-001, -1.68815747e-001,
          -1.88814893e-001, -8.17688480e-002, -9.47148278e-002,
          -1.76247905e-015, -1.76247905e-015, -1.76247905e-015,
          -1.76247905e-015, 2.71886382e-002, 2.81237185e-001,
          1.94622040e-001, 1.83224995e-002, 3.10174346e-001,
          1.73814431e-001, 1.78449247e-002, 1.35985523e-001,
          1.75161362e-001, -6.73769861e-002, -3.97388078e-002,
          1.80146933e-001, -1.76247905e-015, -1.76247905e-015,
          -1.76247905e-015, -1.76247905e-015, 1.39885753e-001,
          7.36738220e-002, 1.92638040e-001, 5.59415333e-002,
          -2.10498214e-001, -9.87617671e-003, 7.23184869e-002,
          -6.37160894e-003, 2.23564599e-002, 1.35367081e-001,
          1.79037571e-001, 1.04052223e-001, -1.76247905e-015,
          -1.76247905e-015, -1.76247905e-015, -1.76247905e-015,
          -9.61061791e-002, -5.23454435e-002, -2.40940750e-001,
          5.59128495e-003, -7.93816447e-002, 1.24841206e-001,
          3.28060128e-002, 3.84576656e-002, 1.49822652e-001,
          1.87202960e-001, 4.42748457e-001, 1.19404249e-001,
          -1.76247905e-015, -1.76247905e-015, -1.76247905e-015,
          -1.76247905e-015, -1.76247905e-015, -1.76247905e-015,
          -1.76247905e-015, -1.76247905e-015, -1.76247905e-015,
          -1.76247905e-015, -1.76247905e-015, -1.76247905e-015,
          -1.76247905e-015, -1.76247905e-015, -1.76247905e-015,
          -1.76247905e-015, -1.76247905e-015, -1.76247905e-015,
          -1.76247905e-015, -1.76247905e-015, -1.76247905e-015,
          -1.76247905e-015, -1.76247905e-015, -1.76247905e-015,
          -1.76247905e-015, -1.76247905e-015, -1.76247905e-015,
          -1.76247905e-015, -1.76247905e-015, -1.76247905e-015,
          -1.76247905e-015, -1.76247905e-015, -1.76247905e-015,
          -1.76247905e-015 ]
      - [ 1.72084569e-015, 1.72084569e-015, 1.72084569e-015,
          1.72084569e-015, 1.72084569e-015, 1.72084569e-015,
          1.72084569e-015, 1.72084569e-015, 1.72084569e-015,
          1.72084569e-015, 1.72084569e-015, 1.72084569e-015,
          1.72084569e-015, 1.72084569e-015, 1.72084569e-015,
          1.72084569e-015, 1.72084569e-015, 1.72084569e-015,
          1.72084569e-015, 1.72084569e-015, 1.72084569e-015,
          1.72084569e-015, 1.72084569e-015, 1.72084569e-015,
          1.72084569e-015, 1.72084569e-015, 1.72084569e-015,
          1.72084569e-015, 1.72084569e-015, 1.72084569e-015,
          1.72084569e-015, 1.72084569e-015, 1.72084569e-015,
          1.72084569e-015, 3.24910469e-002, 8.59853253e-002,
          1.66321933e-001, 1.90624654e-001, 1.89456046e-001,
          1.48383826e-001, -8.43302310e-002, -3.78826976e-001,
          1.46592692e-001, 9.03476179e-002, 2.61973202e-001,
          5.30586243e-001, 1.72084569e-015, 1.72084569e-015,
          1.72084569e-015, 1.72084569e-015, -1.63784306e-002,
          1.37200207e-001, 3.06824148e-001, 9.34341773e-002,
          -1.85722426e-001, -2.00398359e-002, -1.16619885e-001,
          -7.51846237e-004, 3.66662219e-002, 1.13905914e-001,
          1.80877477e-001, 1.44773558e-001, 1.72084569e-015,
          1.72084569e-015, 1.72084569e-015, 1.72084569e-015,
          -1.08357430e-001, -1.19164018e-002, -2.06111282e-001,
          -4.42328751e-002, 9.39302295e-002, 1.04294501e-001,
          9.71703418e-003, 7.84795880e-002, 1.38249442e-001,
          -2.34072104e-001, 2.38823920e-001, -1.20022200e-001,
          1.72084569e-015, 1.72084569e-015, 1.72084569e-015,
          1.72084569e-015, -7.64823928e-002, -1.72030821e-001,
          6.02525994e-002, 3.32564920e-001, -1.09319381e-001,
          1.06665209e-001, 4.08953242e-002, 2.73759067e-001,
          4.00734209e-002, -1.69428125e-001, -2.35251382e-001,
          4.05145511e-002, 1.72084569e-015, 1.72084569e-015,
          1.72084569e-015, 1.72084569e-015, -4.43563685e-002,
          -1.21915944e-001, 1.66053176e-002, 3.69767994e-001,
          1.37475813e-002, 4.42926632e-003, -3.08577158e-003,
          5.32022975e-002, -6.71802387e-002, -1.82087138e-001,
          -3.66628468e-001, -3.86480093e-001, 1.72084569e-015,
          1.72084569e-015, 1.72084569e-015, 1.72084569e-015,
          -4.43563685e-002, -1.64176613e-001, 4.42462927e-003,
          -2.26999819e-001, 9.48610902e-002, 8.02923888e-002,
          -2.96746880e-001, 1.56350538e-001, 4.34428900e-002,
          -1.09345987e-002, -5.14038876e-002, -4.68908437e-002,
          1.72084569e-015, 1.72084569e-015, 1.72084569e-015,
          1.72084569e-015, -1.52336761e-001, -1.57386228e-001,
          -4.93546784e-001, -1.75352678e-001, -2.28544563e-001,
          -1.04674056e-001, 4.74549770e-001, -6.88461438e-002,
          3.02593631e-004, 9.91323031e-003, -1.34802610e-001,
          -1.27084763e-003, 1.72084569e-015, 1.72084569e-015,
          1.72084569e-015, 1.72084569e-015, 1.11722283e-001,
          -2.03806072e-001, -1.70152232e-001, -2.87582934e-001,
          -4.30039652e-002, -2.80036598e-001, -1.06583700e-001,
          -1.11221455e-001, -3.49505693e-001, -5.51237501e-002,
          -5.03132939e-001, -9.71017405e-002, 1.72084569e-015,
          1.72084569e-015, 1.72084569e-015, 1.72084569e-015,
          -2.99984906e-002, 3.03684384e-001, 2.42201835e-001,
          2.02449769e-001, 2.07218036e-001, 4.52599108e-001,
          -1.11882277e-001, -3.89789730e-001, -3.57503504e-001,
          -5.34782648e-001, -1.04357250e-001, -1.56671405e-001,
          1.72084569e-015, 1.72084569e-015, 1.72084569e-015,
          1.72084569e-015, -2.51834035e-001, 2.95738846e-001,
          7.22171888e-002, -3.18054743e-002, -4.83216494e-002,
          -7.65860304e-002, -1.93463653e-001, -3.62641603e-001,
          -1.32049829e-001, -1.43223211e-001, -4.06183712e-002,
          -3.38313766e-002, 1.72084569e-015, 1.72084569e-015,
          1.72084569e-015, 1.72084569e-015, -2.81268239e-001,
          8.79191458e-002, 7.81990122e-003, 1.31095886e-001,
          1.78037882e-002, -1.78321630e-001, -3.22213806e-002,
          -4.50123012e-001, -2.28549734e-001, -1.86029393e-002,
          -1.76286578e-001, 1.72084569e-015, 1.72084569e-015,
          1.72084569e-015, 1.72084569e-015, 1.72084569e-015,
          -6.72046915e-002, 6.24331869e-002, 1.36805952e-001,
          -7.47613981e-002, -2.13856742e-001, -2.82681733e-001,
          -3.00410360e-001, -6.54433012e-001, -2.66481668e-001,
          -1.76286578e-001, 1.72084569e-015, 1.72084569e-015,
          1.72084569e-015, 1.72084569e-015, 1.72084569e-015,
          1.72084569e-015, 1.72084569e-015, 1.72084569e-015,
          1.72084569e-015, 1.72084569e-015, 1.72084569e-015,
          1.72084569e-015, 1.72084569e-015, 1.72084569e-015,
          1.72084569e-015, 1.72084569e-015, 1.72084569e-015,
          1.72084569e-015, 1.72084569e-015, 1.72084569e-015,
          1.72084569e-015, 1.72084569e-015, 1.72084569e-015,
          1.72084569e-015, 1.72084569e-015, 1.72084569e-015,
          1.72084569e-015, 1.72084569e-015, 1.72084569e-015,
          1.72084569e-015, 1.72084569e-015, 1.72084569e-015,
          1.72084569e-015, 1.72084569e-015, 1.72084569e-015,
          1.72084569e-015 ]
      - [ -2.49800181e-016, -2.49800181e-016, -2.49800181e-016,
          -2.49800181e-016, -2.49800181e-016, -2.49800181e-016,
          -2.49800181e-016, -2.49800181e-016, -2.49800181e-016,
          -2.49800181e-016, -2.49800181e-016, -2.49800181e-016,
          -2.49800181e-016, -2.49800181e-016, -2.49800181e-016,
          -2.49800181e-016, -2.49800181e-016, -2.49800181e-016,
          -2.49800181e-016, -2.49800181e-016, -2.49800181e-016,
          -2.49800181e-016, -2.49800181e-016, -2.49800181e-016,
          -2.49800181e-016, -2.49800181e-016, -2.49800181e-016,
          -2.49800181e-016, -2.49800181e-016, -2.49800181e-016,
          -2.49800181e-016, -2.49800181e-016, -2.49800181e-016,
          -2.49800181e-016, -4.39816304e-002, -4.39816304e-002,
          -3.53870809e-001, -4.46634889e-001, -1.89574078e-001,
          -5.05549610e-002, 1.61720455e-001, 5.93101233e-002,
          2.32436031e-001, 2.05365524e-001, 7.05898628e-002,
          -8.87165894e-004, -2.49800181e-016, -2.49800181e-016,
          -2.49800181e-016, -2.49800181e-016, -4.39816304e-002,
          -1.16194636e-001, -6.40857592e-002, -2.83581372e-002,
          -3.19814645e-002, 8.92754644e-002, 1.92216054e-001,
          9.42517072e-002, 3.95155549e-002, 1.23743728e-001,
          -6.08371347e-002, 1.53831482e-001, -2.49800181e-016,
          -2.49800181e-016, -2.49800181e-016, -2.49800181e-016,
          -6.13903366e-002, 1.22348584e-001, -9.62011740e-002,
          -6.11808933e-002, -3.26893851e-002, 4.06704582e-002,
          2.50058174e-001, 1.19936876e-001, -1.01363854e-002,
          -6.58305362e-002, 6.06690086e-002, -5.31127453e-001,
          -2.49800181e-016, -2.49800181e-016, -2.49800181e-016,
          -2.49800181e-016, 4.33719754e-002, -2.70664811e-001,
          2.29157686e-001, 2.35448003e-001, 2.56064255e-002,
          -2.13611871e-001, -4.85293008e-003, 9.25510451e-002,
          2.15618536e-001, -2.09836096e-001, -1.40607312e-001,
          -1.72387376e-001, -2.49800181e-016, -2.49800181e-016,
          -2.49800181e-016, -2.49800181e-016, 1.21734254e-001,
          4.35426943e-002, 3.07357293e-002, 7.85352662e-002,
          6.42043054e-002, 8.94642472e-002, -5.69575012e-001,
          -1.63038939e-001, -3.72871220e-001, -2.93505967e-001,
          -2.15163991e-001, -2.84304738e-001, -2.49800181e-016,
          -2.49800181e-016, -2.49800181e-016, -2.49800181e-016,
          9.00693014e-002, 1.95687428e-001, 2.03635514e-001,
          1.69224352e-001, 1.38252586e-001, -2.38556534e-001,
          -3.01382869e-001, -9.64849293e-002, -3.16100746e-001,
          2.88774669e-002, 1.07046910e-001, 9.25134122e-002,
          -2.49800181e-016, -2.49800181e-016, -2.49800181e-016,
          -2.49800181e-016, 1.25569969e-001, 1.09442413e-001,
          4.76097167e-001, -1.16682183e-002, -3.06999326e-001,
          -3.54363173e-001, 1.04425021e-001, -7.04275146e-002,
          2.08091557e-001, -6.23339154e-002, 3.61126103e-002,
          2.57643640e-001, -2.49800181e-016, -2.49800181e-016,
          -2.49800181e-016, -2.49800181e-016, 3.55159611e-001,
          9.35911834e-002, -6.46231398e-002, -1.36600375e-001,
          1.86050773e-001, -7.30017051e-002, 1.09482951e-001,
          3.19743305e-001, -9.10347141e-003, -5.32804653e-002,
          -1.64711207e-001, -1.51397975e-003, -2.49800181e-016,
          -2.49800181e-016, -2.49800181e-016, -2.49800181e-016,
          1.67513024e-002, 6.48437068e-002, 2.13731572e-001,
          9.41948965e-002, 7.50753582e-002, 7.63236657e-002,
          3.92161608e-001, 1.02478676e-001, -1.61992937e-001,
          7.05144554e-002, -1.92161947e-001, -1.23979285e-001,
          -2.49800181e-016, -2.49800181e-016, -2.49800181e-016,
          -2.49800181e-016, 2.95096219e-001, 1.09164380e-001,
          -1.15842901e-001, 6.47617728e-002, -1.65136606e-002,
          3.14052224e-001, -3.66662182e-002, -8.97932518e-003,
          2.90293396e-002, -6.52773380e-002, -9.45885852e-002,
          5.28807528e-002, -2.49800181e-016, -2.49800181e-016,
          -2.49800181e-016, -2.49800181e-016, -1.40916631e-001,
          1.04129249e-002, -6.17675856e-002, -4.11902294e-002,
          2.08457876e-002, -1.91764813e-002, 1.13891065e-001,
          1.57176808e-001, -8.61634985e-002, 2.58180559e-001,
          -3.71653885e-002, 9.54468325e-002, -2.49800181e-016,
          -2.49800181e-016, -2.49800181e-016, -2.49800181e-016,
          -3.73657048e-001, -2.07281541e-002, -4.09138620e-001,
          -9.88964066e-002, 6.48569018e-002, 1.81869850e-001,
          8.63418076e-003, 3.35814320e-002, 9.63635650e-003,
          4.13683146e-001, 1.86230823e-001, 8.30143541e-002,
          -2.49800181e-016, -2.49800181e-016, -2.49800181e-016,
          -2.49800181e-016, -2.49800181e-016, -2.49800181e-016,
          -2.49800181e-016, -2.49800181e-016, -2.49800181e-016,
          -2.49800181e-016, -2.49800181e-016, -2.49800181e-016,
          -2.49800181e-016, -2.49800181e-016, -2.49800181e-016,
          -2.49800181e-016, -2.49800181e-016, -2.49800181e-016,
          -2.49800181e-016, -2.49800181e-016, -2.49800181e-016,
          -2.49800181e-016, -2.49800181e-016, -2.49800181e-016,
          -2.49800181e-016, -2.49800181e-016, -2.49800181e-016,
          -2.49800181e-016, -2.49800181e-016, -2.49800181e-016,
          -2.49800181e-016, -2.49800181e-016, -2.49800181e-016,
          -2.49800181e-016 ]
      - [ -1.05471187e-015, -1.05471187e-015, -1.05471187e-015,
          -1.05471187e-015, -1.05471187e-015, -1.05471187e-015,
          -1.05471187e-015, -1.05471187e-015, -1.05471187e-015,
          -1.05471187e-015, -1.05471187e-015, -1.05471187e-015,
          -1.05471187e-015, -1.05471187e-015, -1.05471187e-015,
          -1.05471187e-015, -1.05471187e-015, -1.05471187e-015,
          -1.05471187e-015, -1.05471187e-015, -1.05471187e-015,
          -1.05471187e-015, -1.05471187e-015, -1.05471187e-015,
          -1.05471187e-015, -1.05471187e-015, -1.05471187e-015,
          -1.05471187e-015, -1.05471187e-015, -1.05471187e-015,
          -1.05471187e-015, -1.05471187e-015, -1.05471187e-015,
          -1.05471187e-015, -1.42466119e-002, -1.52367517e-001,
          -2.60514200e-001, -9.94539335e-002, 3.83925624e-002,
          -1.01721017e-002, -1.57303080e-001, -5.33775836e-002,
          -2.56447904e-002, 2.26452917e-001, 2.49551609e-001,
          2.84254462e-001, -1.05471187e-015, -1.05471187e-015,
          -1.05471187e-015, -1.05471187e-015, 1.65425837e-001,
          4.04556841e-002, 1.76943213e-001, -5.12054674e-002,
          -1.16351455e-001, -2.48886451e-001, -1.61077417e-002,
          -6.53735697e-002, -2.71593910e-002, 2.47087553e-002,
          1.08434744e-001, 3.97639424e-002, -2.77299024e-002,
          -1.05471187e-015, -1.05471187e-015, -1.05471187e-015,
          1.02834471e-001, 8.88848528e-002, -4.15685512e-002,
          -4.30166833e-002, 8.33341703e-002, 1.20480210e-001,
          -1.26188517e-001, -1.14346243e-001, -1.06242467e-002,
          -1.08241566e-001, -1.11767486e-001, -2.57429570e-001,
          -1.05471187e-015, -1.05471187e-015, -1.05471187e-015,
          -1.05471187e-015, 4.57819849e-002, -1.49750374e-002,
          6.39831275e-002, 1.06058218e-001, -6.67884275e-002,
          -4.87134531e-002, 2.37789840e-001, 1.79511532e-001,
          8.40799958e-002, -1.03644989e-002, -2.08976105e-001,
          -3.07443470e-001, -1.05471187e-015, -1.05471187e-015,
          -1.05471187e-015, -1.05471187e-015, 8.52368101e-002,
          1.38359129e-001, -4.41872366e-002, 1.22677321e-002,
          3.21419798e-002, 4.20143381e-002, -1.78007432e-003,
          1.11411335e-002, -6.87344372e-003, 1.80819968e-003,
          -2.07930282e-002, -8.94089043e-002, -1.05471187e-015,
          -1.05471187e-015, -1.05471187e-015, -1.05471187e-015,
          5.65441661e-002, -7.09572434e-003, 1.05238415e-001,
          -4.92605083e-002, 1.01687863e-001, 6.15547448e-002,
          -1.24856636e-001, -2.07840074e-002, 1.69027671e-001,
          2.44772539e-001, 4.67316449e-001, 1.86395749e-001,
          -1.05471187e-015, -1.05471187e-015, -1.05471187e-015,
          -1.05471187e-015, 9.28148180e-002, 1.66917369e-002,
          3.77101414e-002, 5.37604131e-002, 3.46162878e-002,
          -2.22850963e-001, 7.11575672e-002, -2.98042805e-003,
          -4.86321226e-002, -5.44109680e-002, -2.63824034e-002,
          1.33451134e-001, -1.05471187e-015, -1.05471187e-015,
          -1.05471187e-015, -1.05471187e-015, 1.57619745e-001,
          1.52920643e-002, -8.65389928e-002, -9.83473733e-002,
          -7.96715319e-002, -7.10887015e-002, -4.91726436e-002,
          -6.18858263e-002, -1.31322846e-001, -5.15908264e-002,
          -2.87748188e-001, -2.55585879e-001, -1.05471187e-015,
          -1.05471187e-015, -1.05471187e-015, -1.05471187e-015,
          -9.47521999e-002, 2.95272559e-001, 1.31970227e-001,
          2.74962541e-002, 7.25999549e-002, -2.05073729e-002,
          1.99547112e-001, 8.02242607e-002, -1.28747761e-001,
          -1.19763605e-001, -2.11295247e-001, -3.48277330e-001,
          -1.05471187e-015, -1.05471187e-015, -1.05471187e-015,
          -1.05471187e-015, -6.09466061e-002, 1.59005281e-002,
          -1.65055618e-002, -1.01939000e-001, -6.92601269e-003,
          6.32889941e-002, 7.94486701e-002, -1.18634030e-001,
          6.45245761e-002, -7.98273236e-002, -1.75026447e-001,
          1.82557981e-002, -1.05471187e-015, -1.05471187e-015,
          -1.05471187e-015, -1.05471187e-015, -1.34630185e-002,
          4.51685935e-002, 5.87724820e-002, -1.11892179e-001,
          -1.42003730e-001, -1.05225034e-001, 2.14797053e-002,
          4.35190015e-002, 8.60161032e-004, 2.36518979e-002,
          1.32115871e-001, 2.99923778e-001, -1.05471187e-015,
          -1.05471187e-015, -1.05471187e-015, -1.39741246e-002,
          -6.33109882e-002, 4.21351269e-002, -2.79771119e-001,
          -1.27692642e-002, -2.05742605e-002, -1.06716424e-001,
          -7.33650401e-002, 2.23004096e-003, 2.40206897e-001,
          2.87139446e-001, 3.26042414e-001, 2.34427094e-001,
          -1.05471187e-015, -1.05471187e-015, -1.05471187e-015,
          -1.05471187e-015, -1.05471187e-015, -1.05471187e-015,
          -1.05471187e-015, -1.05471187e-015, -1.05471187e-015,
          -1.05471187e-015, -1.05471187e-015, -1.05471187e-015,
          -1.05471187e-015, -1.05471187e-015, -1.05471187e-015,
          -1.05471187e-015, -1.05471187e-015, -1.05471187e-015,
          -1.05471187e-015, -1.05471187e-015, -1.05471187e-015,
          -1.05471187e-015, -1.05471187e-015, -1.05471187e-015,
          -1.05471187e-015, -1.05471187e-015, -1.05471187e-015,
          -1.05471187e-015, -1.05471187e-015, -1.05471187e-015,
          -1.05471187e-015, -1.05471187e-015, -1.05471187e-015,
          -1.05471187e-015 ]
      - [ -4.30211422e-016, -4.30211422e-016, -4.30211422e-016,
          -4.30211422e-016, -4.30211422e-016, -4.30211422e-016,
          -4.30211422e-016, -4.30211422e-016, -4.30211422e-016,
          -4.30211422e-016, -4.30211422e-016, -4.30211422e-016,
          -4.30211422e-016, -4.30211422e-016, -4.30211422e-016,
          -4.30211422e-016, -4.30211422e-016, -4.30211422e-016,
          -4.30211422e-016, -4.30211422e-016, -4.30211422e-016,
          -4.30211422e-016, -4.30211422e-016, -4.30211422e-016,
          -4.30211422e-016, -4.30211422e-016, -4.30211422e-016,
          -4.30211422e-016, -4.30211422e-016, -4.30211422e-016,
          -4.30211422e-016, -4.30211422e-016, -4.30211422e-016,
          -4.30211422e-016, 1.03634903e-002, -5.87529764e-002,
          5.73787950e-002, 9.29381698e-002, 1.35280818e-001,
          -2.98525617e-002, 3.17838266e-002, -3.52099508e-001,
          4.05506879e-001, -1.28988653e-001, 1.59620836e-001,
          3.69389057e-001, -4.30211422e-016, -4.30211422e-016,
          -4.30211422e-016, -4.30211422e-016, -1.35829806e-001,
          -3.60147618e-002, 1.73842728e-001, 1.55791134e-001,
          9.66650844e-002, 9.91160795e-002, 9.66670215e-002,
          5.97016960e-002, -1.31015420e-001, 1.29809917e-003,
          1.38557166e-001, 2.74504304e-001, -4.30211422e-016,
          -4.30211422e-016, -4.30211422e-016, -4.30211422e-016,
          -7.50410035e-002, 4.30349112e-002, -6.39974847e-002,
          1.76545158e-001, -4.69015650e-002, 3.26322615e-002,
          8.08391646e-002, 2.93053836e-001, 2.66597003e-001,
          -1.22857854e-001, -1.10938162e-001, -4.54050571e-001,
          -4.30211422e-016, -4.30211422e-016, -4.30211422e-016,
          -4.30211422e-016, 8.83911252e-002, -1.93049148e-001,
          -1.32360041e-001, 3.58674750e-002, -3.56624871e-001,
          1.69078037e-001, 5.71266636e-002, 7.08223805e-002,
          -1.34962529e-001, -5.87894619e-002, -3.20581675e-001,
          -2.28852227e-001, -4.30211422e-016, -4.30211422e-016,
          -4.30211422e-016, -4.30211422e-016, 1.73233002e-001,
          1.09023325e-001, -2.98503488e-002, 1.55458137e-001,
          -2.96228696e-002, -9.93053541e-002, 2.33781144e-001,
          -2.65447050e-001, -1.98506877e-001, -1.67244509e-001,
          -2.44346689e-002, -1.00466788e-001, -4.30211422e-016,
          -4.30211422e-016, -4.30211422e-016, -4.30211422e-016,
          2.25738376e-001, 4.36714664e-002, 1.62834048e-001,
          -1.05357178e-001, 7.20013976e-002, -5.76595403e-002,
          -2.14327917e-001, 1.26365684e-002, 3.78606588e-001,
          1.45175889e-001, -9.62003469e-002, -3.73733602e-002,
          -4.30211422e-016, -4.30211422e-016, -4.30211422e-016,
          -4.30211422e-016, -1.02232374e-001, 2.12244794e-001,
          -8.49627107e-002, -1.30907550e-001, -1.00694112e-001,
          -1.30098537e-001, 3.74745607e-001, -3.51903215e-002,
          9.47907276e-004, -1.32168829e-001, -2.46875435e-001,
          -4.30211422e-016, -4.30211422e-016, -4.30211422e-016,
          -4.30211422e-016, -4.30211422e-016, 1.10777415e-001,
          -6.35188669e-002, -4.63648029e-002, -3.05196792e-001,
          -2.63838500e-001, -1.90149844e-001, -1.03357844e-002,
          -2.44729817e-001, -3.57041568e-001, -2.17173435e-002,
          -3.36342067e-001, -6.07888028e-002, -4.30211422e-016,
          -4.30211422e-016, -4.30211422e-016, -4.30211422e-016,
          -1.88704073e-001, -1.11419663e-001, 1.47431746e-001,
          9.55070928e-002, 2.01375932e-001, 1.57419145e-001,
          -5.69455735e-002, -3.50765139e-001, -2.80248880e-001,
          -2.03423575e-001, -1.96720138e-001, -7.82347172e-002,
          -4.30211422e-016, -4.30211422e-016, -4.30211422e-016,
          -4.30211422e-016, 4.35945578e-003, -3.01629491e-002,
          -1.91857472e-001, 6.11691549e-003, 5.53207695e-002,
          2.53072888e-001, 3.52150232e-001, -1.43919364e-001,
          -2.07826227e-001, -2.98062831e-001, -1.96720138e-001,
          -4.30211422e-016, -4.30211422e-016, -4.30211422e-016,
          -4.30211422e-016, -4.30211422e-016, -3.58244851e-002,
          8.69562924e-002, 3.97789955e-001, 4.48195264e-002,
          3.73193324e-002, -1.36182114e-001, 4.17857915e-002,
          6.88338205e-002, -8.89998302e-002, -3.96271616e-001,
          -1.57426536e-001, -4.30211422e-016, -4.30211422e-016,
          -4.30211422e-016, -4.30211422e-016, -4.30211422e-016,
          -1.85580984e-001, 6.96591847e-003, -7.65723810e-002,
          2.69753635e-001, 3.80853824e-002, -2.52993315e-001,
          -9.17674080e-002, -1.97476029e-001, 1.44196004e-001,
          -8.57273936e-002, 8.54044929e-002, 8.54044929e-002,
          -4.30211422e-016, -4.30211422e-016, -4.30211422e-016,
          -4.30211422e-016, -4.30211422e-016, -4.30211422e-016,
          -4.30211422e-016, -4.30211422e-016, -4.30211422e-016,
          -4.30211422e-016, -4.30211422e-016, -4.30211422e-016,
          -4.30211422e-016, -4.30211422e-016, -4.30211422e-016,
          -4.30211422e-016, -4.30211422e-016, -4.30211422e-016,
          -4.30211422e-016, -4.30211422e-016, -4.30211422e-016,
          -4.30211422e-016, -4.30211422e-016, -4.30211422e-016,
          -4.30211422e-016, -4.30211422e-016, -4.30211422e-016,
          -4.30211422e-016, -4.30211422e-016, -4.30211422e-016,
          -4.30211422e-016, -4.30211422e-016, -4.30211422e-016,
          -4.30211422e-016 ]
      - [ 5.13478149e-016, 5.13478149e-016, 5.13478149e-016,
          5.13478149e-016, 5.13478149e-016, 5.13478149e-016,
          5.13478149e-016, 5.13478149e-016, 5.13478149e-016,
          5.13478149e-016, 5.13478149e-016, 5.13478149e-016,
          5.13478149e-016, 5.13478149e-016, 5.13478149e-016,
          5.13478149e-016, 5.13478149e-016, 5.13478149e-016,
          5.13478149e-016, 5.13478149e-016, 5.13478149e-016,
          5.13478149e-016, 5.13478149e-016, 5.13478149e-016,
          5.13478149e-016, 5.13478149e-016, 5.13478149e-016,
          5.13478149e-016, 5.13478149e-016, 5.13478149e-016,
          5.13478149e-016, 5.13478149e-016, 5.13478149e-016,
          5.13478149e-016, -4.37212028e-002, -9.63227749e-002,
          -1.37293696e-001, 2.38511592e-001, 2.95358628e-001,
          1.06748559e-001, -1.03512235e-001, -1.72926769e-001,
          2.43833642e-002, 9.37744416e-003, 2.25552768e-001,
          -6.63304552e-002, 5.13478149e-016, 5.13478149e-016,
          5.13478149e-016, 5.13478149e-016, 5.13478149e-016,
          -8.14842619e-003, -2.13456526e-002, -1.41940683e-001,
          -3.77841806e-003, -1.04176842e-001, 7.79122189e-002,
          -2.03630120e-001, -2.27594241e-001, -4.97034453e-002,
          -1.24532253e-001, -1.88021511e-001, 5.13478149e-016,
          5.13478149e-016, 5.13478149e-016, 5.13478149e-016,
          5.13478149e-016, 1.85366422e-002, -7.74413198e-002,
          1.39699616e-002, -1.76610798e-001, -7.26887658e-002,
          4.47765924e-002, 3.67773101e-002, 2.22489461e-001,
          -8.77622142e-002, -1.08339734e-001, -4.26215261e-001,
          5.13478149e-016, 5.13478149e-016, 5.13478149e-016,
          5.13478149e-016, 5.13478149e-016, -2.42115244e-001,
          -1.07796118e-001, -4.16196734e-002, -4.18410420e-001,
          -1.98636144e-001, 3.99864838e-002, 2.70413101e-001,
          1.47289366e-001, -8.40078816e-002, -4.29857790e-001,
          -2.36015141e-001, 5.13478149e-016, 5.13478149e-016,
          5.13478149e-016, 5.13478149e-016, 5.13478149e-016,
          -1.90380976e-001, -5.94847575e-002, 2.38434039e-002,
          2.15092853e-001, -3.94048169e-003, -3.96442488e-002,
          -3.85209471e-002, 1.35637596e-002, -4.12830561e-002,
          5.02531826e-002, -2.46686395e-002, 5.13478149e-016,
          5.13478149e-016, 5.13478149e-016, 5.13478149e-016,
          5.13478149e-016, -3.30188364e-001, -3.14882323e-002,
          -2.93878943e-001, -2.39610314e-001, -4.28255469e-001,
          -3.47644180e-001, -4.77930516e-001, 1.51729226e-001,
          1.44280672e-001, 1.52580410e-001, -2.98627000e-002,
          5.13478149e-016, 5.13478149e-016, 5.13478149e-016,
          5.13478149e-016, -8.16432312e-002, -4.81662810e-001,
          -4.62119058e-002, -4.00586128e-001, -2.61989146e-001,
          -3.05401564e-001, 3.46868664e-001, 4.02955636e-002,
          2.80465931e-001, 2.22701564e-001, -5.23068868e-002,
          -1.40924469e-001, 5.13478149e-016, 5.13478149e-016,
          5.13478149e-016, 5.13478149e-016, 4.80146259e-002,
          -2.30037436e-001, -1.02212057e-001, -2.83804476e-001,
          -1.06988467e-001, -2.86618173e-002, 6.10370710e-002,
          -7.33672529e-002, -1.95400253e-001, -6.32855371e-002,
          -1.19948268e-001, -2.19903380e-001, 5.13478149e-016,
          5.13478149e-016, 5.13478149e-016, 5.13478149e-016,
          -1.96951210e-001, -7.46176317e-002, -5.07177077e-002,
          2.28462011e-001, 2.93155253e-001, 3.62805605e-001,
          1.73595980e-001, -6.45941496e-002, -1.69283688e-001,
          -2.46574163e-001, 4.88882139e-002, -2.21939489e-001,
          5.13478149e-016, 5.13478149e-016, 5.13478149e-016,
          1.90218046e-001, 1.72533453e-001, 2.06485346e-001,
          1.70353681e-001, 1.70263022e-001, 2.59035956e-002,
          1.51123300e-001, 4.81992774e-002, -1.63280904e-001,
          -1.57007441e-001, -1.97399065e-001, 4.41915728e-002,
          5.13478149e-016, 5.13478149e-016, 5.13478149e-016,
          5.13478149e-016, 2.16571450e-001, 1.63741589e-001,
          3.76968324e-001, 4.09042388e-001, 7.63335079e-002,
          5.96737862e-002, -3.64669412e-002, 5.53856157e-002,
          4.48393077e-002, -6.42191544e-002, -3.01803034e-002,
          -2.34925866e-001, 5.13478149e-016, 5.13478149e-016,
          5.13478149e-016, 5.13478149e-016, 8.27067271e-002,
          1.96770683e-001, 1.23521179e-001, 2.93033153e-001,
          5.33847362e-002, 5.29532433e-002, -3.94319326e-001,
          -1.18211336e-001, -1.69778526e-001, 3.12404465e-002,
          -1.99377194e-001, 5.13478149e-016, 5.13478149e-016,
          5.13478149e-016, 5.13478149e-016, 5.13478149e-016,
          5.13478149e-016, 5.13478149e-016, 5.13478149e-016,
          5.13478149e-016, 5.13478149e-016, 5.13478149e-016,
          5.13478149e-016, 5.13478149e-016, 5.13478149e-016,
          5.13478149e-016, 5.13478149e-016, 5.13478149e-016,
          5.13478149e-016, 5.13478149e-016, 5.13478149e-016,
          5.13478149e-016, 5.13478149e-016, 5.13478149e-016,
          5.13478149e-016, 5.13478149e-016, 5.13478149e-016,
          5.13478149e-016, 5.13478149e-016, 5.13478149e-016,
          5.13478149e-016, 5.13478149e-016, 5.13478149e-016,
          5.13478149e-016, 5.13478149e-016, 5.13478149e-016,
          5.13478149e-016 ]
      - [ -7.63278329e-016, -7.63278329e-016, -7.63278329e-016,
          -7.63278329e-016, -7.63278329e-016, -7.63278329e-016,
          -7.63278329e-016, -7.63278329e-016, -7.63278329e-016,
          -7.63278329e-016, -7.63278329e-016, -7.63278329e-016,
          -7.63278329e-016, -7.63278329e-016, -7.63278329e-016,
          -7.63278329e-016, -7.63278329e-016, -7.63278329e-016,
          -7.63278329e-016, -7.63278329e-016, -7.63278329e-016,
          -7.63278329e-016, -7.63278329e-016, -7.63278329e-016,
          -7.63278329e-016, -7.63278329e-016, -7.63278329e-016,
          -7.63278329e-016, -7.63278329e-016, -7.63278329e-016,
          -7.63278329e-016, -7.63278329e-016, -7.63278329e-016,
          -7.63278329e-016, 1.48155093e-001, 2.17183962e-001,
          3.04908723e-001, 4.10712838e-001, 2.36817792e-001,
          1.26288608e-001, -1.10372812e-001, -2.11481079e-001,
          1.14188399e-002, -1.29536660e-002, -1.89540267e-001,
          -2.52498090e-001, -7.63278329e-016, -7.63278329e-016,
          -7.63278329e-016, -7.63278329e-016, 1.48155093e-001,
          2.67562661e-002, -1.27573945e-002, 7.24642947e-002,
          3.09474528e-001, -3.94261852e-002, 1.19530410e-001,
          -1.32988617e-001, -2.66533732e-001, 8.61225650e-002,
          -1.06295794e-001, -1.94979534e-001, -7.63278329e-016,
          -7.63278329e-016, -7.63278329e-016, -7.63278329e-016,
          -7.18995109e-002, 2.85267048e-002, 1.66218039e-002,
          1.01977363e-001, 1.12912990e-001, 3.15103605e-002,
          6.04674220e-002, -1.38547957e-001, -1.48930669e-001,
          1.79100186e-002, 9.14538093e-003, -3.73538733e-002,
          2.24621892e-002, -7.63278329e-016, -7.63278329e-016,
          -7.63278329e-016, -6.65907040e-002, -1.22889094e-001,
          -1.21883988e-001, -7.15754107e-002, -2.76476145e-002,
          -4.59383875e-002, -1.80339500e-001, -1.78107038e-001,
          1.45782620e-001, 3.25058177e-002, 2.10436985e-001,
          2.66149819e-001, 4.51012515e-002, -7.63278329e-016,
          -7.63278329e-016, -7.63278329e-016, -2.11915866e-001,
          -1.48237227e-002, -7.71716461e-002, -9.78742763e-002,
          -3.98984067e-002, 3.52441110e-002, 3.83432925e-001,
          1.50740117e-001, 8.16611201e-002, -5.61626023e-003,
          2.45011091e-001, 4.01922911e-001, -7.63278329e-016,
          -7.63278329e-016, -7.63278329e-016, -7.63278329e-016,
          -1.82160269e-002, -2.45484605e-001, -5.06195277e-002,
          -3.24977100e-001, -1.74795106e-001, -1.38873279e-001,
          -9.63151380e-002, 1.98109180e-001, 3.82261902e-001,
          5.07411182e-001, 4.18227106e-001, 4.36340302e-001,
          -7.63278329e-016, -7.63278329e-016, -7.63278329e-016,
          -7.63278329e-016, -3.17433923e-002, -1.70875028e-001,
          -1.03334531e-001, -1.53642803e-001, -5.80792874e-002,
          2.85830677e-001, 1.50228381e-001, 1.53989553e-001,
          2.71208614e-001, 1.76210508e-001, 1.90563172e-001,
          4.24233526e-001, -7.63278329e-016, -7.63278329e-016,
          -7.63278329e-016, -7.63278329e-016, -2.66412050e-001,
          4.67013903e-002, -3.63469064e-001, 1.68012068e-001,
          -1.09225689e-002, -1.00369006e-001, -3.73918265e-001,
          2.68590361e-001, 1.52335584e-001, 2.31131360e-001,
          1.96791723e-001, 1.21965729e-001, -7.63278329e-016,
          -7.63278329e-016, -7.63278329e-016, -7.63278329e-016,
          -2.72146195e-001, -1.24358181e-002, 1.58348656e-003,
          -3.09253763e-002, -9.05372351e-002, 1.63012713e-001,
          -7.50887617e-002, 1.48201868e-001, 2.77840257e-001,
          2.33531460e-001, -7.73435310e-002, -6.63562715e-002,
          -7.63278329e-016, -7.63278329e-016, -7.63278329e-016,
          -7.63278329e-016, 2.90234666e-002, -5.06231524e-002,
          -5.68654202e-002, 1.62650347e-001, -7.23556336e-003,
          4.79192249e-002, -2.99524218e-001, -2.63051659e-001,
          -2.19616964e-001, -2.08283707e-001, 2.04710290e-001,
          -7.63278329e-016, -7.63278329e-016, -7.63278329e-016,
          -7.63278329e-016, -7.63278329e-016, 2.01781511e-001,
          5.23567162e-002, 9.92074385e-002, 9.87544283e-002,
          1.84571072e-001, -1.44195825e-001, 3.32851373e-002,
          -8.06452408e-002, -3.37897509e-001, -1.13194427e-002,
          1.47874668e-001, -7.63278329e-016, -7.63278329e-016,
          -7.63278329e-016, -7.63278329e-016, -7.63278329e-016,
          2.33356327e-001, 3.72735977e-001, 1.92807198e-001,
          2.37175655e-002, 1.20736867e-001, -3.55876595e-001,
          4.78888303e-002, 3.50759961e-002, -9.67650637e-002,
          8.50129202e-002, -1.00044087e-001, -7.63278329e-016,
          -7.63278329e-016, -7.63278329e-016, -7.63278329e-016,
          -7.63278329e-016, -7.63278329e-016, -7.63278329e-016,
          -7.63278329e-016, -7.63278329e-016, -7.63278329e-016,
          -7.63278329e-016, -7.63278329e-016, -7.63278329e-016,
          -7.63278329e-016, -7.63278329e-016, -7.63278329e-016,
          -7.63278329e-016, -7.63278329e-016, -7.63278329e-016,
          -7.63278329e-016, -7.63278329e-016, -7.63278329e-016,
          -7.63278329e-016, -7.63278329e-016, -7.63278329e-016,
          -7.63278329e-016, -7.63278329e-016, -7.63278329e-016,
          -7.63278329e-016, -7.63278329e-016, -7.63278329e-016,
          -7.63278329e-016, -7.63278329e-016, -7.63278329e-016,
          -7.63278329e-016 ]
      - [ 3.05311332e-016, 3.05311332e-016, 3.05311332e-016,
          3.05311332e-016, 3.05311332e-016, 3.05311332e-016,
          3.05311332e-016, 3.05311332e-016, 3.05311332e-016,
          3.05311332e-016, 3.05311332e-016, 3.05311332e-016,
          3.05311332e-016, 3.05311332e-016, 3.05311332e-016,
          3.05311332e-016, 3.05311332e-016, 3.05311332e-016,
          3.05311332e-016, 3.05311332e-016, 3.05311332e-016,
          3.05311332e-016, 3.05311332e-016, 3.05311332e-016,
          3.05311332e-016, 3.05311332e-016, 3.05311332e-016,
          3.05311332e-016, 3.05311332e-016, 3.05311332e-016,
          3.05311332e-016, 3.05311332e-016, 3.05311332e-016,
          3.05311332e-016, 1.77751392e-001, 1.77751392e-001,
          2.89897501e-001, 3.19857448e-001, 2.40657046e-001,
          4.84979749e-002, -5.81320226e-002, -8.04115161e-002,
          -2.72934526e-001, -9.79505032e-002, -3.32088359e-002,
          5.51682003e-002, 3.05311332e-016, 3.05311332e-016,
          3.05311332e-016, 3.05311332e-016, 1.19840316e-001,
          1.77751392e-001, 1.16052248e-001, 1.04710236e-001,
          1.89422294e-001, 1.18925072e-001, -2.89047778e-001,
          1.57202352e-002, 3.85439093e-003, 3.61047909e-002,
          5.18149771e-002, -2.27211043e-002, 3.05311332e-016,
          3.05311332e-016, 3.05311332e-016, 3.05311332e-016,
          1.19840316e-001, -3.68044972e-002, -7.09824413e-002,
          -1.54245004e-001, 7.83135965e-002, -1.80562176e-002,
          -1.34812266e-001, 1.21662423e-001, 6.09108880e-002,
          -1.15558043e-001, -2.46565178e-001, 4.95082140e-002,
          3.05311332e-016, 3.05311332e-016, 3.05311332e-016,
          3.05311332e-016, 1.97842792e-002, -2.33455986e-001,
          -3.36372554e-002, 1.68755576e-001, 4.18913178e-002,
          -8.68684724e-002, -2.07273602e-001, -5.22606373e-002,
          -8.67891684e-003, 1.31428810e-002, 1.55172288e-001,
          -1.03109665e-001, 3.05311332e-016, 3.05311332e-016,
          3.05311332e-016, 3.05311332e-016, -1.33910730e-001,
          -1.17893718e-001, -1.42578408e-001, -1.52738646e-001,
          -4.09237355e-001, -1.14331245e-001, 3.69022459e-001,
          3.82440835e-001, 4.26749080e-001, -6.74083969e-003,
          3.01581100e-002, -6.95914477e-002, 3.05311332e-016,
          3.05311332e-016, 3.05311332e-016, 3.05311332e-016,
          -9.62881446e-002, -1.56253010e-001, -7.42343143e-002,
          -5.97394705e-002, 2.67066628e-001, 2.85689503e-001,
          6.04486704e-001, 2.60642171e-001, -2.05217034e-001,
          1.94242880e-001, 7.55894631e-002, -1.74660869e-002,
          3.05311332e-016, 3.05311332e-016, 3.05311332e-016,
          3.05311332e-016, -2.14674938e-002, 5.86662404e-002,
          -4.77237962e-002, -2.92966720e-002, 5.62535703e-001,
          4.08252656e-001, 5.45917340e-002, 1.99344262e-001,
          3.95380497e-001, 2.77551085e-001, -2.74366528e-001,
          3.05311332e-016, 3.05311332e-016, 3.05311332e-016,
          3.05311332e-016, 3.05311332e-016, -4.45449278e-002,
          -3.58872041e-002, -9.62578654e-002, 4.45239432e-003,
          -4.08367068e-002, 5.11492649e-003, -1.79724351e-001,
          1.64795518e-001, 2.20404327e-001, -1.56615362e-001,
          -1.93631470e-001, 3.05311332e-016, 3.05311332e-016,
          3.05311332e-016, 3.05311332e-016, 3.05311332e-016,
          -1.35438889e-001, -2.30624899e-001, -1.17363483e-002,
          -1.21621378e-001, -1.08323060e-001, -2.58868247e-001,
          4.52025048e-002, -2.35919803e-002, -4.58089076e-002,
          5.46894222e-002, 4.01454903e-002, -2.38831807e-002,
