%YAML:1.0
opencv_ml_svm:
   format: 3
   svmType: C_SVC
   kernel:
      type: LINEAR
   C: 8.0000000000000002e-002
   term_criteria: { iterations:100000 }
   var_count: 1024
   class_count: 10
   class_labels: !!opencv-matrix
      rows: 10
      cols: 1
      dt: i
      data: [ 0, 1, 2, 3, 4, 5, 6, 7, 8, 9 ]
   sv_total: 45
   support_vectors:
      - [ -6.07153217e-016, -6.07153217e-016, -6.07153217e-016,
          -6.07153217e-016, -6.07153217e-016, -6.07153217e-016,
          -6.07153217e-016, -6.07153217e-016, -6.07153217e-016,
          -6.07153217e-016, -6.07153217e-016, -6.07153217e-016,
          -6.07153217e-016, -6.07153217e-016, -6.07153217e-016,
          -6.07153217e-016, -6.07153217e-016, -6.07153217e-016,
          -6.07153217e-016, -6.07153217e-016, -6.07153217e-016,
          -6.07153217e-016, -6.07153217e-016, -6.07153217e-016,
          -6.07153217e-016, -6.07153217e-016, -6.07153217e-016,
          -6.07153217e-016, -6.07153217e-016, -6.07153217e-016,
          -6.07153217e-016, -6.07153217e-016, -6.07153217e-016,
          -6.07153217e-016, -6.07153217e-016, -6.07153217e-016,
          -6.07153217e-016, -6.07153217e-016, -6.07153217e-016,
          -6.07153217e-016, -6.07153217e-016, -6.07153217e-016,
          -6.07153217e-016, -6.07153217e-016, -6.07153217e-016,
          -6.07153217e-016, -6.07153217e-016, -6.07153217e-016,
          -6.07153217e-016, -6.07153217e-016, -6.07153217e-016,
          -6.07153217e-016, -6.07153217e-016, -6.07153217e-016,
          -6.07153217e-016, -6.07153217e-016, -6.07153217e-016,
          -6.07153217e-016, -6.07153217e-016, -6.07153217e-016,
          -6.07153217e-016, -6.07153217e-016, -6.07153217e-016,
          -6.07153217e-016, -6.07153217e-016, -6.07153217e-016,
          -6.07153217e-016, -6.07153217e-016, -6.07153217e-016,
          -6.07153217e-016, -6.07153217e-016, -6.07153217e-016,
          -6.07153217e-016, -6.07153217e-016, -6.07153217e-016,
          -6.07153217e-016, -6.07153217e-016, -6.07153217e-016,
          -6.07153217e-016, -6.07153217e-016, -6.07153217e-016,
          -6.07153217e-016, -6.07153217e-016, -6.07153217e-016,
          -6.07153217e-016, -6.07153217e-016, -6.07153217e-016,
          -6.07153217e-016, -6.07153217e-016, -6.07153217e-016,
          -6.07153217e-016, -6.07153217e-016, -6.07153217e-016,
          -6.07153217e-016, -6.07153217e-016, -6.07153217e-016,
          -6.07153217e-016, -6.07153217e-016, -6.07153217e-016,
          -6.07153217e-016, -6.07153217e-016, -6.07153217e-016,
          -6.07153217e-016, -6.07153217e-016, -6.07153217e-016,
          -6.07153217e-016, -6.07153217e-016, -6.07153217e-016,
          -6.07153217e-016, -6.07153217e-016, -6.07153217e-016,
          -6.07153217e-016, -6.07153217e-016, -6.07153217e-016,
          -6.07153217e-016, -6.07153217e-016, -6.07153217e-016,
          -6.07153217e-016, -6.07153217e-016, -6.07153217e-016,
          -6.07153217e-016, -6.07153217e-016, -6.07153217e-016,
          -6.07153217e-016, -6.07153217e-016, -6.07153217e-016,
          -6.07153217e-016, -6.07153217e-016, -6.07153217e-016,
          -6.07153217e-016, -6.07153217e-016, -6.07153217e-016,
          -6.07153217e-016, 2.08228361e-002, 3.75691764e-002,
          5.61752692e-002, 5.65217733e-002, 1.86929815e-002,
          -9.97139886e-003, 4.13488932e-002, 1.06369987e-001,
          1.15370981e-001, -5.34767807e-002, 9.80956331e-002,
          1.86102808e-001, 9.19628143e-002, 1.02661975e-001,
          7.05884099e-002, 7.46233761e-002, -3.59995128e-003,
          6.52995240e-003, -8.86907727e-002, -2.10424960e-002,
          -1.39942560e-002, -4.39202003e-002, -1.44866602e-002,
          7.91667961e-003, -6.07153217e-016, -6.07153217e-016,
          -6.07153217e-016, -6.07153217e-016, -6.07153217e-016,
          -6.07153217e-016, -6.07153217e-016, -6.07153217e-016,
          8.17766935e-002, 5.70225082e-002, 1.00382790e-001,
          6.85082600e-002, 9.33909416e-003, -5.98012097e-002,
          -5.14135286e-002, 8.19156691e-002, 5.01996726e-002,
          4.06391285e-002, 1.62004098e-001, 8.48042518e-002,
          9.09659453e-003, 3.64591889e-002, 8.56909603e-002,
          6.01367652e-002, -9.28928889e-003, -6.85962662e-002,
          5.97458854e-002, -3.34135187e-003, 1.81954857e-002,
          6.55846251e-003, -2.10446808e-002, -6.07153217e-016,
          -6.07153217e-016, -6.07153217e-016, -6.07153217e-016,
          -6.07153217e-016, -6.07153217e-016, -6.07153217e-016,
          -6.07153217e-016, 1.06739430e-002, 3.14967781e-002,
          3.14967781e-002, 8.36364478e-002, 5.60093187e-002,
          -4.88247983e-002, -4.20687720e-002, 2.72720475e-002,
          2.04082150e-002, 1.11833006e-001, 7.58582801e-002,
          1.32170558e-001, 4.66209948e-002, 9.57691967e-002,
          2.39427835e-002, 9.45966095e-002, 9.29540545e-002,
          8.67901966e-002, 7.19849840e-002, 3.25235017e-002,
          1.14624025e-002, 2.42942609e-002, 3.96589674e-002,
          4.85582910e-002, 7.91667961e-003, -6.07153217e-016,
          -6.07153217e-016, -6.07153217e-016, -6.07153217e-016,
          -6.07153217e-016, -6.07153217e-016, -6.07153217e-016,
          -6.07153217e-016, 3.14967781e-002, 3.99044342e-002,
          9.76040438e-002, 5.97068015e-003, -2.73133889e-002,
          -2.25721542e-002, -3.38450260e-002, 4.91122119e-002,
          6.60245419e-002, 7.75860026e-002, 6.26138672e-002,
          -1.93877239e-002, 1.33015076e-002, -2.83741411e-002,
          8.02073479e-002, 4.38593142e-002, -6.26813397e-002,
          -2.10855659e-002, 3.22310776e-002, 1.47416651e-001,
          7.01066405e-002, 2.44073430e-003, -1.63164977e-002,
          3.04545294e-002, 7.91667961e-003, -6.07153217e-016,
          -6.07153217e-016, -6.07153217e-016, -6.07153217e-016,
          -6.07153217e-016, -6.07153217e-016, -6.07153217e-016,
          2.92304903e-002, 2.92304903e-002, 6.05419390e-002,
          5.04807122e-002, -2.79937275e-002, 1.26977310e-001,
          8.92559662e-002, 2.81727295e-002, 6.93139732e-002,
          -1.00936182e-003, -3.87135940e-003, -1.86731126e-002,
          9.52578261e-002, 1.34075299e-001, 9.77274105e-002,
          1.14116959e-001, 9.83347893e-002, 2.43169591e-002,
          -6.15593828e-002, 1.09195724e-001, -4.91068661e-002,
          8.02050009e-002, -3.02384440e-002, 7.91667961e-003,
          -6.07153217e-016, -6.07153217e-016, -6.07153217e-016,
          -6.07153217e-016, -6.07153217e-016, -6.07153217e-016,
          -6.07153217e-016, -6.07153217e-016, 2.08228361e-002,
          2.63827778e-002, 3.56580429e-002, 1.91571172e-002,
          3.28963399e-002, 8.23174715e-002, 4.86608706e-002,
          2.70646084e-002, 1.47342965e-001, 4.87117171e-002,
          -4.99976277e-002, 1.28163412e-001, 6.65434152e-002,
          9.49368402e-002, 4.28261943e-002, 2.48616189e-002,
          2.11658292e-002, -1.15748681e-001, 2.60345489e-002,
          6.33175448e-002, 5.54275997e-002, 2.13784009e-001,
          1.21318422e-001, 7.91667961e-003, -6.07153217e-016,
          -6.07153217e-016, -6.07153217e-016, -6.07153217e-016,
          -6.07153217e-016, -6.07153217e-016, -6.07153217e-016,
          -6.07153217e-016, 2.08228361e-002, -4.11763452e-002,
          6.67455867e-002, 1.93257281e-003, -7.96164647e-002,
          -9.81571805e-003, -7.69449444e-003, -1.41611323e-001,
          4.66422886e-002, 6.75376728e-002, 1.39760986e-001,
          1.13203876e-001, -6.66555464e-002, -5.08370139e-002,
          2.83600967e-002, 1.69814173e-002, 4.40379418e-002,
          -1.13876000e-001, 2.72857063e-002, 6.49630576e-002,
          1.52370362e-002, 9.96984616e-002, 1.20936386e-001,
          -6.07153217e-016, -6.07153217e-016, -6.07153217e-016,
          -6.07153217e-016, -6.07153217e-016, -6.07153217e-016,
          -6.07153217e-016, -6.07153217e-016, -6.07153217e-016,
          -4.11424087e-003, 9.07651428e-003, -1.06154103e-002,
          2.36791186e-003, 1.20378055e-001, 3.44943292e-002,
          -6.59458190e-002, 8.29104334e-002, 1.48974732e-001,
          -8.65999982e-002, -4.43654507e-002, -5.98879382e-002,
          -6.19082190e-002, -3.66567597e-002, -5.60177788e-002,
          5.20628653e-002, -4.33280058e-002, 6.61522970e-002,
          -1.23039391e-002, 1.42203989e-002, 9.43284109e-002,
          -3.20745558e-002, 1.22254446e-001, 5.86699732e-002,
          -6.07153217e-016, -6.07153217e-016, -6.07153217e-016,
          -6.07153217e-016, -6.07153217e-016, -6.07153217e-016,
          -6.07153217e-016, -6.07153217e-016, -4.11424087e-003,
          -7.99228698e-002, -6.32079020e-002, 8.24985132e-002,
          1.97871309e-002, -2.44780220e-002, 8.78467318e-003,
          7.52563030e-002, 4.79636155e-003, -5.66553660e-002,
          -1.33422747e-001, -1.39888590e-002, -1.23465899e-002,
          -3.68209034e-002, 2.17126012e-002, 4.21403572e-002,
          -7.02251643e-002, -1.97274350e-002, -5.06720506e-003,
          -6.50536641e-002, 4.24950980e-002, -5.81944734e-003,
          5.28180562e-002, 1.07639529e-001, -6.07153217e-016,
          -6.07153217e-016, -6.07153217e-016, -6.07153217e-016,
          -6.07153217e-016, -6.07153217e-016, -6.07153217e-016,
          -2.49370765e-002, -4.80164923e-002, -4.68081497e-002,
          -4.02703919e-002, -9.56517756e-002, 4.10153121e-002,
          3.60402949e-002, 5.33941984e-002, 7.84570724e-002,
          -5.53707518e-002, 1.95883010e-002, -1.09932246e-002,
          1.17285237e-001, -5.27136289e-002, -1.57321870e-001,
          -4.57178615e-002, 7.80874789e-002, 1.15033146e-002,
          8.65075588e-002, 6.13044575e-003, 7.11953044e-002,
          1.67879641e-001, -2.49215774e-002, 3.41045931e-002,
          4.76917028e-002, -6.07153217e-016, -6.07153217e-016,
          -6.07153217e-016, -6.07153217e-016, -6.07153217e-016,
          -6.07153217e-016, -6.07153217e-016, -2.49370765e-002,
          -6.01628050e-002, 3.03877867e-003, -1.79461073e-002,
          -3.71709056e-002, 7.52504840e-002, -7.13305874e-003,
          4.94273705e-003, 4.43634652e-002, -1.43366186e-002,
          3.00257392e-002, 3.20491269e-002, 1.54348299e-001,
          2.30440404e-002, -3.26661281e-002, -3.94093953e-002,
          7.41182715e-002, 4.50783083e-003, -1.96659230e-002,
          -5.90797886e-002, 8.29235911e-002, 5.96900377e-003,
          -3.79039953e-003, -1.99601930e-002, -6.07153217e-016,
          -6.07153217e-016, -6.07153217e-016, -6.07153217e-016,
          -6.07153217e-016, -6.07153217e-016, -6.07153217e-016,
          -6.07153217e-016, -6.07153217e-016, -4.64474643e-003,
          7.81995337e-003, 1.07211351e-001, -5.95246665e-002,
          6.49233758e-002, -3.77475731e-002, 6.05062731e-002,
          -1.63399726e-002, 7.93707296e-002, -4.55769524e-002,
          1.47615910e-001, 7.48295188e-002, 2.08064273e-001,
          1.38370141e-001, 3.58327851e-002, -1.21515403e-002,
          9.73768830e-002, 2.86507402e-002, -3.79985310e-002,
          -2.61042286e-002, -1.03567630e-001, -2.43019424e-002,
          -7.59329945e-002, -6.07153217e-016, -6.07153217e-016,
          -6.07153217e-016, -6.07153217e-016, -6.07153217e-016,
          -6.07153217e-016, -6.07153217e-016, -6.07153217e-016,
          -6.07153217e-016, -1.67910606e-002, 8.33115727e-002,
          7.05901012e-002, 1.30352676e-001, 6.63483068e-002,
          9.54858735e-002, 4.86600846e-002, -1.13837175e-001,
          1.71622988e-002, -4.62908037e-002, -7.61827901e-002,
          6.26965165e-002, -1.61020309e-001, 7.99199939e-002,
          1.05167262e-001, -2.80069802e-002, -4.48310599e-002,
          9.65591222e-002, 1.77354403e-002, -1.03466790e-002,
          -9.13943350e-003, -3.33583504e-002, -2.53044311e-002,
          -2.14989111e-002, -6.07153217e-016, -6.07153217e-016,
          -6.07153217e-016, -6.07153217e-016, -6.07153217e-016,
          -6.07153217e-016, -6.07153217e-016, -6.07153217e-016,
          8.94829407e-002, 1.53675482e-001, 9.78026912e-002,
          -4.03442942e-002, -7.03807175e-002, -3.92333828e-002,
          -2.43314672e-002, -2.92849652e-002, 2.13283580e-002,
          -6.41809851e-002, 7.58532993e-003, -6.06405772e-002,
          -3.70979011e-002, -3.52597907e-002, -1.20176621e-001,
          -5.86940199e-002, -4.82300892e-002, -4.07726830e-003,
          -7.59281740e-002, -2.65409797e-002, 2.97225751e-002,
          1.25853186e-002, -2.74739359e-002, -6.07153217e-016,
          -6.07153217e-016, -6.07153217e-016, -6.07153217e-016,
          -6.07153217e-016, -6.07153217e-016, -6.07153217e-016,
          -6.07153217e-016, -6.07153217e-016, 1.00390330e-001,
          3.61324064e-002, -3.39977220e-002, -8.52888599e-002,
          -2.82385480e-002, -8.09874982e-002, 1.12675708e-002,
          1.00245886e-002, -8.70598033e-002, -1.94271252e-001,
          -3.58985439e-002, -7.14031905e-002, 1.73670147e-002,
          -8.13390613e-002, -1.37135461e-001, 7.48564824e-002,
          -8.72995779e-002, 4.25061658e-002, 2.24357266e-002,
          1.04502842e-001, 8.04006159e-002, 6.82393163e-002,
          -1.83691476e-002, 3.03792600e-002, -6.07153217e-016,
          -6.07153217e-016, -6.07153217e-016, -6.07153217e-016,
          -6.07153217e-016, -6.07153217e-016, -6.07153217e-016,
          -4.50238474e-002, -9.76608917e-002, -9.72917080e-002,
          -1.87048912e-002, -1.67704951e-002, -9.31472406e-002,
          1.62542954e-001, -3.61543819e-002, -4.39644083e-002,
          -5.07503226e-002, -2.55384669e-002, -7.17376173e-002,
          -1.64639682e-001, 1.86817087e-002, -1.35663211e-001,
          -1.08692154e-001, 5.15161939e-002, -6.97559640e-002,
          9.27643329e-002, -5.95740750e-002, 5.66295572e-002,
          7.24416748e-002, 4.45217639e-002, 1.52760781e-002,
          3.03792600e-002, -6.07153217e-016, -6.07153217e-016,
          -6.07153217e-016, -6.07153217e-016, -6.07153217e-016,
          -6.07153217e-016, -6.07153217e-016, -8.69663134e-002,
          -6.09994158e-002, -3.67916860e-002, -6.85977936e-002,
          -4.99041751e-002, -4.20620851e-002, -5.97624704e-002,
          -1.52582750e-001, -8.57304633e-002, -1.70994718e-002,
          -6.16540797e-002, -1.48592219e-001, -9.21631679e-002,
          -1.77955970e-001, -6.22071736e-002, -1.61010344e-002,
          -2.20550923e-003, -3.21683511e-002, -1.36747351e-002,
          -7.38000125e-002, 1.94597356e-002, 5.23158349e-002,
          1.17222771e-001, 5.10071963e-002, -6.07153217e-016,
          -6.07153217e-016, -6.07153217e-016, -6.07153217e-016,
          -6.07153217e-016, -6.07153217e-016, -6.07153217e-016,
          -6.07153217e-016, 3.21408473e-002, 5.05127385e-002,
          -8.94488916e-002, -2.98848134e-002, -7.82356784e-003,
          -4.91848402e-002, 1.02960296e-001, -4.58692126e-002,
          2.40727514e-002, -9.78847519e-002, -9.42140631e-003,
          -1.05121963e-001, -1.83912158e-001, -2.97471900e-002,
          9.57122371e-002, -1.26024857e-001, -2.55733449e-003,
          8.30247849e-002, -4.77552526e-002, 5.66961169e-002,
          -9.07282308e-002, 3.87443369e-003, 7.76494145e-002,
          4.02921699e-002, -1.61273521e-003, -6.07153217e-016,
          -6.07153217e-016, -6.07153217e-016, -6.07153217e-016,
          -6.07153217e-016, -6.07153217e-016, -6.07153217e-016,
          -5.67847006e-002, 8.93122628e-002, -5.82151935e-002,
          -3.15705724e-002, -7.90605620e-002, -6.39696717e-002,
          -5.76535724e-002, 5.97603172e-002, -1.01792149e-001,
          4.01938111e-002, 4.94838171e-002, 5.23607060e-002,
          5.82614392e-002, 3.25699300e-002, -1.37792910e-002,
          -2.83993408e-002, 1.51863202e-001, -9.31200236e-002,
          4.59558815e-002, -4.72721569e-002, -1.50620195e-004,
          4.16172855e-002, 9.45548117e-002, -1.67609081e-002,
          -6.07153217e-016, -6.07153217e-016, -6.07153217e-016,
          -6.07153217e-016, -6.07153217e-016, -6.07153217e-016,
          -6.07153217e-016, -6.07153217e-016, 7.06709921e-003,
          -7.51614422e-002, -4.20385972e-002, -1.76700950e-001,
          -8.50046724e-002, 1.54064503e-002, 3.93114313e-002,
          -1.40276095e-002, -2.53665019e-002, -2.61037033e-002,
          2.12197211e-002, 4.01742719e-002, 6.32309169e-002,
          3.14633064e-002, 3.97848673e-002, 1.06313318e-001,
          -7.02444389e-002, -6.97359890e-002, -3.31531689e-002,
          -3.45961860e-004, -3.27652320e-002, -5.07864840e-002,
          -2.38152090e-002, -4.77617979e-002, -6.07153217e-016,
          -6.07153217e-016, -6.07153217e-016, -6.07153217e-016,
          -6.07153217e-016, -6.07153217e-016, -6.07153217e-016,
          -6.07153217e-016, -1.32533640e-001, -2.96745356e-002,
          -4.06333655e-002, 1.55079644e-002, -6.10275753e-002,
          -3.94949950e-002, -1.56821392e-003, 4.25842144e-002,
          -5.31414710e-003, 1.57153104e-002, 6.56645820e-002,
          1.23342546e-002, 3.01067773e-002, 3.78565490e-002,
          3.77164856e-002, -5.64138964e-002, -2.04100441e-002,
          1.12192640e-002, -5.01241051e-002, 6.46581175e-003,
          2.26270799e-002, -7.18159750e-002, -7.05634356e-002,
          -6.15292899e-002, -6.07153217e-016, -6.07153217e-016,
          -6.07153217e-016, -6.07153217e-016, -6.07153217e-016,
          -6.07153217e-016, -6.07153217e-016, -6.07153217e-016,
          -9.12262127e-002, -3.55607085e-002, -5.77846095e-002,
          -9.47748348e-002, -6.71375096e-002, 6.80669211e-003,
          2.07407922e-002, 5.50312400e-002, -1.88342035e-002,
          3.99438402e-004, -5.65953972e-003, 1.06961384e-001,
          -3.74575593e-002, 1.01087078e-001, -4.32739295e-002,
          -7.97481984e-002, -7.13932887e-002, -4.26364727e-002,
          2.32358426e-002, -1.50711667e-002, -8.97286460e-002,
          -5.82648441e-002, -1.19728699e-001, -7.27462769e-002,
          -6.07153217e-016, -6.07153217e-016, -6.07153217e-016,
          -6.07153217e-016, -6.07153217e-016, -6.07153217e-016,
          -6.07153217e-016, -6.37088493e-002, -5.80690354e-002,
          -4.32619229e-002, -2.13680845e-002, -1.22580029e-001,
          -3.29308957e-002, -6.30074367e-002, 1.41019588e-002,
          4.70042042e-002, -2.10868772e-002, -3.43676284e-002,
          -6.12963103e-002, -2.16994695e-002, 8.41696374e-003,
          5.40581241e-004, -2.56202295e-002, -9.76642966e-002,
          -1.40507119e-002, -2.82762684e-002, -7.47684613e-002,
          -7.30154291e-002, -6.96724653e-002, -8.72742981e-002,
          -8.86753872e-002, -9.98132378e-002, -6.07153217e-016,
          -6.07153217e-016, -6.07153217e-016, -6.07153217e-016,
          -6.07153217e-016, -6.07153217e-016, -6.07153217e-016,
          -3.71071696e-002, -8.26928467e-002, -3.39842662e-002,
          -2.07881317e-001, -1.67753175e-001, 4.39705811e-002,
          7.95473605e-002, -5.53325415e-002, -3.77810150e-002,
          2.24348176e-002, -3.57864425e-002, 6.60196692e-002,
          -8.17961339e-003, 1.36177251e-002, 4.42316160e-002,
          2.02859659e-002, -8.02329555e-002, -5.61011396e-002,
          -6.39174432e-002, -1.48068428e-001, -1.20836636e-002,
          -4.35804427e-002, -7.04379529e-002, -7.89014548e-002,
          -5.46954796e-002, -6.07153217e-016, -6.07153217e-016,
          -6.07153217e-016, -6.07153217e-016, -6.07153217e-016,
          -6.07153217e-016, -6.07153217e-016, -6.07153217e-016,
          -8.12611282e-002, -8.66992921e-002, -2.19165012e-001,
          -9.39890146e-002, -5.02610169e-002, 2.70759445e-002,
          -3.55834793e-003, 1.01516135e-001, 2.88459193e-002,
          5.30226938e-002, 5.49298674e-002, 9.24815703e-003,
          -5.07675782e-002, 1.42561216e-002, -2.79896688e-002,
          -1.17876306e-001, -9.80391875e-002, -2.80340556e-002,
          1.78583786e-002, -1.26973474e-002, -9.51124076e-003,
          -1.26925893e-002, -1.26925893e-002, -1.08171264e-002,
          -6.07153217e-016, -6.07153217e-016, -6.07153217e-016,
          -6.07153217e-016, -6.07153217e-016, -6.07153217e-016,
          -6.07153217e-016, -6.07153217e-016, -6.07153217e-016,
          -6.07153217e-016, -6.07153217e-016, -6.07153217e-016,
          -6.07153217e-016, -6.07153217e-016, -6.07153217e-016,
          -6.07153217e-016, -6.07153217e-016, -6.07153217e-016,
          -6.07153217e-016, -6.07153217e-016, -6.07153217e-016,
          -6.07153217e-016, -6.07153217e-016, -6.07153217e-016,
          -6.07153217e-016, -6.07153217e-016, -6.07153217e-016,
          -6.07153217e-016, -6.07153217e-016, -6.07153217e-016,
          -6.07153217e-016, -6.07153217e-016, -6.07153217e-016,
          -6.07153217e-016, -6.07153217e-016, -6.07153217e-016,
          -6.07153217e-016, -6.07153217e-016, -6.07153217e-016,
          -6.07153217e-016, -6.07153217e-016, -6.07153217e-016,
          -6.07153217e-016, -6.07153217e-016, -6.07153217e-016,
          -6.07153217e-016, -6.07153217e-016, -6.07153217e-016,
          -6.07153217e-016, -6.07153217e-016, -6.07153217e-016,
          -6.07153217e-016, -6.07153217e-016, -6.07153217e-016,
          -6.07153217e-016, -6.07153217e-016, -6.07153217e-016,
          -6.07153217e-016, -6.07153217e-016, -6.07153217e-016,
          -6.07153217e-016, -6.07153217e-016, -6.07153217e-016,
          -6.07153217e-016, -6.07153217e-016, -6.07153217e-016,
          -6.07153217e-016, -6.07153217e-016, -6.07153217e-016,
          -6.07153217e-016, -6.07153217e-016, -6.07153217e-016,
          -6.07153217e-016, -6.07153217e-016, -6.07153217e-016,
          -6.07153217e-016, -6.07153217e-016, -6.07153217e-016,
          -6.07153217e-016, -6.07153217e-016, -6.07153217e-016,
          -6.07153217e-016, -6.07153217e-016, -6.07153217e-016,
          -6.07153217e-016, -6.07153217e-016, -6.07153217e-016,
          -6.07153217e-016, -6.07153217e-016, -6.07153217e-016,
          -6.07153217e-016, -6.07153217e-016, -6.07153217e-016,
          -6.07153217e-016, -6.07153217e-016, -6.07153217e-016,
          -6.07153217e-016, -6.07153217e-016, -6.07153217e-016,
          -6.07153217e-016 ]
      - [ -7.31023315e-016, -7.31023315e-016, -7.31023315e-016,
          -7.31023315e-016, -7.31023315e-016, -7.31023315e-016,
          -7.31023315e-016, -7.31023315e-016, -7.31023315e-016,
          -7.31023315e-016, -7.31023315e-016, -7.31023315e-016,
          -7.31023315e-016, -7.31023315e-016, -7.31023315e-016,
          -7.31023315e-016, -7.31023315e-016, -7.31023315e-016,
          -7.31023315e-016, -7.31023315e-016, -7.31023315e-016,
          -7.31023315e-016, -7.31023315e-016, -7.31023315e-016,
          -7.31023315e-016, -7.31023315e-016, -7.31023315e-016,
          -7.31023315e-016, -7.31023315e-016, -7.31023315e-016,
          -7.31023315e-016, -7.31023315e-016, -7.31023315e-016,
          -7.31023315e-016, -7.31023315e-016, -7.31023315e-016,
          -7.31023315e-016, -7.31023315e-016, -7.31023315e-016,
          -7.31023315e-016, -7.31023315e-016, -7.31023315e-016,
          -7.31023315e-016, -7.31023315e-016, -7.31023315e-016,
          -7.31023315e-016, -7.31023315e-016, -7.31023315e-016,
          -7.31023315e-016, -7.31023315e-016, -7.31023315e-016,
          -7.31023315e-016, -7.31023315e-016, -7.31023315e-016,
          -7.31023315e-016, -7.31023315e-016, -7.31023315e-016,
          -7.31023315e-016, -7.31023315e-016, -7.31023315e-016,
          -7.31023315e-016, -7.31023315e-016, -7.31023315e-016,
          -7.31023315e-016, -7.31023315e-016, -7.31023315e-016,
          -7.31023315e-016, -7.31023315e-016, -7.31023315e-016,
          -7.31023315e-016, -7.31023315e-016, -7.31023315e-016,
          -7.31023315e-016, -7.31023315e-016, -7.31023315e-016,
          -7.31023315e-016, -7.31023315e-016, -7.31023315e-016,
          -7.31023315e-016, -7.31023315e-016, -7.31023315e-016,
          -7.31023315e-016, -7.31023315e-016, -7.31023315e-016,
          -7.31023315e-016, -7.31023315e-016, -7.31023315e-016,
          -7.31023315e-016, -7.31023315e-016, -7.31023315e-016,
          -7.31023315e-016, -7.31023315e-016, -7.31023315e-016,
          -7.31023315e-016, -7.31023315e-016, -7.31023315e-016,
          -7.31023315e-016, -7.31023315e-016, -7.31023315e-016,
          -7.31023315e-016, -7.31023315e-016, -7.31023315e-016,
          -7.31023315e-016, -7.31023315e-016, -7.31023315e-016,
          -7.31023315e-016, -7.31023315e-016, -7.31023315e-016,
          -7.31023315e-016, -7.31023315e-016, -7.31023315e-016,
          -7.31023315e-016, -7.31023315e-016, -7.31023315e-016,
          -7.31023315e-016, -7.31023315e-016, -7.31023315e-016,
          -7.31023315e-016, -7.31023315e-016, -7.31023315e-016,
          -7.31023315e-016, -7.31023315e-016, -7.31023315e-016,
          -7.31023315e-016, -7.31023315e-016, -7.31023315e-016,
          -7.31023315e-016, -7.31023315e-016, -7.31023315e-016,
          -7.31023315e-016, -7.31023315e-016, -7.31023315e-016,
          -7.31023315e-016, -7.31023315e-016, -7.31023315e-016,
          -7.31023315e-016, -7.31023315e-016, -3.04968562e-002,
          -3.60816419e-002, -3.59434783e-002, -6.25930429e-002,
          1.14671150e-002, -4.89370748e-002, 9.61309075e-002,
          1.70353562e-001, 8.90004486e-002, 6.48471937e-002,
          1.18205048e-001, 8.84624347e-002, 9.52550918e-002,
          -2.92633381e-002, -1.99068375e-002, -1.33214602e-002,
          -1.38903065e-002, 2.12529507e-002, 2.18098913e-003,
          -7.31023315e-016, -7.31023315e-016, -7.31023315e-016,
          -7.31023315e-016, -7.31023315e-016, -7.31023315e-016,
          -7.31023315e-016, -7.31023315e-016, -7.31023315e-016,
          -7.31023315e-016, -7.31023315e-016, -7.31023315e-016,
          -7.31023315e-016, -4.89755906e-002, -7.34059513e-002,
          -6.39720336e-002, 2.73755398e-002, 1.48902498e-002,
          -1.57258473e-002, 6.95163012e-002, -4.22471529e-003,
          1.15361214e-001, 5.67786954e-002, 4.18079793e-002,
          1.33528979e-002, -9.53410566e-003, -1.95703600e-002,
          6.14528991e-002, 3.83813232e-002, 4.83180881e-002,
          3.76703963e-002, 4.00160551e-002, -7.31023315e-016,
          -7.31023315e-016, -7.31023315e-016, -7.31023315e-016,
          -7.31023315e-016, -7.31023315e-016, -7.31023315e-016,
          -7.31023315e-016, -7.31023315e-016, -7.31023315e-016,
          -7.31023315e-016, -7.31023315e-016, 1.39055913e-002,
          -5.40537350e-002, -2.49031316e-002, -2.60122716e-002,
          3.32566872e-002, 3.62206548e-002, 1.42602632e-002,
          8.68150145e-002, 2.41536498e-002, 2.03048326e-002,
          9.06818826e-003, 7.74742141e-002, 1.06007703e-001,
          3.17419283e-002, 1.52170621e-002, -1.89350173e-002,
          3.32630165e-002, 5.20676374e-002, 4.97255623e-002,
          4.88127097e-002, -7.31023315e-016, -7.31023315e-016,
          -7.31023315e-016, -7.31023315e-016, -7.31023315e-016,
          -7.31023315e-016, -7.31023315e-016, -7.31023315e-016,
          -7.31023315e-016, -7.31023315e-016, 1.39055913e-002,
          1.39055913e-002, -1.06848264e-002, -2.66896263e-002,
          -1.39948176e-002, -9.57676992e-002, 7.37864971e-002,
          6.12009922e-003, 6.44895285e-002, 7.22789690e-002,
          -2.15079878e-002, -1.49162617e-002, -5.54732466e-003,
          6.64943606e-002, 7.02874511e-002, 5.81785217e-002,
          -2.58323271e-003, -1.88056938e-003, 5.66256270e-002,
          4.28079627e-002, 3.85443941e-002, 4.94589992e-002,
          -7.31023315e-016, -7.31023315e-016, -7.31023315e-016,
          -7.31023315e-016, -7.31023315e-016, -7.31023315e-016,
          -7.31023315e-016, -7.31023315e-016, -7.31023315e-016,
          1.39055913e-002, 2.13293619e-002, 3.25748138e-002,
          -9.14029952e-004, -2.68467190e-003, 7.64631014e-003,
          -1.13264108e-002, 5.03550805e-002, 3.70473005e-002,
          6.62046745e-002, 4.68084067e-002, -2.21869443e-002,
          7.09560653e-003, 7.58469058e-003, 6.62697926e-002,
          1.11709489e-002, -2.60288119e-002, 4.98276725e-002,
          3.33231183e-005, 5.18165343e-002, 3.54181491e-002,
          2.09909622e-002, 4.35862504e-002, -7.31023315e-016,
          -7.31023315e-016, -7.31023315e-016, -7.31023315e-016,
          -7.31023315e-016, -7.31023315e-016, -7.31023315e-016,
          -7.31023315e-016, -7.31023315e-016, 3.52349542e-002,
          3.02291866e-002, 1.21164238e-002, -1.82506070e-002,
          1.59187764e-002, 2.59487443e-002, -6.76560253e-002,
          -2.05174331e-002, 3.60889658e-002, 3.50956619e-002,
          -1.60181394e-003, -2.74469834e-002, 2.37136018e-002,
          -5.27823642e-002, 4.06686813e-002, 4.96901460e-002,
          7.15830997e-002, 7.51506211e-003, 2.61891987e-002,
          3.77153382e-002, 3.31342369e-002, 2.11195610e-002,
          1.49084209e-002, 1.84049737e-002, -7.31023315e-016,
          -7.31023315e-016, -7.31023315e-016, -7.31023315e-016,
          -7.31023315e-016, -7.31023315e-016, -7.31023315e-016,
          -7.31023315e-016, 4.62377071e-002, 1.07591017e-003,
          -7.94322044e-003, -1.31311184e-002, 4.00073035e-003,
          -2.62390031e-003, 2.57292041e-003, -6.98199421e-002,
          5.16625121e-002, 1.65074449e-002, -1.27083166e-002,
          1.09016476e-002, -3.37364636e-002, 1.88381653e-002,
          3.13511700e-003, 1.20748784e-002, 3.19711752e-002,
          -7.33048469e-003, 4.51591723e-002, 6.22491837e-002,
          6.53885817e-003, 1.69172455e-002, 3.11921984e-002,
          -7.31023315e-016, -7.31023315e-016, -7.31023315e-016,
          -7.31023315e-016, -7.31023315e-016, -7.31023315e-016,
          -7.31023315e-016, -7.31023315e-016, -7.31023315e-016,
          1.64887812e-002, -7.94322044e-003, 3.16129206e-003,
          -3.82279493e-002, 2.69623660e-002, -6.38996065e-002,
          -1.72925834e-002, 6.84172660e-002, 6.66393414e-002,
          -2.32756697e-002, -3.95516269e-002, 5.15745813e-003,
          2.18060836e-002, -2.61016842e-002, -1.10805314e-003,
          6.09776331e-003, -5.71321184e-003, 3.58050177e-003,
          1.08174328e-002, 4.06586379e-002, -1.45381093e-002,
          3.63161904e-004, -4.62053064e-003, -7.31023315e-016,
          -7.31023315e-016, -7.31023315e-016, -7.31023315e-016,
          -7.31023315e-016, -7.31023315e-016, -7.31023315e-016,
          -7.31023315e-016, 2.61780601e-002, 2.00596452e-002,
          9.41282324e-003, -2.13986565e-003, -5.74558042e-003,
          -2.29417440e-003, -7.69798085e-003, -5.54843098e-002,
          9.58817732e-003, -5.79843158e-003, 8.40288680e-003,
          3.70689109e-002, -2.57375780e-002, -9.72240511e-003,
          -5.95905334e-002, -2.51404867e-002, 3.41529511e-002,
          1.93782952e-002, -4.49877121e-002, -5.80629520e-003,
          2.59575546e-002, 2.59611458e-002, 7.20846327e-003,
          1.57143287e-002, -7.31023315e-016, -7.31023315e-016,
          -7.31023315e-016, -7.31023315e-016, -7.31023315e-016,
          -7.31023315e-016, -7.31023315e-016, -7.31023315e-016,
          2.13374794e-002, 3.27180028e-002, -1.20908814e-002,
          1.79980462e-003, -4.19014692e-002, -1.00109968e-002,
          -7.10614817e-003, 5.77060133e-003, 5.85836470e-002,
          8.30300897e-003, 7.27421343e-002, 5.28753400e-002,
          7.54309678e-003, -7.42531046e-002, -1.10800065e-001,
          -5.77280298e-002, 4.69179899e-002, -9.46827605e-003,
          3.85738611e-002, 4.72789556e-002, -1.39588183e-002,
          -1.57809183e-002, 4.67317121e-004, 2.96199210e-002,
          -7.31023315e-016, -7.31023315e-016, -7.31023315e-016,
          -7.31023315e-016, -7.31023315e-016, -7.31023315e-016,
          -7.31023315e-016, -7.31023315e-016, -3.57086328e-003,
          3.80717143e-002, 1.05234934e-002, 1.85645577e-002,
          -5.91655038e-002, 1.39959771e-002, 1.48588791e-003,
          2.43381280e-002, 1.67509764e-002, 7.75565952e-002,
          4.98568229e-002, 3.36012356e-002, -4.91617760e-003,
          -9.35561210e-002, -5.98270148e-002, -3.95689607e-002,
          3.03383842e-002, 6.06348179e-003, -1.89832970e-002,
          -5.39849028e-002, -1.02601405e-002, -2.15816461e-002,
          1.89655125e-002, 3.36112678e-002, -7.31023315e-016,
          -7.31023315e-016, -7.31023315e-016, -7.31023315e-016,
          -7.31023315e-016, -7.31023315e-016, -7.31023315e-016,
          -7.31023315e-016, -7.31023315e-016, 4.66378219e-002,
          7.61717111e-002, 4.33762595e-002, 2.28848355e-003,
          -5.49120363e-003, -5.47497347e-002, 6.75587505e-002,
          7.36623630e-002, 4.03679907e-002, -2.03980748e-002,
          3.58574390e-002, -7.05356896e-002, -5.39691932e-003,
          -3.43595557e-002, -6.47375360e-002, -8.26844722e-002,
          -7.18377382e-002, -1.13137357e-001, -8.75276253e-002,
          -2.88133547e-002, -2.28975657e-002, 1.36044864e-002,
          -1.45805432e-002, -7.31023315e-016, -7.31023315e-016,
          -7.31023315e-016, -7.31023315e-016, -7.31023315e-016,
          -7.31023315e-016, -7.31023315e-016, -7.31023315e-016,
          -7.31023315e-016, 2.97653452e-002, 4.44954783e-002,
          1.09948665e-001, 2.74819825e-002, 7.21946135e-002,
          7.51187950e-002, 5.65785803e-002, 8.81626830e-003,
          -1.09904939e-002, -9.00211707e-002, -3.66733856e-002,
          -2.49747932e-002, -4.06903028e-002, -6.99116066e-002,
          -5.20043820e-002, -7.74126127e-002, -1.27866790e-001,
          -5.21419495e-002, -2.10107379e-002, 7.40242889e-003,
          5.85701596e-003, -2.29193177e-002, -7.79503165e-003,
          -7.31023315e-016, -7.31023315e-016, -7.31023315e-016,
          -7.31023315e-016, -7.31023315e-016, -7.31023315e-016,
          -7.31023315e-016, -7.31023315e-016, -7.31023315e-016,
          3.28276716e-002, 5.50929308e-002, 3.30022685e-002,
          2.57500038e-002, 8.98405239e-002, 9.41621363e-002,
          1.73323192e-002, -3.15320455e-002, -3.59390713e-002,
          -6.30868226e-002, -6.36491701e-002, -2.71928795e-002,
          -2.38569789e-002, -4.97855023e-002, -4.34340313e-002,
          -1.50097251e-001, -7.06885755e-002, -6.72251880e-002,
          -6.71520606e-002, 2.87685986e-003, 1.40648875e-002,
          -1.86199490e-002, -7.79503165e-003, -7.31023315e-016,
          -7.31023315e-016, -7.31023315e-016, -7.31023315e-016,
          -7.31023315e-016, -7.31023315e-016, -7.31023315e-016,
          -7.31023315e-016, 7.96589628e-003, 3.01344711e-002,
          3.40773887e-003, 2.01133080e-003, -1.34110637e-003,
          -4.83794324e-002, -3.26200277e-002, -1.77089442e-002,
          -1.53073166e-002, -3.92018221e-002, -1.02928281e-001,
          -4.10195850e-002, -7.35899210e-002, -7.88099915e-002,
          -6.68815374e-002, -8.42788070e-002, -4.52461950e-002,
          -5.74256852e-002, -6.21442534e-002, -5.34441918e-002,
          -2.88133547e-002, 3.48123275e-002, -1.86199490e-002,
          -7.79503165e-003, -7.31023315e-016, -7.31023315e-016,
          -7.31023315e-016, -7.31023315e-016, -7.31023315e-016,
          -7.31023315e-016, -7.31023315e-016, -7.31023315e-016,
          -2.49449927e-002, -4.97464240e-002, 1.46427108e-002,
          -1.15144495e-002, -1.62045602e-002, 1.59427561e-002,
          -6.78226235e-004, -4.86254431e-002, -2.49736439e-002,
          -6.51340261e-002, -9.79598686e-002, -4.69121039e-002,
          -9.58636329e-002, -5.79507910e-002, -9.11909565e-002,
          -7.95693472e-002, -4.09885962e-003, -2.75402199e-002,
          -8.96635558e-003, -3.65922488e-002, -2.19903793e-002,
          8.27307906e-003, -1.86199490e-002, -1.13658952e-002,
          -7.31023315e-016, -7.31023315e-016, -7.31023315e-016,
          -7.31023315e-016, -7.31023315e-016, -7.31023315e-016,
          -7.31023315e-016, -7.31023315e-016, -1.92086194e-002,
          -7.02287629e-002, 8.76998603e-002, 2.63680331e-002,
          2.07438767e-002, -3.25760767e-002, 2.82611549e-002,
          -7.32767358e-002, -8.89683291e-002, -7.78584927e-002,
          -7.95810148e-002, -1.25615045e-001, -1.12249292e-001,
          -6.28015622e-002, -6.63316548e-002, -2.68594641e-002,
          -2.88601331e-002, -2.67336145e-002, -3.08433920e-002,
          -2.16315221e-002, -1.97269861e-002, 1.18920030e-002,
          -1.11502986e-002, -2.19815737e-003, -7.31023315e-016,
          -7.31023315e-016, -7.31023315e-016, -7.31023315e-016,
          -7.31023315e-016, -7.31023315e-016, -7.31023315e-016,
          -7.31023315e-016, 1.17775956e-002, 6.40069693e-002,
          4.74109687e-002, -3.66043509e-003, -1.20605435e-002,
          -7.67304823e-002, -2.96569034e-003, -8.61967541e-003,
          -2.74528544e-002, 2.66110227e-002, -1.90230794e-002,
          -4.12156545e-002, -7.98888355e-002, -1.31356632e-002,
          3.72001454e-002, -1.27043147e-002, -1.91607159e-002,
          -3.61323208e-002, -1.82362292e-002, -1.42565481e-002,
          -2.63418052e-002, 9.02692508e-003, -5.41280583e-003,
          -2.19815737e-003, -7.79503165e-003, -7.31023315e-016,
          -7.31023315e-016, -7.31023315e-016, -7.31023315e-016,
          -7.31023315e-016, -7.31023315e-016, -7.31023315e-016,
          2.05917396e-002, 2.97860093e-002, 1.70896892e-002,
          3.74141112e-002, -1.14266887e-001, -7.00116064e-003,
          2.76750140e-002, 2.80767884e-002, -1.53509108e-002,
          3.00296899e-002, 1.18500078e-002, 1.85214933e-002,
          -7.36230472e-003, 3.69674377e-002, 2.31254119e-002,
          -1.29086887e-002, -1.99704450e-002, -3.06006894e-002,
          -3.90099920e-003, -2.44951155e-002, -7.06005190e-003,
          9.91247036e-003, -4.36478714e-003, -1.54053010e-002,
          -7.31023315e-016, -7.31023315e-016, -7.31023315e-016,
          -7.31023315e-016, -7.31023315e-016, -7.31023315e-016,
          -7.31023315e-016, -7.31023315e-016, 1.47213824e-002,
          4.17469777e-002, 3.19487453e-002, -4.40769754e-002,
          -8.24453309e-002, 4.22419161e-002, 4.12752964e-002,
          -5.12554869e-002, -4.54872251e-002, 1.51140830e-002,
          4.50068898e-002, 1.46087473e-002, 1.08462740e-002,
          2.41827127e-002, 3.76704820e-002, 5.14392555e-002,
          -1.46026281e-003, 4.63345759e-002, -8.81542452e-003,
          -1.47363478e-002, -3.30455601e-002, -1.31005859e-002,
          -4.00920492e-003, -7.61026982e-003, -7.31023315e-016,
          -7.31023315e-016, -7.31023315e-016, -7.31023315e-016,
          -7.31023315e-016, -7.31023315e-016, -7.31023315e-016,
          -7.31023315e-016, -5.20264693e-002, 8.57427064e-003,
          2.35648025e-002, -2.98556313e-002, -5.43076061e-002,
          1.19845439e-002, 1.15760259e-001, 7.54118636e-002,
          -2.88077779e-002, -4.79703136e-002, 7.46574402e-002,
          4.52677682e-002, -6.60151476e-003, -1.87108200e-002,
          5.41231688e-003, -9.38847288e-003, -2.33099107e-002,
          -8.89113359e-003, 9.88497958e-003, -5.72092613e-005,
          -8.10691901e-003, -1.62609126e-002, -3.00781056e-002,
          -1.14117330e-002, -7.31023315e-016, -7.31023315e-016,
          -7.31023315e-016, -7.31023315e-016, -7.31023315e-016,
          -7.31023315e-016, -7.31023315e-016, -7.31023315e-016,
          -3.79475020e-002, -2.15493478e-002, 1.04515171e-002,
          -9.78486463e-002, -2.64463481e-002, 9.40517336e-002,
          2.48302858e-005, 5.79415038e-002, 4.93705980e-002,
          -2.26109698e-002, 7.48522580e-002, 2.10402384e-002,
          -3.62723321e-002, 5.39865308e-002, 3.91826183e-002,
          3.24291587e-002, -2.62519065e-002, 5.39887846e-002,
          1.48825757e-002, -2.19656825e-002, -3.40937898e-002,
          -1.24594495e-002, -3.10675241e-002, -7.05383252e-003,
          -7.31023315e-016, -7.31023315e-016, -7.31023315e-016,
          -7.31023315e-016, -7.31023315e-016, -7.31023315e-016,
          -7.31023315e-016, -3.87812480e-002, -5.50481305e-002,
          -2.09673401e-002, -3.60189751e-002, -3.12836580e-002,
          -2.67766993e-002, 7.66233802e-002, 1.04084052e-001,
          5.48767112e-002, -1.13940118e-002, -1.39044486e-002,
          5.90480678e-002, -2.23736539e-002, -5.06126620e-002,
          3.68701108e-002, 1.19648660e-002, -4.02436368e-002,
          6.40594363e-002, -3.27870157e-003, -7.44183641e-003,
          -4.87395898e-002, -2.27266662e-002, -2.27266662e-002,
          -1.64053719e-002, -1.24438601e-002, -7.31023315e-016,
          -7.31023315e-016, -7.31023315e-016, -7.31023315e-016,
          -7.31023315e-016, -7.31023315e-016, -7.31023315e-016,
          -3.87812480e-002, -6.26583993e-002, -7.37984851e-002,
          -1.77913025e-001, -1.68774128e-001, -1.05640203e-001,
          5.26323169e-003, 4.11905572e-002, -8.55459925e-003,
          -4.28520851e-002, -2.37011705e-002, 4.44316156e-002,
          4.75346856e-002, -2.04999093e-002, 2.93361358e-002,
          4.53596860e-002, -1.84125081e-002, -1.90926921e-002,
          -2.46678274e-002, -4.51781601e-002, -2.06573084e-002,
          -1.22709144e-002, -2.26339372e-003, -1.85951609e-002,
          -1.85951609e-002, -7.31023315e-016, -7.31023315e-016,
          -7.31023315e-016, -7.31023315e-016, -7.31023315e-016,
          -7.31023315e-016, -7.31023315e-016, -7.31023315e-016,
          -6.21481352e-002, -7.03124329e-002, -1.12663396e-001,
          -1.01273589e-001, -9.58502889e-002, -3.60287912e-002,
          -3.15052830e-002, 8.04993585e-002, 2.09368113e-002,
          1.90625172e-002, -5.52097671e-002, 3.44763137e-002,
          4.58758101e-002, 3.32083516e-002, 1.04489520e-001,
          -4.95244190e-002, -7.17842728e-002, -6.34303614e-002,
          -1.89723633e-003, -1.13022523e-002, -7.31023315e-016,
          -7.31023315e-016, -4.49573342e-003, -4.49573342e-003,
          -7.31023315e-016, -7.31023315e-016, -7.31023315e-016,
          -7.31023315e-016, -7.31023315e-016, -7.31023315e-016,
          -7.31023315e-016, -7.31023315e-016, -7.31023315e-016,
          -7.31023315e-016, -7.31023315e-016, -7.31023315e-016,
          -7.31023315e-016, -7.31023315e-016, -7.31023315e-016,
          -7.31023315e-016, -7.31023315e-016, -7.31023315e-016,
          -7.31023315e-016, -7.31023315e-016, -7.31023315e-016,
          -7.31023315e-016, -7.31023315e-016, -7.31023315e-016,
          -7.31023315e-016, -7.31023315e-016, -7.31023315e-016,
          -7.31023315e-016, -7.31023315e-016, -7.31023315e-016,
          -7.31023315e-016, -7.31023315e-016, -7.31023315e-016,
          -7.31023315e-016, -7.31023315e-016, -7.31023315e-016,
          -7.31023315e-016, -7.31023315e-016, -7.31023315e-016,
          -7.31023315e-016, -7.31023315e-016, -7.31023315e-016,
          -7.31023315e-016, -7.31023315e-016, -7.31023315e-016,
          -7.31023315e-016, -7.31023315e-016, -7.31023315e-016,
          -7.31023315e-016, -7.31023315e-016, -7.31023315e-016,
          -7.31023315e-016, -7.31023315e-016, -7.31023315e-016,
          -7.31023315e-016, -7.31023315e-016, -7.31023315e-016,
          -7.31023315e-016, -7.31023315e-016, -7.31023315e-016,
          -7.31023315e-016, -7.31023315e-016, -7.31023315e-016,
          -7.31023315e-016, -7.31023315e-016, -7.31023315e-016,
          -7.31023315e-016, -7.31023315e-016, -7.31023315e-016,
          -7.31023315e-016, -7.31023315e-016, -7.31023315e-016,
          -7.31023315e-016, -7.31023315e-016, -7.31023315e-016,
          -7.31023315e-016, -7.31023315e-016, -7.31023315e-016,
          -7.31023315e-016, -7.31023315e-016, -7.31023315e-016,
          -7.31023315e-016, -7.31023315e-016, -7.31023315e-016,
          -7.31023315e-016, -7.31023315e-016, -7.31023315e-016,
          -7.31023315e-016, -7.31023315e-016, -7.31023315e-016,
          -7.31023315e-016, -7.31023315e-016, -7.31023315e-016,
          -7.31023315e-016, -7.31023315e-016, -7.31023315e-016,
          -7.31023315e-016, -7.31023315e-016, -7.31023315e-016,
          -7.31023315e-016 ]
      - [ 5.54677831e-016, 5.54677831e-016, 5.54677831e-016,
          5.54677831e-016, 5.54677831e-016, 5.54677831e-016,
          5.54677831e-016, 5.54677831e-016, 5.54677831e-016,
          5.54677831e-016, 5.54677831e-016, 5.54677831e-016,
          5.54677831e-016, 5.54677831e-016, 5.54677831e-016,
          5.54677831e-016, 5.54677831e-016, 5.54677831e-016,
          5.54677831e-016, 5.54677831e-016, 5.54677831e-016,
          5.54677831e-016, 5.54677831e-016, 5.54677831e-016,
          5.54677831e-016, 5.54677831e-016, 5.54677831e-016,
          5.54677831e-016, 5.54677831e-016, 5.54677831e-016,
          5.54677831e-016, 5.54677831e-016, 5.54677831e-016,
          5.54677831e-016, 5.54677831e-016, 5.54677831e-016,
          5.54677831e-016, 5.54677831e-016, 5.54677831e-016,
          5.54677831e-016, 5.54677831e-016, 5.54677831e-016,
          5.54677831e-016, 5.54677831e-016, 5.54677831e-016,
          5.54677831e-016, 5.54677831e-016, 5.54677831e-016,
          5.54677831e-016, 5.54677831e-016, 5.54677831e-016,
          5.54677831e-016, 5.54677831e-016, 5.54677831e-016,
          5.54677831e-016, 5.54677831e-016, 5.54677831e-016,
          5.54677831e-016, 5.54677831e-016, 5.54677831e-016,
          5.54677831e-016, 5.54677831e-016, 5.54677831e-016,
          5.54677831e-016, 5.54677831e-016, 5.54677831e-016,
          5.54677831e-016, 5.54677831e-016, 5.54677831e-016,
          5.54677831e-016, 5.54677831e-016, 5.54677831e-016,
          5.54677831e-016, 5.54677831e-016, 5.54677831e-016,
          5.54677831e-016, 5.54677831e-016, 5.54677831e-016,
          5.54677831e-016, 5.54677831e-016, 5.54677831e-016,
          5.54677831e-016, 5.54677831e-016, 5.54677831e-016,
          5.54677831e-016, 5.54677831e-016, 5.54677831e-016,
          5.54677831e-016, 5.54677831e-016, 5.54677831e-016,
          5.54677831e-016, 5.54677831e-016, 5.54677831e-016,
          5.54677831e-016, 5.54677831e-016, 5.54677831e-016,
          5.54677831e-016, 5.54677831e-016, 5.54677831e-016,
          5.54677831e-016, 5.54677831e-016, 5.54677831e-016,
          5.54677831e-016, 5.54677831e-016, 5.54677831e-016,
          5.54677831e-016, 5.54677831e-016, 5.54677831e-016,
          5.54677831e-016, 5.54677831e-016, 5.54677831e-016,
          5.54677831e-016, 5.54677831e-016, 5.54677831e-016,
          5.54677831e-016, 5.54677831e-016, 5.54677831e-016,
          5.54677831e-016, 5.54677831e-016, 5.54677831e-016,
          5.54677831e-016, 5.54677831e-016, 5.54677831e-016,
          5.54677831e-016, 5.54677831e-016, 5.54677831e-016,
          5.54677831e-016, 5.54677831e-016, 5.54677831e-016,
          5.54677831e-016, 5.54677831e-016, 5.54677831e-016,
          5.54677831e-016, 1.16812764e-002, 2.07691733e-002,
          2.63483804e-002, 2.15741303e-002, -2.53411476e-002,
          -3.44336890e-002, 4.60496135e-002, 8.96291509e-002,
          1.44204587e-001, 4.65235524e-002, 9.51778069e-002,
          1.44306734e-001, 6.18687049e-002, 4.56128865e-002,
          7.90096968e-002, 8.96874741e-002, 5.48395813e-002,
          -8.66259560e-002, -9.16452631e-002, -2.44469438e-002,
          -2.82084309e-002, 1.89920329e-002, 4.62427782e-003,
          5.54677831e-016, 5.54677831e-016, 5.54677831e-016,
          5.54677831e-016, 5.54677831e-016, 5.54677831e-016,
          5.54677831e-016, 5.54677831e-016, 5.54677831e-016,
          3.32895070e-002, 2.92721353e-002, 6.38297573e-002,
          5.14367260e-002, -2.53630560e-002, -3.12211942e-002,
          -2.56013833e-002, 1.07830703e-001, 3.54055241e-002,
          -7.00380420e-003, 4.34163585e-002, 9.22572762e-002,
          6.01747558e-002, 1.58501700e-001, 4.90745306e-002,
          4.58974279e-002, 1.90899372e-002, -6.23541251e-002,
          5.80746084e-002, -5.34844548e-002, -4.22185427e-003,
          -6.90086372e-003, -2.86970008e-002, 5.54677831e-016,
          5.54677831e-016, 5.54677831e-016, 5.54677831e-016,
          5.54677831e-016, 5.54677831e-016, 5.54677831e-016,
          5.54677831e-016, 5.54677831e-016, 3.32895070e-002,
          3.32895070e-002, 5.61658517e-002, 6.60450757e-002,
          -5.33200875e-002, -5.96981868e-003, -1.01263318e-002,
          6.51928857e-002, 1.28340110e-001, 8.31586495e-002,
          7.36558065e-002, 5.85278720e-002, 2.61345003e-002,
          7.97989033e-003, 1.36791259e-001, 4.97841612e-002,
          -6.65731449e-003, 3.00019663e-002, 5.18350117e-002,
          6.86393864e-003, -1.39653981e-002, 6.31468147e-002,
          -2.61019561e-002, 3.60046327e-003, 5.54677831e-016,
          5.54677831e-016, 5.54677831e-016, 5.54677831e-016,
          5.54677831e-016, 5.54677831e-016, 5.54677831e-016,
          5.54677831e-016, 3.32895070e-002, 4.04741950e-002,
          6.33505359e-002, 7.76042696e-004, -3.62979807e-002,
          -1.78852305e-002, -3.29444520e-002, 4.35675085e-002,
          3.66751850e-002, 7.54516423e-002, 6.66308999e-002,
          -5.87112494e-002, -6.65175617e-002, -5.21612680e-003,
          6.93377033e-002, 1.27816454e-001, -6.48168027e-002,
          -2.70237844e-003, 3.14125977e-002, 1.19436421e-001,
          -4.43125926e-002, -1.11406976e-002, 1.23037202e-002,
          3.85661870e-002, 5.54677831e-016, 5.54677831e-016,
          5.54677831e-016, 5.54677831e-016, 5.54677831e-016,
          5.54677831e-016, 5.54677831e-016, 5.54677831e-016,
          3.64568233e-002, 4.04741950e-002, 3.69553417e-002,
          7.76042696e-004, -2.39759572e-002, -1.15457308e-002,
          -9.79525852e-004, 3.77991870e-002, 1.82407144e-002,
          7.27495775e-002, 3.15841362e-002, 8.84293094e-002,
          6.89230114e-002, 4.90570478e-002, -5.70097938e-003,
          4.28998210e-002, 6.41834736e-003, 4.27416116e-002,
          -2.49164719e-002, 7.03566968e-002, -7.87064508e-002,
          3.38277705e-002, -3.31477113e-002, 3.60046327e-003,
          5.54677831e-016, 5.54677831e-016, 5.54677831e-016,
          5.54677831e-016, 5.54677831e-016, 5.54677831e-016,
          5.54677831e-016, 5.54677831e-016, 3.46076638e-002,
          3.46076638e-002, -3.85987246e-003, 1.53025864e-002,
          1.91247716e-004, 3.10234185e-002, 2.15337109e-002,
          -3.98108475e-002, 5.69068268e-002, 4.55203950e-002,
          4.52055625e-004, 7.77269900e-002, 4.50909287e-002,
          3.65758725e-002, 7.31292740e-002, 2.01745164e-002,
          4.50659990e-002, 1.22727389e-002, 3.27813774e-002,
          -4.85723503e-002, -3.15362103e-002, 4.70490828e-002,
          -4.39318568e-002, 3.60046327e-003, 3.60046327e-003,
          5.54677831e-016, 5.54677831e-016, 5.54677831e-016,
          5.54677831e-016, 5.54677831e-016, 5.54677831e-016,
          5.54677831e-016, 2.92721353e-002, -2.62050778e-002,
          2.79860105e-002, -1.48846097e-002, -6.55718669e-002,
          -7.61493593e-002, -5.87518699e-002, 1.16359945e-002,
          -1.16504915e-002, 1.31353475e-002, 1.17408959e-002,
          5.20659797e-002, -6.06411658e-002, 1.07500903e-001,
          1.15099438e-001, -3.20843197e-002, -1.49684083e-002,
          -9.60302427e-002, -3.52744721e-002, -3.82653549e-002,
          -3.68021838e-002, 7.97459930e-002, -6.07358664e-002,
          3.60046327e-003, 5.54677831e-016, 5.54677831e-016,
          5.54677831e-016, 5.54677831e-016, 5.54677831e-016,
          5.54677831e-016, 5.54677831e-016, 5.54677831e-016,
          1.90118502e-004, 2.87693948e-003, -2.56645810e-002,
          -6.76688924e-003, 5.15496768e-002, 8.42001755e-003,
          -2.07760856e-002, -2.33304352e-002, 3.47348489e-002,
          -1.46838173e-001, -9.56859887e-002, 2.03092694e-002,
          -3.31049785e-002, -1.38506554e-002, -1.01975262e-001,
          1.43987745e-001, 8.26955214e-002, -9.62177850e-003,
          -1.81252491e-002, -1.29546383e-002, 4.43638861e-002,
          -2.93069836e-002, 1.09378420e-001, 2.61231646e-004,
          5.54677831e-016, 5.54677831e-016, 5.54677831e-016,
          5.54677831e-016, 5.54677831e-016, 5.54677831e-016,
          5.54677831e-016, 5.54677831e-016, 1.90118502e-004,
          -4.58880328e-002, -4.93346378e-002, 1.21273831e-001,
          5.24711348e-002, -3.75298597e-002, 1.09336488e-001,
          1.03174947e-001, -1.37848780e-002, -3.62018608e-002,
          -1.44599495e-003, 5.02341241e-002, -1.79558862e-002,
          -1.75276082e-002, 2.80126855e-002, 7.34434649e-002,
          2.49852203e-002, -1.30495563e-001, 6.02657050e-002,
          -1.59584172e-002, 1.28792554e-001, 5.13867363e-002,
          1.65650621e-001, 1.12659656e-001, 5.54677831e-016,
          5.54677831e-016, 5.54677831e-016, 5.54677831e-016,
          5.54677831e-016, 5.54677831e-016, 5.54677831e-016,
          -2.90820170e-002, -1.10430941e-002, -4.36098874e-002,
          8.09199885e-002, -2.67534852e-002, -1.34933721e-002,
          8.25840533e-002, 3.48602459e-002, 7.20652714e-002,
          5.10300361e-002, 3.06352433e-002, 7.23444819e-002,
          -3.11065000e-003, -9.66715962e-002, -1.53545290e-001,
          -3.67629202e-003, 7.22684264e-002, -4.93896641e-002,
          2.38783602e-002, -2.17806622e-002, 1.16736449e-001,
          1.31552607e-001, 1.07673652e-001, 1.08236872e-001,
          5.65428436e-002, 5.54677831e-016, 5.54677831e-016,
          5.54677831e-016, 5.54677831e-016, 5.54677831e-016,
          5.54677831e-016, 5.54677831e-016, -2.90820170e-002,
          -5.22184419e-003, -3.23766768e-002, 8.09199885e-002,
          -6.15767911e-002, 1.20072074e-001, 7.16395527e-002,
          4.30265293e-002, 6.47036657e-002, 1.30763324e-002,
          1.34921283e-001, -2.70639304e-002, 1.10706627e-001,
          -6.18632603e-003, -2.09600795e-002, 5.31480834e-002,
          -1.43250361e-001, 1.02133691e-001, -7.59607106e-002,
          2.92996014e-003, 8.20240900e-002, 1.17774241e-001,
          9.16266963e-002, 1.47328883e-001, 2.19448563e-003,
          5.54677831e-016, 5.54677831e-016, 5.54677831e-016,
          5.54677831e-016, 5.54677831e-016, 5.54677831e-016,
          5.54677831e-016, 5.54677831e-016, -5.22184419e-003,
          9.03571174e-002, 7.50898197e-003, -1.02235926e-002,
          9.30740088e-002, 1.01887584e-002, 5.01645133e-002,
          -1.79185346e-002, 4.48657647e-002, -8.55575129e-002,
          3.28265205e-002, -9.96828973e-002, 2.88544800e-002,
          4.20105048e-002, -1.05858043e-001, -1.70041732e-002,
          5.30780628e-002, -2.19877139e-002, 8.46929699e-002,
          7.20852464e-002, 1.93564948e-002, 5.86395226e-002,
          6.90719262e-002, 1.05909780e-002, 5.54677831e-016,
          5.54677831e-016, 5.54677831e-016, 5.54677831e-016,
          5.54677831e-016, 5.54677831e-016, 5.54677831e-016,
          5.54677831e-016, -5.22184419e-003, 7.48774558e-002,
          2.65445728e-002, 2.36660801e-002, 1.50767667e-002,
          -3.80583294e-002, 6.81130588e-002, -8.28093290e-002,
          -3.91470082e-003, 1.99331082e-002, -3.25135887e-002,
          -2.53163707e-002, 1.36606768e-002, 5.78336371e-003,
          -1.30643666e-001, -7.49466866e-002, 2.28125378e-002,
          2.92405766e-002, 6.67881519e-002, 3.98714505e-002,
          8.71505868e-003, 6.00091107e-002, 7.13479519e-002,
          -2.20185844e-003, 5.54677831e-016, 5.54677831e-016,
          5.54677831e-016, 5.54677831e-016, 5.54677831e-016,
          5.54677831e-016, 5.54677831e-016, 5.54677831e-016,
          3.08317598e-002, 7.45344460e-002, 3.85380946e-002,
          -7.10901543e-002, -2.49024592e-002, -3.57688889e-002,
          2.95016798e-003, -1.69179529e-001, -1.73463225e-001,
          -5.94293512e-002, -8.35045427e-002, 4.34390157e-002,
          -6.01229928e-002, -7.33307600e-002, -9.52795967e-002,
          -2.57823672e-002, -6.50607273e-002, 3.32744829e-002,
          -1.34088799e-001, 4.95178886e-002, 5.68288676e-002,
          9.58513543e-002, 1.03815272e-002, 1.05909780e-002,
          5.54677831e-016, 5.54677831e-016, 5.54677831e-016,
          5.54677831e-016, 5.54677831e-016, 5.54677831e-016,
          5.54677831e-016, 5.54677831e-016, 3.48491333e-002,
          -8.28380883e-003, -1.20411702e-002, -3.30402963e-002,
          -1.40092000e-001, 2.65508778e-002, -3.35918665e-002,
          -2.97024418e-002, -1.01052655e-003, -1.09681338e-001,
          -9.82766002e-002, -1.28262311e-001, -8.38884339e-002,
          -1.54466294e-002, 3.81878205e-002, 1.18702106e-001,
          2.25743987e-002, -1.35150822e-002, -3.46680619e-002,
          6.48999214e-002, 8.89170319e-002, 7.56640807e-002,
          3.00748311e-002, 5.54677831e-016, 5.54677831e-016,
          5.54677831e-016, 5.54677831e-016, 5.54677831e-016,
          5.54677831e-016, 5.54677831e-016, 5.54677831e-016,
          -1.73183288e-002, -4.93577570e-002, -2.97959913e-002,
          3.44583131e-002, -1.13548078e-001, -4.46440578e-002,
          -4.06280607e-002, -3.35341282e-002, -4.35203873e-002,
          -8.00867602e-002, -8.25335160e-002, -8.12411904e-002,
          -1.38132349e-001, 3.64341168e-003, 1.20769842e-002,
          -7.32081905e-002, 3.16267386e-002, -3.99797447e-002,
          4.99088950e-002, 3.51258516e-002, -6.41192570e-002,
          3.71623971e-002, -2.27516666e-002, 1.01274671e-002,
          5.54677831e-016, 5.54677831e-016, 5.54677831e-016,
          5.54677831e-016, 5.54677831e-016, 5.54677831e-016,
          5.54677831e-016, 5.54677831e-016, -2.86590494e-002,
          -1.70113295e-001, -7.15501308e-002, -1.01683289e-001,
          -2.16914508e-002, 3.82514521e-002, -7.56057277e-002,
          -1.86089486e-001, -1.24679938e-001, -9.96211320e-002,
          -2.05013212e-002, -1.81245834e-001, -9.88838002e-002,
          4.25234437e-002, -1.04310056e-002, 1.37425158e-002,
          -8.16603675e-002, -3.74097284e-003, 2.14973968e-002,
          -1.32031320e-002, 2.74932594e-003, 2.59238556e-002,
          1.73640493e-002, 1.66154578e-002, 5.54677831e-016,
          5.54677831e-016, 5.54677831e-016, 5.54677831e-016,
          5.54677831e-016, 5.54677831e-016, 5.54677831e-016,
          5.54677831e-016, -1.66706983e-002, -5.09912446e-002,
          -2.64326902e-003, -5.35485744e-002, 5.62784784e-002,
          -5.83166368e-002, 1.29990727e-002, -1.45930359e-002,
          1.61408391e-002, 4.88457195e-002, -1.07072145e-002,
          -2.88654156e-002, -7.91805312e-002, -6.71758056e-002,
          7.41274804e-002, -5.39335757e-002, 3.65656950e-002,
          3.25603895e-002, -1.12954127e-002, -5.03722839e-002,
          -1.24761614e-003, 9.23518743e-003, 4.48864438e-002,
          -3.76710817e-002, 5.54677831e-016, 5.54677831e-016,
          5.54677831e-016, 5.54677831e-016, 5.54677831e-016,
          5.54677831e-016, 5.54677831e-016, 5.54677831e-016,
          4.56450507e-002, -1.24436498e-001, 7.46128522e-003,
          3.89143974e-002, -2.29172818e-002, 1.69849508e-002,
          9.20705795e-002, 1.10585503e-001, -2.54954007e-002,
          -3.96814235e-002, 2.79176477e-002, 2.15984862e-002,
          7.88719952e-003, -1.94029417e-002, -3.23143266e-002,
          7.02248747e-003, 6.03479557e-002, 3.58437523e-002,
          -3.95632870e-002, -6.64134398e-002, -6.71855062e-002,
          4.34669033e-002, 2.81560756e-002, -2.25783791e-002,
          5.54677831e-016, 5.54677831e-016, 5.54677831e-016,
          5.54677831e-016, 5.54677831e-016, 5.54677831e-016,
          5.54677831e-016, 5.54677831e-016, -2.76691951e-002,
          4.24588956e-002, 2.10721791e-002, -8.04502219e-002,
          -3.32928896e-002, -4.13496979e-002, -4.49490696e-002,
          -4.00979221e-002, 4.73669916e-002, 1.03868268e-001,
          1.82461545e-001, -6.58349022e-002, -8.05002674e-002,
          -2.39885114e-002, 7.59172365e-002, 6.00095652e-003,
          -1.92707106e-002, -5.67062907e-002, -3.61994132e-002,
          -9.72519591e-002, -1.06438138e-001, -4.88372631e-002,
          -7.50711411e-002, -2.25783791e-002, 5.54677831e-016,
          5.54677831e-016, 5.54677831e-016, 5.54677831e-016,
          5.54677831e-016, 5.54677831e-016, 5.54677831e-016,
          5.54677831e-016, -1.19574957e-001, 5.95021397e-002,
          -2.65540667e-002, -7.55827427e-002, -4.80909012e-002,
          -2.80499775e-002, 1.17906481e-001, 5.56175224e-002,
          4.77960780e-002, 3.04913726e-002, 7.76401162e-002,
          3.82912047e-002, 8.09725598e-002, 1.41868874e-001,
          2.58649830e-002, -9.57894102e-002, 1.38053847e-002,
          -1.00013889e-001, -7.48695293e-003, -1.94544657e-004,
          -6.27248660e-002, -9.11955163e-002, -9.40585732e-002,
          -6.85959533e-002, 5.54677831e-016, 5.54677831e-016,
          5.54677831e-016, 5.54677831e-016, 5.54677831e-016,
          5.54677831e-016, 5.54677831e-016, 5.54677831e-016,
          -3.18221189e-003, 6.35198504e-002, -2.74867136e-002,
          -1.72391653e-001, -7.65538961e-002, 7.64265880e-002,
          1.38358632e-002, 8.55522379e-002, -8.53903890e-002,
          -9.80301294e-003, 6.71609193e-002, 1.11580230e-001,
          1.20378286e-001, 9.65251252e-002, -2.93592606e-002,
          -1.02038480e-001, -3.35410759e-002, 1.30444635e-002,
          -1.55895930e-002, -6.16813637e-002, -4.41959128e-002,
          -5.54909222e-002, -9.69215631e-002, -4.08936180e-002,
          5.54677831e-016, 5.54677831e-016, 5.54677831e-016,
          5.54677831e-016, 5.54677831e-016, 5.54677831e-016,
          5.54677831e-016, -1.73183288e-002, -3.14390957e-002,
          -9.64329485e-003, -1.77332032e-002, -1.13343447e-001,
          -5.35754822e-002, 5.19782454e-002, 9.84021798e-002,
          4.67473790e-002, -4.63288324e-003, -9.38029680e-003,
          1.61157344e-002, -9.76525992e-003, -4.89335321e-002,
          9.65637863e-002, -8.09707493e-002, -6.61055371e-002,
          -4.16056961e-002, -3.82758379e-002, -9.70652699e-002,
          -4.58429083e-002, -2.88759079e-002, -5.80809228e-002,
          -4.32528555e-002, -7.28856102e-002, 5.54677831e-016,
          5.54677831e-016, 5.54677831e-016, 5.54677831e-016,
          5.54677831e-016, 5.54677831e-016, 5.54677831e-016,
          -1.37178646e-002, -4.59935330e-002, -5.32958508e-002,
          -1.94313273e-001, -1.84622124e-001, 5.48415631e-003,
          5.38653173e-002, 4.50622253e-002, -8.83868244e-003,
          6.14942834e-002, -3.69945504e-002, 3.42466757e-002,
          1.64891742e-002, 5.74640855e-002, -6.54458709e-005,
          8.83344859e-002, -7.96736181e-002, -1.34541005e-001,
          -1.22600131e-001, -9.91476998e-002, -5.83854057e-002,
          -4.60957587e-002, -1.97005626e-002, -4.94501218e-002,
          -4.94501218e-002, 5.54677831e-016, 5.54677831e-016,
          5.54677831e-016, 5.54677831e-016, 5.54677831e-016,
          5.54677831e-016, 5.54677831e-016, 5.54677831e-016,
          -5.13624027e-002, -9.64222029e-002, -1.90178871e-001,
          -2.06426963e-001, -6.22968096e-003, 7.70567060e-002,
          3.09171956e-002, 1.20467260e-001, 3.16347964e-002,
          8.92179757e-002, 3.35130957e-003, 3.18301748e-003,
          -2.56459508e-002, -1.31824270e-001, -1.11325599e-001,
          -1.45534173e-001, -8.32156464e-002, -4.57196087e-002,
          -1.22896452e-002, -8.97429977e-003, 5.54677831e-016,
          5.54677831e-016, -6.91634044e-003, -6.91634044e-003,
          5.54677831e-016, 5.54677831e-016, 5.54677831e-016,
          5.54677831e-016, 5.54677831e-016, 5.54677831e-016,
          5.54677831e-016, 5.54677831e-016, 5.54677831e-016,
          5.54677831e-016, 5.54677831e-016, 5.54677831e-016,
          5.54677831e-016, 5.54677831e-016, 5.54677831e-016,
          5.54677831e-016, 5.54677831e-016, 5.54677831e-016,
          5.54677831e-016, 5.54677831e-016, 5.54677831e-016,
          5.54677831e-016, 5.54677831e-016, 5.54677831e-016,
          5.54677831e-016, 5.54677831e-016, 5.54677831e-016,
          5.54677831e-016, 5.54677831e-016, 5.54677831e-016,
          5.54677831e-016, 5.54677831e-016, 5.54677831e-016,
          5.54677831e-016, 5.54677831e-016, 5.54677831e-016,
          5.54677831e-016, 5.54677831e-016, 5.54677831e-016,
          5.54677831e-016, 5.54677831e-016, 5.54677831e-016,
          5.54677831e-016, 5.54677831e-016, 5.54677831e-016,
          5.54677831e-016, 5.54677831e-016, 5.54677831e-016,
          5.54677831e-016, 5.54677831e-016, 5.54677831e-016,
          5.54677831e-016, 5.54677831e-016, 5.54677831e-016,
          5.54677831e-016, 5.54677831e-016, 5.54677831e-016,
          5.54677831e-016, 5.54677831e-016, 5.54677831e-016,
          5.54677831e-016, 5.54677831e-016, 5.54677831e-016,
          5.54677831e-016, 5.54677831e-016, 5.54677831e-016,
          5.54677831e-016, 5.54677831e-016, 5.54677831e-016,
          5.54677831e-016, 5.54677831e-016, 5.54677831e-016,
          5.54677831e-016, 5.54677831e-016, 5.54677831e-016,
          5.54677831e-016, 5.54677831e-016, 5.54677831e-016,
          5.54677831e-016, 5.54677831e-016, 5.54677831e-016,
          5.54677831e-016, 5.54677831e-016, 5.54677831e-016,
          5.54677831e-016, 5.54677831e-016, 5.54677831e-016,
          5.54677831e-016, 5.54677831e-016, 5.54677831e-016,
          5.54677831e-016, 5.54677831e-016, 5.54677831e-016,
          5.54677831e-016, 5.54677831e-016, 5.54677831e-016,
          5.54677831e-016, 5.54677831e-016, 5.54677831e-016,
          5.54677831e-016 ]
      - [ 4.21884749e-015, 4.21884749e-015, 4.21884749e-015,
          4.21884749e-015, 4.21884749e-015, 4.21884749e-015,
          4.21884749e-015, 4.21884749e-015, 4.21884749e-015,
          4.21884749e-015, 4.21884749e-015, 4.21884749e-015,
          4.21884749e-015, 4.21884749e-015, 4.21884749e-015,
          4.21884749e-015, 4.21884749e-015, 4.21884749e-015,
          4.21884749e-015, 4.21884749e-015, 4.21884749e-015,
          4.21884749e-015, 4.21884749e-015, 4.21884749e-015,
          4.21884749e-015, 4.21884749e-015, 4.21884749e-015,
          4.21884749e-015, 4.21884749e-015, 4.21884749e-015,
          4.21884749e-015, 4.21884749e-015, 4.21884749e-015,
          4.21884749e-015, 4.21884749e-015, 4.21884749e-015,
          4.21884749e-015, 4.21884749e-015, 4.21884749e-015,
          4.21884749e-015, 4.21884749e-015, 4.21884749e-015,
          4.21884749e-015, 4.21884749e-015, 4.21884749e-015,
          4.21884749e-015, 4.21884749e-015, 4.21884749e-015,
          4.21884749e-015, 4.21884749e-015, 4.21884749e-015,
          4.21884749e-015, 4.21884749e-015, 4.21884749e-015,
          4.21884749e-015, 4.21884749e-015, 4.21884749e-015,
          4.21884749e-015, 4.21884749e-015, 4.21884749e-015,
          4.21884749e-015, 4.21884749e-015, 4.21884749e-015,
          4.21884749e-015, 4.21884749e-015, 4.21884749e-015,
          4.21884749e-015, 4.21884749e-015, 4.21884749e-015,
          4.21884749e-015, 4.21884749e-015, 4.21884749e-015,
          4.21884749e-015, 4.21884749e-015, 4.21884749e-015,
          4.21884749e-015, 4.21884749e-015, 4.21884749e-015,
          4.21884749e-015, 4.21884749e-015, 4.21884749e-015,
          4.21884749e-015, 4.21884749e-015, 4.21884749e-015,
          4.21884749e-015, 4.21884749e-015, 4.21884749e-015,
          4.21884749e-015, 4.21884749e-015, 4.21884749e-015,
          4.21884749e-015, 4.21884749e-015, 4.21884749e-015,
          4.21884749e-015, 4.21884749e-015, 4.21884749e-015,
          4.21884749e-015, 4.21884749e-015, 4.21884749e-015,
          4.21884749e-015, 4.21884749e-015, 4.21884749e-015,
          4.21884749e-015, 4.21884749e-015, 4.21884749e-015,
          4.21884749e-015, 4.21884749e-015, 4.21884749e-015,
          4.21884749e-015, 4.21884749e-015, 4.21884749e-015,
          4.21884749e-015, 4.21884749e-015, 4.21884749e-015,
          4.21884749e-015, 4.21884749e-015, 4.21884749e-015,
          4.21884749e-015, 4.21884749e-015, 4.21884749e-015,
          4.21884749e-015, 4.21884749e-015, 4.21884749e-015,
          4.21884749e-015, 4.21884749e-015, 4.21884749e-015,
          4.21884749e-015, 4.21884749e-015, 4.21884749e-015,
          4.21884749e-015, 4.21884749e-015, 4.21884749e-015,
          4.21884749e-015, 4.86891009e-002, 4.86891009e-002,
          7.25654960e-002, 5.66384988e-003, -2.56355647e-002,
          -7.39889666e-002, 5.51221594e-002, 1.10293897e-002,
          9.62994248e-002, -4.22062203e-002, 7.50878677e-002,
          1.26357913e-001, 8.50445405e-002, 8.79301354e-002,
          7.39901140e-002, 1.42773345e-001, 1.85315326e-001,
          6.12232164e-002, 3.14778797e-002, 5.79708032e-002,
          6.61912709e-002, -9.97490995e-003, 2.45837327e-002,
          4.21884749e-015, 4.21884749e-015, 4.21884749e-015,
          4.21884749e-015, 4.21884749e-015, 4.21884749e-015,
          4.21884749e-015, 4.21884749e-015, 4.31004763e-002,
          4.31004763e-002, 4.31004763e-002, 6.69768751e-002,
          4.87643294e-002, -2.55264007e-002, -5.44193573e-002,
          -6.29481748e-002, 7.01275319e-002, 1.00200176e-001,
          6.26336634e-002, 1.21026948e-001, 4.38820682e-002,
          6.49201544e-003, 8.70639905e-002, 5.25775664e-002,
          1.31750271e-001, 9.94876493e-003, 9.71500110e-003,
          7.30265155e-002, 6.70378283e-002, 4.41214368e-002,
          5.59328757e-002, 6.24054447e-002, 1.03769312e-002,
          4.21884749e-015, 4.21884749e-015, 4.21884749e-015,
          4.21884749e-015, 4.21884749e-015, 4.21884749e-015,
          4.21884749e-015, 4.21884749e-015, 4.31004763e-002,
          4.31004763e-002, 8.31404254e-002, 5.19643053e-002,
          -6.81713447e-002, -7.85482749e-002, -6.18390739e-003,
          1.76441092e-002, 1.04689606e-001, -5.59271947e-002,
          5.58591522e-002, 5.21884300e-002, 3.88801843e-002,
          -7.46556520e-002, 4.94834967e-002, 1.11142635e-001,
          9.75665823e-002, 8.58346447e-002, 3.83089222e-002,
          7.69109577e-002, 1.25645638e-001, 7.14315176e-002,
          7.32783526e-002, 1.93621288e-003, 4.21884749e-015,
          4.21884749e-015, 4.21884749e-015, 4.21884749e-015,
          4.21884749e-015, 4.21884749e-015, 4.21884749e-015,
          4.21884749e-015, 2.63454970e-002, 6.94459751e-002,
          9.90685299e-002, 5.01561910e-002, -3.97727937e-002,
          -4.95526493e-002, -1.20687157e-001, 8.57110019e-004,
          2.66240146e-002, 7.80428480e-003, 4.48209271e-002,
          -2.31833495e-002, -7.44951516e-002, -5.23132831e-002,
          7.19496831e-002, 5.07967323e-002, -4.46815044e-002,
          1.95436720e-002, 5.38163744e-002, 8.58761445e-002,
          1.41172195e-002, 9.76983830e-002, 1.21591657e-001,
          1.01192272e-003, 4.21884749e-015, 4.21884749e-015,
          4.21884749e-015, 4.21884749e-015, 4.21884749e-015,
          4.21884749e-015, 4.21884749e-015, 4.21884749e-015,
          2.63454970e-002, 7.51921311e-002, 7.76143521e-002,
          5.57860695e-002, 1.94729108e-003, 2.15252377e-002,
          -1.44726606e-002, -1.00214574e-002, 3.65433246e-002,
          9.44847092e-002, 2.95649506e-002, -6.25089258e-002,
          3.74664329e-002, 1.90296434e-002, 1.70985889e-002,
          7.34953880e-002, -3.55675034e-002, -1.94762219e-002,
          2.29985006e-002, 7.01627582e-002, 2.54406054e-002,
          -2.20877305e-003, 7.95020834e-002, 9.71020106e-003,
          4.21884749e-015, 4.21884749e-015, 4.21884749e-015,
          4.21884749e-015, 4.21884749e-015, 4.21884749e-015,
          4.21884749e-015, 4.21884749e-015, 4.21884749e-015,
          5.56575283e-002, 4.08406667e-002, 3.30998935e-002,
          1.04947157e-001, 5.27307168e-002, 7.85453096e-002,
          4.29518409e-002, 9.66620743e-002, 5.89485914e-002,
          -4.65710722e-002, 3.29415575e-002, 7.68821314e-002,
          -6.92133829e-002, -8.83511454e-003, 3.84997926e-003,
          -1.77171025e-002, 2.05306653e-002, 3.04732285e-002,
          8.97748619e-002, 8.26442540e-002, 1.12694554e-001,
          7.64746666e-002, 1.01192272e-003, 4.21884749e-015,
          4.21884749e-015, 4.21884749e-015, 4.21884749e-015,
          4.21884749e-015, 4.21884749e-015, 4.21884749e-015,
          4.21884749e-015, 4.82186489e-003, 3.07185296e-002,
          7.56211430e-002, -1.50194513e-002, -1.54090161e-003,
          4.99328747e-002, 4.79256501e-003, 3.61238346e-002,
          1.18319713e-001, -5.82209509e-003, 3.35901752e-002,
          9.66334045e-002, 2.63726097e-002, 1.24488540e-001,
          7.11747631e-002, 5.17783836e-002, -3.20649594e-002,
          7.39478096e-002, 5.80038056e-002, 3.79527062e-002,
          3.71292308e-002, 7.60566667e-002, 6.30926862e-002,
          1.01192272e-003, 4.21884749e-015, 4.21884749e-015,
          4.21884749e-015, 4.21884749e-015, 4.21884749e-015,
          4.21884749e-015, 4.21884749e-015, 4.21884749e-015,
          9.92322061e-003, 5.68973608e-002, -1.46246757e-002,
          -2.03830581e-002, 1.44732408e-002, -3.93416621e-002,
          1.57437995e-002, 6.74843490e-002, 4.28046361e-002,
          -6.36868775e-002, -7.00510368e-002, -4.73221354e-002,
          -7.51802251e-002, -8.73584824e-004, -8.94386694e-002,
          -1.65217761e-002, -2.53495201e-002, 2.65562255e-002,
          -8.91274810e-002, 3.62549238e-002, 3.42542864e-002,
          4.98272926e-002, 5.48700169e-002, 4.21884749e-015,
          4.21884749e-015, 4.21884749e-015, 4.21884749e-015,
          4.21884749e-015, 4.21884749e-015, 4.21884749e-015,
          4.21884749e-015, 4.21884749e-015, 3.72480042e-002,
          -3.11987139e-002, -2.61133276e-002, 2.54587214e-002,
          -2.20211260e-002, -2.42043957e-002, -7.29912594e-002,
          -2.64175255e-002, -7.73846579e-004, -6.70356005e-002,
          -2.29436178e-002, 1.51992226e-002, 4.00670664e-003,
          -1.20857894e-001, -5.47206849e-002, 4.03958000e-002,
          -1.02544706e-002, -1.02276310e-001, -9.14284214e-002,
          7.61967944e-003, -8.97918735e-003, 1.70451086e-002,
          -1.75385363e-002, 4.21884749e-015, 4.21884749e-015,
          4.21884749e-015, 4.21884749e-015, 4.21884749e-015,
          4.21884749e-015, 4.21884749e-015, 4.21884749e-015,
          5.10135572e-003, -7.50549138e-003, -2.48486437e-002,
          -8.91613774e-003, -4.84534614e-002, -3.71770449e-002,
          -5.91739975e-002, 4.14559543e-002, 3.69131379e-002,
          -3.55867948e-003, 2.53676008e-002, 2.66472306e-002,
          1.64493501e-001, -3.00941300e-002, -1.25812486e-001,
          -2.52539553e-002, 1.08966745e-001, -1.40828993e-002,
          -8.19325373e-002, -7.13296682e-002, -7.54426867e-002,
          -2.84967758e-002, 2.04043575e-002, -4.62445728e-002,
          4.21884749e-015, 4.21884749e-015, 4.21884749e-015,
          4.21884749e-015, 4.21884749e-015, 4.21884749e-015,
          4.21884749e-015, 4.21884749e-015, -2.63382751e-003,
          -9.86602902e-003, -1.96855962e-002, -2.30181706e-003,
          -1.19111888e-001, -6.33734395e-004, -3.10197826e-002,
          3.79918627e-002, -3.97735499e-002, 7.48951659e-002,
          9.23131779e-002, 5.00339866e-002, 7.95786753e-002,
          -1.16566733e-001, -2.96416297e-003, 2.49209218e-002,
          2.00757887e-002, -3.82323265e-002, -8.10228139e-002,
          -7.89160654e-002, -2.15326268e-002, -5.09234294e-002,
          -2.47872118e-002, -4.38840352e-002, 4.21884749e-015,
          4.21884749e-015, 4.21884749e-015, 4.21884749e-015,
          4.21884749e-015, 4.21884749e-015, 4.21884749e-015,
          4.21884749e-015, 4.21884749e-015, -7.50549138e-003,
          4.75752773e-003, 7.36108720e-002, -1.82169061e-002,
          3.08206435e-002, -7.55997822e-002, 1.05437420e-001,
          9.92105827e-002, 1.37810513e-001, 5.71669601e-002,
          1.75492056e-002, 8.17562640e-002, 1.16381168e-001,
          1.35603741e-001, -2.25089528e-002, -9.61979167e-005,
          -4.07332275e-003, -5.23733906e-002, -6.53808191e-002,
          -3.34001891e-002, -5.33747822e-002, -5.58488555e-002,
          -4.67412733e-002, 4.21884749e-015, 4.21884749e-015,
          4.21884749e-015, 4.21884749e-015, 4.21884749e-015,
          4.21884749e-015, 4.21884749e-015, 4.21884749e-015,
          4.21884749e-015, 5.81776313e-002, 7.12593347e-002,
          4.00289111e-002, -1.22590549e-002, 7.75039494e-002,
          6.43327385e-002, 4.92234007e-002, -1.91171635e-002,
          4.67674881e-002, -4.90666963e-002, -2.48286407e-002,
          7.82574266e-002, 1.10165857e-001, 9.75770280e-002,
          1.32755823e-002, -2.22572871e-002, -5.03729396e-002,
          -6.37764158e-003, 3.06173111e-003, 1.02505265e-002,
          -8.79597291e-002, -3.92357819e-002, -3.68967317e-002,
          -4.87166364e-003, 4.21884749e-015, 4.21884749e-015,
          4.21884749e-015, 4.21884749e-015, 4.21884749e-015,
          4.21884749e-015, 4.21884749e-015, 4.21884749e-015,
          1.84124932e-002, 7.07991347e-002, -1.73538551e-002,
          -4.80990857e-002, 2.81545706e-002, 2.17806604e-002,
          1.68268476e-002, -2.17371583e-002, 2.33373269e-002,
          -1.00566767e-001, -5.14169708e-002, -1.50045976e-002,
          6.49591014e-002, 3.68010113e-003, -7.71733299e-002,
          -1.92198113e-001, -7.66148120e-002, 1.67847555e-002,
          -1.00111619e-001, -1.12879090e-002, -7.89006799e-002,
          -3.92357819e-002, -3.68967317e-002, 4.21884749e-015,
          4.21884749e-015, 4.21884749e-015, 4.21884749e-015,
          4.21884749e-015, 4.21884749e-015, 4.21884749e-015,
          4.21884749e-015, 4.21884749e-015, 1.56288873e-002,
          -1.08495951e-002, -4.49655391e-002, 4.55900840e-002,
          5.62490150e-003, -2.68841919e-004, -1.84673462e-002,
          4.98424023e-002, -1.12388320e-002, -8.24968815e-002,
          -1.99390538e-002, -1.07721515e-001, -1.35894343e-001,
          -1.18048467e-001, -7.56699964e-002, -5.99271711e-003,
          -4.21505625e-004, -2.52722707e-002, -7.32240900e-002,
          4.07104567e-002, 1.61188375e-002, -3.92357819e-002,
          -1.29117724e-002, 2.63454970e-002, 4.21884749e-015,
          4.21884749e-015, 4.21884749e-015, 4.21884749e-015,
          4.21884749e-015, 4.21884749e-015, 4.21884749e-015,
          -5.88563532e-002, -6.50466532e-002, 1.74701419e-002,
          4.39341366e-002, -2.30026469e-002, -3.61648807e-003,
          -4.53217141e-002, -2.24469900e-002, -2.46863887e-002,
          -3.92206013e-002, -3.30915302e-002, -7.86869079e-002,
          -1.37046933e-001, -7.52783716e-002, -1.43093228e-001,
          -6.75580949e-002, -2.08450342e-003, -5.32130226e-002,
          -4.18474749e-002, -3.38406488e-002, 5.77953923e-003,
          1.34850098e-002, -2.03957744e-002, -5.67957154e-003,
          2.63454970e-002, 4.21884749e-015, 4.21884749e-015,
          4.21884749e-015, 4.21884749e-015, 4.21884749e-015,
          4.21884749e-015, 4.21884749e-015, -5.48853911e-002,
          -7.64271244e-002, 1.08625300e-001, -2.27221679e-002,
          3.83211975e-003, 1.04600834e-002, -1.61489304e-002,
          -1.74366888e-002, -3.76156829e-002, -5.06359451e-002,
          -1.01070054e-001, -1.45971850e-001, -3.97712812e-002,
          -5.90632372e-002, -7.42112547e-002, -8.12362880e-002,
          -1.24259882e-001, -1.14826374e-001, -3.49586904e-002,
          -3.82729210e-002, 6.05282933e-003, -6.97571365e-003,
          -1.55241108e-002, -3.04574403e-003, 4.21884749e-015,
          4.21884749e-015, 4.21884749e-015, 4.21884749e-015,
          4.21884749e-015, 4.21884749e-015, 4.21884749e-015,
          4.21884749e-015, -1.12411159e-003, 5.66643290e-002,
          -4.41298867e-003, -1.17034249e-001, -3.10968049e-003,
          -2.36431677e-002, -1.16181131e-002, -7.36055803e-003,
          -5.77263674e-003, -3.41907889e-002, -5.37421592e-002,
          -1.21576287e-001, -2.15749238e-002, -1.31099328e-001,
          -6.53401837e-002, -1.01359531e-001, 3.08663375e-003,
          -2.00969968e-002, -2.89990734e-002, 1.48790171e-002,
          4.44808267e-002, 3.00586298e-002, -7.97646120e-003,
          -3.04574403e-003, -2.23410490e-004, 4.21884749e-015,
          4.21884749e-015, 4.21884749e-015, 4.21884749e-015,
          4.21884749e-015, 4.21884749e-015, 4.21884749e-015,
          4.93112952e-003, -5.26100909e-003, -4.45966087e-002,
          2.45738495e-003, 3.73301003e-003, 2.87487563e-002,
          5.64092845e-002, 4.39416841e-002, -3.18439752e-002,
          4.60144952e-002, 3.03019825e-002, -6.66277930e-002,
          -9.67975054e-003, -9.62639377e-002, -6.89946627e-003,
          2.29454208e-002, 6.51806295e-002, -5.58713004e-002,
          -1.64660136e-003, 7.72886630e-003, 2.47828346e-002,
          3.29483151e-002, 7.66480388e-003, 2.54287850e-003,
          4.21884749e-015, 4.21884749e-015, 4.21884749e-015,
          4.21884749e-015, 4.21884749e-015, 4.21884749e-015,
          4.21884749e-015, 4.21884749e-015, 6.22809567e-002,
          1.91395767e-002, 3.27095762e-002, -2.46984288e-002,
          -7.57869259e-002, 5.51662371e-002, 6.84967861e-002,
          -3.38198021e-002, -5.38804196e-003, 5.67486547e-002,
          6.74592629e-002, 6.88038417e-004, -3.63986231e-002,
          8.53765104e-003, 2.43032593e-002, -2.80102901e-002,
          1.16730826e-002, 4.00407575e-002, 7.58519247e-002,
          2.19708383e-002, -4.38102037e-002, -1.64770447e-002,
          -3.58252265e-002, 2.76628905e-003, 4.21884749e-015,
          4.21884749e-015, 4.21884749e-015, 4.21884749e-015,
          4.21884749e-015, 4.21884749e-015, 4.21884749e-015,
          4.21884749e-015, -1.01723231e-001, -3.60810943e-002,
          3.50657888e-002, 2.87004784e-002, -1.22672357e-002,
          -6.45219982e-002, 5.54140620e-002, 1.08369790e-001,
          4.28452939e-002, -2.28103646e-003, 4.87942509e-002,
          1.30997626e-002, 5.22579513e-002, 2.83384863e-002,
          3.29460502e-002, -1.26512926e-002, 4.82256562e-002,
          -3.44181955e-002, -2.12438945e-002, 2.80082282e-002,
          3.99568118e-002, -1.04470653e-002, -5.01451828e-002,
          2.76628905e-003, 4.21884749e-015, 4.21884749e-015,
          4.21884749e-015, 4.21884749e-015, 4.21884749e-015,
          4.21884749e-015, 4.21884749e-015, 4.21884749e-015,
          -9.39243361e-002, -1.34907837e-003, 2.60051377e-002,
          -1.33256018e-001, -1.10281095e-001, 5.78914420e-004,
          4.63121720e-002, 4.88170832e-002, -2.96824984e-002,
          -1.89035181e-002, -8.33532866e-003, -2.11141855e-002,
          -4.78303470e-002, 6.78487495e-002, -2.45187357e-002,
          -1.17505148e-001, -8.05870071e-002, 1.27278501e-002,
          -5.07473620e-003, -3.74849178e-002, -6.51127324e-002,
          -8.80490020e-002, -7.26066083e-002, -2.35792082e-002,
          4.21884749e-015, 4.21884749e-015, 4.21884749e-015,
          4.21884749e-015, 4.21884749e-015, 4.21884749e-015,
          4.21884749e-015, -6.36366233e-002, -7.72495419e-002,
          -1.74557753e-002, -1.32440400e-004, -1.45011678e-001,
          -4.47620228e-002, 1.57594420e-002, 6.46110997e-002,
          5.03902584e-002, -1.35384789e-002, -5.42889815e-003,
          3.11354082e-003, -2.25597564e-002, -5.46493158e-002,
          3.13210785e-002, 5.08286208e-002, -4.07580696e-002,
          -9.54818167e-003, -5.14232777e-002, -1.85041390e-002,
          -4.69970070e-002, 4.14365605e-002, 5.96913043e-003,
          -2.31612567e-002, 5.71708195e-003, 4.21884749e-015,
          4.21884749e-015, 4.21884749e-015, 4.21884749e-015,
          4.21884749e-015, 4.21884749e-015, 4.21884749e-015,
          -6.79639354e-002, -2.61878986e-002, -7.47193620e-002,
          -2.15186700e-001, -1.61957517e-001, -7.89759085e-002,
          -2.02625487e-002, 2.83389129e-002, -2.08265372e-002,
          8.34258087e-003, -1.18468199e-002, 7.07664713e-003,
          -4.77795713e-002, 5.79113364e-002, 3.21974494e-002,
          3.21765244e-002, -4.47944663e-002, -5.05402777e-003,
          1.11291464e-002, -6.32943735e-002, 3.03711016e-002,
          2.10826416e-002, -1.06954724e-002, -2.14924011e-002,
          -2.70810239e-002, 4.21884749e-015, 4.21884749e-015,
          4.21884749e-015, 4.21884749e-015, 4.21884749e-015,
          4.21884749e-015, 4.21884749e-015, 4.21884749e-015,
          -6.06094897e-002, -1.19558416e-001, -1.80488959e-001,
          -1.17679909e-001, -6.78326637e-002, 1.57330465e-002,
          -3.29333842e-002, 9.11872983e-002, 4.18194793e-002,
          4.75534908e-002, 4.53699008e-002, 7.57386461e-002,
          -5.88393882e-002, 2.15280857e-002, 4.69707400e-002,
          -2.20719520e-002, -1.08192088e-002, 1.85795724e-002,
          -1.43799605e-002, 1.70027129e-002, 2.94650197e-002,
          -8.82805977e-003, -1.80714261e-002, -2.36600488e-002,
          4.21884749e-015, 4.21884749e-015, 4.21884749e-015,
          4.21884749e-015, 4.21884749e-015, 4.21884749e-015,
          4.21884749e-015, 4.21884749e-015, 4.21884749e-015,
          4.21884749e-015, 4.21884749e-015, 4.21884749e-015,
          4.21884749e-015, 4.21884749e-015, 4.21884749e-015,
          4.21884749e-015, 4.21884749e-015, 4.21884749e-015,
          4.21884749e-015, 4.21884749e-015, 4.21884749e-015,
          4.21884749e-015, 4.21884749e-015, 4.21884749e-015,
          4.21884749e-015, 4.21884749e-015, 4.21884749e-015,
          4.21884749e-015, 4.21884749e-015, 4.21884749e-015,
          4.21884749e-015, 4.21884749e-015, 4.21884749e-015,
          4.21884749e-015, 4.21884749e-015, 4.21884749e-015,
          4.21884749e-015, 4.21884749e-015, 4.21884749e-015,
          4.21884749e-015, 4.21884749e-015, 4.21884749e-015,
          4.21884749e-015, 4.21884749e-015, 4.21884749e-015,
          4.21884749e-015, 4.21884749e-015, 4.21884749e-015,
          4.21884749e-015, 4.21884749e-015, 4.21884749e-015,
          4.21884749e-015, 4.21884749e-015, 4.21884749e-015,
          4.21884749e-015, 4.21884749e-015, 4.21884749e-015,
          4.21884749e-015, 4.21884749e-015, 4.21884749e-015,
          4.21884749e-015, 4.21884749e-015, 4.21884749e-015,
          4.21884749e-015, 4.21884749e-015, 4.21884749e-015,
          4.21884749e-015, 4.21884749e-015, 4.21884749e-015,
          4.21884749e-015, 4.21884749e-015, 4.21884749e-015,
          4.21884749e-015, 4.21884749e-015, 4.21884749e-015,
          4.21884749e-015, 4.21884749e-015, 4.21884749e-015,
          4.21884749e-015, 4.21884749e-015, 4.21884749e-015,
          4.21884749e-015, 4.21884749e-015, 4.21884749e-015,
          4.21884749e-015, 4.21884749e-015, 4.21884749e-015,
          4.21884749e-015, 4.21884749e-015, 4.21884749e-015,
          4.21884749e-015, 4.21884749e-015, 4.21884749e-015,
          4.21884749e-015, 4.21884749e-015, 4.21884749e-015,
          4.21884749e-015, 4.21884749e-015, 4.21884749e-015,
          4.21884749e-015 ]
      - [ -1.95156391e-016, -1.95156391e-016, -1.95156391e-016,
          -1.95156391e-016, -1.95156391e-016, -1.95156391e-016,
          -1.95156391e-016, -1.95156391e-016, -1.95156391e-016,
          -1.95156391e-016, -1.95156391e-016, -1.95156391e-016,
          -1.95156391e-016, -1.95156391e-016, -1.95156391e-016,
          -1.95156391e-016, -1.95156391e-016, -1.95156391e-016,
          -1.95156391e-016, -1.95156391e-016, -1.95156391e-016,
          -1.95156391e-016, -1.95156391e-016, -1.95156391e-016,
          -1.95156391e-016, -1.95156391e-016, -1.95156391e-016,
          -1.95156391e-016, -1.95156391e-016, -1.95156391e-016,
          -1.95156391e-016, -1.95156391e-016, -1.95156391e-016,
          -1.95156391e-016, -1.95156391e-016, -1.95156391e-016,
          -1.95156391e-016, -1.95156391e-016, -1.95156391e-016,
          -1.95156391e-016, -1.95156391e-016, -1.95156391e-016,
          -1.95156391e-016, -1.95156391e-016, -1.95156391e-016,
          -1.95156391e-016, -1.95156391e-016, -1.95156391e-016,
          -1.95156391e-016, -1.95156391e-016, -1.95156391e-016,
          -1.95156391e-016, -1.95156391e-016, -1.95156391e-016,
          -1.95156391e-016, -1.95156391e-016, -1.95156391e-016,
          -1.95156391e-016, -1.95156391e-016, -1.95156391e-016,
          -1.95156391e-016, -1.95156391e-016, -1.95156391e-016,
          -1.95156391e-016, -1.95156391e-016, -1.95156391e-016,
          -1.95156391e-016, -1.95156391e-016, -1.95156391e-016,
          -1.95156391e-016, -1.95156391e-016, -1.95156391e-016,
          -1.95156391e-016, -1.95156391e-016, -1.95156391e-016,
          -1.95156391e-016, -1.95156391e-016, -1.95156391e-016,
          -1.95156391e-016, -1.95156391e-016, -1.95156391e-016,
          -1.95156391e-016, -1.95156391e-016, -1.95156391e-016,
          -1.95156391e-016, -1.95156391e-016, -1.95156391e-016,
          -1.95156391e-016, -1.95156391e-016, -1.95156391e-016,
          -1.95156391e-016, -1.95156391e-016, -1.95156391e-016,
          -1.95156391e-016, -1.95156391e-016, -1.95156391e-016,
          -1.95156391e-016, -1.95156391e-016, -1.95156391e-016,
          -1.95156391e-016, -1.95156391e-016, -1.95156391e-016,
          -1.95156391e-016, -1.95156391e-016, -1.95156391e-016,
          -1.95156391e-016, -1.95156391e-016, -1.95156391e-016,
          -1.95156391e-016, -1.95156391e-016, -1.95156391e-016,
          -1.95156391e-016, -1.95156391e-016, -1.95156391e-016,
          -1.95156391e-016, -1.95156391e-016, -1.95156391e-016,
          -1.95156391e-016, -1.95156391e-016, -1.95156391e-016,
          -1.95156391e-016, -1.95156391e-016, -1.95156391e-016,
          -1.95156391e-016, -1.95156391e-016, -1.95156391e-016,
          -1.95156391e-016, -1.95156391e-016, -1.95156391e-016,
          -1.95156391e-016, -1.95156391e-016, -1.95156391e-016,
          -1.95156391e-016, 1.46598611e-002, 1.46598611e-002,
          1.46598611e-002, 1.46598611e-002, -5.37754921e-003,
          -4.11149599e-002, 6.03858344e-002, 3.80020812e-002,
          8.11203420e-002, 4.75313775e-002, 1.16139129e-001,
          2.06943452e-001, 1.31192684e-001, 1.05329990e-001,
          6.00994304e-002, 8.28455389e-002, 1.63802236e-001,
          6.06280267e-002, 1.46979028e-002, 5.44445254e-002,
          2.02524848e-002, 1.40854772e-002, 4.18811142e-002,
          1.46598611e-002, -1.95156391e-016, -1.95156391e-016,
          -1.95156391e-016, -1.95156391e-016, -1.95156391e-016,
          -1.95156391e-016, -1.95156391e-016, -1.95156391e-016,
          -1.95156391e-016, 9.59445722e-003, 2.42543183e-002,
          3.20542417e-002, -2.05324665e-002, -3.15205008e-002,
          -1.32703548e-002, 3.38577107e-002, 7.72108063e-002,
          6.07373305e-002, 1.39825046e-001, 9.03494470e-003,
          -7.42718717e-003, 3.82678099e-002, 1.80114005e-002,
          8.13064650e-002, 7.93231092e-003, 7.73758674e-003,
          6.81010112e-002, 5.86394742e-002, 1.11149997e-001,
          9.37487110e-002, 6.26468137e-002, 1.46598611e-002,
          -1.95156391e-016, -1.95156391e-016, -1.95156391e-016,
          -1.95156391e-016, -1.95156391e-016, -1.95156391e-016,
          -1.95156391e-016, -1.95156391e-016, -1.95156391e-016,
          -1.95156391e-016, 3.54161374e-002, 3.22299525e-002,
          -9.37064458e-003, -1.81193221e-002, 3.98594290e-002,
          5.25521822e-002, 8.12513828e-002, -1.42854704e-002,
          9.11663473e-002, 2.51998641e-002, 2.49562450e-002,
          -6.65711090e-002, -2.28315871e-002, 3.20745297e-002,
          8.83853585e-002, 6.92970380e-002, 1.23424605e-002,
          1.27585484e-002, 4.60297763e-002, 3.64291966e-002,
          2.68054157e-002, 1.46598611e-002, -1.95156391e-016,
          -1.95156391e-016, -1.95156391e-016, -1.95156391e-016,
          -1.95156391e-016, -1.95156391e-016, -1.95156391e-016,
          -1.95156391e-016, 3.41848321e-002, 3.41848321e-002,
          6.13923222e-002, 3.60320136e-002, 1.43023487e-003,
          -2.89334953e-002, -1.96604524e-003, 8.14658329e-002,
          1.18741542e-002, 4.54293340e-002, 5.95894828e-002,
          -2.49362383e-002, -7.95678347e-002, -2.20316462e-002,
          2.94666644e-002, 4.25856523e-002, 1.88056529e-002,
          3.19270603e-002, 8.31892341e-002, 1.05147429e-001,
          8.06801021e-002, 4.02173214e-002, 5.33211157e-002,
          1.46598611e-002, -1.95156391e-016, -1.95156391e-016,
          -1.95156391e-016, -1.95156391e-016, -1.95156391e-016,
          -1.95156391e-016, -1.95156391e-016, -1.95156391e-016,
          3.41848321e-002, 3.71380039e-002, 4.72773276e-002,
          3.74472663e-002, -2.75425613e-003, 2.65547913e-002,
          2.78583951e-002, -2.28387136e-002, 1.38467248e-003,
          1.36673465e-001, 7.96586126e-002, -1.99047849e-002,
          -4.25892835e-003, -3.48737873e-002, 4.11316454e-002,
          5.57103660e-003, 1.65976379e-002, -5.47576929e-003,
          -3.83831700e-003, 6.36288598e-002, 5.15982993e-002,
          4.36624549e-002, 5.97723015e-002, 1.46598611e-002,
          -1.95156391e-016, -1.95156391e-016, -1.95156391e-016,
          -1.95156391e-016, -1.95156391e-016, -1.95156391e-016,
          -1.95156391e-016, -1.95156391e-016, 1.11618210e-002,
          2.95317126e-003, 3.00460048e-002, 1.57990661e-002,
          4.76043597e-002, 8.49419311e-002, 5.31172901e-002,
          1.10889673e-001, 2.73409616e-002, 1.68731250e-002,
          4.65478952e-004, 5.44319861e-002, 4.82674651e-002,
          2.17591263e-002, 2.32689399e-002, 3.26096192e-002,
          2.38187723e-002, -6.10205196e-002, 1.32650603e-002,
          -3.31490650e-003, 7.59029016e-002, 9.98300239e-002,
          7.24931061e-002, 1.46598611e-002, -1.95156391e-016,
          -1.95156391e-016, -1.95156391e-016, -1.95156391e-016,
          -1.95156391e-016, -1.95156391e-016, -1.95156391e-016,
          -1.95156391e-016, 1.11618210e-002, 2.83851614e-003,
          3.44806351e-002, 5.37856780e-002, -2.55600382e-002,
          -1.16459541e-002, -1.54818753e-002, 7.00739818e-003,
          1.61467046e-002, 3.19178104e-002, -1.55980708e-002,
          6.19236752e-002, 7.32244086e-003, -1.25253890e-002,
          -2.46160496e-002, 1.99138355e-002, 2.95138750e-002,
          3.34128141e-002, 4.69433255e-002, 2.76309829e-002,
          7.44735301e-002, 9.32865068e-002, 1.61703527e-002,
          2.21904516e-002, -1.95156391e-016, -1.95156391e-016,
          -1.95156391e-016, -1.95156391e-016, -1.95156391e-016,
          -1.95156391e-016, -1.95156391e-016, -1.95156391e-016,
          9.63191222e-003, 1.55302463e-002, 4.14399095e-002,
          -3.70120145e-002, -9.17089637e-003, -2.41489208e-004,
          7.84809440e-002, 1.31431222e-001, 7.97373205e-002,
          -3.58432829e-002, 4.32674550e-002, -5.42669743e-003,
          -4.23899591e-002, 5.52333929e-002, 3.28136608e-002,
          9.46150348e-002, 9.39461812e-002, 4.31020483e-002,
          -2.81300843e-002, -1.55661954e-002, -5.36535755e-002,
          -7.31205568e-003, 3.48076560e-002, 2.66180206e-002,
          -1.95156391e-016, -1.95156391e-016, -1.95156391e-016,
          -1.95156391e-016, -1.95156391e-016, -1.95156391e-016,
          -1.95156391e-016, -1.95156391e-016, 2.83851614e-003,
          -1.87647399e-002, -7.26543274e-003, 5.99907991e-003,
          6.31540716e-002, 9.18544605e-002, 7.32601504e-004,
          1.46779254e-001, 1.05055474e-001, -2.11309325e-002,
          2.44115628e-002, 4.23507988e-002, -2.07364429e-002,
          -1.77163612e-002, 3.43164243e-002, 4.80941944e-002,
          6.96586519e-002, 1.10898176e-002, 5.64464591e-002,
          5.24680838e-002, -4.44897115e-002, -5.13558835e-003,
          1.09695196e-002, 1.40379360e-002, -1.95156391e-016,
          -1.95156391e-016, -1.95156391e-016, -1.95156391e-016,
          -1.95156391e-016, -1.95156391e-016, -1.95156391e-016,
          -1.52990909e-003, -1.99547540e-002, -2.99265608e-002,
          7.64790364e-003, -3.88902612e-002, -3.17097045e-002,
          1.10765733e-002, 1.06066607e-001, 7.22003430e-002,
          4.14446928e-003, 6.76421821e-002, -4.04054532e-003,
          -6.26146700e-003, -1.01039499e-001, -6.10941909e-002,
          8.11999012e-003, 1.29864570e-002, 8.28590151e-003,
          -2.38302462e-002, -5.13342805e-002, -3.28577124e-002,
          -1.69159900e-002, -4.44514975e-002, -4.21395861e-002,
          -1.95156391e-016, -1.95156391e-016, -1.95156391e-016,
          -1.95156391e-016, -1.95156391e-016, -1.95156391e-016,
          -1.95156391e-016, -1.95156391e-016, -1.52990909e-003,
          -1.99547540e-002, -2.85261348e-002, -1.01701515e-002,
          -3.77425924e-002, -6.59005891e-004, -3.57741117e-002,
          -3.98444980e-002, -7.46949315e-002, 3.11931111e-002,
          -2.40637716e-002, 3.48905139e-002, 9.04651359e-002,
          1.16507113e-002, 2.31963545e-002, 2.86959801e-002,
          4.08166498e-002, 5.92077058e-003, -1.30563706e-001,
          -1.62007485e-003, -4.64708451e-003, -3.83554697e-002,
          -6.84052631e-002, -6.51625991e-002, -1.95156391e-016,
          -1.95156391e-016, -1.95156391e-016, -1.95156391e-016,
          -1.95156391e-016, -1.95156391e-016, -1.95156391e-016,
          -1.95156391e-016, -1.95156391e-016, 1.43809023e-003,
          -6.61288796e-004, 9.92112886e-003, -1.03915125e-001,
          8.78105697e-004, -1.56418845e-001, 7.73600340e-002,
          -6.81407377e-002, 7.54566193e-002, 9.61209908e-002,
          6.82752654e-002, 1.80127658e-002, 1.11772619e-001,
          5.03805131e-002, 1.13445170e-001, 1.42432600e-001,
          -4.39958982e-002, -1.30781531e-001, -8.54096860e-002,
          -7.16796815e-002, -7.69361854e-002, -6.84052631e-002,
          -6.84052631e-002, -1.95156391e-016, -1.95156391e-016,
          -1.95156391e-016, -1.95156391e-016, -1.95156391e-016,
          -1.95156391e-016, -1.95156391e-016, -1.95156391e-016,
          -1.95156391e-016, 1.43809023e-003, 1.43809023e-003,
          -1.29851522e-002, -4.08634432e-002, -2.71120463e-002,
          -1.65138766e-002, -1.26464469e-002, -5.86070754e-002,
          5.26045216e-004, -4.71682847e-002, -4.85825613e-002,
          4.78343517e-002, 6.24840483e-002, 2.34737217e-001,
          7.57086352e-002, -5.51387854e-002, -4.10968177e-002,
          1.63472686e-002, 4.35393117e-002, -3.02040391e-003,
          -8.59356765e-003, -2.17844099e-002, -4.49672118e-002,
          -1.40042580e-003, -1.95156391e-016, -1.95156391e-016,
          -1.95156391e-016, -1.95156391e-016, -1.95156391e-016,
          -1.95156391e-016, -1.95156391e-016, -1.95156391e-016,
          4.36842535e-003, 1.43809023e-003, -5.68747073e-002,
          5.95104927e-003, -6.92105666e-002, -1.88041460e-002,
          -2.94017345e-002, 7.82021657e-002, -5.47320582e-002,
          -1.15446277e-001, -4.57980335e-002, 9.68541391e-003,
          1.20419398e-001, 8.02065283e-002, -4.28920351e-002,
          -1.10037908e-001, 4.05928977e-002, 5.97055741e-002,
          -5.90363778e-002, 1.92545764e-002, -3.03153284e-002,
          -2.17844099e-002, -4.49672118e-002, -1.95156391e-016,
          -1.95156391e-016, -1.95156391e-016, -1.95156391e-016,
          -1.95156391e-016, -1.95156391e-016, -1.95156391e-016,
          -1.95156391e-016, -1.95156391e-016, 7.56286725e-004,
          -3.49328220e-002, -1.17653951e-001, -8.20087194e-002,
          2.33120359e-002, -9.47696194e-002, -1.10245861e-001,
          -8.09173360e-002, -7.14791566e-002, -6.37424439e-002,
          1.98098961e-002, 2.88361236e-002, -4.24127951e-002,
          -2.15646345e-002, -3.35867691e-004, -5.41444644e-002,
          -4.72951718e-002, -9.39903259e-002, -5.60443848e-002,
          -3.59215289e-002, -2.13344470e-002, -6.54749274e-002,
          -4.49672118e-002, -1.95156391e-016, -1.95156391e-016,
          -1.95156391e-016, -1.95156391e-016, -1.95156391e-016,
          -1.95156391e-016, -1.95156391e-016, -1.95156391e-016,
          -4.01329175e-002, -9.23893750e-002, -4.12920006e-002,
          -7.61563629e-002, -1.10206269e-001, -2.76036207e-002,
          -4.30314615e-002, -1.02151304e-001, -1.11745097e-001,
          -8.03091750e-002, 3.42791751e-002, -5.32609820e-002,
          -9.77967083e-002, -1.49589302e-002, -6.56921715e-002,
          -1.11594051e-001, -5.18846102e-002, -3.11550610e-002,
          -4.11143936e-002, -4.84061316e-002, -6.00592382e-002,
          -3.85453179e-002, -6.84052631e-002, -4.35667858e-002,
          -1.95156391e-016, -1.95156391e-016, -1.95156391e-016,
          -1.95156391e-016, -1.95156391e-016, -1.95156391e-016,
          -1.95156391e-016, -1.95156391e-016, -3.20049003e-002,
          1.15576349e-002, 5.62055074e-002, 5.89300729e-002,
          6.02553934e-002, 5.07209226e-002, -2.03358792e-002,
          -1.04992807e-001, -7.58409426e-002, -1.59042940e-001,
          -1.88408662e-002, -1.20818369e-001, -2.55890880e-002,
          -1.12814717e-001, -1.58312589e-001, -3.16090360e-002,
          -1.09500341e-001, -4.00360152e-002, -1.11202456e-001,
          -6.78591505e-002, -3.00852284e-002, -3.99457440e-002,
          -6.70048371e-002, -4.20368798e-002, -1.95156391e-016,
          -1.95156391e-016, -1.95156391e-016, -1.95156391e-016,
          -1.95156391e-016, -1.95156391e-016, -1.95156391e-016,
          -1.95156391e-016, 7.03893676e-002, 1.77557580e-002,
