%YAML:1.0
opencv_ml_svm:
   format: 3
   svmType: C_SVC
   kernel:
      type: LINEAR
   C: 1.0000000000000001e-001
   term_criteria: { iterations:1000 }
   var_count: 256
   class_count: 10
   class_labels: !!opencv-matrix
      rows: 10
      cols: 1
      dt: i
      data: [ 0, 1, 2, 3, 4, 5, 6, 7, 8, 9 ]
   sv_total: 45
   support_vectors:
      - [ -1.02695630e-015, -1.02695630e-015, -1.02695630e-015,
          -1.02695630e-015, -1.02695630e-015, -1.02695630e-015,
          -1.02695630e-015, -1.02695630e-015, -1.02695630e-015,
          -1.02695630e-015, -1.02695630e-015, -1.02695630e-015,
          -1.02695630e-015, -1.02695630e-015, -1.02695630e-015,
          -1.02695630e-015, -1.02695630e-015, -1.02695630e-015,
          -1.02695630e-015, -1.02695630e-015, -1.02695630e-015,
          -1.02695630e-015, -1.02695630e-015, -1.02695630e-015,
          -1.02695630e-015, -1.02695630e-015, -1.02695630e-015,
          -1.02695630e-015, -1.02695630e-015, -1.02695630e-015,
          -1.02695630e-015, -1.02695630e-015, -1.02695630e-015,
          -1.02695630e-015, -1.02695630e-015, 1.16649017e-001,
          3.26522499e-001, -9.98105761e-003, 2.80376911e-001,
          3.63600440e-002, 6.11965597e-001, 2.01537982e-001,
          3.62481296e-001, -1.95975527e-002, -1.49840370e-001,
          -4.48015571e-001, -1.02695630e-015, -1.02695630e-015,
          -1.02695630e-015, -1.02695630e-015, 1.22654447e-002,
          1.89910263e-001, 2.83208996e-001, -1.96628049e-002,
          4.13868688e-002, 3.03608835e-001, 1.89816549e-001,
          1.53928205e-001, 3.25711340e-001, 2.59405524e-001,
          9.58657116e-002, 2.89103806e-001, -1.02695630e-015,
          -1.02695630e-015, -1.02695630e-015, -1.02695630e-015,
          -1.02695630e-015, 1.38620511e-001, 2.24299386e-001,
          3.32878858e-001, -4.77727503e-002, 1.74586132e-001,
          3.18473950e-002, 3.45041901e-001, 2.39708990e-001,
          -3.73041369e-002, 2.43708849e-001, 4.89129245e-001,
          -1.02695630e-015, -1.02695630e-015, -1.02695630e-015,
          -1.02695630e-015, -1.02695630e-015, -8.65590721e-002,
          5.35148345e-002, 1.45861283e-001, 8.53969604e-002,
          2.42491633e-001, 2.24012375e-001, -2.00150713e-001,
          -4.67492156e-002, -1.90809339e-001, 1.26480997e-001,
          5.05232751e-001, 2.11116582e-001, -1.02695630e-015,
          -1.02695630e-015, -1.02695630e-015, -1.02695630e-015,
          -2.74237335e-001, 1.25244915e-001, 1.16322197e-001,
          2.82868654e-001, -2.50842482e-001, -5.22169238e-003,
          -1.05968520e-001, -8.41853544e-002, 2.10366264e-001,
          -7.68148899e-002, 1.29178450e-001, 4.06398624e-001,
          -1.02695630e-015, -1.02695630e-015, -1.02695630e-015,
          -1.09204024e-001, 2.27243766e-001, -2.22326115e-001,
          -1.23660326e-001, 1.19209766e-001, 9.69633833e-002,
          2.08811224e-001, 1.15431361e-001, -9.18757543e-002,
          -9.56590101e-003, 2.94828534e-001, -7.45903999e-002,
          -1.02695630e-015, -1.02695630e-015, -1.02695630e-015,
          -1.02695630e-015, 1.09986335e-001, 2.19486505e-001,
          4.80324835e-001, 2.92888761e-001, 1.03394166e-001,
          -9.88415927e-002, 9.06415842e-003, 2.23740339e-001,
          1.15690336e-001, 1.85190007e-001, -9.82410461e-002,
          -2.47525007e-001, -1.00000001e-001, -1.02695630e-015,
          -1.02695630e-015, -1.02695630e-015, 1.09986335e-001,
          -8.47144797e-002, -5.76348841e-001, -2.40292072e-001,
          4.90772687e-002, -3.40574473e-001, -4.53841865e-001,
          -3.80672604e-001, -1.81314033e-002, 2.23100051e-001,
          2.42613837e-001, 4.92058814e-001, 1.00000001e-001,
          -1.02695630e-015, -1.02695630e-015, -1.02695630e-015,
          -2.43580222e-001, -4.81123216e-002, -1.36642948e-001,
          -1.16673023e-001, -2.84090847e-001, -9.46453959e-002,
          -1.51962250e-001, -1.48271143e-001, -2.30781153e-001,
          2.93522418e-001, 6.53836131e-002, 3.80252779e-001,
          -1.02695630e-015, -1.02695630e-015, -1.02695630e-015,
          -1.02695630e-015, -1.88183367e-001, -1.40736356e-001,
          -1.67806834e-001, -1.50505379e-001, -3.62800449e-001,
          2.19809234e-001, -6.20027818e-002, -1.52395934e-001,
          7.32951984e-002, -1.59023553e-001, 3.56706046e-002,
          4.12886679e-001, -1.02695630e-015, -1.02695630e-015,
          -1.02695630e-015, -1.02695630e-015, -6.31331325e-001,
          -9.30335671e-002, -4.38205421e-001, -6.84525166e-003,
          -1.56313349e-002, 2.56570876e-001, 1.39451444e-001,
          5.09929731e-002, -1.55111194e-001, -3.62285525e-001,
          -2.26982743e-001, -4.67468530e-001, -1.02695630e-015,
          -1.02695630e-015, -1.02695630e-015, -1.02695630e-015,
          -8.82340893e-002, -4.31315213e-001, -2.65606642e-001,
          2.73447990e-001, 3.25849429e-002, -6.13487810e-002,
          3.55924487e-001, 8.24187174e-002, -1.36253923e-001,
          -2.04263672e-001, -6.74965262e-001, -4.71774787e-001,
          -1.02695630e-015, -1.02695630e-015, -1.02695630e-015,
          -1.02695630e-015, -1.18614718e-001, -7.39640236e-001,
          -1.41971245e-001, -9.63791981e-002, 1.37443334e-001,
          2.89541095e-001, -6.98655844e-002, -9.94840786e-002,
          -1.50015399e-001, -1.27589777e-001, -3.71824764e-002,
          -3.71824764e-002, -1.02695630e-015, -1.02695630e-015,
          -1.02695630e-015, -1.02695630e-015, -1.02695630e-015,
          -1.02695630e-015, -1.02695630e-015, -1.02695630e-015,
          -1.02695630e-015, -1.02695630e-015, -1.02695630e-015,
          -1.02695630e-015, -1.02695630e-015, -1.02695630e-015,
          -1.02695630e-015, -1.02695630e-015, -1.02695630e-015,
          -1.02695630e-015 ]
      - [ 1.27675648e-015, 1.27675648e-015, 1.27675648e-015,
          1.27675648e-015, 1.27675648e-015, 1.27675648e-015,
          1.27675648e-015, 1.27675648e-015, 1.27675648e-015,
          1.27675648e-015, 1.27675648e-015, 1.27675648e-015,
          1.27675648e-015, 1.27675648e-015, 1.27675648e-015,
          1.27675648e-015, 1.27675648e-015, 1.27675648e-015,
          1.27675648e-015, 1.27675648e-015, 1.27675648e-015,
          1.27675648e-015, 1.27675648e-015, 1.27675648e-015,
          1.27675648e-015, 1.27675648e-015, 1.27675648e-015,
          1.27675648e-015, 1.27675648e-015, 1.27675648e-015,
          1.27675648e-015, 1.27675648e-015, 1.27675648e-015,
          1.27675648e-015, 1.27675648e-015, 1.27675648e-015,
          1.27675648e-015, -3.30866694e-001, -2.58207351e-001,
          -2.93524951e-001, 4.57157135e-001, 3.71380299e-001,
          4.28129762e-001, 5.06806634e-002, -1.44813493e-001,
          3.23457504e-003, 1.27675648e-015, 1.27675648e-015,
          1.27675648e-015, 1.27675648e-015, 1.27675648e-015,
          1.27675648e-015, 1.81776926e-001, -7.45751038e-002,
          6.35755807e-002, 5.81035949e-002, 1.52933195e-001,
          3.45719419e-002, 3.72688353e-001, 6.72600940e-002,
          2.90104568e-001, 2.14157507e-001, 1.27675648e-015,
          1.27675648e-015, 1.27675648e-015, 1.27675648e-015,
          1.27675648e-015, 1.23686261e-001, -1.56446937e-002,
          9.02095661e-002, 3.28003824e-001, 3.23701799e-001,
          -1.20090157e-001, -1.72923401e-001, 1.72299504e-001,
          3.50477308e-001, 2.22321182e-001, 3.43063772e-001,
          1.27675648e-015, 1.27675648e-015, 1.27675648e-015,
          1.27675648e-015, 9.80925746e-003, 1.17103986e-001,
          -2.68640481e-002, -1.61153913e-001, -3.77718136e-002,
          1.16087124e-001, 1.66495144e-001, 4.91933599e-002,
          7.99500942e-002, 1.07724644e-001, 4.55505587e-002,
          1.57900527e-001, 2.78848037e-002, 1.27675648e-015,
          1.27675648e-015, 1.27675648e-015, 2.00000003e-001,
          6.78587481e-002, 3.93719897e-002, -2.11675651e-002,
          2.42111757e-001, 2.54219323e-001, -3.54764983e-002,
          -1.98277280e-001, 1.62468791e-001, -4.24641334e-002,
          1.04300946e-001, 9.22842044e-003, 1.27675648e-015,
          1.27675648e-015, 1.27675648e-015, 1.27675648e-015,
          -6.18166365e-002, 1.98487312e-001, -2.64146090e-001,
          -2.86089405e-002, 1.42521232e-001, 5.75140230e-002,
          -1.66156426e-001, -1.24278069e-001, -1.27774954e-001,
          -1.10341869e-001, -3.64234895e-001, 1.06726907e-001,
          1.27675648e-015, 1.27675648e-015, 1.27675648e-015,
          1.27675648e-015, 1.27675648e-015, 3.53105485e-001,
          2.50189215e-001, 4.36929911e-002, 1.91105366e-001,
          -6.49731934e-001, -1.85433298e-001, -4.17293422e-002,
          -3.97455037e-001, -5.46849489e-001, 1.64011382e-002,
          -9.86721367e-002, 1.27675648e-015, 1.27675648e-015,
          1.27675648e-015, 1.27675648e-015, 1.27675648e-015,
          1.26333117e-001, -1.36583587e-002, 2.08052667e-003,
          -2.98131943e-001, -2.92567849e-001, -3.47550422e-001,
          -1.98175907e-001, -3.54951888e-001, -3.81602943e-001,
          -1.07082427e-001, -2.72187144e-002, 1.27675648e-015,
          1.27675648e-015, 1.27675648e-015, 1.27675648e-015,
          -8.70062560e-002, 3.91622841e-001, 4.42812964e-002,
          -1.32286251e-001, -1.90481231e-001, 1.73668638e-002,
          -4.14245933e-001, -5.79409972e-002, -2.20121339e-001,
          -1.64133579e-001, -1.67329177e-001, -1.71715945e-001,
          1.27675648e-015, 1.27675648e-015, 1.27675648e-015,
          1.27675648e-015, 8.32715258e-002, 4.12106141e-002,
          -3.54100019e-001, 9.08932388e-002, -1.64326262e-002,
          -1.76854730e-002, -9.82180238e-002, -9.04139504e-002,
          1.91549480e-001, 9.15552862e-003, -1.77312240e-001,
          -1.80676162e-001, 1.27675648e-015, 1.27675648e-015,
          1.27675648e-015, 1.27675648e-015, -1.55347347e-001,
          2.06768751e-001, -2.09630862e-001, 2.71066278e-001,
          -1.51617885e-001, 2.30213255e-001, 5.47424406e-002,
          1.03588952e-002, 8.83660167e-002, 2.52430066e-002,
          -8.40697959e-002, -2.15251908e-001, 1.27675648e-015,
          1.27675648e-015, 1.27675648e-015, 1.27675648e-015,
          -3.55117023e-001, -3.57032180e-001, -1.29855126e-001,
          4.34637547e-001, 1.00201823e-001, 3.33352923e-001,
          -1.18490033e-001, 2.40275916e-002, -7.43285790e-002,
          -6.74647614e-002, -6.26297891e-002, -2.04999059e-001,
          1.27675648e-015, 1.27675648e-015, 1.27675648e-015,
          1.27675648e-015, -2.90571094e-001, -3.66931856e-001,
          -4.71180975e-001, -4.44350876e-002, 2.60906219e-002,
          1.37171879e-001, 3.26129571e-002, -1.26279533e-001,
          -3.27801168e-001, -1.50349036e-001, -6.01303391e-003,
          -6.01303391e-003, 1.27675648e-015, 1.27675648e-015,
          1.27675648e-015, 1.27675648e-015, 1.27675648e-015,
          1.27675648e-015, 1.27675648e-015, 1.27675648e-015,
          1.27675648e-015, 1.27675648e-015, 1.27675648e-015,
          1.27675648e-015, 1.27675648e-015, 1.27675648e-015,
          1.27675648e-015, 1.27675648e-015, 1.27675648e-015,
          1.27675648e-015 ]
      - [ 7.21644966e-016, 7.21644966e-016, 7.21644966e-016,
          7.21644966e-016, 7.21644966e-016, 7.21644966e-016,
          7.21644966e-016, 7.21644966e-016, 7.21644966e-016,
          7.21644966e-016, 7.21644966e-016, 7.21644966e-016,
          7.21644966e-016, 7.21644966e-016, 7.21644966e-016,
          7.21644966e-016, 7.21644966e-016, 7.21644966e-016,
          7.21644966e-016, 7.21644966e-016, 7.21644966e-016,
          7.21644966e-016, 7.21644966e-016, 7.21644966e-016,
          7.21644966e-016, 7.21644966e-016, 7.21644966e-016,
          7.21644966e-016, 7.21644966e-016, 7.21644966e-016,
          7.21644966e-016, 7.21644966e-016, 7.21644966e-016,
          7.21644966e-016, 7.21644966e-016, 5.39429225e-002,
          1.11477904e-001, -2.26989407e-002, 2.78932035e-001,
          1.88413844e-001, 5.26546121e-001, 1.59229949e-001,
          4.55167443e-001, -1.77705958e-001, -1.47119462e-001,
          -7.99924284e-002, 7.21644966e-016, 7.21644966e-016,
          7.21644966e-016, 7.21644966e-016, 7.21644966e-016,
          1.70852944e-001, 4.15459961e-001, -1.05368890e-001,
          2.04717770e-001, 2.67922759e-001, 1.72659516e-001,
          6.56278431e-002, 1.82861611e-001, 1.08867869e-001,
          -5.64762652e-002, -1.25822192e-002, 3.01857572e-002,
          7.21644966e-016, 7.21644966e-016, 7.21644966e-016,
          7.21644966e-016, 1.13754496e-001, 1.10403672e-001,
          6.81648180e-002, 1.10717326e-001, 1.08493399e-002,
          2.60467440e-001, 1.64869115e-001, 1.83808371e-001,
          -4.29107137e-002, 1.25289947e-001, -6.84475433e-003,
          3.01857572e-002, 7.21644966e-016, 7.21644966e-016,
          7.21644966e-016, 7.21644966e-016, -2.02188175e-003,
          -1.20722130e-001, -2.05661252e-001, 4.55898158e-002,
          -1.21371532e-002, 1.85140252e-001, 2.26044640e-001,
          -1.41469575e-002, -1.42612811e-002, -2.41115000e-002,
          2.80752450e-001, 3.01857572e-002, 7.21644966e-016,
          7.21644966e-016, 7.21644966e-016, 7.21644966e-016,
          -1.27816364e-001, 3.54263037e-001, 1.96124226e-001,
          2.44354352e-001, -5.46359718e-002, -1.57125026e-001,
          -6.00375570e-002, 1.35544330e-001, 4.29626741e-002,
          8.20855722e-002, 3.57204467e-001, 4.53669429e-001,
          7.21644966e-016, 7.21644966e-016, 7.21644966e-016,
          -1.00000001e-001, -7.72910938e-002, -3.46685439e-001,
          3.64594012e-001, 7.79301450e-002, 1.89460129e-001,
          -1.29184192e-002, -9.18916985e-002, -4.95640874e-001,
          2.56590843e-002, 1.91817477e-001, 4.19732839e-001,
          2.75720388e-001, 7.21644966e-016, 7.21644966e-016,
          7.21644966e-016, 1.52236715e-001, 1.96337461e-001,
          2.08493128e-001, -1.47683844e-001, -2.49166921e-001,
          -1.46626562e-001, -2.79476464e-001, -1.01500243e-001,
          -1.35665834e-001, 8.73636231e-002, 2.92343408e-001,
          5.10823488e-001, 7.50037432e-002, 7.21644966e-016,
          7.21644966e-016, 7.21644966e-016, 7.21644966e-016,
          1.18359933e-002, -3.63352090e-001, -5.92626967e-002,
          -7.86566138e-002, -1.68803960e-001, -6.91663325e-001,
          -1.60635784e-001, 1.59357741e-001, 7.68193975e-002,
          3.09231967e-001, 3.05607408e-001, 7.21644966e-016,
          7.21644966e-016, 7.21644966e-016, 7.21644966e-016,
          -2.04729126e-003, -8.63875747e-002, -8.30707885e-003,
          -1.48032054e-001, -3.34766507e-001, 5.24850674e-002,
          -4.13023084e-001, -3.25739942e-002, -8.43346119e-002,
          2.65308887e-001, -1.10175826e-001, -5.18647172e-002,
          7.21644966e-016, 7.21644966e-016, 7.21644966e-016,
          7.21644966e-016, 6.01647571e-002, -7.49510452e-002,
          -3.01250666e-001, -1.14487074e-001, -1.77560166e-001,
          8.01418275e-002, 1.75594389e-001, 4.07562172e-003,
          2.88288714e-003, -1.48291275e-001, -4.73490804e-002,
          -4.81712334e-002, 7.21644966e-016, 7.21644966e-016,
          7.21644966e-016, 7.21644966e-016, -2.40334734e-001,
          4.81179059e-002, -1.95324406e-001, 2.82531440e-001,
          1.16386518e-001, 1.41693711e-001, 2.68046260e-001,
          1.10148117e-001, -1.74209833e-001, -1.34393424e-001,
          -3.82490009e-001, -4.88980830e-001, 7.21644966e-016,
          7.21644966e-016, 7.21644966e-016, 7.21644966e-016,
          -2.20322590e-002, -3.03775311e-001, -1.43906161e-001,
          2.75027394e-001, 1.59362718e-001, 1.94675788e-001,
          -9.54912752e-002, 1.20198149e-002, -5.83007373e-002,
          -3.75481129e-001, -3.31334770e-001, -2.64050692e-001,
          7.21644966e-016, 7.21644966e-016, 7.21644966e-016,
          7.21644966e-016, -1.85405686e-001, -5.08593082e-001,
          -1.11117169e-001, -1.20624408e-001, 1.84073478e-001,
          2.10723102e-001, -1.70031656e-002, -2.19918624e-001,
          -1.34467274e-001, -4.04999889e-002, 1.31833076e-001,
          1.31833076e-001, 7.21644966e-016, 7.21644966e-016,
          7.21644966e-016, 7.21644966e-016, 7.21644966e-016,
          7.21644966e-016, 7.21644966e-016, 7.21644966e-016,
          7.21644966e-016, 7.21644966e-016, 7.21644966e-016,
          7.21644966e-016, 7.21644966e-016, 7.21644966e-016,
          7.21644966e-016, 7.21644966e-016, 7.21644966e-016,
          7.21644966e-016 ]
      - [ -1.80411242e-015, -1.80411242e-015, -1.80411242e-015,
          -1.80411242e-015, -1.80411242e-015, -1.80411242e-015,
          -1.80411242e-015, -1.80411242e-015, -1.80411242e-015,
          -1.80411242e-015, -1.80411242e-015, -1.80411242e-015,
          -1.80411242e-015, -1.80411242e-015, -1.80411242e-015,
          -1.80411242e-015, -1.80411242e-015, -1.80411242e-015,
          -1.80411242e-015, -1.80411242e-015, -1.80411242e-015,
          -1.80411242e-015, -1.80411242e-015, -1.80411242e-015,
          -1.80411242e-015, -1.80411242e-015, -1.80411242e-015,
          -1.80411242e-015, -1.80411242e-015, -1.80411242e-015,
          -1.80411242e-015, -1.80411242e-015, -1.80411242e-015,
          -1.80411242e-015, -1.80411242e-015, 2.41111398e-001,
          4.40660678e-002, -3.61732543e-001, 6.98547624e-003,
          -7.86320493e-002, 6.00052774e-001, 1.76834285e-001,
          6.22649312e-001, 2.19671607e-001, 2.89923280e-001,
          3.19738174e-003, -1.80411242e-015, -1.80411242e-015,
          -1.80411242e-015, -1.80411242e-015, -1.80411242e-015,
          1.00000001e-001, 3.88197213e-001, -1.47690549e-001,
          2.13235095e-001, 1.49562791e-001, 9.51418057e-002,
          -1.76369041e-001, 4.86770660e-001, 2.45268017e-001,
          1.69972688e-001, 4.55061555e-001, -1.80411242e-015,
          -1.80411242e-015, -1.80411242e-015, -1.80411242e-015,
          -1.80411242e-015, 2.04349712e-001, 2.58321911e-001,
          9.97388456e-003, -1.36516318e-001, 2.35936671e-001,
          -2.01497197e-001, -5.03670573e-002, 2.03942597e-001,
          -3.92774679e-002, 2.83717304e-001, 3.30977023e-001,
          1.00000001e-001, -1.80411242e-015, -1.80411242e-015,
          -1.80411242e-015, 1.73199862e-001, 3.18753332e-001,
          9.53276753e-002, 2.99727947e-001, 3.75812739e-001,
          -1.41784489e-001, 1.40989855e-001, 1.88930720e-001,
          -1.15325660e-001, -1.47481203e-001, 1.37028798e-001,
          3.47400159e-001, -1.80411242e-015, -1.80411242e-015,
          -1.80411242e-015, -1.80411242e-015, -1.80411242e-015,
          -4.94135879e-002, 1.95068330e-001, 2.78256565e-001,
          3.14362019e-001, 1.41348541e-001, 5.45553938e-002,
          -1.27325773e-001, -4.46768813e-002, -9.46071371e-002,
          -1.12911656e-001, 1.05709165e-001, -1.80411242e-015,
          -1.80411242e-015, -1.80411242e-015, -1.80411242e-015,
          -1.00000001e-001, -1.58078913e-002, -4.84879673e-001,
          -1.36288553e-001, -1.09694637e-001, 3.70775282e-001,
          -2.46362686e-002, 1.92666650e-001, 9.05913487e-002,
          -2.74915010e-001, -4.09673601e-001, -7.42766708e-002,
          -1.80411242e-015, -1.80411242e-015, -1.80411242e-015,
          -1.80411242e-015, -1.80411242e-015, 3.21236610e-001,
          4.53826226e-002, 2.48531714e-001, 4.22275126e-001,
          -6.05731308e-002, 2.60716110e-001, 3.49841684e-001,
          -7.63213113e-002, -1.36218905e-001, -2.47343495e-001,
          -3.62554252e-001, -1.80411242e-015, -1.80411242e-015,
          -1.80411242e-015, -1.80411242e-015, 2.00000003e-001,
          3.74215771e-003, -2.01084882e-001, -3.26089188e-002,
          1.29939571e-001, -2.30469018e-001, -5.32733381e-001,
          -7.08859086e-001, -3.31528544e-001, -1.91687256e-001,
          -6.92688003e-002, -2.78897397e-002, 1.00000001e-001,
          -1.80411242e-015, -1.80411242e-015, -1.80411242e-015,
          -1.91922814e-001, 4.18846041e-001, -1.43016830e-001,
          -8.50692019e-002, -1.55352995e-001, -2.46757120e-001,
          -3.05427730e-001, -2.85763711e-001, -3.23263019e-001,
          -1.59135997e-001, 3.34012993e-002, -1.39777333e-001,
          -1.80411242e-015, -1.80411242e-015, -1.80411242e-015,
          -1.80411242e-015, 7.58571550e-002, -1.02179922e-001,
          -1.21424593e-001, 9.18030739e-002, -1.55725822e-001,
          6.75686374e-002, -2.08527207e-001, -2.17944130e-001,
          1.12074114e-001, 8.42653885e-002, 6.70395941e-002,
          -4.65828963e-002, -1.80411242e-015, -1.80411242e-015,
          -1.80411242e-015, -1.80411242e-015, -3.15346479e-001,
          6.06053546e-002, -1.76918551e-001, 2.61352003e-001,
          -1.26368711e-002, 2.99903661e-001, 4.73292172e-003,
          -1.69069290e-001, -8.46728459e-002, 2.17697211e-003,
          -2.10246474e-001, -1.64953396e-002, -1.80411242e-015,
          -1.80411242e-015, -1.80411242e-015, -1.80411242e-015,
          -3.72774273e-001, -4.49046701e-001, -3.00390035e-001,
          3.31626505e-001, -8.11539516e-002, 4.74012867e-002,
          -6.65983483e-002, 2.61824220e-001, -1.63895771e-001,
          -1.10354714e-001, -6.82274625e-002, -1.85881898e-001,
          -1.80411242e-015, -1.80411242e-015, -1.80411242e-015,
          -1.80411242e-015, -3.20946500e-002, -5.85442722e-001,
          -4.13824797e-001, -1.32224604e-001, -2.47562192e-002,
          3.29005241e-001, -1.73977926e-001, -5.23629040e-002,
          -1.02943748e-001, 7.03939125e-002, 1.87788438e-002,
          -6.66648000e-002, -1.80411242e-015, -1.80411242e-015,
          -1.80411242e-015, -1.80411242e-015, -1.80411242e-015,
          -1.80411242e-015, -1.80411242e-015, -1.80411242e-015,
          -1.80411242e-015, -1.80411242e-015, -1.80411242e-015,
          -1.80411242e-015, -1.80411242e-015, -1.80411242e-015,
          -1.80411242e-015, -1.80411242e-015, -1.80411242e-015,
          -1.80411242e-015 ]
      - [ 1.70306477e-015, 1.70306477e-015, 1.70306477e-015,
          1.70306477e-015, 1.70306477e-015, 1.70306477e-015,
          1.70306477e-015, 1.70306477e-015, 1.70306477e-015,
          1.70306477e-015, 1.70306477e-015, 1.70306477e-015,
          1.70306477e-015, 1.70306477e-015, 1.70306477e-015,
          1.70306477e-015, 1.70306477e-015, 1.70306477e-015,
          1.70306477e-015, 1.70306477e-015, 1.70306477e-015,
          1.70306477e-015, 1.70306477e-015, 1.70306477e-015,
          1.70306477e-015, 1.70306477e-015, 1.70306477e-015,
          1.70306477e-015, 1.70306477e-015, 1.70306477e-015,
          1.70306477e-015, 1.70306477e-015, 1.70306477e-015,
          1.70306477e-015, 1.70306477e-015, 3.59588601e-002,
          2.11476162e-001, -7.37726763e-002, -1.84843095e-003,
          -1.14210337e-001, 5.79769075e-001, 2.00654149e-001,
          4.93192226e-001, 2.92296618e-001, 2.25144718e-002,
          1.20074101e-001, 1.70306477e-015, 1.70306477e-015,
          1.70306477e-015, 1.70306477e-015, 1.70306477e-015,
          1.70306477e-015, 9.39497352e-002, 6.15037838e-003,
          3.19689572e-001, 2.35631034e-001, 2.75710464e-001,
          -6.82117119e-002, 2.23116562e-001, 2.27929667e-001,
          1.36550352e-001, 3.05732548e-001, 1.70306477e-015,
          1.70306477e-015, 1.70306477e-015, 1.70306477e-015,
          1.70306477e-015, 2.62922108e-001, 1.49837017e-001,
          6.69141635e-002, -7.25075528e-002, 4.27779973e-001,
          -1.68521196e-001, 2.05494892e-002, 3.45652014e-001,
          -2.62160990e-002, 5.59368171e-002, 2.57759839e-001,
          1.70306477e-015, 1.70306477e-015, 1.70306477e-015,
          1.70306477e-015, 8.20541605e-002, 1.58785194e-001,
          1.87474743e-001, -1.77093118e-001, 2.63041884e-001,
          4.46905419e-002, 1.38844818e-001, 4.83019166e-002,
          5.99185936e-002, 1.28757805e-001, -6.91807941e-002,
          3.14586103e-001, 5.36141507e-002, 1.70306477e-015,
          1.70306477e-015, 1.70306477e-015, 1.70306477e-015,
          -1.46478042e-001, -1.03912108e-001, 4.93876219e-001,
          4.85793918e-001, -1.35338008e-001, 2.57793926e-002,
          -6.58756420e-002, -1.44053578e-001, 2.29361624e-001,
          2.58978568e-002, 1.46349326e-001, 1.00000001e-001,
          1.70306477e-015, 1.70306477e-015, 1.70306477e-015,
          -1.47087991e-001, 1.83462575e-002, -3.14289592e-002,
          -3.85481864e-002, 1.91407800e-002, 1.50218522e-002,
          2.13931963e-001, 3.16851169e-001, 1.21696062e-001,
          -1.71106234e-001, 7.48325652e-003, 1.81387171e-001,
          1.70306477e-015, 1.70306477e-015, 1.70306477e-015,
          1.70306477e-015, 1.00000001e-001, 3.19952458e-001,
          -2.62156099e-001, 3.13672833e-002, 1.49626359e-001,
          -5.16402870e-002, 2.61483882e-002, 6.09265625e-001,
          -1.46403626e-001, -5.69158681e-002, -1.96803153e-001,
          -1.89401694e-002, 7.64954984e-002, 1.70306477e-015,
          1.70306477e-015, 1.70306477e-015, 4.90544945e-001,
          -2.20169097e-001, -5.83570123e-001, -2.39538908e-001,
          -1.11046977e-001, -1.91797152e-001, -7.22403228e-002,
          -8.85018557e-002, -2.94420253e-002, -3.10253441e-001,
          -1.22877620e-001, -1.37790561e-001, 1.70306477e-015,
          1.70306477e-015, 1.70306477e-015, 1.70306477e-015,
          -8.11347663e-002, 3.96149844e-001, 3.61978188e-002,
          -1.40680850e-001, -2.30259627e-001, -4.83656302e-002,
          -1.24540806e-001, -5.54213941e-001, -5.74079394e-001,
          -4.12872285e-001, -1.54403135e-001, -4.75423515e-001,
          1.70306477e-015, 1.70306477e-015, 1.70306477e-015,
          1.70306477e-015, -1.97479591e-001, -3.73027511e-002,
          -1.66191638e-001, 1.33165956e-001, 2.03765512e-001,
          1.16779722e-001, -1.39242500e-001, -2.24469066e-001,
          -2.65577227e-001, -2.95025617e-001, -1.63969353e-001,
          -3.28335524e-001, 1.70306477e-015, 1.70306477e-015,
          1.70306477e-015, 1.70306477e-015, -3.16987097e-001,
          3.06212772e-002, -3.26531753e-002, 2.30795547e-001,
          -2.96991486e-002, 2.72602290e-001, -2.23922402e-001,
          -3.66275877e-001, -2.68168479e-001, -3.69179279e-001,
          -1.49260819e-001, -2.96346158e-001, 1.70306477e-015,
          1.70306477e-015, 1.70306477e-015, 1.70306477e-015,
          -2.32171997e-001, -1.33634970e-001, -2.42022038e-001,
          1.82911634e-001, -2.96979010e-001, -1.47740111e-001,
          -1.16805257e-002, -3.06287825e-001, -2.56724536e-001,
          -3.64939809e-001, -2.46078834e-001, -2.86974579e-001,
          1.70306477e-015, 1.70306477e-015, 1.70306477e-015,
          1.70306477e-015, -1.88142151e-001, -4.97773468e-001,
          -9.28838998e-002, 4.34523672e-002, -1.44651920e-001,
          -2.83184946e-001, -4.29563820e-001, -3.40223551e-001,
          -1.67774886e-001, -1.28255829e-001, -9.32937674e-003,
          -1.40426069e-001, 1.70306477e-015, 1.70306477e-015,
          1.70306477e-015, 1.70306477e-015, 1.70306477e-015,
          1.70306477e-015, 1.70306477e-015, 1.70306477e-015,
          1.70306477e-015, 1.70306477e-015, 1.70306477e-015,
          1.70306477e-015, 1.70306477e-015, 1.70306477e-015,
          1.70306477e-015, 1.70306477e-015, 1.70306477e-015,
          1.70306477e-015 ]
      - [ -1.26287869e-015, -1.26287869e-015, -1.26287869e-015,
          -1.26287869e-015, -1.26287869e-015, -1.26287869e-015,
          -1.26287869e-015, -1.26287869e-015, -1.26287869e-015,
          -1.26287869e-015, -1.26287869e-015, -1.26287869e-015,
          -1.26287869e-015, -1.26287869e-015, -1.26287869e-015,
          -1.26287869e-015, -1.26287869e-015, -1.26287869e-015,
          -1.26287869e-015, -1.26287869e-015, -1.26287869e-015,
          -1.26287869e-015, -1.26287869e-015, -1.26287869e-015,
          -1.26287869e-015, -1.26287869e-015, -1.26287869e-015,
          -1.26287869e-015, -1.26287869e-015, -1.26287869e-015,
          -1.26287869e-015, -1.26287869e-015, -1.26287869e-015,
          -1.26287869e-015, -1.26287869e-015, 3.40663828e-002,
          3.40663828e-002, -3.24450940e-001, -3.65933627e-001,
          -2.07193390e-001, 4.95811939e-001, 9.16244388e-002,
          5.93196034e-001, -7.34871253e-002, 3.00942451e-001,
          -7.70260170e-002, -1.26287869e-015, -1.26287869e-015,
          -1.26287869e-015, -1.26287869e-015, -1.26287869e-015,
          -1.26287869e-015, -7.37480596e-002, -2.04814300e-001,
          1.44575447e-001, 1.48367584e-001, 3.42944533e-001,
          1.14352293e-001, 4.73924220e-001, 2.42743924e-001,
          3.12914848e-001, 2.48514950e-001, -1.26287869e-015,
          -1.26287869e-015, -1.26287869e-015, -1.26287869e-015,
          -1.26287869e-015, 1.90386444e-001, -3.11597474e-002,
          5.56963235e-002, 2.44837254e-001, 1.98974162e-001,
          -1.08037546e-001, 8.11249465e-002, 1.84811637e-001,
          3.22556883e-001, 1.18923277e-001, 1.98285371e-001,
          1.00000001e-001, -1.26287869e-015, -1.26287869e-015,
          -1.26287869e-015, -1.26287869e-015, -7.30978623e-002,
          2.31522098e-002, -1.66440979e-001, 2.29970515e-001,
          -1.63187072e-001, 2.18175184e-002, -3.11601579e-001,
          -2.09703654e-001, -6.98347613e-002, -1.39726713e-001,
          9.12167653e-002, -1.26287869e-015, -1.26287869e-015,
          -1.26287869e-015, -1.26287869e-015, 1.00000001e-001,
          -1.18102111e-001, -5.30973934e-002, 1.00096099e-001,
          3.47814351e-001, -6.82954639e-002, -2.51558036e-001,
          -2.22374886e-001, -1.10838838e-001, -3.43699157e-001,
          -2.63605565e-001, -6.50941357e-002, -1.26287869e-015,
          -1.26287869e-015, -1.26287869e-015, -1.26287869e-015,
          -7.00608417e-002, 4.02492762e-001, -9.82632488e-002,
          1.38098583e-001, 2.67297566e-001, -2.25183025e-001,
          -1.20293297e-001, -3.99432987e-001, -2.96757042e-001,
          -2.41699576e-001, 2.09153831e-001, -2.35175155e-002,
          -1.26287869e-015, -1.26287869e-015, -1.26287869e-015,
          -1.26287869e-015, 1.03145346e-001, 6.49401248e-001,
          4.23964083e-001, 3.34347725e-001, -2.08909675e-001,
          -1.57209694e-001, -3.00407201e-001, 8.51502568e-002,
          1.07655548e-001, 1.30596101e-001, -6.95660934e-002,
          1.43155560e-001, -3.65060475e-003, -1.26287869e-015,
          -1.26287869e-015, -1.26287869e-015, 3.35620604e-002,
          2.24880621e-001, 7.65464604e-002, -4.16492581e-001,
          -1.39941946e-001, -2.84267068e-001, -9.91608128e-002,
          -2.56515332e-002, 2.24845767e-001, -8.38989764e-002,
          7.97789693e-002, 5.64456284e-002, -1.26287869e-015,
          -1.26287869e-015, -1.26287869e-015, -1.26287869e-015,
          -1.36207178e-001, 1.66317835e-001, -1.81584701e-001,
          1.55289665e-001, -1.63971215e-001, 2.31531449e-002,
          -1.86227694e-001, 2.20933869e-001, -1.40933409e-001,
          7.86828622e-002, 7.90971890e-002, 2.31047533e-002,
          -1.26287869e-015, -1.26287869e-015, -1.26287869e-015,
          -1.26287869e-015, 1.20489970e-001, -7.55624548e-002,
          -4.99940455e-001, -1.54383168e-001, 1.57098696e-001,
          8.70242268e-002, -3.49893831e-002, 7.84566626e-002,
          6.05435707e-002, 1.02913193e-001, -1.84320346e-001,
          -4.63260710e-002, -1.26287869e-015, -1.26287869e-015,
          -1.26287869e-015, -1.26287869e-015, -2.16838792e-001,
          -1.14391178e-001, -2.20259935e-001, 1.69728026e-001,
          -1.75547004e-001, 4.24731553e-001, 1.15041196e-001,
          1.58861369e-001, -2.34373346e-001, -3.74259725e-002,
          -2.35665172e-001, -2.83374544e-002, -1.26287869e-015,
          -1.26287869e-015, -1.26287869e-015, -1.26287869e-015,
          -1.58881932e-001, -5.86244822e-001, -1.04124106e-001,
          2.74053305e-001, 5.33586703e-002, 2.61390477e-001,
          7.57109001e-002, -2.66574115e-001, -9.36120450e-002,
          -2.24444717e-001, -8.93098861e-002, -1.82712227e-001,
          -1.26287869e-015, -1.26287869e-015, -1.26287869e-015,
          -1.26287869e-015, -2.13351041e-001, -5.41373074e-001,
          -5.27464390e-001, -1.43849375e-002, 1.28657654e-001,
          7.45500028e-002, -5.92937358e-002, 9.53684077e-002,
          -7.85266459e-002, -9.92070287e-002, -1.26287869e-015,
          -2.49605486e-003, -1.26287869e-015, -1.26287869e-015,
          -1.26287869e-015, -1.26287869e-015, -1.26287869e-015,
          -1.26287869e-015, -1.26287869e-015, -1.26287869e-015,
          -1.26287869e-015, -1.26287869e-015, -1.26287869e-015,
          -1.26287869e-015, -1.26287869e-015, -1.26287869e-015,
          -1.26287869e-015, -1.26287869e-015, -1.26287869e-015,
          -1.26287869e-015 ]
      - [ -2.22044605e-015, -2.22044605e-015, -2.22044605e-015,
          -2.22044605e-015, -2.22044605e-015, -2.22044605e-015,
          -2.22044605e-015, -2.22044605e-015, -2.22044605e-015,
          -2.22044605e-015, -2.22044605e-015, -2.22044605e-015,
          -2.22044605e-015, -2.22044605e-015, -2.22044605e-015,
          -2.22044605e-015, -2.22044605e-015, -2.22044605e-015,
          -2.22044605e-015, -2.22044605e-015, -2.22044605e-015,
          -2.22044605e-015, -2.22044605e-015, -2.22044605e-015,
          -2.22044605e-015, -2.22044605e-015, -2.22044605e-015,
          -2.22044605e-015, -2.22044605e-015, -2.22044605e-015,
          -2.22044605e-015, -2.22044605e-015, -2.22044605e-015,
          -2.22044605e-015, -2.22044605e-015, 1.37492269e-002,
          3.61780137e-001, -1.84733480e-001, 1.09345868e-001,
          -7.59139806e-002, 3.21538508e-001, 3.54089081e-001,
          3.03059191e-001, 3.73469621e-001, 4.12229031e-001,
          1.74110666e-001, -2.22044605e-015, -2.22044605e-015,
          -2.22044605e-015, -2.22044605e-015, 1.00000001e-001,
          4.13123220e-001, 4.78020370e-001, 7.10221902e-002,
          4.65121344e-002, 2.34226286e-001, 8.45600143e-002,
          9.34679732e-002, 1.04221880e-001, 9.53431204e-002,
          2.92901397e-001, 1.21122651e-001, 1.48701936e-001,
          -2.22044605e-015, -2.22044605e-015, -2.22044605e-015,
          -2.22044605e-015, 2.28877440e-001, 2.57937282e-001,
          2.92998880e-001, 4.10991162e-001, 4.13427539e-002,
          -4.98737879e-002, 4.77600517e-003, 1.68394610e-001,
          -1.46724880e-001, 2.23179862e-001, 3.38826716e-001,
          -2.22044605e-015, -2.22044605e-015, -2.22044605e-015,
          -2.22044605e-015, 1.00000001e-001, 4.51780856e-001,
          1.30935207e-001, 1.98169708e-001, -6.73696995e-002,
          -1.05620049e-001, 5.91960438e-002, -7.53759384e-001,
          -1.00657307e-001, 1.53039888e-001, 4.15310085e-001,
          3.20952863e-001, 3.00000012e-001, -2.22044605e-015,
          -2.22044605e-015, -2.22044605e-015, 2.00000003e-001,
          -6.04049079e-002, 3.85596901e-001, 1.13551743e-001,
          3.69057328e-001, 7.42715597e-002, -3.15471321e-001,
          7.11895749e-002, -1.73456874e-002, 8.63829553e-002,
          3.27752605e-002, 3.15037295e-002, 1.70422480e-001,
          -2.22044605e-015, -2.22044605e-015, -2.22044605e-015,
          -4.44089210e-016, 2.09357873e-001, 4.02144575e-003,
          3.04212302e-001, 2.14141175e-001, 3.19919169e-001,
          -8.37626085e-002, -4.56900597e-002, 4.54058021e-001,
          2.69996095e-003, 3.77187312e-001, -1.46112189e-001,
          -2.22044605e-015, -2.22044605e-015, -2.22044605e-015,
          -2.22044605e-015, 1.22546814e-001, -7.97659159e-002,
          3.58248323e-001, -4.92072329e-002, 3.02927732e-001,
          5.03225207e-001, -1.77612141e-001, 2.21618801e-001,
          -1.40532225e-001, 8.99418965e-002, -3.48895311e-001,
          -1.85779929e-001, -5.96479438e-002, -2.22044605e-015,
          -2.22044605e-015, -2.22044605e-015, 2.05831558e-001,
          -2.84017920e-001, 1.38275161e-001, -2.14323223e-001,
          -1.53465167e-001, -5.64544976e-001, -3.81132424e-001,
          1.56180203e-001, -4.42189500e-002, -9.29208398e-002,
          2.58549720e-001, -3.50379907e-002, -2.22044605e-015,
          -2.22044605e-015, -2.22044605e-015, -2.22044605e-015,
          -6.47044703e-002, -1.41045406e-001, -1.29747748e-001,
          -9.22839418e-002, -2.88636297e-001, -2.80903190e-001,
          -1.15564883e-001, -1.94470882e-001, 3.45151387e-002,
          -9.42793414e-002, -2.24145040e-001, -3.68367881e-001,
          -2.22044605e-015, -2.22044605e-015, -2.22044605e-015,
          -2.22044605e-015, 5.18330093e-003, -2.06710964e-001,
          -6.98108599e-002, 7.46264309e-002, -3.41077782e-002,
          1.60679668e-001, -2.89131880e-001, 2.23822892e-001,
          1.34882957e-001, -2.11944386e-001, -3.20688874e-001,
          -2.19577253e-001, -2.22044605e-015, -2.22044605e-015,
          -2.22044605e-015, -2.22044605e-015, -6.27340376e-001,
          -3.76453511e-002, -2.26559073e-001, -1.79880857e-001,
          -2.92768747e-001, 2.36471575e-002, 1.21513046e-002,
          9.70613211e-002, -2.53377467e-001, -1.83203220e-001,
          -3.06991041e-001, -2.66139060e-001, -2.22044605e-015,
          -2.22044605e-015, -2.22044605e-015, -2.22044605e-015,
          -1.64322644e-001, -3.94632041e-001, -4.67285544e-001,
          1.81742296e-001, -2.82813370e-001, 2.82029007e-002,
          -2.58077860e-001, 1.51652798e-001, -1.23596385e-001,
          -1.41720518e-001, 5.07421419e-002, -1.36522040e-001,
          4.87019308e-002, -2.22044605e-015, -2.22044605e-015,
          -2.22044605e-015, -1.41452327e-001, -7.06345677e-001,
          -9.50809196e-002, -7.11939111e-002, -1.24695688e-001,
          1.39825299e-001, -2.56285578e-001, -1.68077245e-001,
          -1.69032753e-001, 1.68810040e-001, 1.22847751e-001,
          -5.50470315e-002, -2.22044605e-015, -2.22044605e-015,
          -2.22044605e-015, -2.22044605e-015, -2.22044605e-015,
          -2.22044605e-015, -2.22044605e-015, -2.22044605e-015,
          -2.22044605e-015, -2.22044605e-015, -2.22044605e-015,
          -2.22044605e-015, -2.22044605e-015, -2.22044605e-015,
          -2.22044605e-015, -2.22044605e-015, -2.22044605e-015,
          -2.22044605e-015 ]
      - [ 2.41473508e-015, 2.41473508e-015, 2.41473508e-015,
          2.41473508e-015, 2.41473508e-015, 2.41473508e-015,
          2.41473508e-015, 2.41473508e-015, 2.41473508e-015,
          2.41473508e-015, 2.41473508e-015, 2.41473508e-015,
          2.41473508e-015, 2.41473508e-015, 2.41473508e-015,
          2.41473508e-015, 2.41473508e-015, 2.41473508e-015,
          2.41473508e-015, 2.41473508e-015, 2.41473508e-015,
          2.41473508e-015, 2.41473508e-015, 2.41473508e-015,
          2.41473508e-015, 2.41473508e-015, 2.41473508e-015,
          2.41473508e-015, 2.41473508e-015, 2.41473508e-015,
          2.41473508e-015, 2.41473508e-015, 2.41473508e-015,
          2.41473508e-015, 2.41473508e-015, 1.00000001e-001,
          1.75027952e-001, 4.55598021e-003, 2.94224054e-001,
          1.82928801e-001, 4.82680529e-001, 8.15436691e-002,
          3.22399944e-001, -3.37057076e-002, 2.19412133e-001,
          2.66638160e-001, 2.41473508e-015, 2.41473508e-015,
          2.41473508e-015, 2.41473508e-015, 2.41473508e-015,
          1.00000001e-001, 2.58207530e-001, 2.19930723e-001,
          3.21399599e-001, 2.15038285e-001, 2.23788083e-001,
          1.92812622e-001, 2.73966312e-001, 5.88921644e-002,
          1.52053282e-001, 3.04320991e-001, 2.41473508e-015,
          2.41473508e-015, 2.41473508e-015, 2.41473508e-015,
          2.41473508e-015, 3.67786214e-002, 2.87646800e-001,
          5.43698430e-001, 2.21715927e-001, 3.34362775e-001,
          3.65850300e-001, -7.26872636e-003, 4.85714078e-001,
          2.90277660e-001, 3.13384831e-001, 2.84253925e-001,
          2.41473508e-015, 2.41473508e-015, 2.41473508e-015,
          2.41473508e-015, 2.41473508e-015, 9.46876183e-002,
          5.60101531e-002, -4.55270968e-002, 2.24791557e-001,
          -1.06063157e-001, 7.60155171e-002, 2.16447160e-001,
          5.03451824e-002, 2.77154922e-001, 1.43575728e-001,
          1.82661563e-001, 1.69845484e-002, 2.41473508e-015,
          2.41473508e-015, 2.41473508e-015, 2.41473508e-015,
          -1.05571888e-001, 8.47171694e-002, 1.23715632e-001,
          2.69343734e-001, -8.29478726e-002, -5.43475989e-003,
          7.32374936e-002, 9.26200077e-002, -2.65690029e-001,
          -1.06070600e-001, -1.67154431e-001, 2.41473508e-015,
          2.41473508e-015, 2.41473508e-015, 2.41473508e-015,
          -2.90741958e-002, -9.06108692e-002, -2.12536246e-001,
          -1.05615743e-001, 1.04150675e-001, 1.92473605e-001,
          2.45795265e-001, 1.52072430e-001, -3.57629871e-003,
          -7.73601234e-002, -5.24861440e-002, -2.33027011e-001,
          2.41473508e-015, 2.41473508e-015, 2.41473508e-015,
          2.41473508e-015, 6.38800189e-002, 2.70337462e-001,
          -1.11747704e-001, -1.68230429e-001, -3.44965160e-001,
          -2.73912400e-001, 8.24834928e-002, 6.26780868e-001,
          -1.65769368e-001, -3.15910548e-001, -2.77597934e-001,
          -1.88991800e-001, -1.49610154e-002, 2.41473508e-015,
          2.41473508e-015, 2.41473508e-015, 6.38800189e-002,
          -1.62127957e-001, -1.39534190e-001, -3.10338169e-001,
          1.45052783e-002, -4.86077815e-001, -3.00559431e-001,
          -2.16275513e-001, -2.77543187e-001, -2.79471099e-001,
          -2.37525135e-001, -1.88991800e-001, 2.41473508e-015,
          2.41473508e-015, 2.41473508e-015, 2.41473508e-015,
          -6.41699135e-002, -2.34179478e-002, -5.07929981e-001,
          -4.25398618e-001, -3.95028502e-001, 7.99594894e-002,
          -4.30377498e-002, -4.96191561e-001, -3.58347207e-001,
          -2.98932880e-001, -3.37784648e-001, -2.18065992e-001,
          2.41473508e-015, 2.41473508e-015, 2.41473508e-015,
          2.41473508e-015, -5.23146955e-005, -1.56910837e-001,
          3.72030921e-002, 1.94825366e-001, 4.71680351e-002,
          2.24594370e-001, -2.90721923e-001, -4.21204448e-001,
          -4.96150032e-002, -1.37494192e-001, -2.56169975e-001,
          -1.88991800e-001, 2.41473508e-015, 2.41473508e-015,
          2.41473508e-015, 2.41473508e-015, -3.97522569e-001,
          -5.88454828e-002, -2.34367520e-001, 2.42699817e-001,
          2.27606576e-002, 2.78602630e-001, -5.05918339e-002,
          -1.14747532e-001, -2.46616870e-001, -6.16263412e-002,
          -5.89354038e-001, -1.62379220e-001, 2.41473508e-015,
          2.41473508e-015, 2.41473508e-015, 2.41473508e-015,
          -3.38993311e-001, -3.33010495e-001, -3.15099239e-001,
          3.75065327e-001, 7.87240863e-002, -1.44393504e-001,
          1.12785093e-001, -1.83268920e-001, -4.08846378e-001,
          -2.84067839e-001, -1.78084806e-001, -1.06094703e-001,
          1.00000001e-001, 2.41473508e-015, 2.41473508e-015,
          2.41473508e-015, -2.00000003e-001, -8.60634744e-001,
          -4.00562584e-001, 1.55177027e-001, 8.10388383e-003,
          2.18480942e-003, -2.56052345e-001, -3.13675731e-001,
          -2.84758061e-001, -1.62549779e-001, -1.89800316e-003,
          -1.89800316e-003, 2.41473508e-015, 2.41473508e-015,
          2.41473508e-015, 2.41473508e-015, 2.41473508e-015,
          2.41473508e-015, 2.41473508e-015, 2.41473508e-015,
          2.41473508e-015, 2.41473508e-015, 2.41473508e-015,
          2.41473508e-015, 2.41473508e-015, 2.41473508e-015,
          2.41473508e-015, 2.41473508e-015, 2.41473508e-015,
          2.41473508e-015 ]
      - [ 3.33066907e-015, 3.33066907e-015, 3.33066907e-015,
          3.33066907e-015, 3.33066907e-015, 3.33066907e-015,
          3.33066907e-015, 3.33066907e-015, 3.33066907e-015,
          3.33066907e-015, 3.33066907e-015, 3.33066907e-015,
          3.33066907e-015, 3.33066907e-015, 3.33066907e-015,
          3.33066907e-015, 3.33066907e-015, 3.33066907e-015,
          3.33066907e-015, 3.33066907e-015, 3.33066907e-015,
          3.33066907e-015, 3.33066907e-015, 3.33066907e-015,
          3.33066907e-015, 3.33066907e-015, 3.33066907e-015,
          3.33066907e-015, 3.33066907e-015, 3.33066907e-015,
          3.33066907e-015, 3.33066907e-015, 3.33066907e-015,
          3.33066907e-015, 3.33066907e-015, 3.33066907e-015,
          2.89853901e-001, 2.65946776e-001, 1.64839700e-001,
          1.96533963e-001, 5.55226505e-001, 2.81597912e-001,
          4.67831105e-001, 7.79470056e-002, 1.16707981e-001,
          1.98181346e-001, 3.33066907e-015, 3.33066907e-015,
          3.33066907e-015, 3.33066907e-015, 3.33066907e-015,
          3.33066907e-015, 3.14564630e-002, -3.11593962e-004,
          2.86966980e-001, 2.53821135e-001, 2.54434973e-001,
          2.28402987e-001, 7.71999285e-002, 2.76008993e-002,
          -9.72970575e-002, 2.09448680e-001, 3.33066907e-015,
          3.33066907e-015, 3.33066907e-015, 3.33066907e-015,
          3.33066907e-015, 3.33066907e-015, 3.30718048e-002,
          9.37966183e-002, 2.37017617e-001, 2.56977946e-001,
          7.99868628e-002, -7.41493255e-002, 1.72919929e-001,
          -3.32816951e-002, 3.68910223e-001, -2.69334204e-002,
          5.27635664e-002, 3.33066907e-015, 3.33066907e-015,
          3.33066907e-015, 3.33066907e-015, -5.77930696e-002,
          -2.61973172e-001, -9.99676958e-002, -2.14262661e-002,
          -3.23803455e-001, -2.62392890e-002, -5.98943159e-002,
          -4.72296849e-002, 2.82707572e-001, -1.14611067e-001,
          -5.29796258e-002, 3.33066907e-015, 3.33066907e-015,
          3.33066907e-015, 3.33066907e-015, 3.33066907e-015,
          -2.96300679e-001, -3.54522228e-001, 2.84538753e-002,
          1.82830617e-001, -2.23448575e-001, 1.11724194e-002,
          -7.90690109e-002, 1.56172961e-001, 3.04191597e-002,
          -2.54505396e-001, -3.73323858e-001, 3.33066907e-015,
          3.33066907e-015, 3.33066907e-015, 3.33066907e-015,
          -1.00000001e-001, -2.96300679e-001, -6.38033092e-001,
          -1.55491695e-001, -5.13290241e-002, -9.38920900e-002,
          -1.33122206e-001, -6.87767044e-002, 2.36748662e-002,
          1.31163657e-001, -6.77701086e-002, 3.10133360e-002,
          3.33066907e-015, 3.33066907e-015, 3.33066907e-015,
          3.33066907e-015, 3.33066907e-015, 1.00000001e-001,
          -2.58778613e-002, -8.96237567e-002, -3.61713350e-001,
          -4.71518368e-001, -2.14704588e-001, 9.59565341e-002,
          -1.18491225e-001, -7.02193603e-002, 1.29221585e-002,
          5.46048880e-002, 3.33066907e-015, 3.33066907e-015,
          3.33066907e-015, 3.33066907e-015, 3.33066907e-015,
          2.94497162e-001, -1.78962529e-001, -6.12574518e-001,
          -3.18290651e-001, -6.09626114e-001, -1.80016696e-001,
          -1.92760065e-001, -8.22941661e-002, -2.04770058e-001,
          -1.27269909e-001, 1.72656864e-001, 3.33066907e-015,
          3.33066907e-015, 3.33066907e-015, 3.33066907e-015,
          -1.38605595e-001, 5.58995426e-001, -5.60113713e-002,
          -2.09142622e-002, -1.79004297e-001, -5.43364994e-002,
          -7.68240988e-002, -3.78085762e-001, -4.09115136e-001,
          3.03397812e-002, -2.18961611e-001, 7.26568699e-002,
          3.33066907e-015, 3.33066907e-015, 3.33066907e-015,
          3.33066907e-015, 1.35876060e-001, 3.48606795e-001,
          -1.89241171e-001, 4.58901674e-001, 2.33286589e-001,
          4.24177468e-001, -1.66327372e-001, -2.80799657e-001,
          3.36339980e-001, -2.77862817e-001, 3.08839809e-002,
          -4.39913541e-001, 3.33066907e-015, 3.33066907e-015,
          3.33066907e-015, 3.33066907e-015, -2.58542299e-001,
          4.27298918e-002, 1.04743447e-002, 4.49461907e-001,
          2.45527759e-001, 1.55906737e-001, 2.44859651e-001,
          -1.39262974e-001, -2.37817734e-001, -1.90812889e-002,
          -5.85429847e-001, -5.64715147e-001, 3.33066907e-015,
          3.33066907e-015, 3.33066907e-015, 3.33066907e-015,
          2.66879737e-001, -4.46472317e-002, 1.81115061e-001,
          4.91480261e-001, 1.49638057e-001, 4.09307688e-001,
          2.93934643e-001, -4.25104462e-002, -3.01546335e-001,
          -3.90342683e-001, -4.64175612e-001, -5.65878510e-001,
          3.33066907e-015, 3.33066907e-015, 3.33066907e-015,
          1.15936406e-001, -1.13965772e-001, -5.16407013e-001,
          -4.38353211e-001, -1.21937260e-001, -4.47122045e-002,
          4.40034308e-002, -5.61799467e-001, -2.70188838e-001,
          -4.32895303e-001, -2.87118763e-001, -7.44477734e-002,
          3.33066907e-015, 3.33066907e-015, 3.33066907e-015,
          3.33066907e-015, 3.33066907e-015, 3.33066907e-015,
          3.33066907e-015, 3.33066907e-015, 3.33066907e-015,
          3.33066907e-015, 3.33066907e-015, 3.33066907e-015,
          3.33066907e-015, 3.33066907e-015, 3.33066907e-015,
          3.33066907e-015, 3.33066907e-015, 3.33066907e-015,
          3.33066907e-015 ]
      - [ 2.06432094e-016, 2.06432094e-016, 2.06432094e-016,
          2.06432094e-016, 2.06432094e-016, 2.06432094e-016,
          2.06432094e-016, 2.06432094e-016, 2.06432094e-016,
          2.06432094e-016, 2.06432094e-016, 2.06432094e-016,
          2.06432094e-016, 2.06432094e-016, 2.06432094e-016,
          2.06432094e-016, 2.06432094e-016, 2.06432094e-016,
          2.06432094e-016, 2.06432094e-016, 2.06432094e-016,
          2.06432094e-016, 2.06432094e-016, 2.06432094e-016,
          2.06432094e-016, 2.06432094e-016, 2.06432094e-016,
          2.06432094e-016, 2.06432094e-016, 2.06432094e-016,
          2.06432094e-016, 2.06432094e-016, 2.06432094e-016,
          2.06432094e-016, 2.06432094e-016, -1.99771896e-001,
          -2.45590642e-001, -2.45590642e-001, -6.85473502e-001,
          -2.45110139e-001, -5.41049764e-002, -1.07553815e-002,
          -5.93042560e-003, -6.23262376e-002, 4.51371074e-003,
          1.16363131e-002, 2.06432094e-016, 2.06432094e-016,
          2.06432094e-016, 2.06432094e-016, 2.06432094e-016,
          -1.00000001e-001, 1.80191044e-002, -5.85389286e-002,
          -3.32620181e-002, -2.34338954e-001, -8.92296508e-002,
          -1.87068209e-001, 1.65376306e-001, -1.92708045e-001,
          2.13645265e-001, -3.32728624e-001, 2.06432094e-016,
          2.06432094e-016, 2.06432094e-016, 2.06432094e-016,
          2.06432094e-016, 9.45857242e-002, -6.08142093e-002,
          -1.61627486e-001, 1.84018642e-001, -3.29144932e-002,
          -1.35603845e-001, -7.67990276e-002, 2.56561220e-001,
          2.07251132e-001, 1.78681165e-001, -1.96139365e-001,
          -5.55907027e-004, 2.06432094e-016, 2.06432094e-016,
          2.06432094e-016, 2.06432094e-016, 5.67747355e-002,
          -3.75974812e-002, -5.93840443e-002, -2.84312610e-002,
          2.32226640e-001, 7.42120445e-002, 1.39286771e-001,
          4.97654080e-002, 2.14017015e-002, -8.80918652e-002,
          -1.26670316e-001, -8.06405321e-002, 2.06432094e-016,
          2.06432094e-016, 2.06432094e-016, 1.00000001e-001,
          8.79714359e-003, 1.78211689e-001, 2.82736182e-001,
          1.55265987e-001, 4.88546789e-001, -5.21398038e-002,
          -1.51611060e-001, 6.49679638e-003, -2.08155110e-001,
          2.97111068e-002, 6.34312481e-002, -1.94864541e-001,
          2.06432094e-016, 2.06432094e-016, 2.06432094e-016,
          2.06432094e-016, 4.22832459e-001, 1.26497343e-001,
          3.96379232e-001, 1.42609969e-001, -9.10486802e-002,
          -3.15988094e-001, -2.70222396e-001, -2.07730085e-001,
          -4.04517241e-002, -4.48386610e-001, -1.39033884e-001,
          2.06432094e-016, 2.06432094e-016, 2.06432094e-016,
          2.06432094e-016, 2.68090256e-002, 1.71326965e-001,
          5.94524853e-002, -7.19891489e-002, 8.84416476e-002,
          -5.03685176e-001, -3.71822864e-001, -1.69569612e-001,
          -3.80383641e-001, -4.41601723e-001, -2.79641628e-001,
          -2.94294357e-001, 8.08685869e-002, 2.06432094e-016,
          2.06432094e-016, 2.06432094e-016, 2.06432094e-016,
          3.89082372e-001, 4.01588082e-001, -4.14210856e-002,
          -3.31795096e-001, -6.70424476e-002, -1.14415489e-001,
          -8.96870270e-002, -5.24029076e-001, -6.14435077e-001,
          -5.15103638e-001, 5.91388233e-002, -9.42943469e-002,
          2.06432094e-016, 2.06432094e-016, 2.06432094e-016,
          7.42091909e-002, 3.28448445e-001, 2.20837280e-001,
          -3.35434228e-002, 1.01762675e-001, 1.10244729e-001,
          2.01663435e-001, 7.73381442e-002, -2.87485540e-001,
          -4.08662617e-001, -2.57007182e-001, -1.62493363e-001,
          2.06432094e-016, 2.06432094e-016, 2.06432094e-016,
          2.06432094e-016, 2.23681163e-002, -1.19776919e-001,
          -1.93863899e-001, 2.19217032e-001, 8.94267410e-002,
          8.34153444e-002, 2.11538985e-001, 7.22775189e-003,
          -2.22872687e-003, -1.60830915e-001, -7.88294822e-002,
          -3.44722658e-001, 2.06432094e-016, 2.06432094e-016,
          2.06432094e-016, 2.06432094e-016, 4.73003760e-002,
          2.01904565e-001, -6.32576318e-003, 1.65001675e-001,
          -1.20116659e-001, 1.57781422e-001, 1.82451710e-001,
          -9.90736037e-002, 2.01871991e-001, 1.11378402e-001,
          -1.88001275e-001, 8.23354051e-002, 2.06432094e-016,
          2.06432094e-016, 2.06432094e-016, 2.06432094e-016,
          -7.06964582e-002, -1.50183558e-001, 1.45423889e-001,
          3.02976787e-001, 3.27861793e-002, 2.06501037e-001,
          3.47046666e-002, 1.45888582e-001, 7.81985894e-002,
          1.35535166e-001, 1.91175342e-002, 1.80868596e-001,
          2.06432094e-016, 2.06432094e-016, 2.06432094e-016,
          2.06432094e-016, 2.06432094e-016, -1.20366834e-001,
          -3.65885735e-001, -2.57917583e-001, -1.16918385e-001,
          -2.14411169e-001, 2.61541635e-001, 4.52903472e-002,
          -1.07979178e-002, -1.76507197e-002, 2.06432094e-016,
          2.06432094e-016, 2.06432094e-016, 2.06432094e-016,
          2.06432094e-016, 2.06432094e-016, 2.06432094e-016,
          2.06432094e-016, 2.06432094e-016, 2.06432094e-016,
          2.06432094e-016, 2.06432094e-016, 2.06432094e-016,
          2.06432094e-016, 2.06432094e-016, 2.06432094e-016,
          2.06432094e-016, 2.06432094e-016, 2.06432094e-016,
          2.06432094e-016 ]
      - [ -1.97064587e-015, -1.97064587e-015, -1.97064587e-015,
          -1.97064587e-015, -1.97064587e-015, -1.97064587e-015,
          -1.97064587e-015, -1.97064587e-015, -1.97064587e-015,
          -1.97064587e-015, -1.97064587e-015, -1.97064587e-015,
          -1.97064587e-015, -1.97064587e-015, -1.97064587e-015,
          -1.97064587e-015, -1.97064587e-015, -1.97064587e-015,
          -1.97064587e-015, -1.97064587e-015, -1.97064587e-015,
          -1.97064587e-015, -1.97064587e-015, -1.97064587e-015,
          -1.97064587e-015, -1.97064587e-015, -1.97064587e-015,
          -1.97064587e-015, -1.97064587e-015, -1.97064587e-015,
          -1.97064587e-015, -1.97064587e-015, -1.97064587e-015,
          -1.97064587e-015, -1.97064587e-015, -1.90893710e-001,
          -2.19382197e-001, 2.24712268e-001, -1.71309173e-001,
          6.94993734e-002, 2.68742561e-001, -1.83304638e-001,
          -1.14395253e-001, -3.30749787e-002, -2.90199339e-001,
          2.05770493e-001, -1.00000001e-001, -1.97064587e-015,
          -1.97064587e-015, -1.97064587e-015, -1.06061101e-002,
          -6.12318665e-002, 8.09691846e-003, 6.54281750e-002,
          -1.59761712e-001, -1.28860906e-001, 2.06451282e-001,
          1.27234980e-001, 1.79379493e-001, -6.05066828e-002,
          -9.48539674e-002, -3.37417543e-001, -1.97064587e-015,
          -1.97064587e-015, -1.97064587e-015, -1.97064587e-015,
          -1.97064587e-015, 2.04222836e-002, 4.00687866e-002,
          -2.49698326e-001, -1.39115855e-001, -7.08176121e-002,
          -4.14777733e-003, 4.21573669e-002, 2.55731754e-002,
          8.81181583e-002, 1.25391304e-001, -3.27842236e-001,
          -1.23741418e-001, -1.97064587e-015, -1.97064587e-015,
          -1.97064587e-015, -1.97064587e-015, 2.77576119e-001,
          -1.92946177e-002, -1.71875238e-001, 1.20719433e-001,
          -2.95455575e-001, -1.38591021e-001, 4.28828835e-001,
          -9.13694948e-002, 1.70492311e-003, -1.41341388e-001,
          -1.41393930e-001, -1.23186029e-001, -1.97064587e-015,
          -1.97064587e-015, -1.97064587e-015, -1.97064587e-015,
          6.15752265e-002, 2.09493548e-001, 2.78475620e-002,
          -4.68843728e-002, -1.00238353e-001, -2.51996547e-001,
          2.07641926e-002, 4.31943387e-002, -1.02111928e-001,
          7.74211287e-002, 3.50548059e-001, 2.19794139e-001,
          -1.97064587e-015, -1.97064587e-015, -1.97064587e-015,
          -1.97064587e-015, -3.06113482e-001, -3.31923254e-002,
          1.85327739e-001, -7.21782148e-002, -2.10993528e-001,
          -5.50621569e-001, -5.77395499e-001, -2.52691746e-001,
          1.85432229e-002, 2.70900160e-001, 6.85796738e-001,
          2.34778538e-001, -1.97064587e-015, -1.97064587e-015,
          -1.97064587e-015, 6.86593279e-002, 1.67651966e-001,
          1.61032617e-001, -3.35527420e-001, -1.51705846e-001,
          -3.66417497e-001, -8.43216360e-001, -6.60687208e-001,
          -2.04179704e-001, 2.21913680e-001, 4.08610076e-001,
          1.09002614e+000, 2.37014189e-001, -1.97064587e-015,
          -1.97064587e-015, -1.97064587e-015, -1.97064587e-015,
          -6.08866699e-002, -6.16577938e-002, 9.26149637e-002,
          -1.30729109e-001, 2.10275322e-001, -1.27384573e-001,
          -2.64936715e-001, 8.64842236e-002, -1.72833070e-001,
          6.95315972e-002, 3.02974105e-001, -1.00000001e-001,
          -1.97064587e-015, -1.97064587e-015, -1.97064587e-015,
          -5.21541201e-002, -5.28295003e-002, -9.78757739e-002,
          9.65463184e-003, -2.44118780e-001, 4.75366741e-001,
          7.61186332e-002, 9.78493541e-002, -1.38131857e-001,
          1.41130751e-002, -2.62063265e-001, -3.76477659e-001,
          -1.97064587e-015, -1.97064587e-015, -1.97064587e-015,
          -1.97064587e-015, 1.39471889e-001, -1.64080098e-001,
          -1.38137683e-001, 2.27966011e-001, 2.35643312e-001,
          2.62900978e-001, 3.95171285e-001, 1.16412222e-001,
          1.45204127e-001, -3.22626829e-001, -3.96880656e-001,
          -5.65502703e-001, -1.97064587e-015, -1.97064587e-015,
          -1.97064587e-015, -1.97064587e-015, -2.98385583e-002,
          3.92983668e-002, -1.28731847e-001, 1.98263884e-001,
          1.34630695e-001, 1.57338738e-001, 2.44330734e-001,
          1.25359461e-001, 2.13349044e-001, -1.20574214e-001,
          -1.91186100e-001, -2.58135766e-001, -1.97064587e-015,
          -1.97064587e-015, -1.97064587e-015, -1.97064587e-015,
          5.57047613e-002, -2.41576135e-002, 1.66597739e-001,
          1.24267690e-001, 2.72659212e-001, 9.46078375e-002,
          5.25156483e-002, 6.87664840e-003, -3.14429402e-003,
          -1.15171775e-001, 8.05354789e-002, 2.00000003e-001,
          -1.97064587e-015, -1.97064587e-015, -1.97064587e-015,
          -1.97064587e-015, -1.97064587e-015, 1.36242136e-001,
          2.82341808e-001, -7.49061182e-002, -4.88855839e-002,
          1.41323894e-001, 9.96299163e-002, -2.75583029e-001,
          -1.97064587e-015, 2.39140227e-001, 3.00000012e-001,
          3.00000012e-001, -1.97064587e-015, -1.97064587e-015,
          -1.97064587e-015, -1.97064587e-015, -1.97064587e-015,
          -1.97064587e-015, -1.97064587e-015, -1.97064587e-015,
          -1.97064587e-015, -1.97064587e-015, -1.97064587e-015,
          -1.97064587e-015, -1.97064587e-015, -1.97064587e-015,
          -1.97064587e-015, -1.97064587e-015, -1.97064587e-015,
          -1.97064587e-015 ]
      - [ 5.51642065e-015, 5.51642065e-015, 5.51642065e-015,
          5.51642065e-015, 5.51642065e-015, 5.51642065e-015,
          5.51642065e-015, 5.51642065e-015, 5.51642065e-015,
          5.51642065e-015, 5.51642065e-015, 5.51642065e-015,
          5.51642065e-015, 5.51642065e-015, 5.51642065e-015,
          5.51642065e-015, 5.51642065e-015, 5.51642065e-015,
          5.51642065e-015, 5.51642065e-015, 5.51642065e-015,
          5.51642065e-015, 5.51642065e-015, 5.51642065e-015,
          5.51642065e-015, 5.51642065e-015, 5.51642065e-015,
          5.51642065e-015, 5.51642065e-015, 5.51642065e-015,
          5.51642065e-015, 5.51642065e-015, 5.51642065e-015,
          5.51642065e-015, 5.51642065e-015, -5.25612757e-002,
          1.89455599e-002, -2.06544533e-001, -1.96427628e-001,
          -3.23893100e-001, -9.18821990e-002, -2.68618673e-001,
          2.99735427e-001, 2.84460366e-001, 4.18705046e-001,
          4.25732821e-001, -3.84899713e-002, 5.51642065e-015,
          5.51642065e-015, 5.51642065e-015, 1.00000001e-001,
          -5.37800826e-002, 1.47933930e-001, -8.46300423e-002,
          1.53969601e-001, -2.70241052e-001, 2.93389019e-002,
          -3.95109713e-001, 6.71826005e-002, 2.83175409e-001,
          1.27015024e-001, 2.03730166e-001, 1.52502861e-002,
          5.51642065e-015, 5.51642065e-015, 5.51642065e-015,
          5.51642065e-015, -1.17470130e-001, 6.60496205e-002,
          2.82091312e-002, -4.17330936e-002, 1.70680895e-001,
          -2.58739889e-001, -3.31862010e-002, -7.74637014e-002,
          1.55777752e-001, 1.07772835e-001, -1.05484731e-001,
          -2.44270824e-002, 5.51642065e-015, 5.51642065e-015,
          5.51642065e-015, 2.00000003e-001, -1.32491425e-001,
          -5.99714220e-002, -4.42714011e-003, 2.36809000e-001,
          -3.54882739e-002, 2.69869506e-001, 4.90980409e-003,
          -2.05781996e-001, -5.36922455e-001, -1.80247709e-001,
          -1.95650160e-001, -2.00000003e-001, 5.51642065e-015,
          5.51642065e-015, 5.51642065e-015, 8.86440575e-002,
          -3.04402024e-001, 5.86941466e-002, 2.23036353e-002,
          1.95025638e-001, 3.13574314e-001, -5.59414141e-002,
          1.60486579e-001, -4.09271009e-002, -3.05062562e-001,
          -3.07126075e-001, -2.91817665e-001, -2.51257181e-001,
          5.51642065e-015, 5.51642065e-015, 5.51642065e-015,
          8.86440575e-002, 1.04390465e-001, -6.54446483e-002,
          1.25789627e-001, -8.73785019e-002, 4.67640698e-001,
          -1.71649545e-001, -1.95098102e-001, -5.37327975e-002,
          -9.84744132e-002, -5.49389124e-001, -6.73941150e-002,
          5.51642065e-015, 5.51642065e-015, 5.51642065e-015,
          5.51642065e-015, 5.51642065e-015, 2.35003412e-001,
          -6.14857636e-002, 2.14197576e-001, 1.94569170e-001,
          -1.85092136e-001, 3.88709873e-001, 1.17786095e-001,
          -3.77042413e-001, -3.58551383e-001, -5.57683170e-001,
          -4.23979551e-001, 5.51642065e-015, 5.51642065e-015,
          5.51642065e-015, 5.51642065e-015, 2.00000003e-001,
          2.11685255e-001, 2.06804410e-001, 1.19577028e-001,
          -7.01103508e-002, 2.43436545e-001, 2.15117857e-002,
          -2.81130224e-001, -3.81683797e-001, -7.54779041e-001,
          -7.98281550e-001, -4.87520918e-002, 6.59153089e-002,
          5.51642065e-015, 5.51642065e-015, 5.51642065e-015,
          5.51642065e-015, 5.47207236e-001, 1.40649706e-001,
          1.63884282e-001, 6.15565106e-003, 2.26372674e-001,
          3.65787297e-001, -6.38570786e-002, -6.29886150e-001,
          -5.61153352e-001, -3.46629322e-001, -4.92601514e-001,
          1.00000001e-001, 5.51642065e-015, 5.51642065e-015,
          5.51642065e-015, -1.89967721e-003, -1.88333429e-002,
          -3.03520518e-003, 1.87322468e-001, 4.89538349e-002,
          -4.80980016e-002, 1.44749135e-001, 1.63913593e-001,
          9.18316171e-002, -6.41308073e-003, -6.36897385e-002,
          -3.22874993e-001, 1.00000001e-001, 5.51642065e-015,
          5.51642065e-015, 5.51642065e-015, 2.18456820e-001,
          2.17538923e-001, 1.37408406e-001, 1.79223970e-001,
          1.17566548e-001, 1.66465774e-001, -4.67565618e-002,
          -2.94634193e-001, -1.09968200e-001, 2.96178073e-001,
          4.17144150e-002, 5.36004677e-002, 1.00000001e-001,
          5.51642065e-015, 5.51642065e-015, 5.51642065e-015,
          2.99723893e-001, 4.17771563e-003, -1.11264259e-001,
          -1.24326877e-001, -2.42559329e-001, -1.31034628e-001,
          8.54584947e-002, 1.05593905e-001, 2.52073795e-001,
          2.48488978e-001, 4.30809736e-001, 2.25753561e-001,
          1.00000001e-001, 5.51642065e-015, 5.51642065e-015,
          5.51642065e-015, 1.00000001e-001, -3.00904453e-001,
          -1.73156768e-001, -3.26609522e-001, -3.60897273e-001,
          -1.54231563e-001, 3.07679415e-001, 2.64066219e-001,
          5.45678020e-001, 4.15442377e-001, 3.53724688e-001,
          4.67853062e-002, 5.51642065e-015, 5.51642065e-015,
          5.51642065e-015, 5.51642065e-015, 5.51642065e-015,
          5.51642065e-015, 5.51642065e-015, 5.51642065e-015,
          5.51642065e-015, 5.51642065e-015, 5.51642065e-015,
          5.51642065e-015, 5.51642065e-015, 5.51642065e-015,
          5.51642065e-015, 5.51642065e-015, 5.51642065e-015,
          5.51642065e-015 ]
      - [ -2.52575738e-015, -2.52575738e-015, -2.52575738e-015,
          -2.52575738e-015, -2.52575738e-015, -2.52575738e-015,
          -2.52575738e-015, -2.52575738e-015, -2.52575738e-015,
          -2.52575738e-015, -2.52575738e-015, -2.52575738e-015,
          -2.52575738e-015, -2.52575738e-015, -2.52575738e-015,
          -2.52575738e-015, -2.52575738e-015, -2.52575738e-015,
          -2.52575738e-015, -2.52575738e-015, -2.52575738e-015,
          -2.52575738e-015, -2.52575738e-015, -2.52575738e-015,
          -2.52575738e-015, -2.52575738e-015, -2.52575738e-015,
          -2.52575738e-015, -2.52575738e-015, -2.52575738e-015,
          -2.52575738e-015, -2.52575738e-015, -2.52575738e-015,
          -2.52575738e-015, -2.52575738e-015, 9.83645916e-002,
          1.68658167e-001, 2.92584777e-001, 2.53412902e-001,
          -6.28818758e-003, -1.05517469e-001, -1.02401122e-001,
          1.39821097e-001, 2.07761556e-001, 1.72940016e-001,
          2.08370492e-001, -2.52575738e-015, -2.52575738e-015,
          -2.52575738e-015, -2.52575738e-015, 3.23137119e-002,
          -2.78815091e-001, 1.28918299e-002, 1.39398962e-001,
          1.96205318e-001, -1.05671927e-001, 1.23756655e-001,
          -1.51378214e-001, 3.45698446e-002, 9.93279368e-002,
          2.75876850e-001, 1.33281648e-001, 8.54922608e-002,
          -2.52575738e-015, -2.52575738e-015, -2.52575738e-015,
          -2.52575738e-015, 1.47598147e-001, 1.13894194e-001,
          -1.39285982e-001, 1.07028536e-001, 4.18534517e-001,
          -1.31131366e-001, -1.08732590e-002, 2.50934865e-002,
          -2.32590251e-002, 1.23412453e-001, -4.02059928e-002,
          8.54922608e-002, -2.52575738e-015, -2.52575738e-015,
          -2.52575738e-015, 2.10065767e-002, -7.64805228e-002,
          5.99435158e-003, 1.96610272e-001, 8.50340500e-002,
          -2.04155758e-001, 8.49882327e-003, -2.24118233e-002,
          -6.71292329e-003, 6.13485947e-002, -1.28495693e-001,
          1.31301384e-003, -1.67686284e-001, -2.52575738e-015,
          -2.52575738e-015, -2.52575738e-015, -2.52575738e-015,
          -2.24356800e-002, 1.90881178e-001, 2.82253355e-001,
          3.43871951e-001, 3.00731301e-001, 8.65915790e-003,
          2.00429722e-003, -1.57899275e-001, -1.63566753e-001,
          1.85738001e-002, -1.05474610e-002, -6.76862895e-002,
          -2.52575738e-015, -2.52575738e-015, -2.52575738e-015,
          -2.52575738e-015, 3.23675834e-002, 2.50820890e-002,
          9.65543091e-002, -1.28975868e-001, -7.89361000e-002,
          -1.82774559e-001, 5.23402505e-002, 7.35868067e-002,
          1.36237800e-001, -3.29456061e-001, 1.04901180e-001,
          3.23137119e-002, -2.52575738e-015, -2.52575738e-015,
          -2.52575738e-015, -4.24979180e-002, 1.91304743e-001,
          -3.02814245e-001, -1.78055301e-001, 5.93868643e-002,
          3.37961735e-003, 5.42466864e-002, 2.64084756e-001,
          -3.17063153e-001, -1.38934880e-001, -2.28008702e-001,
          2.49523655e-001, 7.50514194e-002, -2.52575738e-015,
          -2.52575738e-015, -2.52575738e-015, 2.88663805e-001,
          -5.87209538e-002, -2.30461229e-002, -1.59187987e-001,
          -2.52685755e-001, 2.59861410e-001, 4.50472414e-001,
          8.97705257e-002, -2.52369523e-001, -4.63588744e-001,
          -4.25083518e-001, -4.21660505e-002, -2.52575738e-015,
          -2.52575738e-015, -2.52575738e-015, -2.52575738e-015,
          1.42217532e-001, 4.32891697e-002, 2.50510007e-001,
          1.38652205e-001, 1.94416307e-002, 2.10925005e-002,
          3.28976512e-001, -3.51657748e-001, -5.51560462e-001,
          -4.97136384e-001, -1.93333298e-001, -3.12388092e-001,
          -2.52575738e-015, -2.52575738e-015, -2.52575738e-015,
          -2.52575738e-015, -1.00401983e-001, -9.86393020e-002,
          -1.15191862e-001, 2.21809655e-001, 2.02079356e-001,
          1.36015415e-002, 7.84814656e-002, -2.24627212e-001,
          -6.52054369e-001, -3.95812660e-001, -2.29191884e-001,
          -4.23849821e-001, -2.52575738e-015, -2.52575738e-015,
          -2.52575738e-015, -2.52575738e-015, -1.01055615e-002,
          -1.05023652e-001, 2.55873829e-001, -1.71519965e-002,
          1.12471871e-001, 3.09575617e-001, -1.83964223e-001,
          -7.24611998e-001, -4.39931065e-001, -3.09335023e-001,
          -8.10777992e-002, -2.00000003e-001, -2.52575738e-015,
          -2.52575738e-015, -2.52575738e-015, -2.52575738e-015,
          1.83878595e-003, -1.76817954e-001, -8.32878500e-002,
          4.08913121e-002, -7.10728625e-003, 1.16135655e-002,
          -1.68283835e-001, -2.15610921e-001, -6.95156515e-001,
          -5.59197068e-001, -2.25263074e-001, -2.52575738e-015,
          -2.52575738e-015, -2.52575738e-015, -2.52575738e-015,
          -2.52575738e-015, 6.48414642e-002, 1.33803515e-002,
          -6.11823611e-002, -1.53106526e-001, -9.67582390e-002,
          -4.59460914e-001, -1.49574587e-002, -3.81298274e-001,
          -1.25263080e-001, -2.52575738e-015, -2.52575738e-015,
          -2.52575738e-015, -2.52575738e-015, -2.52575738e-015,
          -2.52575738e-015, -2.52575738e-015, -2.52575738e-015,
          -2.52575738e-015, -2.52575738e-015, -2.52575738e-015,
          -2.52575738e-015, -2.52575738e-015, -2.52575738e-015,
          -2.52575738e-015, -2.52575738e-015, -2.52575738e-015,
          -2.52575738e-015, -2.52575738e-015, -2.52575738e-015,
          -2.52575738e-015 ]
      - [ 3.05311332e-016, 3.05311332e-016, 3.05311332e-016,
          3.05311332e-016, 3.05311332e-016, 3.05311332e-016,
          3.05311332e-016, 3.05311332e-016, 3.05311332e-016,
          3.05311332e-016, 3.05311332e-016, 3.05311332e-016,
          3.05311332e-016, 3.05311332e-016, 3.05311332e-016,
          3.05311332e-016, 3.05311332e-016, 3.05311332e-016,
          3.05311332e-016, 3.05311332e-016, 3.05311332e-016,
          3.05311332e-016, 3.05311332e-016, 3.05311332e-016,
          3.05311332e-016, 3.05311332e-016, 3.05311332e-016,
          3.05311332e-016, 3.05311332e-016, 3.05311332e-016,
          3.05311332e-016, 3.05311332e-016, 3.05311332e-016,
          3.05311332e-016, 3.05311332e-016, -1.63427889e-001,
          -7.06750005e-002, -1.34488359e-001, -7.22840846e-001,
          -1.73732013e-001, -1.78258494e-001, -1.34082735e-002,
          2.68791586e-001, 3.87975648e-002, 2.07307667e-001,
          1.12186737e-001, 3.05311332e-016, 3.05311332e-016,
          3.05311332e-016, 3.05311332e-016, 3.05311332e-016,
          -3.02200168e-001, -1.78464353e-001, -2.16478124e-001,
          -3.82395228e-003, -1.45345569e-001, 1.63333818e-001,
          -9.43777561e-002, 2.83897609e-001, 1.02709413e-001,
          4.18428928e-001, 2.38327160e-002, 3.05311332e-016,
          3.05311332e-016, 3.05311332e-016, 3.05311332e-016,
          3.05311332e-016, -1.00000001e-001, -1.93459890e-003,
          -5.89493401e-002, 5.75360805e-002, 5.67722432e-002,
          -2.03267261e-001, 1.38417669e-002, 3.53940487e-001,
          9.80114713e-002, -6.68215752e-002, -5.18775344e-001,
          1.00000001e-001, 3.05311332e-016, 3.05311332e-016,
          3.05311332e-016, 3.05311332e-016, -9.47172008e-003,
          1.62105545e-001, -9.12848189e-002, 2.80672461e-001,
          -2.17263103e-001, -2.54210055e-001, -1.70751587e-001,
          -4.60593820e-001, -4.61672954e-002, -4.00858730e-001,
          -3.55638057e-001, -1.00000001e-001, 3.05311332e-016,
          3.05311332e-016, 3.05311332e-016, 1.00000001e-001,
          -1.42086312e-001, 1.42756522e-001, 2.14719549e-001,
          9.75714345e-003, 1.17970370e-001, -1.58779338e-001,
          -1.69534922e-001, -1.76760972e-001, -5.08014143e-001,
          -2.02278823e-001, -1.16465621e-001, -2.63361901e-001,
          3.05311332e-016, 3.05311332e-016, 3.05311332e-016,
          1.26240375e-002, 4.00110304e-001, 3.67719829e-001,
          1.03841856e-001, 2.47236997e-001, -1.93601593e-001,
          -3.81761789e-001, -5.67368507e-001, -3.44913602e-001,
          -3.87096405e-001, -6.33408874e-002, -8.25377628e-002,
          3.05311332e-016, 3.05311332e-016, 3.05311332e-016,
          3.05311332e-016, 1.29816458e-001, 5.36817491e-001,
          2.26031527e-001, 3.03361207e-001, -6.30522554e-004,
          -3.78983319e-001, -3.51839602e-001, -9.51824635e-002,
          1.65071353e-001, -1.19442921e-002, -4.37095985e-002,
          3.39766741e-001, 3.05311332e-016, 3.05311332e-016,
          3.05311332e-016, 3.05311332e-016, 1.68561056e-001,
          4.38218296e-001, 3.14334184e-001, -2.52449363e-001,
          -3.00753683e-001, 1.76819533e-001, 2.85747141e-001,
          2.25769892e-001, 1.01445496e-001, -2.46414870e-001,
          -1.89676300e-001, 9.70729142e-002, -6.13132417e-002,
          3.05311332e-016, 3.05311332e-016, 3.05311332e-016,
          8.12545791e-002, 2.07231477e-001, 2.76481658e-002,
          2.26224795e-001, 2.15358526e-001, -6.89726789e-004,
          2.73796916e-001, 2.26577371e-001, 3.52250300e-002,
          -2.83723682e-001, -8.34049731e-002, -3.46919328e-001,
          3.05311332e-016, 3.05311332e-016, 3.05311332e-016,
          3.05311332e-016, -5.31409457e-002, 2.39564717e-001,
          -5.70822954e-002, -9.70253814e-003, 6.15300685e-002,
          -5.76806590e-002, 1.57512769e-001, 1.85628578e-001,
          5.74451312e-002, -4.67530712e-002, -3.42978925e-001,
          -3.93141776e-001, 3.05311332e-016, 3.05311332e-016,
          3.05311332e-016, 3.05311332e-016, 1.33973405e-001,
          -2.46619478e-001, 6.50131777e-002, 1.50298789e-001,
          4.73643430e-002, 2.44893149e-001, -2.36656168e-003,
          -1.45722898e-002, -2.50283480e-002, -8.01621825e-002,
          -2.02986494e-001, -9.21393558e-002, 3.05311332e-016,
          3.05311332e-016, 3.05311332e-016, 3.05311332e-016,
          1.87079281e-001, -3.61987710e-001, -1.25534326e-001,
          3.04530896e-002, 1.47458196e-001, 6.90478161e-002,
          4.67164852e-002, 1.08103544e-001, 5.25413677e-002,
          2.03218162e-001, 5.18657863e-002, 1.23826638e-001,
          3.05311332e-016, 3.05311332e-016, 3.05311332e-016,
          3.05311332e-016, 3.05311332e-016, -2.87453141e-002,
          -4.86945421e-001, -3.14049333e-001, -1.70414492e-001,
          7.09091201e-002, 3.71229470e-001, 3.80886272e-002,
          4.74910475e-002, 1.36376426e-001, 2.63898596e-002,
          2.63898596e-002, 3.05311332e-016, 3.05311332e-016,
          3.05311332e-016, 3.05311332e-016, 3.05311332e-016,
          3.05311332e-016, 3.05311332e-016, 3.05311332e-016,
          3.05311332e-016, 3.05311332e-016, 3.05311332e-016,
          3.05311332e-016, 3.05311332e-016, 3.05311332e-016,
          3.05311332e-016, 3.05311332e-016, 3.05311332e-016,
          3.05311332e-016 ]
      - [ 1.24900090e-015, 1.24900090e-015, 1.24900090e-015,
          1.24900090e-015, 1.24900090e-015, 1.24900090e-015,
          1.24900090e-015, 1.24900090e-015, 1.24900090e-015,
          1.24900090e-015, 1.24900090e-015, 1.24900090e-015,
          1.24900090e-015, 1.24900090e-015, 1.24900090e-015,
          1.24900090e-015, 1.24900090e-015, 1.24900090e-015,
          1.24900090e-015, 1.24900090e-015, 1.24900090e-015,
          1.24900090e-015, 1.24900090e-015, 1.24900090e-015,
          1.24900090e-015, 1.24900090e-015, 1.24900090e-015,
          1.24900090e-015, 1.24900090e-015, 1.24900090e-015,
          1.24900090e-015, 1.24900090e-015, 1.24900090e-015,
          1.24900090e-015, 1.24900090e-015, -1.41207963e-001,
          -4.33924794e-002, 1.71751559e-001, -1.32791117e-001,
          -2.20464036e-001, -7.94178665e-001, -3.24357823e-002,
          -7.49764368e-002, 3.21528822e-001, 4.89795268e-001,
          6.51717961e-001, 4.20845859e-002, 1.24900090e-015,
          1.24900090e-015, 1.24900090e-015, -5.27355937e-016,
          -3.46062109e-002, -5.72695117e-003, 7.43355528e-002,
          3.02606136e-001, -2.53609955e-001, -4.12651271e-001,
          -2.60658324e-001, -2.68509388e-001, 6.61090165e-002,
          6.86788708e-002, 1.83649376e-001, 4.20845859e-002,
          1.24900090e-015, 1.24900090e-015, 1.24900090e-015,
          1.24900090e-015, -3.08598764e-002, -1.67831346e-001,
          -1.43832117e-002, 1.62119508e-001, 3.81361097e-002,
          -1.70477077e-001, -4.22016889e-001, 9.02815983e-002,
          -7.16093779e-002, 1.48785301e-002, -3.57416004e-001,
          -5.79154119e-002, 1.24900090e-015, 1.24900090e-015,
          1.24900090e-015, 1.24900090e-015, 4.17233586e-001,
          -1.75036546e-002, -1.39479851e-002, -1.09476887e-001,
          -2.24944681e-001, -1.15508802e-001, -4.42008018e-001,
          1.36259899e-001, 1.42305404e-001, 8.26822221e-002,
          -3.09957832e-001, -1.45751555e-002, 1.24900090e-015,
          1.24900090e-015, 1.24900090e-015, 2.00000003e-001,
          3.39233339e-001, 4.96516377e-002, 1.17161117e-001,
          1.06202707e-001, 1.16701126e-001, -6.54806793e-001,
          1.11819714e-001, 1.74750775e-001, 3.79607044e-002,
          2.67502218e-001, -4.70973194e-001, -3.00000012e-001,
          1.24900090e-015, 1.24900090e-015, 1.24900090e-015,
          2.00000003e-001, -8.08969960e-002, 1.75157040e-001,
          -3.84566858e-002, -5.48358401e-003, 3.18627477e-001,
          -3.89457256e-001, -2.46285081e-001, 3.73601049e-001,
          2.07536384e-001, 2.07572848e-001, 1.71750709e-002,
          1.24900090e-015, 1.24900090e-015, 1.24900090e-015,
          1.24900090e-015, -1.45098686e-001, -4.44429405e-002,
          -4.85604517e-002, -1.98558033e-001, 3.46091539e-001,
          2.26061806e-001, 3.34234722e-002, 9.27698538e-002,
          -2.18865395e-001, -1.43423006e-001, 1.80595785e-001,
          7.39467680e-001, 1.24900090e-015, 1.24900090e-015,
          1.24900090e-015, 1.24900090e-015, -1.32642969e-001,
          -6.00373708e-002, 4.63923991e-001, -5.06232679e-002,
          -2.74109155e-001, -1.95637271e-002, -3.96765396e-002,
          4.27243710e-001, -1.37147963e-001, -4.46643591e-001,
          -2.98822731e-001, -4.28049207e-001, -1.00000001e-001,
          1.24900090e-015, 1.24900090e-015, 1.24900090e-015,
          1.00000001e-001, 2.48888925e-001, 3.61496478e-001,
          2.40661472e-001, 7.42201228e-003, 1.65675748e-002,
          1.40620008e-001, 9.56922397e-002, 1.17848786e-002,
          -4.73031819e-001, -7.09878862e-001, -6.61323249e-001,
          1.24900090e-015, 1.24900090e-015, 1.24900090e-015,
          1.24900090e-015, 1.27368137e-001, -4.21798453e-002,
          1.15582451e-001, 3.45999599e-001, 4.54672873e-001,
          -3.13450396e-001, -1.75043195e-001, 4.10721540e-001,
          1.40793528e-002, 2.21120603e-002, -4.42518651e-001,
          -6.52997732e-001, 1.24900090e-015, 1.24900090e-015,
          1.24900090e-015, 1.24900090e-015, -1.38462976e-001,
          2.24392965e-001, -7.52351852e-003, -1.75758034e-001,
          -1.65419012e-001, 1.37842551e-001, -5.97125329e-002,
          2.41025716e-001, -9.58292559e-002, 1.19987763e-001,
          1.20852597e-001, 1.45278960e-001, 1.24900090e-015,
          1.24900090e-015, 1.24900090e-015, 1.24900090e-015,
          5.81694134e-002, -2.04820588e-001, -1.32405385e-001,
          -2.53623933e-001, -3.73721719e-001, -6.89700842e-002,
          -1.45120993e-001, 2.00371072e-001, 1.24910399e-001,
          2.93364078e-001, 3.74589860e-001, 5.88592350e-001,
          1.24900090e-015, 1.24900090e-015, 1.24900090e-015,
          1.24900090e-015, 1.24900090e-015, -1.92970604e-001,
          -1.00693181e-001, -2.25984365e-001, -5.49053073e-001,
          -1.85726240e-001, -7.55356997e-002, 2.13069543e-001,
          4.87585366e-001, 3.94857943e-001, 1.64286152e-001,
          1.60780415e-001, 1.24900090e-015, 1.24900090e-015,
          1.24900090e-015, 1.24900090e-015, 1.24900090e-015,
          1.24900090e-015, 1.24900090e-015, 1.24900090e-015,
          1.24900090e-015, 1.24900090e-015, 1.24900090e-015,
          1.24900090e-015, 1.24900090e-015, 1.24900090e-015,
          1.24900090e-015, 1.24900090e-015, 1.24900090e-015,
          1.24900090e-015 ]
      - [ -6.92588348e-016, -6.92588348e-016, -6.92588348e-016,
          -6.92588348e-016, -6.92588348e-016, -6.92588348e-016,
          -6.92588348e-016, -6.92588348e-016, -6.92588348e-016,
          -6.92588348e-016, -6.92588348e-016, -6.92588348e-016,
          -6.92588348e-016, -6.92588348e-016, -6.92588348e-016,
          -6.92588348e-016, -6.92588348e-016, -6.92588348e-016,
          -6.92588348e-016, -6.92588348e-016, -6.92588348e-016,
          -6.92588348e-016, -6.92588348e-016, -6.92588348e-016,
          -6.92588348e-016, -6.92588348e-016, -6.92588348e-016,
          -6.92588348e-016, -6.92588348e-016, -6.92588348e-016,
          -6.92588348e-016, -6.92588348e-016, -6.92588348e-016,
          -6.92588348e-016, -6.92588348e-016, -8.05741474e-002,
          8.10729563e-002, -1.89672969e-002, 2.97937766e-002,
          1.59306988e-001, -5.27057588e-001, -1.90437764e-001,
          1.37458667e-001, -9.31586400e-002, 7.56559297e-002,
          2.23624602e-001, -6.92588348e-016, -6.92588348e-016,
          -6.92588348e-016, -6.92588348e-016, -6.92588348e-016,
          -9.08360705e-002, -9.38977599e-002, 1.30774334e-001,
          -2.63838861e-002, 1.65755246e-002, 1.40531212e-001,
          -1.03841476e-001, 6.91261515e-002, -3.44571263e-001,
          -1.56942666e-001, 8.86203945e-002, -6.92588348e-016,
          -6.92588348e-016, -6.92588348e-016, -6.92588348e-016,
          -6.92588348e-016, 1.99492462e-002, 2.10142732e-001,
          7.51450309e-004, 2.18105689e-001, 3.25182974e-001,
          1.65356755e-001, -1.34358317e-001, 1.18783340e-001,
          1.10915527e-001, 2.28905156e-001, -1.26595855e-001,
          -6.92588348e-016, -6.92588348e-016, -6.92588348e-016,
          -6.92588348e-016, -6.92588348e-016, 1.21732153e-001,
          -1.18853949e-001, -2.87160277e-001, 9.93987620e-002,
          -2.40606770e-001, -6.64732372e-003, -2.08399035e-002,
          -4.45390353e-004, 5.28858341e-002, -2.34671414e-001,
          -8.89994800e-002, -8.89903903e-002, -6.92588348e-016,
          -6.92588348e-016, -6.92588348e-016, -6.92588348e-016,
          7.33194500e-002, 1.68083340e-001, 2.30215818e-001,
          1.00825608e-001, 1.13625318e-001, 5.45648187e-002,
          2.37972140e-001, -1.63143530e-001, -3.11535627e-001,
          -1.36441559e-001, -1.30598456e-001, -4.21196446e-002,
          -6.92588348e-016, -6.92588348e-016, -6.92588348e-016,
          -6.92588348e-016, 1.05236769e-001, -7.64869899e-002,
          1.44378439e-001, -2.42126249e-002, 1.55957237e-001,
          -2.08850265e-001, -2.86886960e-001, 1.25041932e-001,
          5.77272549e-002, -3.81841302e-001, -2.15670943e-001,
          -6.92588348e-016, -6.92588348e-016, -6.92588348e-016,
          -6.92588348e-016, 1.70061830e-003, 1.73319444e-001,
          -2.82948971e-001, -2.08921626e-001, -1.39359683e-001,
          -3.83408703e-002, -7.19781220e-002, -1.06398925e-001,
          5.69083262e-003, -1.10272825e-001, -3.22085679e-001,
          -2.66805515e-002, -6.92588348e-016, -6.92588348e-016,
          -6.92588348e-016, -6.92588348e-016, 1.70061830e-003,
          3.24270241e-002, 1.22782618e-001, -1.61233962e-001,
          -2.71835119e-001, 7.81601220e-002, 3.57143909e-001,
          1.20219372e-001, -4.00613159e-001, -5.93817651e-001,
          -5.24425566e-001, -3.13621759e-001, -6.92588348e-016,
          -6.92588348e-016, -6.92588348e-016, -6.92588348e-016,
          1.22722052e-003, 1.43436641e-001, -2.53622353e-001,
          1.08130731e-001, -2.80268732e-002, 1.06108710e-001,
          6.57865942e-001, -2.18996078e-001, -5.39054096e-001,
          -4.60359335e-001, -4.67027009e-001, -3.83410573e-001,
          -6.92588348e-016, -6.92588348e-016, -6.92588348e-016,
          -6.92588348e-016, -6.95136264e-002, -3.37393075e-001,
          1.61246926e-001, 3.21669765e-002, -1.82577304e-003,
          2.15788648e-001, 1.22499354e-001, -5.50630055e-002,
          -4.38063532e-001, -2.90780425e-001, -3.67251307e-001,
          -4.04863477e-001, -6.92588348e-016, -6.92588348e-016,
          -6.92588348e-016, -6.92588348e-016, -2.54704058e-002,
          -1.25009224e-001, 2.32296139e-001, 2.31633320e-001,
          3.15222263e-001, 6.78710043e-002, 3.93692404e-003,
          -3.78254116e-001, -2.92180508e-001, 6.64554462e-002,
          -1.23629086e-001, -3.21614407e-002, -6.92588348e-016,
          -6.92588348e-016, -6.92588348e-016, -6.92588348e-016,
          -6.92588348e-016, -8.47785994e-002, -9.09199640e-002,
          -3.57592925e-002, 2.13865042e-001, 1.83003638e-002,
          7.36795291e-002, 1.84416547e-001, -3.29009324e-001,
          -4.19278117e-003, 1.44662961e-001, 2.00000003e-001,
          1.00000001e-001, -6.92588348e-016, -6.92588348e-016,
          -6.92588348e-016, -6.92588348e-016, 1.01242987e-002,
          1.10728279e-001, 8.66472274e-002, -1.50005504e-001,
          -1.21923521e-001, 5.60760312e-002, -1.69682145e-001,
          3.80289763e-001, 2.29518279e-001, 1.29518270e-001,
          -6.92588348e-016, -6.92588348e-016, -6.92588348e-016,
          -6.92588348e-016, -6.92588348e-016, -6.92588348e-016,
          -6.92588348e-016, -6.92588348e-016, -6.92588348e-016,
          -6.92588348e-016, -6.92588348e-016, -6.92588348e-016,
          -6.92588348e-016, -6.92588348e-016, -6.92588348e-016,
          -6.92588348e-016, -6.92588348e-016, -6.92588348e-016,
          -6.92588348e-016 ]
      - [ -1.58206781e-015, -1.58206781e-015, -1.58206781e-015,
          -1.58206781e-015, -1.58206781e-015, -1.58206781e-015,
          -1.58206781e-015, -1.58206781e-015, -1.58206781e-015,
          -1.58206781e-015, -1.58206781e-015, -1.58206781e-015,
          -1.58206781e-015, -1.58206781e-015, -1.58206781e-015,
          -1.58206781e-015, -1.58206781e-015, -1.58206781e-015,
          -1.58206781e-015, -1.58206781e-015, -1.58206781e-015,
          -1.58206781e-015, -1.58206781e-015, -1.58206781e-015,
          -1.58206781e-015, -1.58206781e-015, -1.58206781e-015,
          -1.58206781e-015, -1.58206781e-015, -1.58206781e-015,
          -1.58206781e-015, -1.58206781e-015, -1.58206781e-015,
          -1.58206781e-015, -1.58206781e-015, -1.83165222e-001,
          2.10422464e-003, 2.68015027e-001, -8.20071846e-002,
          1.78107217e-001, -2.09106266e-001, 8.53645727e-002,
          1.76575407e-001, 2.03118488e-001, 2.23037764e-001,
          4.75076884e-001, -1.00000001e-001, -1.58206781e-015,
          -1.58206781e-015, -1.58206781e-015, -4.47570011e-002,
          -1.27984330e-001, 1.33207202e-001, -1.48360375e-002,
          2.24514976e-001, 1.06370099e-001, 1.17695130e-001,
          -8.23509470e-002, -9.02491882e-002, -4.36860561e-001,
          -3.56561333e-001, -2.94086933e-001, -1.00000001e-001,
          -1.58206781e-015, -1.58206781e-015, -1.58206781e-015,
          -1.58206781e-015, 4.15871143e-002, -1.74718395e-001,
          -2.30636522e-001, 1.97092876e-001, 2.03679092e-002,
          -6.06010221e-002, -2.68310070e-001, 7.78767988e-002,
          -2.06843615e-001, 5.00624776e-002, -5.84708095e-001,
          -1.00000001e-001, -1.58206781e-015, -1.58206781e-015,
          -1.58206781e-015, -1.58206781e-015, 2.91746985e-002,
          -3.38416755e-001, -1.61917940e-001, -5.39688095e-002,
          -5.77860594e-001, -3.68695647e-001, 2.00580448e-001,
          6.08773455e-002, 1.58706516e-001, -3.66541147e-001,
          -4.00300622e-001, -2.00000003e-001, -1.58206781e-015,
          -1.58206781e-015, -1.58206781e-015, -1.58206781e-015,
          -8.91968608e-002, -2.46444911e-001, -1.50248393e-001,
          -1.82622269e-001, 1.92039400e-001, -3.57606704e-003,
          -6.58189952e-002, 7.39678517e-002, 1.24185599e-001,
          -3.24687399e-002, -2.05165878e-001, -2.12920547e-001,
          -1.58206781e-015, -1.58206781e-015, -1.58206781e-015,
          -1.58206781e-015, -2.40190208e-001, -2.06851304e-001,
          3.03317048e-002, -3.41854185e-001, -4.28806126e-001,
          -6.48326814e-001, -5.56042850e-001, -2.63010144e-001,
          2.85486132e-001, 1.63168311e-002, 2.41384819e-001,
          -1.58206781e-015, -1.58206781e-015, -1.58206781e-015,
          -1.58206781e-015, -9.14058909e-002, 1.16883971e-001,
          -2.72068411e-001, -4.76785034e-001, -2.24296346e-001,
          -4.69810933e-001, -2.76182026e-001, -3.15017372e-001,
          -1.92042097e-001, 6.55323118e-002, 1.29296213e-001,
          2.80820817e-001, -1.58206781e-015, -1.58206781e-015,
          -1.58206781e-015, -1.58206781e-015, -9.14058909e-002,
          1.61994442e-001, 1.80828676e-001, -4.59909022e-001,
          -5.46779871e-001, -4.24708892e-003, 4.74714637e-001,
          1.89218193e-001, 2.92084962e-002, -5.07083893e-001,
          -2.77991623e-001, -1.62484288e-001, -1.00000001e-001,
          -1.58206781e-015, -1.58206781e-015, -1.58206781e-015,
          2.84256786e-001, 2.33663574e-001, 1.70940846e-001,
          2.65531987e-001, 4.59342636e-002, 4.85507876e-001,
          6.17843330e-001, 1.75531626e-001, -5.09558618e-002,
          -7.68258646e-002, -1.43414393e-001, -3.45649511e-001,
          -1.58206781e-015, -1.58206781e-015, -1.58206781e-015,
          -1.58206781e-015, 1.44234523e-001, 2.15952054e-001,
          -2.48884913e-002, 3.75661552e-001, 3.56573045e-001,
          2.16893137e-001, 1.93228498e-002, -6.07107431e-002,
          -1.20265193e-001, -2.69205570e-001, -1.99815229e-001,
          -5.68112075e-001, -1.58206781e-015, -1.58206781e-015,
          -1.58206781e-015, -1.58206781e-015, 1.15028359e-001,
          4.10920829e-001, 4.36950147e-001, 4.87425953e-001,
          1.53375313e-001, -1.44069493e-001, 1.50224954e-001,
          -1.79705724e-001, 6.39648661e-002, -2.30603460e-002,
          -3.57384712e-001, -1.93525866e-001, -1.58206781e-015,
          -1.58206781e-015, -1.58206781e-015, 1.17983297e-001,
          1.56627953e-001, 2.36839443e-001, 5.93745291e-001,
          4.81520265e-001, 1.59834906e-001, 2.93377250e-001,
          8.76157060e-002, -2.23427311e-001, -1.15966648e-001,
          -1.40594035e-001, -1.91791914e-002, -1.58206781e-015,
          -1.58206781e-015, -1.58206781e-015, 1.25394538e-001,
          1.60956517e-001, 2.17983291e-001, 5.55707179e-002,
          -2.90933311e-001, -2.28951901e-001, -3.92655134e-001,
          -1.77234616e-002, -8.87795240e-002, -5.01478761e-002,
          -1.58206781e-015, -6.56036437e-002, -1.58206781e-015,
          -1.58206781e-015, -1.58206781e-015, -1.58206781e-015,
          -1.58206781e-015, -1.58206781e-015, -1.58206781e-015,
          -1.58206781e-015, -1.58206781e-015, -1.58206781e-015,
          -1.58206781e-015, -1.58206781e-015, -1.58206781e-015,
          -1.58206781e-015, -1.58206781e-015, -1.58206781e-015,
          -1.58206781e-015, -1.58206781e-015, -1.58206781e-015,
          -1.58206781e-015 ]
      - [ -1.15185639e-015, -1.15185639e-015, -1.15185639e-015,
          -1.15185639e-015, -1.15185639e-015, -1.15185639e-015,
          -1.15185639e-015, -1.15185639e-015, -1.15185639e-015,
          -1.15185639e-015, -1.15185639e-015, -1.15185639e-015,
          -1.15185639e-015, -1.15185639e-015, -1.15185639e-015,
          -1.15185639e-015, -1.15185639e-015, -1.15185639e-015,
          -1.15185639e-015, -1.15185639e-015, -1.15185639e-015,
          -1.15185639e-015, -1.15185639e-015, -1.15185639e-015,
          -1.15185639e-015, -1.15185639e-015, -1.15185639e-015,
          -1.15185639e-015, -1.15185639e-015, -1.15185639e-015,
          -1.15185639e-015, -1.15185639e-015, -1.15185639e-015,
          -1.15185639e-015, -1.15185639e-015, -1.15185639e-015,
          1.21534593e-001, 3.44294995e-001, 6.98914051e-001,
          2.55065262e-001, 1.10785753e-001, -9.07521844e-002,
          -1.41656429e-001, -1.23443818e-002, -1.35711610e-001,
          -2.27248743e-002, -1.15185639e-015, -1.15185639e-015,
          -1.15185639e-015, -1.15185639e-015, 1.00000001e-001,
          2.39003435e-001, 3.77393633e-001, 1.23736002e-001,
          1.04584042e-002, 1.31603658e-001, 8.61499235e-002,
          4.30934802e-002, -1.77722007e-001, -7.81790167e-002,
          -2.65325695e-001, -8.84748995e-002, -1.15185639e-015,
          -1.15185639e-015, -1.15185639e-015, -1.15185639e-015,
          1.00000001e-001, 7.36667812e-002, 1.00641005e-001,
          7.86939934e-002, -1.66467682e-001, 5.31452615e-003,
          3.50933671e-001, 8.51543397e-002, -4.35128957e-002,
          -2.49017224e-001, 2.20034476e-002, -7.53401667e-002,
          -1.15185639e-015, -1.15185639e-015, -1.15185639e-015,
          -1.15185639e-015, -1.15185639e-015, 2.06943844e-002,
          1.15460604e-002, -7.04088211e-002, 7.40018189e-002,
          -1.62865981e-001, 4.59243134e-002, -6.30198345e-002,
          -1.78492740e-001, -7.33405799e-002, 4.63107713e-002,
          4.02945787e-001, -1.75694659e-001, -1.15185639e-015,
          -1.15185639e-015, -1.15185639e-015, -1.46621332e-001,
          8.01883861e-002, -4.10350598e-002, -8.37488770e-002,
          -3.20893861e-002, -4.03888404e-001, -1.07365422e-001,
          -1.40189111e-001, -3.02431434e-002, 9.52832401e-002,
          6.52958751e-002, 4.51548845e-001, 3.77083927e-001,
          -1.15185639e-015, -1.15185639e-015, -1.15185639e-015,
          -1.15185639e-015, -3.58690649e-001, -2.26270854e-002,
          -7.22166011e-003, -2.64575928e-001, -4.42749485e-002,
          4.41775518e-003, 6.15444295e-002, 1.94665864e-002,
          3.09776142e-002, 7.23803103e-001, 4.18209314e-001,
          2.00192735e-001, -1.15185639e-015, -1.15185639e-015,
          -1.15185639e-015, 1.92736814e-004, 5.80175035e-002,
          -2.18950719e-001, -3.24792296e-001, -1.71679497e-001,
          2.42069647e-001, 1.43180788e-001, 1.99299872e-001,
          3.44127357e-001, 4.97837126e-001, 3.56090873e-001,
          8.37189198e-001, -7.07767178e-016, -1.15185639e-015,
          -1.15185639e-015, -1.15185639e-015, -1.15185639e-015,
          -4.82925832e-001, -2.20022917e-001, 2.88891681e-002,
          3.12369078e-001, -5.27629703e-002, -1.35266185e-001,
          -1.66319311e-001, 6.33297503e-001, 3.65753442e-001,
          3.21871787e-001, 3.47937644e-001, -1.15185639e-015,
          -1.15185639e-015, -1.15185639e-015, -1.15185639e-015,
          -7.56946504e-002, -4.38969105e-001, -1.69781923e-001,
          -7.66592249e-002, -2.19500855e-001, 2.83293426e-001,
          1.26129001e-001, 8.67434442e-002, 2.18302310e-001,
          2.17874333e-001, 1.01950370e-001, 2.25980848e-001,
          -1.15185639e-015, -1.15185639e-015, -1.15185639e-015,
          -1.15185639e-015, -5.35830408e-002, 6.00626282e-002,
          4.33375575e-002, 1.67583041e-002, -9.38733965e-002,
          -1.86152402e-002, -1.09576039e-001, 9.80720595e-002,
          -9.56266448e-002, 2.34416462e-002, -7.13189840e-002,
          6.99480027e-002, -1.15185639e-015, -1.15185639e-015,
          -1.15185639e-015, -1.15185639e-015, 4.14932258e-002,
          -1.16183273e-001, 1.40161254e-002, -2.11489387e-002,
          6.90687150e-002, -1.92082375e-001, -1.58162192e-001,
          -1.78241268e-001, 5.45786619e-002, -2.38250390e-001,
          -9.56256911e-002, -1.36805773e-001, -1.15185639e-015,
          -1.15185639e-015, -1.15185639e-015, -1.15185639e-015,
          1.00000001e-001, 1.76581770e-001, 6.92570731e-002,
          -1.62777096e-001, 1.21426858e-001, -1.31594762e-001,
          1.88677803e-001, -1.17313169e-001, -1.08272687e-001,
          -2.34711934e-002, -1.81247853e-002, -1.55463606e-001,
          -1.15185639e-015, -1.15185639e-015, -1.15185639e-015,
          -1.15185639e-015, -1.15185639e-015, 1.14257239e-001,
          4.19331640e-001, 4.05934453e-002, 1.38711423e-001,
          1.06630705e-001, -2.26761386e-001, -3.01218599e-001,
          -1.15185639e-015, -1.15185639e-015, -1.15185639e-015,
          -1.15185639e-015, -1.15185639e-015, -1.15185639e-015,
          -1.15185639e-015, -1.15185639e-015, -1.15185639e-015,
          -1.15185639e-015, -1.15185639e-015, -1.15185639e-015,
          -1.15185639e-015, -1.15185639e-015, -1.15185639e-015,
          -1.15185639e-015, -1.15185639e-015, -1.15185639e-015,
          -1.15185639e-015, -1.15185639e-015, -1.15185639e-015,
          -1.15185639e-015 ]
      - [ -1.19348975e-015, -1.19348975e-015, -1.19348975e-015,
          -1.19348975e-015, -1.19348975e-015, -1.19348975e-015,
          -1.19348975e-015, -1.19348975e-015, -1.19348975e-015,
          -1.19348975e-015, -1.19348975e-015, -1.19348975e-015,
          -1.19348975e-015, -1.19348975e-015, -1.19348975e-015,
          -1.19348975e-015, -1.19348975e-015, -1.19348975e-015,
          -1.19348975e-015, -1.19348975e-015, -1.19348975e-015,
          -1.19348975e-015, -1.19348975e-015, -1.19348975e-015,
          -1.19348975e-015, -1.19348975e-015, -1.19348975e-015,
          -1.19348975e-015, -1.19348975e-015, -1.19348975e-015,
          -1.19348975e-015, -1.19348975e-015, -1.19348975e-015,
          -1.19348975e-015, -1.19348975e-015, 2.00000003e-001,
          9.77156609e-002, 4.33710188e-001, 7.21797943e-001,
          2.45459646e-001, -3.51805761e-002, -2.54709482e-001,
          -1.12271152e-001, 2.10162792e-002, 2.20485508e-001,
          -6.54300675e-002, 5.24619222e-003, -1.19348975e-015,
          -1.19348975e-015, -1.19348975e-015, 1.03965685e-001,
          3.03965688e-001, 2.79664427e-001, 1.17435247e-001,
          2.78870642e-001, 1.60700694e-001, 1.64503455e-001,
          -2.54223228e-001, -1.85450390e-002, 1.10604659e-001,
          -2.08613053e-001, 2.97238737e-001, 5.24619222e-003,
          -1.19348975e-015, -1.19348975e-015, -1.19348975e-015,
          -1.19348975e-015, 9.29875895e-002, -1.25834774e-002,
          -4.92516905e-002, -4.25561637e-001, 1.19374983e-001,
          5.45848645e-002, 1.50715157e-001, -5.42081483e-002,
          -1.63145587e-001, -4.10189629e-001, 8.81086066e-002,
          1.00000001e-001, -1.19348975e-015, -1.19348975e-015,
          -1.19348975e-015, 1.10543683e-001, -1.03775237e-003,
          -2.53712773e-001, 6.86891004e-002, 1.44409820e-001,
          -1.60053238e-001, 3.91410850e-002, -2.00741887e-002,
          -3.62081498e-001, -1.40985265e-001, -2.38583699e-001,
          2.34497949e-001, -1.42392188e-001, -1.19348975e-015,
          -1.19348975e-015, -1.19348975e-015, -2.76264071e-001,
          -1.01518415e-001, -5.80000244e-002, -4.62769996e-003,
          -4.14144129e-001, -4.39107150e-001, -1.07863806e-001,
          9.00066048e-002, -4.08287533e-003, 3.26872431e-002,
          9.46753472e-002, 4.32516932e-002, -1.19348975e-015,
          -1.19348975e-015, -1.19348975e-015, -1.19348975e-015,
          -1.19348975e-015, -3.18336338e-001, -3.16977471e-001,
          -3.99070501e-001, -1.20497271e-001, 5.62838793e-001,
          5.30902922e-001, 4.74966317e-001, 4.02490556e-001,
          -1.37919858e-001, 8.22574943e-002, -1.07395031e-001,
          -1.19348975e-015, -1.19348975e-015, -1.19348975e-015,
          -1.19348975e-015, -1.77395165e-001, -1.28222546e-002,
          -4.73755807e-001, 3.66552398e-002, 1.55902222e-001,
          6.89188898e-001, 6.96177781e-001, 5.14471173e-001,
          4.22856718e-001, 3.13972175e-001, 2.45667938e-002,
          -1.19348975e-015, -1.19348975e-015, -1.19348975e-015,
          -1.19348975e-015, -1.19348975e-015, 9.54104736e-002,
          -2.73894101e-001, 5.26742302e-002, 1.15038700e-001,
          5.10580301e-001, 1.30482027e-002, -2.82085299e-001,
          -4.51465070e-001, 5.12845159e-001, 9.69842523e-002,
          9.91640538e-002, -1.19135045e-002, -1.19348975e-015,
          -1.19348975e-015, -1.19348975e-015, -1.19348975e-015,
          -1.50474608e-001, 9.10824686e-002, -1.79467291e-001,
