%YAML:1.0
opencv_ml_svm:
   format: 3
   svmType: C_SVC
   kernel:
      type: LINEAR
   C: 8.0000000000000002e-002
   term_criteria: { iterations:100 }
   var_count: 256
   class_count: 10
   class_labels: !!opencv-matrix
      rows: 10
      cols: 1
      dt: i
      data: [ 0, 1, 2, 3, 4, 5, 6, 7, 8, 9 ]
   sv_total: 45
   support_vectors:
      - [ -2.77555756e-017, -2.77555756e-017, -2.77555756e-017,
          -2.77555756e-017, -2.77555756e-017, -2.77555756e-017,
          -2.77555756e-017, -2.77555756e-017, -2.77555756e-017,
          -2.77555756e-017, -2.77555756e-017, -2.77555756e-017,
          -2.77555756e-017, -2.77555756e-017, -2.77555756e-017,
          -2.77555756e-017, -2.77555756e-017, -2.77555756e-017,
          -2.77555756e-017, -2.77555756e-017, -2.77555756e-017,
          -2.77555756e-017, -2.77555756e-017, -2.77555756e-017,
          -2.77555756e-017, -2.77555756e-017, -2.77555756e-017,
          -2.77555756e-017, -2.77555756e-017, -2.77555756e-017,
          -2.77555756e-017, -2.77555756e-017, -2.77555756e-017,
          -2.77555756e-017, -2.77555756e-017, 9.89681408e-002,
          1.69235453e-001, 1.80087686e-002, 2.01210096e-001,
          -4.05585335e-004, 3.48504305e-001, 1.94929153e-001,
          2.55873978e-001, -4.45233518e-003, -6.16821274e-002,
          -2.46861935e-001, 5.39680533e-002, -2.77555756e-017,
          -2.77555756e-017, -2.77555756e-017, 4.92176488e-002,
          1.98786274e-001, 1.52553201e-001, 3.51175740e-002,
          8.84800330e-002, 2.13038653e-001, 1.65264815e-001,
          1.85540766e-001, 1.95474312e-001, 1.80561975e-001,
          1.17199145e-001, 1.92436501e-001, 5.39680533e-002,
          -2.77555756e-017, -2.77555756e-017, -2.77555756e-017,
          -2.77555756e-017, 1.09353550e-001, 1.96298420e-001,
          2.78442264e-001, 3.61129157e-002, 2.37289742e-001,
          -2.91437060e-002, 2.16545686e-001, 2.27220103e-001,
          -3.09633035e-002, 3.82096060e-002, 3.07076335e-001,
          5.39680533e-002, -2.77555756e-017, -2.77555756e-017,
          -2.77555756e-017, -2.77555756e-017, -8.44529793e-002,
          1.76810008e-002, 1.05651177e-001, 3.80326472e-002,
          1.10379606e-001, 1.77126154e-001, -9.59725231e-002,
          -1.80431619e-001, -2.04445407e-001, 7.76420534e-002,
          3.22772026e-001, 4.75112759e-002, -2.77555756e-017,
          -2.77555756e-017, -2.77555756e-017, -2.77555756e-017,
          -1.34127378e-001, 4.33401987e-002, -6.23997673e-002,
          2.46638820e-001, -1.82231858e-001, -9.69651528e-003,
          -1.29747927e-001, -9.05286446e-002, 2.21550360e-001,
          -1.21633157e-001, -4.89967763e-002, 2.39999995e-001,
          -2.77555756e-017, -2.77555756e-017, -2.77555756e-017,
          -7.99999982e-002, 3.23901549e-002, -1.31689832e-001,
          -3.00687272e-002, 5.60373329e-002, -3.67822684e-002,
          1.72785833e-001, 9.98841152e-002, 1.61399860e-002,
          -2.11975537e-002, 1.35121956e-001, -1.11842655e-001,
          -2.77555756e-017, -2.77555756e-017, -2.77555756e-017,
          -2.77555756e-017, -2.77555756e-017, 1.45104811e-001,
          3.69564056e-001, 1.30292758e-001, 2.89719626e-002,
          6.29352545e-003, 3.37922312e-002, 1.98205829e-001,
          1.36383653e-001, 1.36309743e-001, -7.24701062e-002,
          -7.88171589e-002, -5.16275652e-002, -2.77555756e-017,
          -2.77555756e-017, -2.77555756e-017, -2.77555756e-017,
          -2.74497885e-002, -1.68550223e-001, -1.45714477e-001,
          1.27039701e-001, -1.54674113e-001, -2.89611280e-001,
          -1.83611706e-001, 4.16654050e-002, 1.00708380e-001,
          1.43911570e-001, 1.55915260e-001, 7.99999982e-002,
          -2.77555756e-017, -2.77555756e-017, -2.77555756e-017,
          -7.85776377e-002, -8.97619128e-002, -1.79865092e-001,
          -8.47687125e-002, -1.30274013e-001, -8.59248638e-002,
          -1.89705521e-001, -1.26725405e-001, -1.22458354e-001,
          1.11280732e-001, 1.47244319e-001, 2.59476811e-001,
          -2.77555756e-017, -2.77555756e-017, -2.77555756e-017,
          -2.77555756e-017, -6.66747987e-002, -1.34964079e-001,
          -2.13349864e-001, -9.79920253e-002, -2.85462141e-001,
          6.12752400e-002, -4.01435085e-002, -2.38407478e-002,
          1.19391508e-001, -2.71546505e-002, -4.34282459e-002,
          1.91575110e-001, -2.77555756e-017, -2.77555756e-017,
          -2.77555756e-017, -2.77555756e-017, -2.10116774e-001,
          -1.01665124e-001, -2.27113396e-001, -2.98424549e-002,
          1.71267595e-002, 1.19097717e-001, 6.91721439e-002,
          6.54152781e-002, -1.66833967e-001, -2.19652116e-001,
          -5.38209192e-002, -3.14496964e-001, -2.77555756e-017,
          -2.77555756e-017, -2.77555756e-017, -2.77555756e-017,
          -5.75507805e-002, -2.54819155e-001, -1.25207216e-001,
          9.17441919e-002, 9.83326286e-002, -7.04282522e-002,
          1.94202721e-001, -2.26779282e-002, -1.14734262e-001,
          -1.82153836e-001, -3.20760936e-001, -3.51163208e-001,
          -2.77555756e-017, -2.77555756e-017, -2.77555756e-017,
          -2.77555756e-017, -1.09803803e-001, -5.49265325e-001,
          -4.38672602e-002, -2.47426301e-001, 1.32580787e-001,
          1.41965061e-001, -8.43622983e-002, -8.24088678e-002,
          -1.19164757e-001, -5.78614809e-002, -4.48084846e-002,
          -7.86150172e-002, -2.77555756e-017, -2.77555756e-017,
          -2.77555756e-017, -2.77555756e-017, -2.77555756e-017,
          -2.77555756e-017, -2.77555756e-017, -2.77555756e-017,
          -2.77555756e-017, -2.77555756e-017, -2.77555756e-017,
          -2.77555756e-017, -2.77555756e-017, -2.77555756e-017,
          -2.77555756e-017, -2.77555756e-017, -2.77555756e-017,
          -2.77555756e-017 ]
      - [ -2.05391260e-015, -2.05391260e-015, -2.05391260e-015,
          -2.05391260e-015, -2.05391260e-015, -2.05391260e-015,
          -2.05391260e-015, -2.05391260e-015, -2.05391260e-015,
          -2.05391260e-015, -2.05391260e-015, -2.05391260e-015,
          -2.05391260e-015, -2.05391260e-015, -2.05391260e-015,
          -2.05391260e-015, -2.05391260e-015, -2.05391260e-015,
          -2.05391260e-015, -2.05391260e-015, -2.05391260e-015,
          -2.05391260e-015, -2.05391260e-015, -2.05391260e-015,
          -2.05391260e-015, -2.05391260e-015, -2.05391260e-015,
          -2.05391260e-015, -2.05391260e-015, -2.05391260e-015,
          -2.05391260e-015, -2.05391260e-015, -2.05391260e-015,
          -2.05391260e-015, -2.05391260e-015, -2.05391260e-015,
          -2.05391260e-015, -2.93927670e-001, -1.46117747e-001,
          -1.05150729e-001, 3.25472414e-001, 1.17964193e-001,
          3.86894464e-001, 4.00896296e-002, 3.23046781e-002,
          -5.41085470e-003, -2.05391260e-015, -2.05391260e-015,
          -2.05391260e-015, -2.05391260e-015, -2.05391260e-015,
          -2.05391260e-015, 4.15940285e-002, -1.73637688e-001,
          8.66285935e-002, 7.34501556e-002, 1.62739038e-001,
          7.47873932e-002, 1.98027596e-001, 3.41553539e-002,
          2.47350514e-001, 1.97013110e-001, 2.24553831e-002,
          -2.05391260e-015, -2.05391260e-015, -2.05391260e-015,
          -2.05391260e-015, 1.16364203e-001, 7.31948242e-002,
          -9.25355032e-003, 1.72775701e-001, 3.21982116e-001,
          -9.20785815e-002, -1.44845560e-001, 1.33913517e-001,
          1.03926912e-001, 2.12512180e-001, 1.80928379e-001,
          -2.05391260e-015, -2.05391260e-015, -2.05391260e-015,
          -2.05391260e-015, 4.05120067e-002, 1.19002804e-001,
          -5.51306307e-002, -8.93446729e-002, -3.04349139e-002,
          7.22140893e-002, 3.36297452e-002, 7.01699704e-002,
          5.86115308e-002, -2.17595063e-002, 2.01814502e-001,
          6.91642016e-002, -2.05391260e-015, -2.05391260e-015,
          -2.05391260e-015, -2.05391260e-015, 1.81620717e-001,
          6.54065907e-002, 3.99869941e-002, -4.24106009e-002,
          1.77121505e-001, 8.88007730e-002, -4.25265022e-002,
          -1.89753219e-001, 1.07431337e-001, 1.20676989e-002,
          6.70492873e-002, -3.06511633e-002, -2.05391260e-015,
          -2.05391260e-015, -2.05391260e-015, -2.05391260e-015,
          -3.32001895e-002, 6.62137195e-002, -2.27387473e-001,
          -6.62769377e-002, 1.63590372e-001, 4.74036783e-002,
          -1.88080475e-001, -2.85238445e-001, -1.74315926e-002,
          2.11194865e-002, -2.21502662e-001, 4.04735915e-002,
          -2.05391260e-015, -2.05391260e-015, -2.05391260e-015,
          -2.05391260e-015, -2.05391260e-015, 1.99535578e-001,
          8.54535177e-002, 1.25314504e-001, 2.28518471e-001,
          -3.65369380e-001, -2.14864299e-001, -1.24866419e-001,
          -3.44075888e-001, -3.80797654e-001, 5.62991723e-002,
          -7.36109763e-002, -2.05391260e-015, -2.05391260e-015,
          -2.05391260e-015, -2.05391260e-015, 2.24553831e-002,
          2.79307109e-003, 4.64339443e-002, -4.18237336e-002,
          -1.08556278e-001, -3.30327451e-001, -2.25914821e-001,
          -1.43465608e-001, -2.02596992e-001, -2.57465482e-001,
          -1.99773148e-001, -7.36109763e-002, -2.05391260e-015,
          -2.05391260e-015, -2.05391260e-015, -2.05391260e-015,
          -6.94282353e-002, 3.25200886e-001, 1.58172697e-001,
          1.06562609e-002, -1.75026506e-001, -8.59367102e-002,
          -2.55321026e-001, -1.19276613e-001, -1.60915092e-001,
          -1.15427345e-001, -1.18391119e-001, -7.24039152e-002,
          -2.05391260e-015, -2.05391260e-015, -2.05391260e-015,
          -2.05391260e-015, 3.07931583e-002, 9.67517048e-002,
          -3.13295722e-001, 1.13641880e-001, -6.93295300e-002,
          -1.06313620e-002, -6.90785721e-002, 1.36223480e-001,
          5.05367890e-002, -2.38900390e-002, -2.43497337e-003,
          -8.98066461e-002, -2.05391260e-015, -2.05391260e-015,
          -2.05391260e-015, -2.05391260e-015, -2.17312828e-001,
          6.20676577e-002, -1.62225500e-001, 3.72024000e-001,
          -2.76614055e-002, 1.11731432e-001, 6.17472120e-002,
          6.08817721e-003, 4.91692685e-002, 7.88288075e-004,
          -9.69755184e-003, -1.15890808e-001, -2.05391260e-015,
          -2.05391260e-015, -2.05391260e-015, -2.05391260e-015,
          -2.56423265e-001, -3.47374707e-001, -1.05125315e-001,
          4.51873571e-001, 1.72013238e-001, 2.01756984e-001,
          9.06341895e-003, 1.45987138e-001, -3.34499590e-002,
          -1.33442014e-001, -1.56124279e-001, -1.58139706e-001,
          -2.05391260e-015, -2.05391260e-015, -2.05391260e-015,
          -2.05391260e-015, -1.49894238e-001, -3.26247662e-001,
          -3.22496653e-001, -6.67183399e-002, 1.37242287e-001,
          -7.97550380e-002, 1.12802319e-001, 2.30942294e-001,
          -1.96379930e-001, -1.21148340e-001, -2.34685354e-002,
          -2.34685354e-002, -2.05391260e-015, -2.05391260e-015,
          -2.05391260e-015, -2.05391260e-015, -2.05391260e-015,
          -2.05391260e-015, -2.05391260e-015, -2.05391260e-015,
          -2.05391260e-015, -2.05391260e-015, -2.05391260e-015,
          -2.05391260e-015, -2.05391260e-015, -2.05391260e-015,
          -2.05391260e-015, -2.05391260e-015, -2.05391260e-015,
          -2.05391260e-015 ]
      - [ -1.80411242e-015, -1.80411242e-015, -1.80411242e-015,
          -1.80411242e-015, -1.80411242e-015, -1.80411242e-015,
          -1.80411242e-015, -1.80411242e-015, -1.80411242e-015,
          -1.80411242e-015, -1.80411242e-015, -1.80411242e-015,
          -1.80411242e-015, -1.80411242e-015, -1.80411242e-015,
          -1.80411242e-015, -1.80411242e-015, -1.80411242e-015,
          -1.80411242e-015, -1.80411242e-015, -1.80411242e-015,
          -1.80411242e-015, -1.80411242e-015, -1.80411242e-015,
          -1.80411242e-015, -1.80411242e-015, -1.80411242e-015,
          -1.80411242e-015, -1.80411242e-015, -1.80411242e-015,
          -1.80411242e-015, -1.80411242e-015, -1.80411242e-015,
          -1.80411242e-015, -1.80411242e-015, 1.19570956e-001,
          7.65427724e-002, -2.88921352e-002, 2.67607182e-001,
          1.65767312e-001, 3.55130851e-001, 1.92972049e-001,
          2.97605217e-001, -7.42762312e-002, -1.64848208e-001,
          -5.70117347e-002, -1.80411242e-015, -1.80411242e-015,
          -1.80411242e-015, -1.80411242e-015, -1.80411242e-015,
          1.97345048e-001, 2.11754411e-001, -1.59921683e-003,
          1.11622199e-001, 2.23559484e-001, 3.52757722e-002,
          1.79278567e-001, 5.22087775e-002, 1.45203754e-001,
          3.09800431e-002, 6.48753643e-002, 6.61627427e-002,
          -1.80411242e-015, -1.80411242e-015, -1.80411242e-015,
          -1.80411242e-015, 1.61304265e-001, -2.04186682e-002,
          3.62843834e-002, 7.26431906e-002, -4.90945466e-002,
          1.57424614e-001, 1.28830478e-001, 8.46197903e-002,
          7.21293241e-002, 3.34188007e-002, 7.68394247e-002,
          6.61627427e-002, -1.80411242e-015, -1.80411242e-015,
          -1.80411242e-015, -1.80411242e-015, 3.75768282e-002,
          -1.37173250e-001, -1.97818622e-001, 4.28943448e-002,
          8.42419565e-002, 1.08947366e-001, 1.33905977e-001,
          7.37304753e-003, -9.05515477e-002, -4.71232906e-002,
          2.75165230e-001, 6.61627427e-002, -1.80411242e-015,
          -1.80411242e-015, -1.80411242e-015, -1.80411242e-015,
          -1.42003536e-001, 2.20206007e-001, 7.72311836e-002,
          2.15338320e-001, -4.42396849e-003, -1.86618611e-001,
          -1.30850911e-001, 8.73554870e-002, 2.86287181e-002,
          2.18186937e-002, 2.01209977e-001, 3.02040011e-001,
          -1.80411242e-015, -1.80411242e-015, -1.80411242e-015,
          -7.99999982e-002, -6.29930124e-002, -2.02061906e-001,
          2.58114129e-001, 6.17800206e-002, 6.43925145e-002,
          -7.49386996e-002, -9.17151645e-002, -4.12541181e-001,
          -4.56224283e-004, 2.10688844e-001, 3.30248207e-001,
          8.89421254e-002, -1.80411242e-015, -1.80411242e-015,
          -1.80411242e-015, -1.80411242e-015, 1.97378591e-001,
          6.66028783e-002, -1.50740176e-001, -1.86542183e-001,
          -1.66982919e-001, -1.71036005e-001, -1.06472731e-001,
          2.03812048e-002, -1.45386858e-002, 1.34677246e-001,
          2.37807617e-001, 3.73298004e-002, -1.80411242e-015,
          -1.80411242e-015, -1.80411242e-015, -1.80411242e-015,
          -5.89694418e-002, -1.80795029e-001, 7.95820281e-002,
          6.32865578e-002, -2.04921309e-002, -5.14085591e-001,
          -9.02362242e-002, 1.15637749e-001, 2.60057151e-002,
          1.76570684e-001, 1.77123249e-001, -1.80411242e-015,
          -1.80411242e-015, -1.80411242e-015, -1.80411242e-015,
          -3.62725630e-002, -8.48641694e-002, -7.36166015e-002,
          -5.77162132e-002, -1.64444759e-001, -2.00315937e-002,
          -2.19742298e-001, -5.05681671e-002, -9.49291363e-002,
          1.95019141e-001, -2.30270494e-002, -7.95204099e-003,
          -1.80411242e-015, -1.80411242e-015, -1.80411242e-015,
          -1.80411242e-015, 8.00335482e-002, 4.50814143e-002,
          -2.23093361e-001, -2.46557016e-002, -6.85941055e-002,
          6.22352734e-002, 3.21487226e-002, -5.15168011e-002,
          1.60734221e-001, -8.03147778e-002, -1.77527070e-002,
          -2.05953023e-003, -1.80411242e-015, -1.80411242e-015,
          -1.80411242e-015, -1.80411242e-015, -2.37659305e-001,
          -1.93179380e-002, -1.32976487e-001, 2.30057999e-001,
          1.40930908e-002, 1.48045376e-001, 1.39994681e-001,
          7.05519840e-002, -9.45318714e-002, -7.61067495e-002,
          -1.76495895e-001, -3.88672858e-001, -1.80411242e-015,
          -1.80411242e-015, -1.80411242e-015, -1.80411242e-015,
          -1.80411242e-015, -2.65763313e-001, -9.41731110e-002,
          1.46479055e-001, -7.85417855e-002, 1.19205542e-001,
          -4.13315259e-002, 2.50755809e-002, -2.41747126e-003,
          -3.32064301e-001, -2.36083210e-001, -2.82149911e-001,
          -1.80411242e-015, -1.80411242e-015, -1.80411242e-015,
          -1.80411242e-015, -8.62163976e-002, -3.71366382e-001,
          1.03062540e-002, -4.64469455e-002, 1.81763142e-001,
          -2.12282129e-002, -1.19998373e-001, -2.97422707e-001,
          -3.06285560e-001, -1.76928982e-001, -1.80411242e-015,
          -1.80411242e-015, -1.80411242e-015, -1.80411242e-015,
          -1.80411242e-015, -1.80411242e-015, -1.80411242e-015,
          -1.80411242e-015, -1.80411242e-015, -1.80411242e-015,
          -1.80411242e-015, -1.80411242e-015, -1.80411242e-015,
          -1.80411242e-015, -1.80411242e-015, -1.80411242e-015,
          -1.80411242e-015, -1.80411242e-015, -1.80411242e-015,
          -1.80411242e-015 ]
      - [ 3.26128013e-016, 3.26128013e-016, 3.26128013e-016,
          3.26128013e-016, 3.26128013e-016, 3.26128013e-016,
          3.26128013e-016, 3.26128013e-016, 3.26128013e-016,
          3.26128013e-016, 3.26128013e-016, 3.26128013e-016,
          3.26128013e-016, 3.26128013e-016, 3.26128013e-016,
          3.26128013e-016, 3.26128013e-016, 3.26128013e-016,
          3.26128013e-016, 3.26128013e-016, 3.26128013e-016,
          3.26128013e-016, 3.26128013e-016, 3.26128013e-016,
          3.26128013e-016, 3.26128013e-016, 3.26128013e-016,
          3.26128013e-016, 3.26128013e-016, 3.26128013e-016,
          3.26128013e-016, 3.26128013e-016, 3.26128013e-016,
          3.26128013e-016, 3.26128013e-016, 1.88278213e-001,
          7.11450800e-002, -1.85160920e-001, 9.66005027e-002,
          -5.82132861e-002, 3.44686210e-001, 1.57681018e-001,
          3.56562287e-001, 6.07012473e-002, 1.85909614e-001,
          7.05547556e-002, 3.26128013e-016, 3.26128013e-016,
          3.26128013e-016, 3.26128013e-016, 3.26128013e-016,
          1.07139014e-001, 2.24888772e-001, -5.40803373e-002,
          1.55055076e-001, 1.26775771e-001, 5.09382784e-002,
          -5.79524450e-002, 3.02958935e-001, 1.82612419e-001,
          1.46511286e-001, 2.48359293e-001, 3.26128013e-016,
          3.26128013e-016, 3.26128013e-016, 3.26128013e-016,
          3.26128013e-016, 1.87139019e-001, 2.60689348e-001,
          1.69311427e-002, 4.81721349e-002, 2.65297025e-001,
          -8.29041451e-002, -9.00104269e-002, 1.10931568e-001,
          -8.28982666e-002, 1.87824905e-001, 1.74283028e-001,
          7.99999982e-002, 3.26128013e-016, 3.26128013e-016,
          3.26128013e-016, 3.26128013e-016, 1.53196201e-001,
          -3.39307077e-002, 5.93331233e-002, 2.54256427e-001,
          1.01976693e-002, 6.69736043e-002, 1.86186790e-001,
          -8.72906074e-002, -3.76988016e-002, -8.90782699e-002,
          2.46067166e-001, 3.26128013e-016, 3.26128013e-016,
          3.26128013e-016, 3.26128013e-016, 3.26128013e-016,
          2.46882103e-002, -6.79283636e-003, 3.13435756e-002,
          6.93571791e-002, 4.50896695e-002, 1.90610029e-002,
          -1.70690820e-001, 6.46259822e-003, -6.54789060e-002,
          -2.89986450e-002, 1.57826319e-002, 3.26128013e-016,
          3.26128013e-016, 3.26128013e-016, 3.26128013e-016,
          -5.24182059e-002, 7.84953998e-004, -2.18037739e-001,
          -3.70918140e-002, -1.17070161e-001, 2.26951450e-001,
          -1.89564750e-002, 7.15816440e-003, -7.37502566e-003,
          -2.54893661e-001, -1.45180568e-001, -5.76268695e-002,
          3.26128013e-016, 3.26128013e-016, 3.26128013e-016,
          3.26128013e-016, 3.26128013e-016, 1.81084678e-001,
          -5.31652980e-002, 2.37638712e-001, 2.67966986e-001,
          -8.45044777e-002, 1.05304874e-001, 3.75471056e-001,
          -1.17282629e-001, 2.14565010e-003, -2.38754041e-002,
          -1.76348835e-001, 3.26128013e-016, 3.26128013e-016,
          3.26128013e-016, 3.26128013e-016, 3.26128013e-016,
          -3.55532467e-002, 3.53235193e-002, 9.81198326e-002,
          -1.54008437e-002, -2.14665905e-001, -2.58677989e-001,
          -3.71267468e-001, -1.53344810e-001, -1.10709809e-001,
          -5.71948439e-002, -1.65208668e-001, 7.99999982e-002,
          3.26128013e-016, 3.26128013e-016, 3.26128013e-016,
          -1.33277699e-001, 2.04413116e-001, 1.96852628e-002,
          -3.51663083e-002, 1.75828990e-002, -1.19409509e-001,
          -2.35438913e-001, -1.98818982e-001, -2.98990846e-001,
          -1.75937399e-001, -1.03878498e-001, -1.37626871e-001,
          3.26128013e-016, 3.26128013e-016, 3.26128013e-016,
          3.26128013e-016, -1.11401752e-002, -7.69585297e-002,
          -1.25413030e-001, 8.52404907e-002, -5.82667589e-002,
          -1.17227482e-002, -1.21376172e-001, -3.98106612e-002,
          4.77966741e-002, -8.32656249e-002, 8.37854668e-003,
          -3.37905027e-002, 3.26128013e-016, 3.26128013e-016,
          3.26128013e-016, 3.26128013e-016, -2.03126416e-001,
          1.29210472e-001, -7.37439767e-002, 1.63375393e-001,
          3.66591960e-002, 1.35448128e-001, -9.57283471e-003,
          -5.78814670e-002, 1.33126482e-001, 1.70760989e-001,
          -7.15295374e-002, -7.42033124e-002, 3.26128013e-016,
          3.26128013e-016, 3.26128013e-016, 3.26128013e-016,
          -1.77700609e-001, -3.31729770e-001, -3.93961482e-002,
          1.97459072e-001, -1.44018363e-002, 1.16612956e-001,
          3.08879837e-002, 7.73470402e-002, -5.03703840e-002,
          -1.45490140e-001, 1.75248981e-002, -1.08905144e-001,
          3.26128013e-016, 3.26128013e-016, 3.26128013e-016,
          3.26128013e-016, -7.59577677e-002, -3.47600847e-001,
          -1.73545852e-001, -2.07101330e-002, 1.55749004e-002,
          8.53516981e-002, -1.33220688e-001, 6.08072318e-002,
          -5.15996665e-002, -3.52512263e-002, 9.81329232e-002,
          -3.88409607e-002, 3.26128013e-016, 3.26128013e-016,
          3.26128013e-016, 3.26128013e-016, 3.26128013e-016,
          3.26128013e-016, 3.26128013e-016, 3.26128013e-016,
          3.26128013e-016, 3.26128013e-016, 3.26128013e-016,
          3.26128013e-016, 3.26128013e-016, 3.26128013e-016,
          3.26128013e-016, 3.26128013e-016, 3.26128013e-016,
          3.26128013e-016 ]
      - [ -1.72084569e-015, -1.72084569e-015, -1.72084569e-015,
          -1.72084569e-015, -1.72084569e-015, -1.72084569e-015,
          -1.72084569e-015, -1.72084569e-015, -1.72084569e-015,
          -1.72084569e-015, -1.72084569e-015, -1.72084569e-015,
          -1.72084569e-015, -1.72084569e-015, -1.72084569e-015,
          -1.72084569e-015, -1.72084569e-015, -1.72084569e-015,
          -1.72084569e-015, -1.72084569e-015, -1.72084569e-015,
          -1.72084569e-015, -1.72084569e-015, -1.72084569e-015,
          -1.72084569e-015, -1.72084569e-015, -1.72084569e-015,
          -1.72084569e-015, -1.72084569e-015, -1.72084569e-015,
          -1.72084569e-015, -1.72084569e-015, -1.72084569e-015,
          -1.72084569e-015, -1.72084569e-015, 6.87443241e-002,
          1.38975888e-001, -9.88112614e-002, 3.28140035e-002,
          -4.92716990e-002, 3.90108258e-001, 1.35043591e-001,
          2.51177043e-001, 1.69100910e-001, 4.47197407e-002,
          9.64762717e-002, 2.73189694e-002, -1.72084569e-015,
          -1.72084569e-015, -1.72084569e-015, -1.72084569e-015,
          4.14253548e-002, 6.92629889e-002, 2.66129598e-002,
          3.44247490e-001, 1.22570112e-001, 1.36759028e-001,
          -6.25285879e-002, 2.13407278e-001, 2.35670805e-001,
          9.96861756e-002, 2.76208907e-001, 2.73189694e-002,
          -1.72084569e-015, -1.72084569e-015, -1.72084569e-015,
          -1.72084569e-015, 1.98196471e-001, 1.31330222e-001,
          1.76799506e-001, 2.55804528e-002, 2.94442862e-001,
          -8.28733202e-003, -8.01156759e-002, 1.40480712e-001,
          5.45122139e-002, 1.64160058e-001, 1.79595500e-001,
          2.73189694e-002, -1.72084569e-015, -1.72084569e-015,
          -1.72084569e-015, -1.72084569e-015, 8.23892578e-002,
          8.78921524e-002, -2.42376685e-001, 2.07480520e-001,
          1.02956831e-001, 1.71380654e-001, 2.45250147e-002,
          -5.29971905e-003, 1.12247452e-001, -7.32754469e-002,
          2.72497684e-001, 2.73189694e-002, -1.72084569e-015,
          -1.72084569e-015, -1.72084569e-015, -1.72084569e-015,
          -5.66714890e-002, -5.87296002e-002, 3.79970789e-001,
          4.17500973e-001, -5.20987585e-002, -1.68032162e-002,
          -8.64107832e-002, -4.53560129e-002, 1.29302237e-002,
          1.58583112e-002, -6.34191111e-002, 7.99999982e-002,
          -1.72084569e-015, -1.72084569e-015, -1.72084569e-015,
          -8.45851600e-002, -8.03009570e-002, -1.01379707e-001,
          -2.13899016e-001, -6.91413432e-002, -8.88769701e-002,
          1.23729222e-001, 1.94772288e-001, 2.03010246e-001,
          -1.85968116e-001, -1.57148913e-002, -2.84623414e-001,
          -1.72084569e-015, -1.72084569e-015, -1.72084569e-015,
          -1.72084569e-015, -1.72084569e-015, 8.47371519e-002,
          -1.92210957e-001, -9.61321406e-003, 1.70022517e-001,
          -9.88603160e-002, 3.68479714e-002, 5.37474811e-001,
          -1.10857897e-001, -9.44091305e-002, -1.25674263e-001,
          -8.92610103e-002, -1.72084569e-015, -1.72084569e-015,
          -1.72084569e-015, -1.72084569e-015, -1.72084569e-015,
          -2.15367794e-001, -3.21841866e-001, -4.63004000e-002,
          -1.05950333e-001, -6.04784936e-002, -1.23542827e-002,
          -4.72529903e-002, -1.90213233e-001, -1.28568172e-001,
          -1.17579296e-001, -2.00038254e-001, -1.72084569e-015,
          -1.72084569e-015, -1.72084569e-015, -1.72084569e-015,
          -4.92227599e-002, 1.58592656e-001, -3.20359953e-002,
          -8.29950422e-002, -1.46162644e-001, -7.34038725e-002,
          -2.39944290e-002, -4.47210044e-001, -2.86953032e-001,
          -3.57130706e-001, -8.11556354e-002, -2.84623414e-001,
          -1.72084569e-015, -1.72084569e-015, -1.72084569e-015,
          -1.72084569e-015, -1.62497029e-001, 1.39406789e-002,
          -1.11616023e-001, 1.48910850e-001, 1.69281632e-001,
          1.77122682e-001, -1.38141185e-001, -2.36262053e-001,
          -2.52321661e-001, -3.02893758e-001, -2.12874010e-001,
          -1.41077042e-001, -1.72084569e-015, -1.72084569e-015,
          -1.72084569e-015, -1.72084569e-015, -2.04177707e-001,
          6.58982620e-002, -3.09984144e-002, 1.52860463e-001,
          -4.44147773e-002, 1.59876063e-001, -2.10382864e-001,
          -2.27191076e-001, -8.29478353e-002, -1.80755436e-001,
          -7.95374215e-002, -1.41077042e-001, -1.72084569e-015,
          -1.72084569e-015, -1.72084569e-015, -1.72084569e-015,
          -1.94734946e-001, -1.59845524e-003, -5.51906675e-002,
          1.60599887e-001, -1.41290143e-001, -1.90642640e-001,
          3.46395373e-002, -2.57475466e-001, -3.32291692e-001,
          -2.27933541e-001, -2.54687786e-001, -1.41077042e-001,
          -1.72084569e-015, -1.72084569e-015, -1.72084569e-015,
          -1.72084569e-015, -1.43920690e-001, -4.21402752e-001,
          -1.45582184e-001, -5.00892401e-002, -1.55222550e-001,
          -1.14293441e-001, -2.34616786e-001, -9.18652788e-002,
          -1.47814527e-001, -8.60912204e-002, -7.86423758e-002,
          -1.07478678e-001, -1.72084569e-015, -1.72084569e-015,
          -1.72084569e-015, -1.72084569e-015, -1.72084569e-015,
          -1.72084569e-015, -1.72084569e-015, -1.72084569e-015,
          -1.72084569e-015, -1.72084569e-015, -1.72084569e-015,
          -1.72084569e-015, -1.72084569e-015, -1.72084569e-015,
          -1.72084569e-015, -1.72084569e-015, -1.72084569e-015,
          -1.72084569e-015 ]
      - [ -7.63278329e-017, -7.63278329e-017, -7.63278329e-017,
          -7.63278329e-017, -7.63278329e-017, -7.63278329e-017,
          -7.63278329e-017, -7.63278329e-017, -7.63278329e-017,
          -7.63278329e-017, -7.63278329e-017, -7.63278329e-017,
          -7.63278329e-017, -7.63278329e-017, -7.63278329e-017,
          -7.63278329e-017, -7.63278329e-017, -7.63278329e-017,
          -7.63278329e-017, -7.63278329e-017, -7.63278329e-017,
          -7.63278329e-017, -7.63278329e-017, -7.63278329e-017,
          -7.63278329e-017, -7.63278329e-017, -7.63278329e-017,
          -7.63278329e-017, -7.63278329e-017, -7.63278329e-017,
          -7.63278329e-017, -7.63278329e-017, -7.63278329e-017,
          -7.63278329e-017, -7.63278329e-017, -7.63278329e-017,
          -7.63278329e-017, -3.28168571e-001, -2.04496115e-001,
          -1.58240423e-001, 2.31562525e-001, 8.66711736e-002,
          4.18008536e-001, 8.43379870e-002, 1.87755093e-001,
          -1.35986492e-001, -7.63278329e-017, -7.63278329e-017,
          -7.63278329e-017, -7.63278329e-017, -7.63278329e-017,
          -7.63278329e-017, -4.36724573e-002, -1.85644105e-001,
          9.44555178e-002, 6.33864701e-002, 3.28501284e-001,
          4.17797677e-002, 2.39393622e-001, 1.33443415e-001,
          2.21501559e-001, 2.05153346e-001, -7.63278329e-017,
          -7.63278329e-017, -7.63278329e-017, -7.63278329e-017,
          -7.63278329e-017, 1.41742632e-001, -1.41752511e-003,
          -6.77104071e-002, 1.81072831e-001, 1.24733061e-001,
          -1.29107103e-001, 6.58591166e-002, 1.13233119e-001,
          1.30955786e-001, 2.26089418e-001, 2.20600590e-002,
          7.99999982e-002, -7.63278329e-017, -7.63278329e-017,
          -7.63278329e-017, -7.63278329e-017, -2.49709301e-002,
          4.07812521e-002, -7.25107640e-002, 1.25479817e-001,
          -1.56803742e-001, 5.23398295e-002, -2.61544436e-001,
          -1.83166593e-001, -1.03897817e-001, -1.05479851e-001,
          -1.17106102e-002, -7.63278329e-017, -7.63278329e-017,
          -7.63278329e-017, -7.63278329e-017, 7.99999982e-002,
          1.77361607e-003, -1.30545748e-002, 3.16752978e-002,
          2.55673051e-001, -1.50002599e-001, -2.97341287e-001,
          -1.67402312e-001, -1.52614554e-002, -2.57605404e-001,
          -3.17787707e-001, -1.27322420e-001, -7.63278329e-017,
          -7.63278329e-017, -7.63278329e-017, -7.63278329e-017,
          -7.45947734e-002, 2.22950801e-001, 3.38691063e-002,
          6.31293803e-002, 2.17318803e-001, -1.31844610e-001,
          -9.34050903e-002, -2.89322346e-001, -4.08208430e-001,
          -2.90832967e-001, 1.74597889e-001, -5.17028719e-002,
          -7.63278329e-017, -7.63278329e-017, -7.63278329e-017,
          -7.63278329e-017, 3.88969257e-002, 5.34106016e-001,
          2.52761126e-001, 3.75027508e-001, -7.94458315e-002,
          -3.69970575e-002, -2.25376099e-001, 3.84911458e-004,
          5.52508906e-002, 8.18357840e-002, -4.53233942e-002,
          1.31245285e-001, -7.98425917e-003, -7.63278329e-017,
          -7.63278329e-017, -7.63278329e-017, 5.31929247e-002,
          2.14875892e-001, 6.28062785e-002, -1.99541613e-001,
          -7.04486445e-002, -1.39468551e-001, -3.87655571e-002,
          8.03864151e-002, 2.30057105e-001, 3.72093767e-002,
          6.42425716e-002, 1.58838332e-001, -7.63278329e-017,
          -7.63278329e-017, -7.63278329e-017, -7.63278329e-017,
          -1.25115514e-001, 2.04362959e-001, -1.11181736e-001,
          6.73508570e-002, -2.24748608e-002, 6.77005248e-003,
          -5.09252623e-002, 1.68315858e-001, -6.62655979e-002,
          6.71890602e-002, 3.22152153e-002, 3.79730351e-002,
          -7.63278329e-017, -7.63278329e-017, -7.63278329e-017,
          -7.63278329e-017, 2.48536281e-002, -6.23673424e-002,
          -2.59621024e-001, -8.13847184e-002, 1.24767564e-001,
          -7.84660131e-003, -1.69570427e-002, 1.34582296e-001,
          8.21710303e-002, 6.50129095e-002, -1.57726064e-001,
          1.83423311e-002, -7.63278329e-017, -7.63278329e-017,
          -7.63278329e-017, -7.63278329e-017, -1.64651409e-001,
          -9.11701769e-002, -9.90400240e-002, 2.07435533e-001,
          -1.76526010e-001, 3.00450236e-001, 6.46328777e-002,
          1.30755827e-001, -8.56983662e-002, -4.18561809e-002,
          -2.08848417e-001, 3.35391946e-002, -7.63278329e-017,
          -7.63278329e-017, -7.63278329e-017, -7.63278329e-017,
          -1.88664913e-001, -3.88773352e-001, -1.06383368e-001,
          1.59700572e-001, -9.96645764e-002, 2.80270755e-001,
          5.29418811e-002, -8.19200948e-002, -4.52974513e-002,
          -1.40500963e-001, -4.81520928e-002, -2.27239374e-002,
          -7.63278329e-017, -7.63278329e-017, -7.63278329e-017,
          -7.63278329e-017, -1.29555106e-001, -5.15678763e-001,
          -3.30411106e-001, -7.12854862e-002, 3.24063264e-002,
          1.12694642e-002, 2.86273118e-002, 2.40091950e-001,
          -3.19042336e-003, -9.54031646e-002, 7.69820511e-002,
          -7.63278329e-017, -7.63278329e-017, -7.63278329e-017,
          -7.63278329e-017, -7.63278329e-017, -7.63278329e-017,
          -7.63278329e-017, -7.63278329e-017, -7.63278329e-017,
          -7.63278329e-017, -7.63278329e-017, -7.63278329e-017,
          -7.63278329e-017, -7.63278329e-017, -7.63278329e-017,
          -7.63278329e-017, -7.63278329e-017, -7.63278329e-017,
          -7.63278329e-017 ]
      - [ -2.04003481e-015, -2.04003481e-015, -2.04003481e-015,
          -2.04003481e-015, -2.04003481e-015, -2.04003481e-015,
          -2.04003481e-015, -2.04003481e-015, -2.04003481e-015,
          -2.04003481e-015, -2.04003481e-015, -2.04003481e-015,
          -2.04003481e-015, -2.04003481e-015, -2.04003481e-015,
          -2.04003481e-015, -2.04003481e-015, -2.04003481e-015,
          -2.04003481e-015, -2.04003481e-015, -2.04003481e-015,
          -2.04003481e-015, -2.04003481e-015, -2.04003481e-015,
          -2.04003481e-015, -2.04003481e-015, -2.04003481e-015,
          -2.04003481e-015, -2.04003481e-015, -2.04003481e-015,
          -2.04003481e-015, -2.04003481e-015, -2.04003481e-015,
          -2.04003481e-015, 3.62649150e-002, 1.23760819e-001,
          1.54928982e-001, -1.21778343e-002, 1.18357696e-001,
          3.40348184e-002, 1.88883200e-001, 1.27572104e-001,
          7.46847242e-002, 1.22228667e-001, 2.83727407e-001,
          1.89659029e-001, -2.04003481e-015, -2.04003481e-015,
          -2.04003481e-015, -2.04003481e-015, 3.62649150e-002,
          2.74074167e-001, 3.39019954e-001, -1.61023438e-002,
          4.42783684e-002, 6.86528981e-002, 6.61586151e-002,
          5.86863719e-002, 3.55606303e-002, 3.46529931e-002,
          2.29033664e-001, 7.66812870e-003, 4.75033745e-002,
          -2.04003481e-015, -2.04003481e-015, -2.04003481e-015,
          3.62649150e-002, 1.94074184e-001, 1.58916742e-001,
          1.53198749e-001, 1.98357254e-001, 7.42745996e-002,
          -9.83526185e-002, -7.24722520e-002, 1.38607487e-001,
          4.41865157e-003, 4.82785963e-002, 2.45859578e-001,
          -2.04003481e-015, -2.04003481e-015, -2.04003481e-015,
          -2.04003481e-015, 3.62649150e-002, 2.19428971e-001,
          -4.35788222e-002, 9.38736871e-002, -1.09234795e-001,
          -3.15615460e-002, 7.87995309e-002, -2.92338520e-001,
          -8.82302299e-002, 3.84661630e-002, 1.63936540e-001,
          8.95452350e-002, -2.04003481e-015, -2.04003481e-015,
          -2.04003481e-015, -2.04003481e-015, 9.19325426e-002,
          -2.06253231e-002, 1.77753866e-001, -1.04854498e-002,
          5.78878708e-002, 1.29254848e-001, -1.71780840e-001,
          -2.30139643e-002, 1.53240144e-001, 7.00062141e-002,
          1.70235317e-002, 1.03962971e-002, -2.04003481e-015,
          -2.04003481e-015, -2.04003481e-015, -2.04003481e-015,
          1.19325453e-002, 4.84950691e-002, -4.22320999e-002,
          7.30918869e-002, 1.30847722e-001, 1.28381714e-001,
          -3.42618600e-002, -6.85045612e-004, 2.14338556e-001,
          9.28721949e-002, 2.40035251e-001, -3.96454558e-002,
          -2.04003481e-015, -2.04003481e-015, -2.04003481e-015,
          -2.04003481e-015, 3.62649150e-002, 5.95608391e-002,
          7.17071593e-002, 2.65746973e-002, 1.19685374e-001,
          1.56351030e-001, -1.44069612e-001, 1.24985009e-001,
          1.38179213e-001, -1.30688369e-001, -2.41051957e-001,
          -1.33855432e-001, -5.45133352e-002, -2.04003481e-015,
          -2.04003481e-015, -2.04003481e-015, 3.62649150e-002,
          3.38871218e-003, 1.36780143e-002, -4.24622707e-002,
          -2.60713529e-002, -2.38212496e-001, -1.68042228e-001,
          3.43382061e-002, -8.68449435e-002, -1.01410463e-001,
          1.04449868e-001, 2.39524283e-002, -2.04003481e-015,
          -2.04003481e-015, -2.04003481e-015, -2.04003481e-015,
          3.35090905e-002, 1.43111206e-003, -2.52183191e-002,
          -5.94928935e-002, -1.12048358e-001, -1.37772486e-001,
          -1.64568797e-001, -1.07220888e-001, 1.96661316e-002,
          -1.45157436e-002, -2.17657778e-002, -1.10976227e-001,
          -2.04003481e-015, -2.04003481e-015, -2.04003481e-015,
          -2.04003481e-015, -1.46675497e-001, 1.54981360e-001,
          1.39479786e-002, 8.85457173e-002, -1.48242608e-001,
          1.01919368e-001, -8.53147432e-002, 1.58800662e-001,
          5.58127314e-002, -5.39048202e-002, -1.79808110e-001,
          -4.14165370e-002, -2.04003481e-015, -2.04003481e-015,
          -2.04003481e-015, -2.04003481e-015, -2.45016575e-001,
          2.10643634e-002, -1.85250193e-001, -8.42835531e-002,
          -6.99736476e-002, 8.96969903e-003, 6.11919537e-003,
          9.22104195e-002, -5.48639558e-002, -4.59970161e-002,
          -2.46900380e-001, -1.29180267e-001, -2.04003481e-015,
          -2.04003481e-015, -2.04003481e-015, -2.04003481e-015,
          4.86634672e-002, -3.14552635e-001, -1.74326524e-001,
          9.55444500e-002, -7.34313428e-002, -7.73271844e-002,
          -1.10380046e-001, 5.32182166e-003, -1.02818795e-001,
          -1.58945136e-002, 7.18412623e-002, -9.99733210e-002,
          -2.04003481e-015, -2.04003481e-015, -2.04003481e-015,
          -2.04003481e-015, -5.55478875e-003, -2.94624686e-001,
          -1.45795912e-001, -1.99055836e-001, -2.52566393e-003,
          1.77248389e-001, -3.08016557e-002, 4.29926626e-002,
          -3.85839827e-002, 7.49351084e-002, 5.40036857e-002,
          4.77291783e-003, -2.04003481e-015, -2.04003481e-015,
          -2.04003481e-015, -2.04003481e-015, -2.04003481e-015,
          -2.04003481e-015, -2.04003481e-015, -2.04003481e-015,
          -2.04003481e-015, -2.04003481e-015, -2.04003481e-015,
          -2.04003481e-015, -2.04003481e-015, -2.04003481e-015,
          -2.04003481e-015, -2.04003481e-015, -2.04003481e-015,
          -2.04003481e-015 ]
      - [ -1.59594560e-016, -1.59594560e-016, -1.59594560e-016,
          -1.59594560e-016, -1.59594560e-016, -1.59594560e-016,
          -1.59594560e-016, -1.59594560e-016, -1.59594560e-016,
          -1.59594560e-016, -1.59594560e-016, -1.59594560e-016,
          -1.59594560e-016, -1.59594560e-016, -1.59594560e-016,
          -1.59594560e-016, -1.59594560e-016, -1.59594560e-016,
          -1.59594560e-016, -1.59594560e-016, -1.59594560e-016,
          -1.59594560e-016, -1.59594560e-016, -1.59594560e-016,
          -1.59594560e-016, -1.59594560e-016, -1.59594560e-016,
          -1.59594560e-016, -1.59594560e-016, -1.59594560e-016,
          -1.59594560e-016, -1.59594560e-016, -1.59594560e-016,
          -1.59594560e-016, -1.59594560e-016, -1.59594560e-016,
          1.85646728e-001, 1.98029745e-002, 7.16444477e-002,
          1.19462401e-001, 2.33255073e-001, -1.06565028e-001,
          1.69512212e-001, -1.07205570e-001, 3.25338729e-002,
          2.09964469e-001, -1.59594560e-016, -1.59594560e-016,
          -1.59594560e-016, -1.59594560e-016, -1.59594560e-016,
          7.99999982e-002, 1.31391138e-001, 5.29170558e-002,
          1.98092565e-001, 2.72358656e-001, 1.02237128e-001,
          1.65213451e-001, 2.08667144e-001, 3.37469950e-002,
          1.42548770e-001, 2.52596766e-001, -1.59594560e-016,
          -1.59594560e-016, -1.59594560e-016, -1.59594560e-016,
          -1.59594560e-016, -1.59594560e-016, 1.87617049e-001,
          2.44409725e-001, 2.22777024e-001, 3.03016186e-001,
          1.70225024e-001, 8.66288021e-002, 3.78929108e-001,
          9.60345045e-002, 2.72543669e-001, 9.66765955e-002,
          -1.59594560e-016, -1.59594560e-016, -1.59594560e-016,
          -1.59594560e-016, -1.59594560e-016, 9.43499506e-002,
          -6.19203458e-003, -3.36981080e-002, -1.27631845e-002,
          -3.91748473e-002, 3.12871337e-002, 1.23534553e-001,
          6.10132813e-002, 1.28971085e-001, -2.38599963e-002,
          1.13603309e-001, 7.13933110e-002, -1.59594560e-016,
          -1.59594560e-016, -1.59594560e-016, -1.59594560e-016,
          -9.94591340e-002, 9.32670981e-002, 1.17507458e-001,
          -2.24380568e-002, -1.50600165e-001, -5.52578233e-002,
          8.15680102e-002, 1.04559071e-001, -7.03454241e-002,
          -2.64550298e-002, -1.28429919e-001, -1.59594560e-016,
          -1.59594560e-016, -1.59594560e-016, -1.59594560e-016,
          -1.59594560e-016, -6.56500533e-002, -1.18479393e-001,
          -1.14932336e-001, 8.39665979e-002, 9.52401981e-002,
          1.51056796e-001, 1.29027069e-001, 2.00752504e-002,
          -2.61117853e-002, -3.66364568e-002, -1.62616685e-001,
          -1.59594560e-016, -1.59594560e-016, -1.59594560e-016,
          -1.59594560e-016, -1.59594560e-016, 7.77302161e-002,
          -1.13644131e-001, 5.75204417e-002, -1.83308974e-001,
          -1.51790410e-001, -6.25865674e-003, 2.45085374e-001,
          -2.18325909e-002, -2.25273788e-001, -1.42157763e-001,
          -9.45049152e-002, -3.38090807e-002, -1.59594560e-016,
          -1.59594560e-016, -1.59594560e-016, -1.59594560e-016,
          -5.91926761e-002, -1.09143928e-001, -2.35687062e-001,
          -3.94450352e-002, -2.94861495e-001, -2.78711706e-001,
          -1.75556570e-001, -2.29618207e-001, -1.00454867e-001,
          -2.14666277e-001, -9.45049152e-002, -1.59594560e-016,
          -1.59594560e-016, -1.59594560e-016, -1.59594560e-016,
          1.59497820e-002, -2.05216929e-002, -2.54457504e-001,
          -2.26813838e-001, -1.28877535e-001, -3.80166396e-002,
          1.71511732e-002, -1.85555518e-001, -1.81391835e-001,
          -1.15789212e-001, -2.94172674e-001, -9.45049152e-002,
          -1.59594560e-016, -1.59594560e-016, -1.59594560e-016,
          -1.59594560e-016, -2.16040909e-002, -5.53057604e-002,
          -8.59772563e-002, -7.47729763e-002, 6.94258064e-002,
          5.55462502e-002, -4.28752936e-002, -2.34632790e-001,
          -1.05496876e-001, -1.11840971e-001, -2.31855631e-001,
          -9.45049152e-002, -1.59594560e-016, -1.59594560e-016,
          -1.59594560e-016, -1.59594560e-016, -2.74528742e-001,
          -5.30056916e-002, -1.44355237e-001, 1.93959981e-001,
          1.29777819e-001, 1.35102496e-001, -8.33642781e-002,
          -2.11172625e-002, -1.77837774e-001, -4.59808633e-002,
          -3.63638282e-001, -1.11694261e-001, -1.59594560e-016,
          -1.59594560e-016, -1.59594560e-016, -1.59594560e-016,
          -2.24050224e-001, -1.31331250e-001, -9.81751308e-002,
          1.87636852e-001, 7.45758861e-002, 8.26152563e-002,
          1.41991630e-001, -1.16080061e-001, -2.89827913e-001,
          -2.10662365e-001, -1.23638280e-001, 2.20444389e-002,
          7.99999982e-002, -1.59594560e-016, -1.59594560e-016,
          -1.59594560e-016, -6.22059442e-002, -4.74856168e-001,
          -8.94435868e-002, 1.01849541e-001, 1.17408028e-002,
          2.69075073e-002, -1.39082938e-001, -8.87999833e-002,
          -1.09394141e-001, -7.16415700e-004, 4.14848402e-002,
          -1.59594560e-016, -1.59594560e-016, -1.59594560e-016,
          -1.59594560e-016, -1.59594560e-016, -1.59594560e-016,
          -1.59594560e-016, -1.59594560e-016, -1.59594560e-016,
          -1.59594560e-016, -1.59594560e-016, -1.59594560e-016,
          -1.59594560e-016, -1.59594560e-016, -1.59594560e-016,
          -1.59594560e-016, -1.59594560e-016, -1.59594560e-016,
          -1.59594560e-016 ]
      - [ 1.60982339e-015, 1.60982339e-015, 1.60982339e-015,
          1.60982339e-015, 1.60982339e-015, 1.60982339e-015,
          1.60982339e-015, 1.60982339e-015, 1.60982339e-015,
          1.60982339e-015, 1.60982339e-015, 1.60982339e-015,
          1.60982339e-015, 1.60982339e-015, 1.60982339e-015,
          1.60982339e-015, 1.60982339e-015, 1.60982339e-015,
          1.60982339e-015, 1.60982339e-015, 1.60982339e-015,
          1.60982339e-015, 1.60982339e-015, 1.60982339e-015,
          1.60982339e-015, 1.60982339e-015, 1.60982339e-015,
          1.60982339e-015, 1.60982339e-015, 1.60982339e-015,
          1.60982339e-015, 1.60982339e-015, 1.60982339e-015,
          1.60982339e-015, 1.60982339e-015, 1.60982339e-015,
          1.29433021e-001, 7.96723887e-002, 6.64542615e-002,
          1.13127284e-001, 4.34422463e-001, 1.71360523e-001,
          2.81632304e-001, 1.14019938e-001, 2.69659646e-002,
          1.35872573e-001, 1.60982339e-015, 1.60982339e-015,
          1.60982339e-015, 1.60982339e-015, 1.60982339e-015,
          1.60982339e-015, 4.67341617e-002, 3.52902897e-002,
          1.64492965e-001, 1.96837485e-001, 2.59362638e-001,
          1.88966021e-002, 4.52955365e-002, 7.40431547e-002,
          5.82925752e-002, 5.16687445e-002, 1.60982339e-015,
          1.60982339e-015, 1.60982339e-015, 1.60982339e-015,
          1.60982339e-015, 1.60982339e-015, 4.84997779e-002,
          1.06116466e-001, 1.63724750e-001, 7.82458633e-002,
          1.35708228e-002, 7.01444298e-002, 1.23914734e-001,
          3.58241275e-002, 2.52160698e-001, 5.07319160e-003,
          1.60982339e-015, 1.60982339e-015, 1.60982339e-015,
          1.60982339e-015, 1.60982339e-015, -1.06049836e-001,
          -4.86561842e-002, -3.88548672e-002, -1.17193513e-001,
          -1.78754985e-001, -3.41353640e-002, -4.08697575e-002,
          -3.16753648e-002, 1.40359685e-001, -1.48421302e-001,
          -2.13953778e-002, 1.60982339e-015, 1.60982339e-015,
          1.60982339e-015, 1.60982339e-015, 1.60982339e-015,
          -1.17202677e-001, -1.69740975e-001, -1.26286605e-002,
          1.93348110e-001, -1.09773487e-001, -2.97294520e-002,
          -4.77399267e-002, 1.12056948e-001, 1.20629491e-002,
          -2.24043846e-001, -1.02875143e-001, 1.60982339e-015,
          1.60982339e-015, 1.60982339e-015, 1.60982339e-015,
          -1.27679706e-001, -1.17202677e-001, -4.11861748e-001,
          -1.91758499e-001, 1.55689698e-002, -1.49115324e-001,
          3.15162316e-002, -8.05597529e-002, -8.66064802e-003,
          2.46007964e-002, 1.18117221e-002, -6.00193106e-002,
          1.60982339e-015, 1.60982339e-015, 1.60982339e-015,
          1.60982339e-015, 1.60982339e-015, -4.76797037e-002,
          -3.38691205e-001, -5.36238253e-002, -2.31778711e-001,
          -2.24902943e-001, -1.70764402e-001, 6.25864118e-002,
          -1.23997666e-002, -6.10473081e-002, 4.96247001e-002,
          1.28296867e-001, 1.60982339e-015, 1.60982339e-015,
          1.60982339e-015, 1.60982339e-015, 1.60982339e-015,
          -1.20162368e-001, -3.81191820e-002, -3.30555975e-001,
          -8.87930393e-002, -1.35643005e-001, -1.40471026e-001,
          -1.56398132e-001, 8.97803635e-004, -1.58204466e-001,
          -1.30474165e-001, 6.87247589e-002, 1.60982339e-015,
          1.60982339e-015, 1.60982339e-015, 1.60982339e-015,
          -6.49321750e-002, 2.32998520e-001, -9.55723450e-002,
          -4.60538641e-002, -9.08664018e-002, -6.59592375e-002,
          -5.47491647e-002, -1.31870568e-001, -1.71351895e-001,
          -1.52514633e-002, -9.01657343e-002, -7.51567481e-004,
          1.60982339e-015, 1.60982339e-015, 1.60982339e-015,
          1.60982339e-015, 5.96153773e-002, 1.98779628e-001,
          -1.74827382e-001, 2.84316093e-001, 2.30378360e-001,
          1.49909288e-001, -7.40586445e-002, -9.43904277e-003,
          1.40024692e-001, -9.89057869e-003, -3.09420805e-002,
          -1.20515011e-001, 1.60982339e-015, 1.60982339e-015,
          1.60982339e-015, 1.60982339e-015, -9.38004181e-002,
          1.33310080e-001, 8.09145812e-003, 1.82161018e-001,
          2.58597106e-001, 1.66618004e-001, 6.95868582e-002,
          4.34066314e-004, -1.35126114e-001, 4.18197131e-003,
          -3.15810293e-001, -2.30003119e-001, 1.60982339e-015,
          1.60982339e-015, 1.60982339e-015, 1.60982339e-015,
          5.64480498e-002, -2.36280877e-002, 3.21676135e-002,
          3.34470510e-001, 1.65351808e-001, 1.79890126e-001,
          1.48996621e-001, -5.45790652e-003, -2.02818796e-001,
          -2.31022239e-001, -2.56231964e-001, -2.92570442e-001,
          1.60982339e-015, 1.60982339e-015, 1.60982339e-015,
          6.99876025e-002, -4.08327393e-002, -2.73546696e-001,
          -3.08718592e-001, -1.00701816e-001, 6.43761456e-002,
          1.19504467e-001, -2.91676581e-001, -1.04361149e-002,
          -2.44961381e-001, -1.52116790e-001, -9.88533646e-002,
          1.60982339e-015, 1.60982339e-015, 1.60982339e-015,
          1.60982339e-015, 1.60982339e-015, 1.60982339e-015,
          1.60982339e-015, 1.60982339e-015, 1.60982339e-015,
          1.60982339e-015, 1.60982339e-015, 1.60982339e-015,
          1.60982339e-015, 1.60982339e-015, 1.60982339e-015,
          1.60982339e-015, 1.60982339e-015, 1.60982339e-015,
          1.60982339e-015 ]
      - [ -1.40165657e-015, -1.40165657e-015, -1.40165657e-015,
          -1.40165657e-015, -1.40165657e-015, -1.40165657e-015,
          -1.40165657e-015, -1.40165657e-015, -1.40165657e-015,
          -1.40165657e-015, -1.40165657e-015, -1.40165657e-015,
          -1.40165657e-015, -1.40165657e-015, -1.40165657e-015,
          -1.40165657e-015, -1.40165657e-015, -1.40165657e-015,
          -1.40165657e-015, -1.40165657e-015, -1.40165657e-015,
          -1.40165657e-015, -1.40165657e-015, -1.40165657e-015,
          -1.40165657e-015, -1.40165657e-015, -1.40165657e-015,
          -1.40165657e-015, -1.40165657e-015, -1.40165657e-015,
          -1.40165657e-015, -1.40165657e-015, -1.40165657e-015,
          -1.40165657e-015, -1.40165657e-015, -1.15900025e-001,
          -1.63110152e-001, -1.63110152e-001, -4.13317949e-001,
          -1.83379799e-001, -1.17797041e-002, -1.23538330e-001,
          1.26579881e-001, 7.40807503e-002, 1.21857002e-001,
          5.70340455e-002, -1.40165657e-015, -1.40165657e-015,
          -1.40165657e-015, -1.40165657e-015, -1.40165657e-015,
          -7.60990307e-002, -7.59844482e-002, -1.57618240e-001,
          -7.62866512e-002, -1.91923037e-001, -3.21600437e-002,
          -1.11655682e-001, 1.61505774e-001, -8.89173523e-002,
          1.00968994e-001, -9.80572179e-002, -1.40165657e-015,
          -1.40165657e-015, -1.40165657e-015, -1.40165657e-015,
          -1.40165657e-015, 1.20313041e-001, 9.15529858e-003,
          -1.49552628e-001, 3.72776389e-002, -1.02506585e-001,
          -5.18679544e-002, -5.21562994e-002, 1.62318811e-001,
          4.63858619e-002, 1.39500067e-001, -1.96271613e-001,
          -1.40165657e-015, -1.40165657e-015, -1.40165657e-015,
          -1.40165657e-015, -1.40165657e-015, -1.42834801e-002,
          -1.50996866e-002, 5.55881299e-002, 5.25941839e-003,
          1.57513440e-001, -4.84266654e-002, 1.83441609e-001,
          1.75132409e-001, 1.00596743e-002, -5.21728471e-002,
          -1.52401596e-001, -3.24348025e-002, -1.40165657e-015,
          -1.40165657e-015, -1.40165657e-015, 8.30998421e-002,
          4.32010256e-002, 1.17120422e-001, 1.41800821e-001,
          4.18149047e-002, 2.30474487e-001, 4.24212478e-002,
          -3.79013643e-002, 6.15982106e-003, -4.35315892e-002,
          3.59501392e-002, 2.81606391e-002, -1.28866255e-001,
          -1.40165657e-015, -1.40165657e-015, -1.40165657e-015,
          -1.40165657e-015, 1.88399419e-001, 7.88327381e-002,
          2.06278414e-001, 6.44435361e-002, -1.29391685e-001,
          -4.44882572e-001, -3.04076612e-001, -4.87925783e-002,
          6.50058687e-002, -2.43491933e-001, -7.91219100e-002,
          -1.40165657e-015, -1.40165657e-015, -1.40165657e-015,
          -1.40165657e-015, 1.82282552e-002, 9.32323784e-002,
          -2.12658048e-002, 1.21489972e-001, 1.14098720e-001,
          -2.25935578e-001, -2.32344583e-001, -3.06940913e-001,
          -2.36233890e-001, -2.48743042e-001, -7.96838924e-002,
          -2.14205399e-001, -1.40165657e-015, -1.40165657e-015,
          -1.40165657e-015, -1.40165657e-015, -1.40165657e-015,
          2.46591046e-001, 2.48951435e-001, -1.63543262e-002,
          -1.94479629e-001, -1.77546218e-001, -3.14065106e-002,
          -2.09298611e-001, -2.71185189e-001, -3.67455333e-001,
          -4.91453350e-001, -1.42426491e-001, -7.99999982e-002,
          -1.40165657e-015, -1.40165657e-015, -1.40165657e-015,
          -2.58066636e-002, 2.97420293e-001, 1.81614205e-001,
          3.89174074e-002, 9.32067707e-002, 8.69678259e-002,
          1.24039613e-001, -1.40088368e-002, -2.08757102e-001,
          -2.14921430e-001, -1.75733626e-001, -2.43641734e-001,
          -1.40165657e-015, -1.40165657e-015, -1.40165657e-015,
          -1.40165657e-015, -3.11337430e-002, 5.08117341e-002,
          -5.29290698e-002, 6.11378029e-002, 8.32241680e-003,
          9.96979252e-002, 1.02313489e-001, -4.50516492e-003,
          -9.45173353e-002, -2.57031322e-001, -1.14659876e-001,
          -2.36339703e-001, -1.40165657e-015, -1.40165657e-015,
          -1.40165657e-015, -1.40165657e-015, -3.34897377e-002,
          7.45324492e-002, -1.14616007e-002, 1.07819699e-001,
          -6.17164932e-003, 1.01689801e-001, 2.17326820e-001,
          -9.49601363e-003, 8.21224821e-004, 3.70586552e-002,
          -2.33962297e-001, -1.90649852e-002, -1.40165657e-015,
          -1.40165657e-015, -1.40165657e-015, -1.40165657e-015,
          -4.71079536e-002, -2.23728418e-001, -8.84608477e-002,
          1.17490865e-001, 8.49526748e-002, 2.40389168e-001,
          6.26685172e-002, 2.71870375e-001, 2.31462661e-002,
          7.19275698e-002, -3.73280458e-002, -4.18759789e-003,
          -1.40165657e-015, -1.40165657e-015, -1.40165657e-015,
          -1.40165657e-015, -1.40165657e-015, -1.11325368e-001,
          -2.65705705e-001, -1.08569153e-001, 1.48746721e-003,
          -2.00668961e-001, 2.22952053e-001, 2.31165081e-001,
          -2.24506576e-002, -1.40165657e-015, -1.40165657e-015,
          -1.40165657e-015, -1.40165657e-015, -1.40165657e-015,
          -1.40165657e-015, -1.40165657e-015, -1.40165657e-015,
          -1.40165657e-015, -1.40165657e-015, -1.40165657e-015,
          -1.40165657e-015, -1.40165657e-015, -1.40165657e-015,
          -1.40165657e-015, -1.40165657e-015, -1.40165657e-015,
          -1.40165657e-015, -1.40165657e-015, -1.40165657e-015,
          -1.40165657e-015 ]
      - [ -3.81639165e-016, -3.81639165e-016, -3.81639165e-016,
          -3.81639165e-016, -3.81639165e-016, -3.81639165e-016,
          -3.81639165e-016, -3.81639165e-016, -3.81639165e-016,
          -3.81639165e-016, -3.81639165e-016, -3.81639165e-016,
          -3.81639165e-016, -3.81639165e-016, -3.81639165e-016,
          -3.81639165e-016, -3.81639165e-016, -3.81639165e-016,
          -3.81639165e-016, -3.81639165e-016, -3.81639165e-016,
          -3.81639165e-016, -3.81639165e-016, -3.81639165e-016,
          -3.81639165e-016, -3.81639165e-016, -3.81639165e-016,
          -3.81639165e-016, -3.81639165e-016, -3.81639165e-016,
          -3.81639165e-016, -3.81639165e-016, -3.81639165e-016,
          -3.81639165e-016, -3.81639165e-016, -4.38438728e-002,
          -8.97996873e-002, 7.53027052e-002, 4.97516878e-002,
          4.54889685e-002, -9.26259346e-003, -7.50467926e-002,
          -2.01241627e-001, 7.97981024e-002, -8.17807317e-002,
          1.22339524e-001, -6.95775673e-002, -3.81639165e-016,
          -3.81639165e-016, -3.81639165e-016, -3.81639165e-016,
          -8.54485258e-002, -3.17977518e-002, -4.56840843e-002,
          -3.11153196e-002, -9.51261754e-005, -3.41456309e-002,
          -2.26673391e-002, -3.72855961e-002, -6.51649460e-002,
          -9.96359885e-002, -3.19397263e-002, 1.04224365e-002,
          -3.81639165e-016, -3.81639165e-016, -3.81639165e-016,
          -3.81639165e-016, -8.17280822e-003, -1.71975065e-002,
          -1.26872271e-001, -8.03936496e-002, 3.11041102e-002,
          3.89543325e-002, 7.47746602e-002, -7.21308682e-003,
          -6.79366887e-002, 1.01023905e-001, -1.41553745e-001,
          -5.36960065e-002, -3.81639165e-016, -3.81639165e-016,
          -3.81639165e-016, -3.81639165e-016, 9.04076770e-002,
          6.93586543e-002, -7.84061179e-002, 8.00585747e-002,
          8.87088291e-003, -8.88969749e-002, 2.33261272e-001,
          3.88321350e-005, -3.33316103e-002, 1.01867714e-003,
          -5.44266403e-002, 4.23535258e-002, -3.81639165e-016,
          -3.81639165e-016, -3.81639165e-016, -3.81639165e-016,
          -5.04121324e-003, 1.13647789e-001, 7.01595098e-002,
          -3.63085419e-002, -3.80497463e-002, -4.19260897e-002,
          -2.14820262e-002, 1.42619424e-002, -4.08548489e-002,
          7.45362341e-002, 1.16706468e-001, 9.26554278e-002,
          -3.81639165e-016, -3.81639165e-016, -3.81639165e-016,
          -3.81639165e-016, -3.26184481e-002, -5.77587970e-002,
          2.03470998e-002, -3.12611684e-002, 5.53891771e-002,
          -2.48083979e-001, -1.53762832e-001, -6.16024509e-002,
          2.00683456e-002, 8.96951333e-002, 1.77029371e-001,
          7.28393644e-002, -3.81639165e-016, -3.81639165e-016,
          -3.81639165e-016, -3.81639165e-016, 6.14702664e-002,
          -8.43043774e-002, -1.63373575e-001, -1.25905678e-001,
          -5.04465476e-002, -3.70965511e-001, -1.56979308e-001,
          4.47112396e-002, 8.64997953e-002, 1.20569885e-001,
          4.09759849e-001, 7.34171197e-002, -3.81639165e-016,
          -3.81639165e-016, -3.81639165e-016, -3.81639165e-016,
          3.92183810e-002, 3.82286794e-002, -4.44813222e-002,
          -7.01740831e-002, 7.45122731e-002, -5.37317395e-002,
          -2.78345440e-002, -2.47329548e-002, -1.19775772e-001,
          6.15111040e-003, 1.71754405e-001, -7.99999982e-002,
          -3.81639165e-016, -3.81639165e-016, -3.81639165e-016,
          -7.63468891e-002, -7.63224587e-002, 3.48250195e-002,
          -8.99998620e-002, -7.06377774e-002, 1.46070063e-001,
          2.80053228e-001, 1.31019235e-001, -1.02612255e-002,
          -5.24443462e-002, -7.28787249e-003, -2.55718231e-001,
          -3.81639165e-016, -3.81639165e-016, -3.81639165e-016,
          -3.81639165e-016, -4.54451591e-002, -4.71311919e-002,
          5.93326651e-002, 6.98304102e-002, 4.78151627e-002,
          1.11639507e-001, 1.42774254e-001, 1.37190327e-001,
          -9.92357731e-003, -1.27803594e-001, -1.16299868e-001,
          -1.64519578e-001, -3.81639165e-016, -3.81639165e-016,
          -3.81639165e-016, -3.81639165e-016, -3.81639165e-016,
          -3.53638455e-002, -1.03100292e-001, 6.65689260e-002,
          3.12940963e-002, -5.86555165e-004, 4.72707525e-002,
          1.05402499e-001, 1.01086594e-001, 5.23061631e-003,
          -6.71700314e-002, -1.87152639e-001, -3.81639165e-016,
          -3.81639165e-016, -3.81639165e-016, -3.81639165e-016,
          7.28393644e-002, 1.75086465e-002, 6.59908801e-002,
          -1.14409896e-002, 1.00418285e-001, 9.65433195e-002,
          2.51443386e-002, 7.43082911e-002, -2.18279548e-002,
          1.71868932e-002, -1.28396645e-001, -3.81639165e-016,
          -3.81639165e-016, -3.81639165e-016, -3.81639165e-016,
          -3.81639165e-016, 3.01272422e-002, 1.58682186e-002,
          -1.89125910e-002, 8.34544227e-002, 1.61720756e-002,
          2.97875870e-002, 3.67336273e-002, -1.01459980e-001,
          -1.02258109e-001, -3.81639165e-016, -3.81639165e-016,
          -3.81639165e-016, -3.81639165e-016, -3.81639165e-016,
          -3.81639165e-016, -3.81639165e-016, -3.81639165e-016,
          -3.81639165e-016, -3.81639165e-016, -3.81639165e-016,
          -3.81639165e-016, -3.81639165e-016, -3.81639165e-016,
          -3.81639165e-016, -3.81639165e-016, -3.81639165e-016,
          -3.81639165e-016, -3.81639165e-016, -3.81639165e-016,
          -3.81639165e-016 ]
      - [ 5.89805982e-016, 5.89805982e-016, 5.89805982e-016,
          5.89805982e-016, 5.89805982e-016, 5.89805982e-016,
          5.89805982e-016, 5.89805982e-016, 5.89805982e-016,
          5.89805982e-016, 5.89805982e-016, 5.89805982e-016,
          5.89805982e-016, 5.89805982e-016, 5.89805982e-016,
          5.89805982e-016, 5.89805982e-016, 5.89805982e-016,
          5.89805982e-016, 5.89805982e-016, 5.89805982e-016,
          5.89805982e-016, 5.89805982e-016, 5.89805982e-016,
          5.89805982e-016, 5.89805982e-016, 5.89805982e-016,
          5.89805982e-016, 5.89805982e-016, 5.89805982e-016,
          5.89805982e-016, 5.89805982e-016, 5.89805982e-016,
          5.89805982e-016, 5.89805982e-016, 6.08650520e-002,
          6.24215603e-003, -9.86153185e-002, -1.49047226e-001,
          -1.34156898e-001, -1.70429368e-002, -2.03907937e-001,
          1.43215835e-001, 3.48605216e-002, 2.73297161e-001,
          1.93396494e-001, -3.47541310e-002, 5.89805982e-016,
          5.89805982e-016, 5.89805982e-016, 7.99999982e-002,
          -7.45337922e-003, 1.36304528e-001, -5.46663767e-003,
          8.20789021e-003, -1.31596610e-001, 8.35856516e-003,
          -2.00079024e-001, 8.15344881e-003, 8.96073803e-002,
          1.37836933e-001, 8.27696845e-002, -3.47541310e-002,
          5.89805982e-016, 5.89805982e-016, 5.89805982e-016,
          5.89805982e-016, -2.44101752e-002, 6.99233189e-002,
          1.08489972e-002, 5.26049063e-002, 8.31326544e-002,
          -8.25087950e-002, 5.01591265e-002, 3.26960683e-002,
          5.22434413e-002, 1.03114769e-001, -1.21071422e-002,
          -3.47541310e-002, 5.89805982e-016, 5.89805982e-016,
          5.89805982e-016, 5.89805982e-016, -1.55681863e-001,
          -3.60921882e-002, 5.73872495e-003, 1.36596024e-001,
          1.04100481e-001, 1.25579149e-001, -1.57384835e-002,
          -3.67973894e-002, -2.96435893e-001, -1.39834568e-001,
          -1.25943750e-001, -1.93652678e-002, 5.89805982e-016,
          5.89805982e-016, 5.89805982e-016, 4.10256572e-002,
          -2.07772449e-001, -3.13204005e-002, -7.56739872e-003,
          3.82130705e-002, 1.00722514e-001, -1.37503333e-002,
          1.89521387e-002, 5.10662422e-002, -1.45213768e-001,
          -1.28398910e-001, 8.90817121e-003, 5.89805982e-016,
          5.89805982e-016, 5.89805982e-016, 5.89805982e-016,
          4.10256572e-002, -3.25492881e-002, 6.07534684e-002,
          -1.47575680e-002, -6.02436289e-002, 2.45938689e-001,
          -3.46847735e-002, -1.58497751e-001, -8.87678787e-002,
          -5.31880185e-002, -2.85110325e-001, -2.57452846e-001,
          5.89805982e-016, 5.89805982e-016, 5.89805982e-016,
          5.89805982e-016, 5.89805982e-016, 1.36290759e-001,
          -2.22831294e-002, 1.06881917e-001, 9.69201028e-002,
          -1.48085937e-001, 1.09216467e-001, 1.28509790e-001,
          -2.50025898e-001, -1.35789722e-001, -2.34343991e-001,
          -2.00970352e-001, 5.89805982e-016, 5.89805982e-016,
          5.89805982e-016, 5.89805982e-016, 5.89805982e-016,
          1.96201399e-001, 7.19373599e-002, 1.46529093e-001,
          -1.03915915e-001, -4.01639305e-002, -8.21976438e-002,
          -7.69006237e-002, -2.80951053e-001, -3.62014771e-001,
          -2.49424979e-001, -1.70300767e-001, 5.63303940e-002,
          5.89805982e-016, 5.89805982e-016, 5.89805982e-016,
          5.89805982e-016, 1.64644182e-001, 1.15501978e-001,
          -1.43062407e-002, 4.03303541e-002, 4.44305651e-002,
          8.21430162e-002, -1.32756531e-001, -3.15323055e-001,
          -2.52775252e-001, -1.92259461e-001, -2.03152657e-001,
          3.75753343e-002, 5.89805982e-016, 5.89805982e-016,
          5.89805982e-016, 7.72423996e-003, -2.52089538e-002,
          -6.23484934e-003, 1.10242717e-001, -6.13081688e-003,
          -8.30265321e-003, 1.23916669e-002, -3.39334272e-002,
          4.66830544e-002, -7.27769062e-002, -4.64220047e-002,
          -4.29570153e-002, 3.75753343e-002, 5.89805982e-016,
          5.89805982e-016, 5.89805982e-016, 8.73964652e-002,
          1.45322576e-001, 3.36014740e-002, 8.50270614e-002,
          4.70962338e-002, -5.72274849e-002, 4.06157598e-002,
          -1.50881737e-001, -1.20739229e-001, 5.90428412e-002,
          4.28095125e-002, 7.62625262e-002, 3.75753343e-002,
          5.89805982e-016, 5.89805982e-016, 5.89805982e-016,
          1.11428969e-001, -8.35911855e-002, -4.14261557e-002,
          7.66421333e-002, -1.33733556e-001, -2.90071545e-003,
          1.49170775e-002, 1.45137563e-001, 1.39474273e-001,
          6.13209829e-002, 1.99884757e-001, 9.57905576e-002,
          3.75753343e-002, 5.89805982e-016, 5.89805982e-016,
          5.89805982e-016, 3.39092836e-002, -1.31308138e-001,
          -1.33370697e-001, -1.19321994e-001, -1.60164788e-001,
          5.63722625e-002, 1.28442392e-001, 1.12768300e-001,
          3.00609827e-001, 2.74065942e-001, 3.06600958e-001,
          1.09166786e-001, 5.89805982e-016, 5.89805982e-016,
          5.89805982e-016, 5.89805982e-016, 5.89805982e-016,
          5.89805982e-016, 5.89805982e-016, 5.89805982e-016,
          5.89805982e-016, 5.89805982e-016, 5.89805982e-016,
          5.89805982e-016, 5.89805982e-016, 5.89805982e-016,
          5.89805982e-016, 5.89805982e-016, 5.89805982e-016,
          5.89805982e-016 ]
      - [ -8.74300632e-016, -8.74300632e-016, -8.74300632e-016,
          -8.74300632e-016, -8.74300632e-016, -8.74300632e-016,
          -8.74300632e-016, -8.74300632e-016, -8.74300632e-016,
          -8.74300632e-016, -8.74300632e-016, -8.74300632e-016,
          -8.74300632e-016, -8.74300632e-016, -8.74300632e-016,
          -8.74300632e-016, -8.74300632e-016, -8.74300632e-016,
          -8.74300632e-016, -8.74300632e-016, -8.74300632e-016,
          -8.74300632e-016, -8.74300632e-016, -8.74300632e-016,
          -8.74300632e-016, -8.74300632e-016, -8.74300632e-016,
          -8.74300632e-016, -8.74300632e-016, -8.74300632e-016,
          -8.74300632e-016, -8.74300632e-016, -8.74300632e-016,
          -8.74300632e-016, -8.74300632e-016, 7.92076439e-002,
          2.09614873e-001, 4.18248475e-002, 1.81492969e-001,
          2.95940973e-002, -6.81456402e-002, -5.51744215e-002,
          7.86482170e-002, 1.56997710e-001, 2.21064970e-001,
          1.02269843e-001, -8.74300632e-016, -8.74300632e-016,
          -8.74300632e-016, -8.74300632e-016, -8.74300632e-016,
          -1.02050034e-002, -8.63037538e-003, 1.21356100e-001,
          1.73370093e-001, -1.47126511e-001, 1.05164215e-001,
          -1.11422814e-001, -7.66891893e-003, 9.27348062e-002,
          2.04447612e-001, 9.59417075e-002, 2.86070164e-002,
          -8.74300632e-016, -8.74300632e-016, -8.74300632e-016,
          -8.74300632e-016, 5.77947721e-002, 6.69909790e-002,
          -3.46977003e-002, 7.89103806e-002, 2.18716189e-001,
          -7.58694038e-002, -8.71280581e-002, 1.33002121e-002,
          4.62568477e-002, 1.44149557e-001, -8.71695206e-002,
          2.86070164e-002, -8.74300632e-016, -8.74300632e-016,
          -8.74300632e-016, -8.74300632e-016, 5.32065593e-002,
          2.13055331e-002, -3.27657461e-002, 1.22849047e-001,
          -1.24234483e-002, 9.26007554e-002, 1.79823413e-002,
          1.30207658e-001, -6.15959987e-002, -1.10963173e-001,
          -2.07615420e-002, -7.99999982e-002, -8.74300632e-016,
          -8.74300632e-016, -8.74300632e-016, -8.74300632e-016,
          -2.67934408e-002, -3.47642303e-002, 2.10222244e-001,
          2.25653797e-001, 2.12407470e-001, -9.97439586e-003,
          2.53848508e-002, -1.03707816e-002, -1.56717926e-001,
          4.47279885e-002, -1.79739967e-001, -4.24708985e-002,
          -8.74300632e-016, -8.74300632e-016, -8.74300632e-016,
          -8.74300632e-016, 1.11258112e-001, -1.36293590e-001,
          5.63749596e-002, -9.97591987e-002, 5.99944673e-004,
          -1.37895336e-002, 7.95709193e-002, 1.16786726e-001,
          9.07996595e-002, -1.97197795e-001, -2.61266708e-001,
          -8.74300632e-016, -8.74300632e-016, -8.74300632e-016,
          -8.74300632e-016, -8.74300632e-016, 9.93265733e-002,
          -2.10914239e-001, -7.56278262e-002, 2.55792383e-002,
          6.83392063e-002, -2.33145878e-002, 2.30913699e-001,
          -4.22938429e-002, -7.33913556e-002, -5.60562201e-002,
          6.81752921e-004, -8.74300632e-016, -8.74300632e-016,
          -8.74300632e-016, -8.74300632e-016, -8.74300632e-016,
          -2.25714356e-001, -1.14337750e-001, -9.41992849e-002,
          -1.69818357e-001, 1.41105592e-001, 1.50174588e-001,
          1.49648249e-001, -1.64139122e-001, -2.19343856e-001,
          -2.44567901e-001, -1.19140647e-001, -8.74300632e-016,
          -8.74300632e-016, -8.74300632e-016, -8.74300632e-016,
          -8.74300632e-016, -9.39057171e-002, 1.38144940e-001,
          1.28187105e-001, -3.48602384e-002, -2.77140383e-002,
          2.05717698e-001, -2.30821460e-001, -3.70451361e-001,
          -4.84509736e-001, -2.13948324e-001, -3.39979917e-001,
          -8.74300632e-016, -8.74300632e-016, -8.74300632e-016,
          -8.74300632e-016, -1.00468382e-001, 2.20535905e-003,
          -1.24822274e-001, 8.23908672e-002, 7.39348456e-002,
          -4.76254895e-002, -9.13553238e-002, -3.33500355e-001,
          -4.90011483e-001, -4.04430568e-001, -1.54959425e-001,
          -2.70812273e-001, -8.74300632e-016, -8.74300632e-016,
          -8.74300632e-016, -8.74300632e-016, -5.84696755e-002,
          2.66966075e-002, 8.19556564e-002, -6.53343201e-002,
          1.31334320e-001, 1.64775431e-001, -1.92309290e-001,
          -4.81303364e-001, -2.79560387e-001, -1.07766747e-001,
          1.05126025e-002, -1.59318253e-001, -8.74300632e-016,
          -8.74300632e-016, -8.74300632e-016, -8.74300632e-016,
          4.23137145e-003, -7.20897987e-002, -3.87860946e-002,
          -5.04234293e-003, -3.43056768e-002, -8.35347325e-002,
          -1.53953165e-001, -2.87509590e-001, -4.06126857e-001,
          -3.60565066e-001, -1.59318253e-001, -8.74300632e-016,
          -8.74300632e-016, -8.74300632e-016, -8.74300632e-016,
          -8.74300632e-016, 2.53122933e-002, 5.59722669e-002,
          -1.71832904e-001, 3.25465836e-002, -1.09431058e-001,
          -2.31078416e-001, -2.02134601e-003, -2.20304921e-001,
          -7.93182477e-002, -8.74300632e-016, -8.74300632e-016,
          -8.74300632e-016, -8.74300632e-016, -8.74300632e-016,
          -8.74300632e-016, -8.74300632e-016, -8.74300632e-016,
          -8.74300632e-016, -8.74300632e-016, -8.74300632e-016,
          -8.74300632e-016, -8.74300632e-016, -8.74300632e-016,
          -8.74300632e-016, -8.74300632e-016, -8.74300632e-016,
          -8.74300632e-016, -8.74300632e-016, -8.74300632e-016,
          -8.74300632e-016 ]
      - [ -8.32667268e-017, -8.32667268e-017, -8.32667268e-017,
          -8.32667268e-017, -8.32667268e-017, -8.32667268e-017,
          -8.32667268e-017, -8.32667268e-017, -8.32667268e-017,
          -8.32667268e-017, -8.32667268e-017, -8.32667268e-017,
          -8.32667268e-017, -8.32667268e-017, -8.32667268e-017,
          -8.32667268e-017, -8.32667268e-017, -8.32667268e-017,
          -8.32667268e-017, -8.32667268e-017, -8.32667268e-017,
          -8.32667268e-017, -8.32667268e-017, -8.32667268e-017,
          -8.32667268e-017, -8.32667268e-017, -8.32667268e-017,
          -8.32667268e-017, -8.32667268e-017, -8.32667268e-017,
          -8.32667268e-017, -8.32667268e-017, -8.32667268e-017,
          -8.32667268e-017, -8.32667268e-017, -1.34436846e-001,
          -1.06091313e-001, -1.72674105e-001, -4.48152274e-001,
          -5.75949736e-002, -1.09622091e-001, -1.08394455e-002,
          1.65229112e-001, 9.56934318e-002, 2.06936181e-001,
          -8.32667268e-017, -8.32667268e-017, -8.32667268e-017,
          -8.32667268e-017, -8.32667268e-017, -8.32667268e-017,
          -1.23712696e-001, -1.52409330e-001, -1.34553075e-001,
          -9.14047435e-002, -1.94082931e-001, 2.44800374e-001,
          -2.19768118e-002, 3.51386666e-002, 6.92018121e-002,
          1.89496607e-001, 3.33771370e-002, -8.32667268e-017,
          -8.32667268e-017, -8.32667268e-017, -8.32667268e-017,
          -8.32667268e-017, -8.32667268e-017, 5.38158789e-002,
          -1.03894144e-001, 7.61288160e-004, -1.44916913e-002,
          -3.54188122e-002, -2.20036004e-002, 1.69138923e-001,
          -3.12933065e-002, 9.46700945e-002, -4.35734183e-001,
          4.20211703e-002, -8.32667268e-017, -8.32667268e-017,
          -8.32667268e-017, -8.32667268e-017, 4.28715684e-002,
          8.96898955e-002, -1.65533274e-001, 1.00111187e-001,
          -2.13506460e-001, -1.16929129e-001, -5.78166246e-002,
          -1.98401704e-001, -1.12591296e-001, -2.50301301e-001,
          -2.53476113e-001, -7.99999982e-002, -8.32667268e-017,
          -8.32667268e-017, -8.32667268e-017, 7.99999982e-002,
          -5.02400361e-002, 1.06255859e-001, 2.15175554e-001,
          -1.28699737e-002, 4.16318476e-002, -1.69018984e-001,
          -7.44420066e-002, 7.71884574e-004, -3.47099513e-001,
          -1.89359963e-001, -1.37630180e-001, -1.57503679e-001,
          -8.32667268e-017, -8.32667268e-017, -8.32667268e-017,
          -8.32667268e-017, 1.10961571e-001, 2.60848761e-001,
          1.86116807e-002, 1.91005573e-001, -1.49008885e-001,
          -3.10870439e-001, -3.74813348e-001, -2.31440783e-001,
          -2.74585426e-001, -5.86831756e-003, -1.56367615e-001,
          -8.32667268e-017, -8.32667268e-017, -8.32667268e-017,
          -8.32667268e-017, 4.40404192e-002, 3.19470435e-001,
          9.21324492e-002, 2.45148435e-001, 4.82327379e-002,
          -1.00785412e-001, -2.36954406e-001, -1.40118301e-001,
          1.34467036e-001, 8.94216448e-002, 2.51350347e-002,
          1.48175612e-001, -8.32667268e-017, -8.32667268e-017,
          -8.32667268e-017, -8.32667268e-017, -8.32667268e-017,
          1.96316168e-001, 9.42401066e-002, -2.28504688e-001,
          -3.21825355e-001, 4.03772183e-002, 1.02331899e-001,
          1.68405116e-001, 2.30851963e-001, -1.11478465e-002,
          -1.56697050e-001, 1.09585896e-002, -6.26600161e-002,
          -8.32667268e-017, -8.32667268e-017, -8.32667268e-017,
          2.31572427e-002, 3.41965556e-001, 1.35722220e-001,
          1.61002517e-001, 1.60516664e-001, -8.48572701e-002,
          1.79583684e-001, 1.76753297e-001, 9.87501293e-002,
          -1.54551014e-001, -1.31921634e-001, -2.12494969e-001,
          -8.32667268e-017, -8.32667268e-017, -8.32667268e-017,
          -8.32667268e-017, -5.46757430e-002, 1.81048647e-001,
          3.10551878e-002, -1.02254145e-001, 1.18357934e-001,
          -4.50343639e-002, 7.87079707e-002, 1.52302161e-001,
          4.31642458e-002, 2.32545864e-002, -1.21552892e-001,
          -1.43267334e-001, -8.32667268e-017, -8.32667268e-017,
          -8.32667268e-017, -8.32667268e-017, 4.20211703e-002,
          -4.21860404e-002, -8.56501609e-002, 9.02553648e-002,
          8.51473436e-002, 1.67266488e-001, -7.73839280e-002,
          4.62245941e-002, -4.70678583e-002, -3.02319415e-002,
          -1.00800715e-001, -5.87389134e-002, -8.32667268e-017,
          -8.32667268e-017, -8.32667268e-017, -8.32667268e-017,
          -8.32667268e-017, -1.98684275e-001, -1.53857738e-001,
          1.43881366e-001, 8.53392780e-002, 8.14546719e-002,
          8.87975171e-002, 2.44831905e-001, 1.04072750e-001,
          1.13184385e-001, 5.01372442e-002, 7.53714815e-002,
          -8.32667268e-017, -8.32667268e-017, -8.32667268e-017,
          -8.32667268e-017, -8.32667268e-017, -1.32815868e-001,
          -3.12362969e-001, -1.02662519e-001, -8.96633193e-002,
          1.00231105e-002, 1.54814750e-001, 3.42382453e-002,
          -7.86763430e-002, 1.17364107e-002, 4.50363569e-002,
          4.50363569e-002, -8.32667268e-017, -8.32667268e-017,
          -8.32667268e-017, -8.32667268e-017, -8.32667268e-017,
          -8.32667268e-017, -8.32667268e-017, -8.32667268e-017,
          -8.32667268e-017, -8.32667268e-017, -8.32667268e-017,
          -8.32667268e-017, -8.32667268e-017, -8.32667268e-017,
          -8.32667268e-017, -8.32667268e-017, -8.32667268e-017,
          -8.32667268e-017 ]
      - [ -7.28583860e-016, -7.28583860e-016, -7.28583860e-016,
          -7.28583860e-016, -7.28583860e-016, -7.28583860e-016,
          -7.28583860e-016, -7.28583860e-016, -7.28583860e-016,
          -7.28583860e-016, -7.28583860e-016, -7.28583860e-016,
          -7.28583860e-016, -7.28583860e-016, -7.28583860e-016,
          -7.28583860e-016, -7.28583860e-016, -7.28583860e-016,
          -7.28583860e-016, -7.28583860e-016, -7.28583860e-016,
          -7.28583860e-016, -7.28583860e-016, -7.28583860e-016,
          -7.28583860e-016, -7.28583860e-016, -7.28583860e-016,
          -7.28583860e-016, -7.28583860e-016, -7.28583860e-016,
          -7.28583860e-016, -7.28583860e-016, -7.28583860e-016,
          -7.28583860e-016, 3.06150578e-002, -6.91046417e-002,
          -2.89682951e-002, -8.67999438e-003, 4.21363860e-003,
          -9.75722000e-002, -2.82069057e-001, -2.09255908e-002,
          9.14321020e-002, 1.37193143e-001, 2.52680331e-001,
          3.31704587e-001, -4.43294309e-002, -7.28583860e-016,
          -7.28583860e-016, -7.28583860e-016, 3.18643898e-002,
          7.11515397e-002, 9.45886597e-003, 3.61917354e-002,
          1.97671711e-001, -4.75021973e-002, -2.03268632e-001,
          -3.27288359e-002, -2.91061662e-002, -1.25554129e-002,
          1.08727990e-002, 1.24087960e-001, -4.43294309e-002,
          -7.28583860e-016, -7.28583860e-016, -7.28583860e-016,
          3.06150578e-002, 2.15821271e-003, -9.40558687e-002,
          9.52877551e-002, 1.15999974e-001, 9.40925702e-002,
          -1.33459987e-002, -2.54939675e-001, 1.30493976e-002,
          -4.63232473e-002, -6.11849762e-002, -1.58718988e-001,
          -4.43294309e-002, -7.28583860e-016, -7.28583860e-016,
          -7.28583860e-016, 3.06150578e-002, 1.90547362e-001,
          -1.45784225e-002, 2.22571893e-003, -2.96401512e-003,
          9.89347231e-003, -5.72322980e-002, -9.40348208e-002,
          4.11400087e-002, 8.67657363e-002, 8.57751593e-002,
          -2.24686638e-001, -7.28583860e-016, -7.28583860e-016,
          -7.28583860e-016, -7.28583860e-016, 1.10615060e-001,
          9.46169868e-002, -1.12236533e-002, 1.15823478e-001,
          2.86531961e-003, -4.94335638e-003, -1.99275687e-001,
          1.28707841e-001, 1.35954633e-001, -7.63528123e-002,
          -1.06438287e-002, -1.74438462e-001, -1.32972687e-001,
          -7.28583860e-016, -7.28583860e-016, -7.28583860e-016,
          1.10615060e-001, 8.36873055e-002, 6.60974309e-002,
          1.59248896e-002, 6.75019622e-002, 2.44165868e-001,
          -1.78242058e-001, -1.32417446e-002, 1.65598646e-001,
          1.05353661e-001, 2.05682311e-002, -1.14683835e-002,
          -7.28583860e-016, -7.28583860e-016, -7.28583860e-016,
          -7.28583860e-016, 3.06150578e-002, 1.96441431e-002,
          -4.81600761e-002, -1.46741822e-001, 1.42707422e-001,
          9.59585905e-002, 7.59318545e-002, -4.36497910e-004,
          -5.86187430e-002, -1.39181361e-001, 1.91144377e-001,
          3.22834134e-001, -7.28583860e-016, -7.28583860e-016,
          -7.28583860e-016, -7.28583860e-016, 3.06150578e-002,
          2.56531257e-002, 1.87363163e-001, -8.46978948e-002,
          -1.18544549e-001, 7.88378194e-002, 1.53178386e-002,
          1.22971959e-001, -1.30851194e-002, -1.76309690e-001,
          -6.81086928e-002, -3.06834094e-002, -5.28154112e-002,
          -7.28583860e-016, -7.28583860e-016, -7.28583860e-016,
          3.06150578e-002, 5.86898066e-002, 2.68437684e-001,
          -1.75670478e-002, 8.41933209e-003, 2.33611185e-002,
          2.48196170e-001, -1.17929345e-002, 1.58646293e-002,
          -1.56945378e-001, -2.35132590e-001, -4.42274988e-001,
          -7.28583860e-016, -7.28583860e-016, -7.28583860e-016,
          -7.28583860e-016, 8.66161063e-002, -8.59292001e-002,
          1.15551963e-001, 1.14885226e-001, 2.30742544e-001,
          -3.66669409e-002, -9.54694748e-002, 2.12677777e-001,
          6.32049069e-002, -2.24118382e-002, -1.63869575e-001,
          -2.72567242e-001, -7.28583860e-016, -7.28583860e-016,
          -7.28583860e-016, -7.28583860e-016, -6.44228014e-004,
          3.62573005e-002, -7.18711913e-002, 1.40001951e-002,
          -7.00763538e-002, 5.71640991e-002, -4.04433608e-002,
          1.42798916e-001, -2.80708410e-002, 5.66450320e-002,
          6.61332011e-002, 9.76383835e-002, -7.28583860e-016,
          -7.28583860e-016, -7.28583860e-016, -7.28583860e-016,
          2.64306925e-002, -1.05708994e-001, -9.25889015e-002,
          -1.25209004e-001, -1.75088942e-001, 1.43365050e-002,
          -1.63358182e-001, 2.20604334e-002, 1.13908701e-001,
          1.19138688e-001, 1.27032965e-001, 2.52040684e-001,
          -7.28583860e-016, -7.28583860e-016, -7.28583860e-016,
          -7.28583860e-016, 3.06150578e-002, 2.12992937e-003,
          -6.89292401e-002, -3.25276479e-002, -2.85979092e-001,
          -5.47058415e-003, -7.48155033e-003, -2.97024883e-002,
          1.26520500e-001, 2.46464521e-001, 1.18051603e-001,
          1.18051603e-001, -7.28583860e-016, -7.28583860e-016,
          -7.28583860e-016, -7.28583860e-016, -7.28583860e-016,
          -7.28583860e-016, -7.28583860e-016, -7.28583860e-016,
          -7.28583860e-016, -7.28583860e-016, -7.28583860e-016,
          -7.28583860e-016, -7.28583860e-016, -7.28583860e-016,
          -7.28583860e-016, -7.28583860e-016, -7.28583860e-016,
          -7.28583860e-016 ]
      - [ -8.18789481e-016, -8.18789481e-016, -8.18789481e-016,
          -8.18789481e-016, -8.18789481e-016, -8.18789481e-016,
          -8.18789481e-016, -8.18789481e-016, -8.18789481e-016,
          -8.18789481e-016, -8.18789481e-016, -8.18789481e-016,
          -8.18789481e-016, -8.18789481e-016, -8.18789481e-016,
          -8.18789481e-016, -8.18789481e-016, -8.18789481e-016,
          -8.18789481e-016, -8.18789481e-016, -8.18789481e-016,
          -8.18789481e-016, -8.18789481e-016, -8.18789481e-016,
          -8.18789481e-016, -8.18789481e-016, -8.18789481e-016,
          -8.18789481e-016, -8.18789481e-016, -8.18789481e-016,
          -8.18789481e-016, -8.18789481e-016, -8.18789481e-016,
          -8.18789481e-016, -8.18789481e-016, -6.21419698e-002,
          8.86454657e-002, -1.57809164e-003, 1.15342826e-001,
          2.91863587e-002, -1.39322564e-001, -1.26979336e-001,
          6.01829961e-002, -1.03448987e-001, 1.40444145e-001,
          1.79592222e-001, -1.73833296e-002, -8.18789481e-016,
          -8.18789481e-016, -8.18789481e-016, -8.18789481e-016,
          -2.88863853e-002, 3.61959785e-002, 2.18192279e-001,
          6.56787977e-002, -2.77571343e-002, 2.40246672e-002,
          -1.66400324e-003, 3.98411565e-002, -2.46700078e-001,
          -1.37417570e-001, -1.45659922e-002, -1.73833296e-002,
          -8.18789481e-016, -8.18789481e-016, -8.18789481e-016,
          -8.18789481e-016, -6.21419698e-002, 4.29180190e-002,
          1.96156856e-002, 3.52760069e-002, 1.50928706e-001,
          8.43656808e-002, -5.78230806e-002, 7.35945255e-002,
          -5.04036471e-002, 1.07634187e-001, -2.60736883e-001,
          4.69994247e-002, -8.18789481e-016, -8.18789481e-016,
          -8.18789481e-016, -8.18789481e-016, 5.90493828e-002,
          -4.60528955e-002, -1.50107905e-001, 9.67680588e-002,
          -1.11053055e-002, 7.91932493e-002, 2.00396568e-001,
          2.32515499e-001, 7.46650994e-002, -1.50656670e-001,
          -1.44259647e-001, 4.85362820e-002, -8.18789481e-016,
          -8.18789481e-016, -8.18789481e-016, -8.18789481e-016,
          -2.09506173e-002, -4.76237126e-002, 6.96285591e-002,
          -7.30392262e-002, 1.18252434e-001, 4.04826626e-002,
          5.23096547e-002, 1.12552168e-002, 2.21012328e-002,
          -2.84876302e-003, -2.23699421e-001, -8.18789481e-016,
          -8.18789481e-016, -8.18789481e-016, -8.18789481e-016,
          -8.18789481e-016, 6.13521636e-002, 3.86576876e-002,
          1.27827907e-002, 9.42064375e-002, 1.24379024e-001,
          -1.07862987e-001, -1.81096688e-001, 1.24287680e-001,
          1.11932822e-001, -1.13074586e-001, -1.73605680e-001,
          -8.18789481e-016, -8.18789481e-016, -8.18789481e-016,
          -8.18789481e-016, -8.18789481e-016, 6.13521636e-002,
          -1.07073829e-001, -1.47569507e-001, -4.47804928e-002,
          2.81431004e-002, -5.85631020e-002, -1.26261145e-001,
          9.70620215e-002, -6.07689507e-002, -2.61631101e-001,
          -6.21419698e-002, -8.18789481e-016, -8.18789481e-016,
          -8.18789481e-016, -8.18789481e-016, -8.18789481e-016,
          -1.86478347e-002, 1.60743892e-001, -1.27105247e-002,
          -1.38742372e-001, -5.87151852e-003, 2.09489852e-001,
          -3.83760333e-002, -2.75590420e-001, -2.68210202e-001,
          -2.48166203e-001, -2.12784067e-001, -8.18789481e-016,
          -8.18789481e-016, -8.18789481e-016, -8.18789481e-016,
          -8.18789481e-016, 1.42712006e-002, -1.18458755e-001,
          1.01388380e-001, -2.89645083e-002, -2.48539988e-002,
          4.11697119e-001, -1.47872016e-001, -2.83277810e-001,
          -2.35594630e-001, -2.36663148e-001, -2.74926037e-001,
          -8.18789481e-016, -8.18789481e-016, -8.18789481e-016,
          -8.18789481e-016, -7.99999982e-002, -1.23442046e-001,
          6.34810925e-002, -3.12404335e-002, 5.23936152e-002,
          1.28394857e-001, -1.95152475e-003, -1.49126232e-001,
          -3.27406585e-001, -3.15161914e-001, -2.15500414e-001,
          -1.90903664e-001, -8.18789481e-016, -8.18789481e-016,
          -8.18789481e-016, -8.18789481e-016, 3.02586914e-003,
          -1.43972049e-002, 1.40218705e-001, 1.78312555e-001,
          1.57178611e-001, 4.57802936e-002, 6.09573014e-002,
          -2.21091077e-001, -1.55603394e-001, -1.08764991e-001,
          -2.30700865e-001, -6.21419698e-002, -8.18789481e-016,
          -8.18789481e-016, -8.18789481e-016, -8.18789481e-016,
          -3.16034816e-002, 1.89931970e-002, -1.35717746e-002,
          5.15152626e-002, 1.70548812e-001, 1.34028673e-001,
          8.39611806e-004, 5.44232205e-002, -1.56300783e-001,
          -8.72646570e-002, 9.78580341e-002, 1.59999996e-001,
          7.99999982e-002, -8.18789481e-016, -8.18789481e-016,
          -8.18789481e-016, -8.18789481e-016, 5.29471450e-002,
          1.20107988e-002, 2.46454347e-002, -3.96546982e-002,
          -1.02056563e-002, 1.16885938e-001, 1.11169638e-002,
          3.17699313e-001, 1.21864982e-001, 4.18649837e-002,
          -8.18789481e-016, -8.18789481e-016, -8.18789481e-016,
          -8.18789481e-016, -8.18789481e-016, -8.18789481e-016,
          -8.18789481e-016, -8.18789481e-016, -8.18789481e-016,
          -8.18789481e-016, -8.18789481e-016, -8.18789481e-016,
          -8.18789481e-016, -8.18789481e-016, -8.18789481e-016,
          -8.18789481e-016, -8.18789481e-016, -8.18789481e-016,
          -8.18789481e-016 ]
      - [ -9.02056208e-017, -9.02056208e-017, -9.02056208e-017,
          -9.02056208e-017, -9.02056208e-017, -9.02056208e-017,
          -9.02056208e-017, -9.02056208e-017, -9.02056208e-017,
          -9.02056208e-017, -9.02056208e-017, -9.02056208e-017,
          -9.02056208e-017, -9.02056208e-017, -9.02056208e-017,
          -9.02056208e-017, -9.02056208e-017, -9.02056208e-017,
          -9.02056208e-017, -9.02056208e-017, -9.02056208e-017,
          -9.02056208e-017, -9.02056208e-017, -9.02056208e-017,
          -9.02056208e-017, -9.02056208e-017, -9.02056208e-017,
          -9.02056208e-017, -9.02056208e-017, -9.02056208e-017,
          -9.02056208e-017, -9.02056208e-017, -9.02056208e-017,
          -9.02056208e-017, -9.02056208e-017, -1.06301092e-001,
          -4.75940630e-002, 7.87919089e-002, -7.07838386e-002,
          5.34556843e-002, -8.29650760e-002, 6.10166341e-002,
          7.36437878e-003, 4.80041169e-002, 1.69252396e-001,
          3.01088482e-001, -5.51459566e-002, -9.02056208e-017,
          -9.02056208e-017, -9.02056208e-017, -9.02056208e-017,
          -6.56238645e-002, 4.35062274e-002, -9.55172107e-002,
          1.10863574e-001, -1.02104256e-002, 3.89204510e-002,
          8.03485978e-003, -2.72594560e-002, -1.42518237e-001,
          -2.72700399e-001, -1.01536632e-001, -5.51459566e-002,
          -9.02056208e-017, -9.02056208e-017, -9.02056208e-017,
          -9.02056208e-017, 1.66664645e-002, 2.58632526e-002,
          -1.63314894e-001, 9.18266773e-002, 3.84272523e-002,
          -4.96441796e-002, -4.54671010e-002, 1.35539815e-001,
          -8.04060102e-002, 8.23548362e-002, -1.66358143e-001,
          -5.51459566e-002, -9.02056208e-017, -9.02056208e-017,
          -9.02056208e-017, -9.02056208e-017, 1.79139078e-002,
          -1.43263742e-001, -9.29404199e-002, 9.74334404e-002,
          -1.95383310e-001, -2.11091682e-001, 1.80555195e-001,
          1.83815025e-002, 7.43756443e-002, -1.44884646e-001,
          -3.07678849e-001, -9.02056208e-017, -9.02056208e-017,
          -9.02056208e-017, -9.02056208e-017, -9.02056208e-017,
          -5.72118610e-002, -6.41321391e-002, 1.30800586e-002,
          -1.19358838e-001, 5.83954528e-002, -1.00981161e-001,
          1.35236764e-002, -1.50641575e-002, -2.76306998e-002,
          4.33806218e-002, -1.94800362e-001, -1.16613194e-001,
          -9.02056208e-017, -9.02056208e-017, -9.02056208e-017,
          -9.02056208e-017, -1.19341515e-001, -9.24680904e-002,
          -4.14034538e-002, -2.50536710e-001, -3.28399569e-001,
          -2.23494619e-001, -2.26981893e-001, -8.47782493e-002,
          2.09438190e-001, -5.67184798e-002, 1.73464343e-001,
          -9.02056208e-017, -9.02056208e-017, -9.02056208e-017,
          -9.02056208e-017, -9.02056208e-017, -1.81924284e-001,
          -2.52989978e-001, -2.52585262e-001, -5.90479933e-002,
          -2.58957267e-001, -2.76352018e-001, -1.33636191e-001,
          5.92414960e-002, -6.25631120e-003, 3.01551986e-002,
          2.11792111e-001, -9.02056208e-017, -9.02056208e-017,
          -9.02056208e-017, -9.02056208e-017, -9.02056208e-017,
          -5.86390905e-002, 1.10867001e-001, -2.25491270e-001,
          -2.60242879e-001, 1.17088236e-001, 3.04446042e-001,
          9.44408700e-002, -8.42284635e-002, -1.33497477e-001,
          -1.08014494e-001, 2.71960255e-002, -7.99999982e-002,
          -9.02056208e-017, -9.02056208e-017, -9.02056208e-017,
          -9.02056208e-017, 6.21490628e-002, 1.90491110e-001,
          2.46424545e-002, -1.54179300e-003, 1.95790365e-001,
          3.55311453e-001, 1.41951591e-001, 2.59675123e-002,
          -9.79695320e-002, -8.19663480e-002, -1.59105062e-001,
          -9.02056208e-017, -9.02056208e-017, -9.02056208e-017,
          -9.02056208e-017, 6.50330335e-002, 1.45230532e-001,
          -8.42109248e-002, 1.87427744e-001, 8.55892822e-002,
          1.31164200e-003, 3.05801351e-002, -5.45840301e-002,
          -8.08794573e-002, -7.34699294e-002, -1.22460350e-001,
          -2.58794248e-001, -9.02056208e-017, -9.02056208e-017,
          -9.02056208e-017, -9.02056208e-017, 9.32911560e-002,
          1.18729293e-001, 7.14066699e-002, 2.66461223e-001,
          7.02844411e-002, -1.21035561e-001, 1.34595251e-002,
          -1.03335813e-001, -1.13396406e-001, -4.87358607e-002,
          -1.03392810e-001, -7.80474991e-002, -9.02056208e-017,
          -9.02056208e-017, -9.02056208e-017, 4.14412133e-002,
          7.39013851e-002, 1.81786329e-001, 1.56738162e-001,
          1.47428915e-001, 8.92274752e-002, 1.45306394e-001,
          5.23174740e-002, 1.05648460e-002, 7.24823447e-003,
          -5.89953400e-002, -1.18243340e-002, -9.02056208e-017,
          -9.02056208e-017, -9.02056208e-017, -9.02056208e-017,
          8.66143256e-002, 1.46334648e-001, 5.88387400e-002,
          -7.36209229e-002, -6.90997988e-002, -1.06944248e-001,
          4.22751755e-002, -1.07850820e-001, 3.95076238e-002,
          -9.02056208e-017, -3.93834040e-002, -9.02056208e-017,
          -9.02056208e-017, -9.02056208e-017, -9.02056208e-017,
          -9.02056208e-017, -9.02056208e-017, -9.02056208e-017,
          -9.02056208e-017, -9.02056208e-017, -9.02056208e-017,
          -9.02056208e-017, -9.02056208e-017, -9.02056208e-017,
          -9.02056208e-017, -9.02056208e-017, -9.02056208e-017,
          -9.02056208e-017, -9.02056208e-017, -9.02056208e-017,
          -9.02056208e-017 ]
      - [ -1.24900090e-016, -1.24900090e-016, -1.24900090e-016,
          -1.24900090e-016, -1.24900090e-016, -1.24900090e-016,
          -1.24900090e-016, -1.24900090e-016, -1.24900090e-016,
          -1.24900090e-016, -1.24900090e-016, -1.24900090e-016,
          -1.24900090e-016, -1.24900090e-016, -1.24900090e-016,
          -1.24900090e-016, -1.24900090e-016, -1.24900090e-016,
          -1.24900090e-016, -1.24900090e-016, -1.24900090e-016,
          -1.24900090e-016, -1.24900090e-016, -1.24900090e-016,
          -1.24900090e-016, -1.24900090e-016, -1.24900090e-016,
          -1.24900090e-016, -1.24900090e-016, -1.24900090e-016,
          -1.24900090e-016, -1.24900090e-016, -1.24900090e-016,
          -1.24900090e-016, -1.24900090e-016, 1.84681136e-002,
          5.43341525e-002, 2.57495165e-001, 4.42687154e-001,
          3.41641456e-002, 9.40327719e-002, 6.22523241e-002,
          -1.74909696e-001, -3.96145023e-002, -1.83560833e-001,
          -4.09303159e-002, -1.24900090e-016, -1.24900090e-016,
          -1.24900090e-016, -1.24900090e-016, 7.99999982e-002,
          2.23635867e-001, 2.75239974e-001, 8.69368240e-002,
          6.25246484e-003, 1.35471551e-002, 2.88361143e-002,
          -1.18185254e-002, -9.88284200e-002, -7.97352120e-002,
          -2.14596495e-001, -1.75950870e-001, -1.24900090e-016,
          -1.24900090e-016, -1.24900090e-016, -1.24900090e-016,
          7.99999982e-002, 1.03193773e-002, 7.85020888e-002,
          9.08168852e-002, 6.94615347e-003, 1.13686658e-002,
          2.37532511e-001, 2.86492184e-002, -6.55517504e-002,
          -1.32380009e-001, -3.23499069e-002, -7.74491951e-002,
          -2.98610572e-002, -1.24900090e-016, -1.24900090e-016,
          -1.24900090e-016, -1.24900090e-016, 7.00398013e-002,
          -8.05477612e-003, -9.31917578e-002, 1.18885459e-002,
          -2.86432393e-002, 7.94898123e-002, -5.52253835e-002,
          -1.84792131e-001, -4.34234478e-002, -6.08190075e-002,
          2.77417541e-001, -1.24900090e-016, -1.24900090e-016,
          -1.24900090e-016, -1.24900090e-016, -1.56724736e-001,
          1.14575885e-001, 2.49213967e-002, -9.79051217e-002,
          -1.25024086e-002, -1.37603521e-001, -7.04649761e-002,
          -4.19733226e-002, -6.91293553e-002, 5.21310307e-002,
          -1.30919321e-002, 2.71885395e-001, 1.99412227e-001,
          -1.24900090e-016, -1.24900090e-016, -1.24900090e-016,
          -1.24900090e-016, -1.61206499e-001, 5.88014945e-002,
          2.15719528e-002, -1.12041131e-001, -3.45106535e-002,
          2.25522742e-001, 1.44604474e-001, -1.17583625e-001,
          4.08380069e-002, 4.19169635e-001, 2.04022318e-001,
          1.32506788e-001, -1.24900090e-016, -1.24900090e-016,
          -1.24900090e-016, -4.87458035e-002, -1.64478961e-002,
          -1.75602794e-001, -2.16201916e-001, -1.67192504e-001,
          1.98053837e-001, 7.98422992e-002, 2.51419663e-001,
          2.38771826e-001, 4.53641236e-001, 1.01865344e-001,
          5.25001764e-001, 7.29390085e-002, -1.24900090e-016,
          -1.24900090e-016, -1.24900090e-016, -1.24900090e-016,
          -2.76883066e-001, -2.07461223e-001, -5.25191724e-002,
          1.02713287e-001, 8.26556012e-002, -1.32500783e-001,
          -2.91941017e-002, 5.19267797e-001, 4.23804551e-001,
          2.52507061e-001, 4.97875929e-001, -1.24900090e-016,
          -1.24900090e-016, -1.24900090e-016, -1.24900090e-016,
          -3.99348233e-003, -3.39183420e-001, -1.18031628e-001,
          -7.80905634e-002, -1.28256500e-001, 7.89834857e-002,
          -2.12478582e-002, 3.59554924e-002, 2.19191253e-001,
          2.38269851e-001, 2.73975909e-001, 2.47941852e-001,
          -1.24900090e-016, -1.24900090e-016, -1.24900090e-016,
          -1.24900090e-016, -6.11809157e-002, -6.63148016e-002,
          -3.23998146e-002, 4.67376187e-002, -2.88183279e-002,
          1.39895752e-002, 1.93266794e-002, 9.90345143e-003,
          1.11111529e-001, 3.12283281e-002, -1.34367853e-001,
          1.27719060e-001, -1.24900090e-016, -1.24900090e-016,
          -1.24900090e-016, -1.24900090e-016, 2.69660633e-002,
          4.04437892e-002, -4.70434949e-002, -3.31071988e-002,
          9.65023041e-002, -1.70492798e-001, -8.13594684e-002,
          -4.48974408e-002, 1.97321437e-002, -9.93256345e-002,
          2.04432588e-002, -1.24900090e-016, -1.24900090e-016,
          -1.24900090e-016, -1.24900090e-016, -1.24900090e-016,
          7.62105584e-002, 1.95079625e-001, 8.13266858e-002,
          -2.18273532e-002, 7.45457783e-002, -2.25326382e-002,
          7.98883587e-002, -1.40158147e-001, -1.32375509e-001,
          -7.18646422e-002, -1.24900090e-016, -1.24900090e-016,
          -1.24900090e-016, -1.24900090e-016, -1.24900090e-016,
          -1.24900090e-016, -1.24900090e-016, -1.84296146e-002,
          2.40892395e-001, 3.41815166e-002, 2.53279530e-003,
          9.38213915e-002, -7.20832273e-002, -2.13188827e-001,
          -1.24900090e-016, -1.24900090e-016, -1.24900090e-016,
          -1.24900090e-016, -1.24900090e-016, -1.24900090e-016,
          -1.24900090e-016, -1.24900090e-016, -1.24900090e-016,
          -1.24900090e-016, -1.24900090e-016, -1.24900090e-016,
          -1.24900090e-016, -1.24900090e-016, -1.24900090e-016,
          -1.24900090e-016, -1.24900090e-016, -1.24900090e-016,
          -1.24900090e-016, -1.24900090e-016, -1.24900090e-016,
          -1.24900090e-016 ]
      - [ 1.28369537e-015, 1.28369537e-015, 1.28369537e-015,
          1.28369537e-015, 1.28369537e-015, 1.28369537e-015,
          1.28369537e-015, 1.28369537e-015, 1.28369537e-015,
          1.28369537e-015, 1.28369537e-015, 1.28369537e-015,
          1.28369537e-015, 1.28369537e-015, 1.28369537e-015,
          1.28369537e-015, 1.28369537e-015, 1.28369537e-015,
          1.28369537e-015, 1.28369537e-015, 1.28369537e-015,
          1.28369537e-015, 1.28369537e-015, 1.28369537e-015,
          1.28369537e-015, 1.28369537e-015, 1.28369537e-015,
          1.28369537e-015, 1.28369537e-015, 1.28369537e-015,
          1.28369537e-015, 1.28369537e-015, 1.28369537e-015,
          1.28369537e-015, 1.28369537e-015, 1.24981754e-001,
          5.33956587e-002, 1.99883938e-001, 3.50888103e-001,
          1.22098967e-001, -6.68674558e-002, 5.93145890e-003,
          -3.81082334e-002, -3.58616002e-002, 5.09630423e-003,
          -9.43666250e-002, 1.28369537e-015, 1.28369537e-015,
          1.28369537e-015, 1.28369537e-015, 6.92379773e-002,
          1.94219738e-001, 2.79275119e-001, 6.75456300e-002,
          1.11521095e-001, -1.19304582e-002, -3.87502871e-002,
          -4.57596108e-002, 4.87476960e-002, 1.49961919e-001,
          -1.68035924e-001, 5.47826774e-002, -5.64246550e-002,
          1.28369537e-015, 1.28369537e-015, 1.28369537e-015,
          1.28369537e-015, 7.42315948e-002, 6.47375584e-002,
          7.66346231e-003, -1.86742432e-002, 1.05698965e-001,
          -1.19320080e-001, 1.21549971e-001, -1.09656125e-001,
          7.99963847e-002, -2.37989485e-001, 1.15592435e-001,
          5.65653853e-002, 1.28369537e-015, 1.28369537e-015,
          1.28369537e-015, 1.28369537e-015, -6.52642772e-002,
          -7.33599514e-002, -9.89874229e-002, 1.01800017e-001,
          -8.85399245e-003, 4.21863236e-003, -4.20213565e-002,
          -1.71510443e-001, 1.54544301e-002, -1.86995044e-001,
          1.15467131e-001, 1.28369537e-015, 1.28369537e-015,
          1.28369537e-015, 1.28369537e-015, -1.36625364e-001,
          -1.13089249e-001, -4.30288576e-002, -8.45787898e-002,
          -1.49880126e-001, -1.93813860e-001, -1.14851676e-001,
          2.05003917e-002, 1.07663825e-001, 9.33279935e-003,
          1.37840554e-001, -9.50506702e-003, 1.28369537e-015,
          1.28369537e-015, 1.28369537e-015, 1.28369537e-015,
          1.28369537e-015, -2.09597558e-001, -1.55044779e-001,
          -2.02376783e-001, 1.60072849e-003, 2.52398998e-001,
          2.64728308e-001, 3.69349092e-001, 4.53862436e-002,
          -1.61713943e-001, -2.92359628e-002, -4.04304042e-002,
          1.28369537e-015, 1.28369537e-015, 1.28369537e-015,
          1.28369537e-015, -4.54337113e-002, -4.69789505e-002,
          -1.63085327e-001, -1.14543401e-001, -7.74459243e-002,
          1.98031038e-001, 2.38514110e-001, 3.41672182e-001,
