%YAML:1.0
opencv_ml_svm:
   format: 3
   svmType: C_SVC
   kernel:
      type: LINEAR
   C: 1.0000000000000001e-001
   term_criteria: { iterations:1000 }
   var_count: 4096
   class_count: 10
   class_labels: !!opencv-matrix
      rows: 10
      cols: 1
      dt: i
      data: [ 0, 1, 2, 3, 4, 5, 6, 7, 8, 9 ]
   sv_total: 45
   support_vectors:
      - [ 4.33680869e-017, 4.33680869e-017, 4.33680869e-017,
          4.33680869e-017, 4.33680869e-017, 4.33680869e-017,
          4.33680869e-017, 4.33680869e-017, 4.33680869e-017,
          4.33680869e-017, 4.33680869e-017, 4.33680869e-017,
          4.33680869e-017, 4.33680869e-017, 4.33680869e-017,
          4.33680869e-017, 4.33680869e-017, 4.33680869e-017,
          4.33680869e-017, 4.33680869e-017, 4.33680869e-017,
          4.33680869e-017, 4.33680869e-017, 4.33680869e-017,
          4.33680869e-017, 4.33680869e-017, 4.33680869e-017,
          4.33680869e-017, 4.33680869e-017, 4.33680869e-017,
          4.33680869e-017, 4.33680869e-017, 4.33680869e-017,
          4.33680869e-017, 4.33680869e-017, 4.33680869e-017,
          4.33680869e-017, 4.33680869e-017, 4.33680869e-017,
          4.33680869e-017, 4.33680869e-017, 4.33680869e-017,
          4.33680869e-017, 4.33680869e-017, 4.33680869e-017,
          4.33680869e-017, 4.33680869e-017, 4.33680869e-017,
          4.33680869e-017, 4.33680869e-017, 4.33680869e-017,
          4.33680869e-017, 4.33680869e-017, 4.33680869e-017,
          4.33680869e-017, 4.33680869e-017, 4.33680869e-017,
          4.33680869e-017, 4.33680869e-017, 4.33680869e-017,
          4.33680869e-017, 4.33680869e-017, 4.33680869e-017,
          4.33680869e-017, 4.33680869e-017, 4.33680869e-017,
          4.33680869e-017, 4.33680869e-017, 4.33680869e-017,
          4.33680869e-017, 4.33680869e-017, 4.33680869e-017,
          4.33680869e-017, 4.33680869e-017, 4.33680869e-017,
          4.33680869e-017, 4.33680869e-017, 4.33680869e-017,
          4.33680869e-017, 4.33680869e-017, 4.33680869e-017,
          4.33680869e-017, 4.33680869e-017, 4.33680869e-017,
          4.33680869e-017, 4.33680869e-017, 4.33680869e-017,
          4.33680869e-017, 4.33680869e-017, 4.33680869e-017,
          4.33680869e-017, 4.33680869e-017, 4.33680869e-017,
          4.33680869e-017, 4.33680869e-017, 4.33680869e-017,
          4.33680869e-017, 4.33680869e-017, 4.33680869e-017,
          4.33680869e-017, 4.33680869e-017, 4.33680869e-017,
          4.33680869e-017, 4.33680869e-017, 4.33680869e-017,
          4.33680869e-017, 4.33680869e-017, 4.33680869e-017,
          4.33680869e-017, 4.33680869e-017, 4.33680869e-017,
          4.33680869e-017, 4.33680869e-017, 4.33680869e-017,
          4.33680869e-017, 4.33680869e-017, 4.33680869e-017,
          4.33680869e-017, 4.33680869e-017, 4.33680869e-017,
          4.33680869e-017, 4.33680869e-017, 4.33680869e-017,
          4.33680869e-017, 4.33680869e-017, 4.33680869e-017,
          4.33680869e-017, 4.33680869e-017, 4.33680869e-017,
          4.33680869e-017, 4.33680869e-017, 4.33680869e-017,
          4.33680869e-017, 4.33680869e-017, 4.33680869e-017,
          4.33680869e-017, 4.33680869e-017, 4.33680869e-017,
          4.33680869e-017, 4.33680869e-017, 4.33680869e-017,
          4.33680869e-017, 4.33680869e-017, 4.33680869e-017,
          4.33680869e-017, 4.33680869e-017, 4.33680869e-017,
          4.33680869e-017, 4.33680869e-017, 4.33680869e-017,
          4.33680869e-017, 4.33680869e-017, 4.33680869e-017,
          4.33680869e-017, 4.33680869e-017, 4.33680869e-017,
          4.33680869e-017, 4.33680869e-017, 4.33680869e-017,
          4.33680869e-017, 4.33680869e-017, 4.33680869e-017,
          4.33680869e-017, 4.33680869e-017, 4.33680869e-017,
          4.33680869e-017, 4.33680869e-017, 4.33680869e-017,
          4.33680869e-017, 4.33680869e-017, 4.33680869e-017,
          4.33680869e-017, 4.33680869e-017, 4.33680869e-017,
          4.33680869e-017, 4.33680869e-017, 4.33680869e-017,
          4.33680869e-017, 4.33680869e-017, 4.33680869e-017,
          4.33680869e-017, 4.33680869e-017, 4.33680869e-017,
          4.33680869e-017, 4.33680869e-017, 4.33680869e-017,
          4.33680869e-017, 4.33680869e-017, 4.33680869e-017,
          4.33680869e-017, 4.33680869e-017, 4.33680869e-017,
          4.33680869e-017, 4.33680869e-017, 4.33680869e-017,
          4.33680869e-017, 4.33680869e-017, 4.33680869e-017,
          4.33680869e-017, 4.33680869e-017, 4.33680869e-017,
          4.33680869e-017, 4.33680869e-017, 4.33680869e-017,
          4.33680869e-017, 4.33680869e-017, 4.33680869e-017,
          4.33680869e-017, 4.33680869e-017, 4.33680869e-017,
          4.33680869e-017, 4.33680869e-017, 4.33680869e-017,
          4.33680869e-017, 4.33680869e-017, 4.33680869e-017,
          4.33680869e-017, 4.33680869e-017, 4.33680869e-017,
          4.33680869e-017, 4.33680869e-017, 4.33680869e-017,
          4.33680869e-017, 4.33680869e-017, 4.33680869e-017,
          4.33680869e-017, 4.33680869e-017, 4.33680869e-017,
          4.33680869e-017, 4.33680869e-017, 4.33680869e-017,
          4.33680869e-017, 4.33680869e-017, 4.33680869e-017,
          4.33680869e-017, 4.33680869e-017, 4.33680869e-017,
          4.33680869e-017, 4.33680869e-017, 4.33680869e-017,
          4.33680869e-017, 4.33680869e-017, 4.33680869e-017,
          4.33680869e-017, 4.33680869e-017, 4.33680869e-017,
          4.33680869e-017, 4.33680869e-017, 4.33680869e-017,
          4.33680869e-017, 4.33680869e-017, 4.33680869e-017,
          4.33680869e-017, 4.33680869e-017, 4.33680869e-017,
          4.33680869e-017, 4.33680869e-017, 4.33680869e-017,
          4.33680869e-017, 4.33680869e-017, 4.33680869e-017,
          4.33680869e-017, 4.33680869e-017, 4.33680869e-017,
          4.33680869e-017, 4.33680869e-017, 4.33680869e-017,
          4.33680869e-017, 4.33680869e-017, 4.33680869e-017,
          4.33680869e-017, 4.33680869e-017, 4.33680869e-017,
          4.33680869e-017, 4.33680869e-017, 4.33680869e-017,
          4.33680869e-017, 4.33680869e-017, 4.33680869e-017,
          4.33680869e-017, 4.33680869e-017, 4.33680869e-017,
          4.33680869e-017, 4.33680869e-017, 4.33680869e-017,
          4.33680869e-017, 4.33680869e-017, 4.33680869e-017,
          4.33680869e-017, 4.33680869e-017, 4.33680869e-017,
          4.33680869e-017, 4.33680869e-017, 4.33680869e-017,
          4.33680869e-017, 4.33680869e-017, 4.33680869e-017,
          4.33680869e-017, 4.33680869e-017, 4.33680869e-017,
          4.33680869e-017, 4.33680869e-017, 4.33680869e-017,
          4.33680869e-017, 4.33680869e-017, 4.33680869e-017,
          4.33680869e-017, 4.33680869e-017, 4.33680869e-017,
          4.33680869e-017, 4.33680869e-017, 4.33680869e-017,
          4.33680869e-017, 4.33680869e-017, 4.33680869e-017,
          4.33680869e-017, 4.33680869e-017, 4.33680869e-017,
          4.33680869e-017, 4.33680869e-017, 4.33680869e-017,
          4.33680869e-017, 4.33680869e-017, 4.33680869e-017,
          4.33680869e-017, 4.33680869e-017, 4.33680869e-017,
          4.33680869e-017, 4.33680869e-017, 4.33680869e-017,
          4.33680869e-017, 4.33680869e-017, 4.33680869e-017,
          4.33680869e-017, 4.33680869e-017, 4.33680869e-017,
          4.33680869e-017, 4.33680869e-017, 4.33680869e-017,
          4.33680869e-017, 4.33680869e-017, 4.33680869e-017,
          4.33680869e-017, 4.33680869e-017, 4.33680869e-017,
          4.33680869e-017, 4.33680869e-017, 4.33680869e-017,
          4.33680869e-017, 4.33680869e-017, 4.33680869e-017,
          4.33680869e-017, 4.33680869e-017, 4.33680869e-017,
          4.33680869e-017, 4.33680869e-017, 4.33680869e-017,
          4.33680869e-017, 4.33680869e-017, 4.33680869e-017,
          4.33680869e-017, 4.33680869e-017, 4.33680869e-017,
          4.33680869e-017, 4.33680869e-017, 4.33680869e-017,
          4.33680869e-017, 4.33680869e-017, 4.33680869e-017,
          4.33680869e-017, 4.33680869e-017, 4.33680869e-017,
          4.33680869e-017, 4.33680869e-017, 4.33680869e-017,
          4.33680869e-017, 4.33680869e-017, 4.33680869e-017,
          4.33680869e-017, 4.33680869e-017, 4.33680869e-017,
          4.33680869e-017, 4.33680869e-017, 4.33680869e-017,
          4.33680869e-017, 4.33680869e-017, 4.33680869e-017,
          4.33680869e-017, 4.33680869e-017, 4.33680869e-017,
          4.33680869e-017, 4.33680869e-017, 4.33680869e-017,
          4.33680869e-017, 4.33680869e-017, 4.33680869e-017,
          4.33680869e-017, 4.33680869e-017, 4.33680869e-017,
          4.33680869e-017, 4.33680869e-017, 4.33680869e-017,
          4.33680869e-017, 4.33680869e-017, 4.33680869e-017,
          4.33680869e-017, 4.33680869e-017, 4.33680869e-017,
          4.33680869e-017, 4.33680869e-017, 4.33680869e-017,
          4.33680869e-017, 4.33680869e-017, 4.33680869e-017,
          4.33680869e-017, 4.33680869e-017, 4.33680869e-017,
          4.33680869e-017, 4.33680869e-017, 4.33680869e-017,
          4.33680869e-017, 4.33680869e-017, 4.33680869e-017,
          4.33680869e-017, 4.33680869e-017, 4.33680869e-017,
          4.33680869e-017, 4.33680869e-017, 4.33680869e-017,
          4.33680869e-017, 4.33680869e-017, 4.33680869e-017,
          4.33680869e-017, 4.33680869e-017, 4.33680869e-017,
          4.33680869e-017, 4.33680869e-017, 4.33680869e-017,
          4.33680869e-017, 4.33680869e-017, 4.33680869e-017,
          4.33680869e-017, 4.33680869e-017, 4.33680869e-017,
          4.33680869e-017, 4.33680869e-017, 4.33680869e-017,
          4.33680869e-017, 4.33680869e-017, 4.33680869e-017,
          4.33680869e-017, 4.33680869e-017, 4.33680869e-017,
          4.33680869e-017, 4.33680869e-017, 4.33680869e-017,
          4.33680869e-017, 4.33680869e-017, 4.33680869e-017,
          4.33680869e-017, 4.33680869e-017, 3.94450908e-005,
          3.94450908e-005, 3.94450908e-005, 3.94450908e-005,
          3.94450908e-005, 3.94450908e-005, 3.94450908e-005,
          3.94450908e-005, 1.99492468e-004, 1.99492468e-004,
          1.99492468e-004, 1.99492468e-004, 1.99492468e-004,
          1.99492468e-004, 1.99492468e-004, 1.99492468e-004,
          1.99492468e-004, 1.99492468e-004, 1.99492468e-004,
          1.99492468e-004, 1.99492468e-004, 3.94450908e-005,
          4.33680869e-017, 4.33680869e-017, 4.33680869e-017,
          4.33680869e-017, -2.23090569e-003, -2.23090569e-003,
          -2.23090569e-003, -2.23090569e-003, -2.23090569e-003,
          4.33680869e-017, 4.33680869e-017, 4.33680869e-017,
          4.33680869e-017, 4.33680869e-017, 4.33680869e-017,
          4.33680869e-017, 4.33680869e-017, 4.33680869e-017,
          4.33680869e-017, 4.33680869e-017, 4.33680869e-017,
          4.33680869e-017, 4.33680869e-017, 4.33680869e-017,
          4.33680869e-017, 4.33680869e-017, 4.33680869e-017,
          4.33680869e-017, 4.33680869e-017, 4.33680869e-017,
          4.33680869e-017, 4.33680869e-017, 4.33680869e-017,
          4.33680869e-017, 4.33680869e-017, 4.33680869e-017,
          4.33680869e-017, 4.33680869e-017, 2.86252494e-003,
          3.44988890e-003, 1.58622593e-003, 9.04305466e-003,
          9.46675241e-003, 1.17196115e-002, 1.81371160e-002,
          1.26165776e-002, 1.05636055e-002, 3.70033970e-003,
          5.40660229e-004, 8.41475837e-003, 1.23014376e-002,
          1.38290543e-002, 2.66337339e-002, 1.18088927e-002,
          1.66622512e-002, 2.05147304e-002, 1.17680915e-002,
          -9.74365417e-003, 1.70344883e-003, 2.00116001e-002,
          3.72521281e-002, 4.36762832e-002, 9.81664564e-003,
          1.71160884e-002, 6.51318766e-003, 3.79115716e-002,
          3.95099074e-002, 4.51510325e-002, 5.36128022e-002,
          3.70595157e-002, 3.79638299e-002, 1.04801655e-002,
          1.32636018e-002, 1.67708825e-002, 3.12551740e-003,
          1.40030710e-002, 1.16623491e-002, 9.93438903e-003,
          2.43433155e-002, 6.02813857e-003, -1.97283775e-002,
          -1.61957499e-002, -1.20668160e-002, -9.93299298e-003,
          -1.42153073e-003, 1.38128258e-003, 4.33680869e-017,
          4.33680869e-017, 4.33680869e-017, 4.33680869e-017,
          4.33680869e-017, 4.33680869e-017, 4.33680869e-017,
          4.33680869e-017, 4.33680869e-017, 4.33680869e-017,
          4.33680869e-017, 4.33680869e-017, 4.33680869e-017,
          4.33680869e-017, 4.33680869e-017, 4.33680869e-017,
          3.09602427e-003, 1.00993002e-002, 1.55426804e-002,
          1.61300451e-002, 1.44565795e-002, 1.80759300e-002,
          2.04627104e-002, 1.25302654e-002, 9.14530829e-003,
          3.65407718e-003, 8.30059778e-003, 6.94940658e-003,
          8.76405556e-003, 6.90182298e-003, 1.14005078e-002,
          5.08342497e-003, 1.90235395e-002, 1.11046359e-002,
          9.52316262e-003, 2.40511494e-003, 4.17008251e-003,
          1.69937499e-002, 1.33038275e-002, 1.92966294e-002,
          -1.31714810e-003, 2.33786851e-002, 2.31844727e-002,
          2.27883123e-002, 1.91124026e-002, 1.85286608e-002,
          9.38921329e-003, 1.17110498e-002, -8.85883253e-003,
          3.99976131e-003, 2.27130987e-002, -1.50440298e-002,
          -2.46131048e-002, -3.08110248e-002, -5.48589649e-003,
          -1.91378631e-002, 2.94023721e-005, 1.93241984e-003,
          1.31887263e-002, -7.40043353e-003, -1.13598788e-002,
          -1.71032511e-002, -1.22695388e-002, 1.38128258e-003,
          4.33680869e-017, 4.33680869e-017, 4.33680869e-017,
          4.33680869e-017, 4.33680869e-017, 4.33680869e-017,
          4.33680869e-017, 4.33680869e-017, 4.33680869e-017,
          4.33680869e-017, 4.33680869e-017, 4.33680869e-017,
          4.33680869e-017, 4.33680869e-017, 4.33680869e-017,
          4.33680869e-017, 3.09602427e-003, 1.50891272e-002,
          1.00993002e-002, 1.05528533e-002, 1.88793372e-002,
          2.11321954e-002, 2.04627104e-002, 1.25302654e-002,
          3.84944398e-003, -4.12053848e-003, 5.25981886e-004,
          -2.38165772e-003, -1.62746233e-003, -3.48969549e-003,
          -5.62131172e-003, 1.25423837e-002, 7.55842356e-003,
          1.30878761e-002, -3.91477282e-004, 8.00542813e-003,
          1.02758249e-002, 3.32111232e-002, 1.84282437e-002,
          2.83806026e-002, 1.08945416e-002, -1.05256671e-002,
          -5.84985921e-003, 2.28288164e-003, -6.66551804e-003,
          5.33755077e-003, 1.79395899e-002, 1.20027773e-002,
          1.35290241e-002, -1.46852212e-003, 2.54707807e-003,
          -4.69890685e-004, 1.82147638e-003, 6.60478743e-003,
          1.20008527e-003, 1.72366225e-003, 1.01983557e-002,
          4.24493104e-003, 3.27799167e-003, 1.17665883e-002,
          3.96187557e-003, -9.95428301e-003, -1.44033609e-002,
          4.33680869e-017, 4.33680869e-017, 4.33680869e-017,
          4.33680869e-017, 4.33680869e-017, 4.33680869e-017,
          4.33680869e-017, 4.33680869e-017, 4.33680869e-017,
          4.33680869e-017, 4.33680869e-017, 4.33680869e-017,
          4.33680869e-017, 4.33680869e-017, 4.33680869e-017,
          4.33680869e-017, 4.33680869e-017, 3.09602427e-003,
          1.00993002e-002, 1.00993002e-002, 1.00993002e-002,
          1.78384203e-002, 2.06786431e-002, 1.87754612e-002,
          1.32609364e-002, 3.84944398e-003, -1.59468164e-003,
          -3.40786856e-003, -5.57652116e-003, -2.58656661e-003,
          -4.44879988e-003, -8.57577659e-003, 6.24370063e-004,
          2.00961716e-003, 3.78524815e-003, 1.01292576e-003,
          6.07463531e-003, 2.91903666e-003, 2.58159377e-002,
          2.76332311e-002, 1.05155967e-002, 1.95461512e-002,
          1.03429109e-002, 1.56768970e-002, 1.26253469e-002,
          5.21956244e-003, 2.00439561e-002, 3.23155224e-002,
          -7.54219759e-003, -1.31535735e-002, -5.00354357e-003,
          3.47276255e-002, 3.01803872e-002, -8.40944331e-003,
          1.31007880e-002, 6.90588169e-003, 2.94619855e-002,
          6.47619599e-003, -9.04433429e-003, 5.69423568e-003,
          5.66422520e-003, 1.35963466e-002, 6.59855269e-003,
          -6.58331485e-003, 1.04219001e-003, 1.38128258e-003,
          4.33680869e-017, 4.33680869e-017, 4.33680869e-017,
          4.33680869e-017, 4.33680869e-017, 4.33680869e-017,
          4.33680869e-017, 4.33680869e-017, 4.33680869e-017,
          4.33680869e-017, 4.33680869e-017, 4.33680869e-017,
          4.33680869e-017, 4.33680869e-017, 4.33680869e-017,
          4.32970701e-003, 4.32970701e-003, 1.22920871e-002,
          6.65530236e-003, 1.20688267e-002, 1.49090504e-002,
          1.26998322e-002, 7.08570331e-003, -3.75683699e-003,
          -9.30231251e-003, -1.02288490e-002, -3.55619891e-003,
          -4.83877695e-004, 1.06441025e-002, 1.02230357e-002,
          7.27244560e-003, 4.32858896e-003, 2.24491935e-002,
          2.35054288e-002, 1.68784447e-002, 2.54734568e-002,
          3.39460969e-002, 3.04777417e-002, 1.88877024e-002,
          3.98203777e-003, 1.98507905e-002, 1.66865047e-002,
          1.99372806e-002, 4.12381813e-002, 1.76510587e-002,
          1.96489692e-002, 3.10052037e-002, 2.22426001e-002,
          2.08867639e-002, 2.78012902e-002, 2.66968552e-002,
          1.39549887e-002, 7.61492318e-003, 3.29400855e-003,
          -1.29801771e-002, 6.86793216e-003, 8.69248901e-003,
          -1.62691518e-003, 2.35370062e-002, 1.93139222e-002,
          7.60686537e-003, 1.35002825e-002, 1.38128258e-003,
          1.38128258e-003, 4.33680869e-017, 4.33680869e-017,
          4.33680869e-017, 4.33680869e-017, 4.33680869e-017,
          4.33680869e-017, 4.33680869e-017, 4.33680869e-017,
          4.33680869e-017, 4.33680869e-017, 4.33680869e-017,
          4.33680869e-017, 4.33680869e-017, 4.33680869e-017,
          1.23368297e-003, 4.09620767e-003, 4.32970701e-003,
          6.65530236e-003, 6.65530236e-003, 1.20688267e-002,
          1.51486406e-002, 1.24663329e-002, 3.96376988e-003,
          -7.32166693e-003, -1.07164439e-002, -1.14094811e-002,
          -1.08237667e-002, 7.02532008e-003, 6.16411399e-003,
          -5.21577336e-003, -4.61086817e-003, 1.69940535e-002,
          1.39863426e-002, 6.83562947e-004, 1.65261980e-002,
          2.07031462e-002, 2.01379303e-002, 7.94851873e-003,
          1.56661961e-002, 6.22398406e-003, 3.18703568e-003,
          5.54950396e-003, 1.68026090e-002, 1.54488813e-002,
          1.40219200e-002, 2.34966837e-002, 3.97517234e-002,
          3.23517136e-002, -9.52956080e-003, 7.60236755e-003,
          2.34240796e-002, 1.38934411e-004, 5.99616766e-003,
          -6.57231128e-003, 1.86592955e-002, 2.44203508e-002,
          1.21356975e-002, 4.38259402e-003, 1.31768808e-002,
          1.82307605e-002, 4.30914992e-003, 1.35002825e-002,
          1.38128258e-003, 4.33680869e-017, 4.33680869e-017,
          4.33680869e-017, 4.33680869e-017, 4.33680869e-017,
          4.33680869e-017, 4.33680869e-017, 4.33680869e-017,
          4.33680869e-017, 4.33680869e-017, 4.33680869e-017,
          4.33680869e-017, 4.33680869e-017, 4.33680869e-017,
          4.33680869e-017, 1.23368297e-003, 4.09620767e-003,
          4.09620767e-003, 9.56275128e-003, 9.56275128e-003,
          1.60367303e-002, 1.69230979e-002, 1.26325348e-002,
          4.50168773e-005, -4.23717266e-003, -6.13793870e-003,
          -4.51816479e-003, -1.36242399e-003, 1.15548708e-002,
          -8.60452652e-003, 8.75793514e-004, 3.13888746e-003,
          2.89554931e-002, 1.76405646e-002, 1.88483093e-002,
          2.55417693e-002, 2.12063175e-002, 1.89129245e-002,
          -9.37903393e-003, -1.11917760e-002, 2.43249186e-003,
          1.31558087e-002, -3.56180454e-003, 5.31053229e-004,
          5.87662263e-003, 1.25462413e-002, 8.27984605e-003,
          8.90430156e-003, 1.22774374e-002, -2.44719665e-002,
          -1.30506232e-002, -9.59801394e-003, 1.51267815e-002,
          -5.21044421e-004, -4.92797047e-003, 2.36026440e-002,
          9.12344735e-003, 1.50196115e-002, 2.90595815e-002,
          1.95868984e-002, 8.48798454e-003, 1.13127369e-003,
          8.86535645e-003, 6.15430344e-003, 1.38128258e-003,
          1.38128258e-003, 4.33680869e-017, 4.33680869e-017,
          4.33680869e-017, 4.33680869e-017, 4.33680869e-017,
          4.33680869e-017, 4.33680869e-017, 4.33680869e-017,
          4.33680869e-017, 4.33680869e-017, 4.33680869e-017,
          4.33680869e-017, 4.33680869e-017, 4.33680869e-017,
          7.23715639e-003, 7.23715639e-003, 9.56275128e-003,
          9.56275128e-003, 1.10469023e-002, 1.39483521e-002,
          1.16734309e-002, 2.12017167e-003, -1.10156368e-003,
          1.23152975e-002, -9.24612209e-003, -1.29190627e-002,
          1.77540618e-003, 8.14692490e-003, 5.77451289e-003,
          5.00783231e-003, 2.03811992e-002, 2.24746149e-002,
          3.22729573e-002, 2.01953724e-002, 1.69381127e-002,
          -5.43669332e-003, -1.24956397e-002, -9.08116065e-003,
          -1.81302428e-002, -2.15599369e-002, 1.75623863e-003,
          1.71997324e-002, 9.04693920e-003, -3.24671244e-004,
          -1.54682556e-002, -6.87193125e-003, 8.84637702e-003,
          1.45781515e-002, 1.74963921e-002, -7.40146963e-003,
          1.25381313e-002, -6.49232557e-003, 5.25014009e-003,
          2.70397495e-002, 2.24363897e-003, 1.09364623e-002,
          1.26277627e-002, 1.15572764e-002, 1.01667698e-002,
          -8.39982554e-003, 5.63031342e-003, 1.38128258e-003,
          1.38128258e-003, 1.38128258e-003, 4.33680869e-017,
          4.33680869e-017, 4.33680869e-017, 4.33680869e-017,
          4.33680869e-017, 4.33680869e-017, 4.33680869e-017,
          4.33680869e-017, 4.33680869e-017, 4.33680869e-017,
          4.33680869e-017, 4.33680869e-017, 4.33680869e-017,
          4.33680869e-017, 3.90631100e-003, 5.13999397e-003,
          7.46558886e-003, 6.23190589e-003, 1.27058849e-002,
          1.27146691e-002, 8.79193004e-003, 1.24040116e-002,
          -1.40584016e-004, -2.25937041e-003, -3.12767021e-004,
          3.37526463e-002, 1.78522151e-002, 2.74383128e-002,
          5.26710832e-003, 5.52285463e-003, 1.79517490e-003,
          1.01666562e-002, -5.78624289e-003, 4.45265416e-003,
          -6.67499751e-003, -1.37169184e-002, -7.27286004e-003,
          9.43898875e-003, 2.28409283e-002, 1.76810808e-002,
          5.30357212e-002, 5.24642393e-002, 4.99356873e-002,
          3.15443613e-002, 3.89650613e-002, 3.34335342e-002,
          3.74560505e-002, 6.45561004e-003, 1.71657111e-002,
          6.49765600e-003, 8.39949679e-003, -4.36718948e-003,
          -6.30967505e-003, 2.78975070e-002, 4.14631504e-004,
          -6.41349750e-003, 2.26568915e-002, 3.89915779e-002,
          8.39013781e-004, -6.26253663e-003, -5.52803176e-005,
          1.38128258e-003, 1.38128258e-003, 4.33680869e-017,
          4.33680869e-017, 4.33680869e-017, 4.33680869e-017,
          4.33680869e-017, 4.33680869e-017, 4.33680869e-017,
          4.33680869e-017, 4.33680869e-017, 4.33680869e-017,
          4.33680869e-017, 4.33680869e-017, 4.33680869e-017,
          4.33680869e-017, 4.33680869e-017, 3.90631100e-003,
          3.90631100e-003, 6.23190589e-003, 7.29236007e-003,
          9.73113813e-003, 1.06175067e-002, 9.74386092e-003,
          1.71935000e-003, -4.28683311e-003, 2.34832093e-002,
          2.87419297e-002, 2.42054258e-002, 1.51678314e-002,
          1.50561044e-002, 4.41456074e-003, 1.42153883e-002,
          1.44083181e-003, 3.26477773e-002, 1.22832889e-002,
          1.29225617e-002, 2.18002079e-003, 1.98815744e-002,
          9.54025984e-003, 4.16180827e-002, 3.12803090e-002,
          7.01136934e-003, 3.95280160e-002, 2.76422333e-002,
          2.41866168e-002, 5.33033255e-003, -1.22681521e-002,
          -1.01486379e-002, 7.63115101e-003, 7.28599867e-003,
          1.53267039e-002, 1.56097384e-002, 1.72284786e-002,
          6.61839172e-003, -8.89199786e-004, -7.46107602e-004,
          -2.13381853e-002, 1.84104424e-002, 3.45195867e-002,
          4.94761392e-002, 3.15910839e-002, 4.13093530e-002,
          2.64745252e-003, 1.38128258e-003, 1.38128258e-003,
          4.33680869e-017, 4.33680869e-017, 4.33680869e-017,
          4.33680869e-017, 4.33680869e-017, 4.33680869e-017,
          4.33680869e-017, 4.33680869e-017, 4.33680869e-017,
          4.33680869e-017, 4.33680869e-017, 4.33680869e-017,
          4.33680869e-017, 4.33680869e-017, 4.33680869e-017,
          7.65362638e-004, 7.65362638e-004, 3.09095765e-003,
          4.15141182e-003, 1.29370054e-003, 4.92335390e-003,
          2.84584658e-003, 2.57696956e-003, 1.46104489e-002,
          9.92111582e-003, 5.83892979e-004, 2.91608404e-002,
          1.83842145e-002, 2.27756146e-002, -7.52873020e-003,
          1.32816536e-002, 3.29132490e-002, 3.20345350e-002,
          -2.05278909e-003, 1.00187091e-002, -8.92501231e-003,
          -1.31634418e-002, 2.33534891e-002, 3.81127112e-002,
          1.75050292e-002, 6.68549724e-003, 2.01231483e-002,
          1.43726086e-002, 6.19534403e-003, -5.35779493e-003,
          -3.90791260e-002, -6.28752075e-003, -1.52150972e-003,
          4.89605265e-003, -1.49964551e-002, -2.89667156e-002,
          2.91214492e-002, 1.01723634e-002, 1.50741003e-002,
          1.44664170e-002, 1.21784350e-003, 1.98134892e-002,
          4.66881655e-002, 5.48675582e-002, 4.24855277e-002,
          1.25440806e-002, 4.04796265e-002, 1.38128258e-003,
          4.33680869e-017, 4.33680869e-017, 4.33680869e-017,
          4.33680869e-017, 4.33680869e-017, 4.33680869e-017,
          4.33680869e-017, 4.33680869e-017, 4.33680869e-017,
          4.33680869e-017, 4.33680869e-017, 4.33680869e-017,
          4.33680869e-017, 4.33680869e-017, 4.33680869e-017,
          4.33680869e-017, 7.65362638e-004, 7.65362638e-004,
          1.72446691e-003, -4.39909846e-003, 7.82139599e-003,
          -1.60434167e-003, 1.32602816e-002, 2.56654583e-002,
          -6.76946761e-003, 8.99090432e-003, 2.15239241e-003,
          6.19544182e-003, -3.95353278e-003, -1.24634765e-002,
          -1.00914035e-002, -6.85785525e-003, 6.99354103e-003,
          -1.64831039e-002, 3.09181958e-003, -3.59680620e-003,
          -6.60954509e-003, 3.19060832e-002, 1.31317172e-002,
          9.58002824e-003, 3.75128468e-003, 2.02307068e-002,
          3.78162824e-002, 3.20561267e-002, 5.34825632e-003,
          1.14278644e-002, 1.06806345e-002, 2.61528939e-002,
          6.76153461e-003, -5.05952211e-003, -9.14725196e-003,
          -6.51759270e-004, 3.87299247e-002, 6.91273995e-003,
          3.02281091e-003, 8.97021091e-004, -1.43067529e-002,
          2.97330134e-002, 5.44164702e-002, 2.33153347e-002,
          5.02167046e-002, 2.06627627e-003, -4.76844609e-004,
          -1.62100932e-003, 4.33680869e-017, 4.33680869e-017,
          4.33680869e-017, 4.33680869e-017, 4.33680869e-017,
          4.33680869e-017, 4.33680869e-017, 4.33680869e-017,
          4.33680869e-017, 4.33680869e-017, 4.33680869e-017,
          4.33680869e-017, 4.33680869e-017, 4.33680869e-017,
          4.33680869e-017, 4.33680869e-017, 7.65362638e-004,
          7.65362638e-004, -3.85129708e-003, -6.54676883e-003,
          2.83156871e-003, 1.26679391e-002, 2.99529023e-002,
          -6.89533446e-003, -2.00282112e-002, -2.01151427e-002,
          7.71833118e-003, -1.60474505e-003, 1.33349216e-002,
          -6.34781783e-003, -1.66866221e-002, -2.00861245e-002,
          -1.82205550e-002, 3.68988700e-003, 1.06777865e-002,
          2.03581657e-002, 2.21401621e-002, 2.33609620e-002,
          2.12224498e-002, 1.81510951e-002, -1.16909575e-002,
          -2.27810945e-002, 4.68992721e-003, 1.14935124e-003,
          -2.59094071e-002, -1.52697684e-002, -2.14547734e-003,
          1.12444786e-002, 6.00481685e-003, 1.20372577e-002,
          -1.71100777e-002, -3.11917197e-002, -1.03659770e-002,
          -3.65117332e-003, -1.31115811e-002, 7.47730024e-003,
          1.00608710e-002, 2.89811566e-003, 2.49439850e-002,
          2.79144961e-002, 1.70390103e-002, 2.34625693e-002,
          4.02796641e-002, 5.02508273e-003, 4.33680869e-017,
          4.33680869e-017, 4.33680869e-017, 4.33680869e-017,
          4.33680869e-017, 4.33680869e-017, 4.33680869e-017,
          4.33680869e-017, 4.33680869e-017, 4.33680869e-017,
          4.33680869e-017, 4.33680869e-017, 4.33680869e-017,
          4.33680869e-017, 4.33680869e-017, 1.78444083e-003,
          2.54980358e-003, -3.02596041e-003, -2.74668587e-003,
          1.76536746e-003, 8.43904074e-003, 1.18235527e-002,
          8.21891148e-003, -8.62671714e-003, -1.61903779e-004,
          8.86906928e-004, 1.73262041e-002, 1.88538134e-002,
          1.32176280e-003, -2.26867571e-002, -3.66777293e-002,
          -3.91916838e-003, 4.14868966e-002, 4.86279130e-002,
          2.00204551e-003, 1.62901953e-002, -4.51198453e-003,
          -9.93959606e-003, -1.60731822e-002, -3.91245866e-003,
          -1.86015535e-002, 2.02182727e-003, 1.43481633e-002,
          -1.72387226e-003, -1.46662137e-002, -3.45006934e-003,
          -9.65990778e-003, -4.56709787e-003, 2.04372350e-002,
          1.43089425e-002, -1.31786577e-002, 2.47204467e-003,
          3.60503495e-002, 2.49409173e-002, -7.51418807e-003,
          2.24529095e-002, 5.44866314e-003, 1.75049417e-002,
          -5.24906034e-004, 1.13267866e-004, 2.04153135e-002,
          4.45734598e-002, 4.92934659e-002, 9.38765053e-003,
          4.33680869e-017, 4.33680869e-017, 4.33680869e-017,
          4.33680869e-017, 4.33680869e-017, 4.33680869e-017,
          4.33680869e-017, 4.33680869e-017, 4.33680869e-017,
          4.33680869e-017, 4.33680869e-017, 4.33680869e-017,
          4.33680869e-017, 4.33680869e-017, 4.33680869e-017,
          4.33680869e-017, -4.53112694e-003, -3.02596041e-003,
          -2.74668587e-003, 6.10275241e-003, -1.67604275e-002,
          -7.81857932e-004, -8.97905882e-003, 9.77331307e-003,
          1.25158243e-002, 3.51831540e-002, 1.02005238e-002,
          1.17356246e-002, -2.33162777e-003, -2.17549335e-002,
          -1.05874417e-002, 3.61652561e-002, 5.12022972e-002,
          3.68013121e-002, 4.67832386e-003, -5.21824881e-003,
          1.04449810e-002, -9.57212504e-003, 9.38104058e-004,
          -1.50651326e-002, -1.36911301e-002, -8.68106727e-003,
          2.46988004e-003, 4.43312619e-003, -1.64229404e-002,
          -2.09117718e-002, -1.77889690e-003, 1.16555626e-002,
          1.77220553e-002, -4.44056327e-003, 1.59527399e-002,
          2.38558967e-002, 9.42698307e-003, -8.60778242e-003,
          -3.10133733e-002, -1.45760438e-004, 2.59185582e-002,
          2.40532234e-002, 2.46966649e-002, -4.18909546e-003,
          7.07413489e-003, 2.50660181e-002, 3.07280999e-002,
          1.41515015e-002, 4.33680869e-017, 4.33680869e-017,
          4.33680869e-017, 4.33680869e-017, 4.33680869e-017,
          4.33680869e-017, 4.33680869e-017, 4.33680869e-017,
          4.33680869e-017, 4.33680869e-017, 4.33680869e-017,
          4.33680869e-017, 4.33680869e-017, 4.33680869e-017,
          4.33680869e-017, 4.33680869e-017, -4.81040124e-003,
          -4.53112694e-003, -4.53112694e-003, -1.92248337e-002,
          -8.68828036e-003, -1.48180053e-002, -1.92013767e-003,
          5.09689748e-003, 2.72218920e-002, 3.48812155e-002,
          2.10475028e-002, -7.38944102e-004, -2.56491452e-003,
          7.00040581e-003, 3.24820019e-002, 4.97582369e-002,
          2.13214308e-002, 1.16301710e-002, -2.71920551e-004,
          -2.83876210e-002, 2.28838585e-002, -1.70981828e-002,
          -1.19130081e-002, -1.44413477e-002, -5.21177799e-003,
          9.80204809e-003, -2.04610266e-002, -3.00701242e-002,
          -4.42556944e-003, -1.53374458e-002, 5.93929924e-003,
          1.08750705e-002, 3.59304342e-003, 6.53435523e-003,
          9.30108130e-003, -1.87013857e-003, 1.99663360e-002,
          -3.10102236e-002, -2.00659670e-002, -8.02180264e-003,
          1.49724707e-002, 3.00126546e-003, -5.01223141e-003,
          -1.14873657e-002, 2.13400740e-002, 3.17701437e-002,
          1.52176674e-002, 2.55417414e-002, 4.33680869e-017,
          4.33680869e-017, 4.33680869e-017, 4.33680869e-017,
          4.33680869e-017, 4.33680869e-017, 4.33680869e-017,
          4.33680869e-017, 4.33680869e-017, 4.33680869e-017,
          4.33680869e-017, 4.33680869e-017, 4.33680869e-017,
          4.33680869e-017, 4.33680869e-017, 4.33680869e-017,
          -4.81040124e-003, -4.53112694e-003, -2.25207768e-002,
          -1.68890171e-002, -2.09410733e-004, -8.99681356e-003,
          6.08041091e-003, 1.21461889e-002, 2.24007405e-002,
          2.26342976e-002, 7.31813628e-003, 6.99737761e-003,
          4.92745964e-003, 7.53249507e-003, 1.12931267e-003,
          7.81898759e-003, -5.86600276e-003, 9.94929811e-004,
          -7.87488557e-003, -5.61676547e-003, -1.57426540e-002,
          -3.42342630e-002, 5.63026825e-003, -1.03660617e-002,
          -6.71656569e-004, -4.84138215e-003, -1.81119889e-002,
          -1.30584976e-002, -2.08107177e-002, 8.32527969e-003,
          -5.53933764e-003, 1.33899376e-002, 3.14713344e-002,
          8.03874049e-004, -9.48075764e-003, 1.96426138e-002,
          1.02654444e-002, 9.10011120e-003, 2.76350742e-003,
          3.67820030e-003, -1.25826914e-002, 8.53947713e-004,
          4.33514314e-003, -2.70637946e-004, 1.76674929e-002,
          1.80262905e-002, 2.78654620e-002, 2.11885273e-002,
          4.33680869e-017, 4.33680869e-017, 4.33680869e-017,
          4.33680869e-017, 4.33680869e-017, 4.33680869e-017,
          4.33680869e-017, 4.33680869e-017, 4.33680869e-017,
          4.33680869e-017, 4.33680869e-017, 4.33680869e-017,
          4.33680869e-017, 4.33680869e-017, 4.33680869e-017,
          -5.57576399e-003, -4.53112694e-003, -4.53112694e-003,
          -3.03767174e-002, -8.38095974e-003, -2.57917424e-003,
          -4.08723112e-003, 1.07366657e-002, 2.13633310e-002,
          3.45728695e-002, 6.64083427e-003, 5.74733410e-003,
          2.21865345e-002, 2.85976697e-002, 3.13378982e-002,
          6.87970873e-003, 1.85077861e-002, 2.14433763e-003,
          5.67630026e-003, -2.48010699e-002, 3.52450483e-003,
          -8.31862167e-003, 1.10608339e-002, 6.74541574e-004,
          2.69167554e-002, -2.92863455e-002, -3.07459198e-003,
          -3.25664952e-002, 2.66350973e-002, -9.88421030e-003,
          -2.22493391e-002, 8.53632856e-003, 1.56278275e-002,
          1.05952695e-002, -6.54124329e-003, 6.53697120e-004,
          -1.63204037e-002, 1.26276333e-002, 9.47090611e-003,
          5.70051651e-003, -6.47135684e-003, 4.56220470e-003,
          2.56992225e-002, 1.85753275e-002, 3.24370782e-003,
          8.09548236e-003, 1.80262905e-002, 3.32966857e-002,
          1.64246764e-002, 4.33680869e-017, 4.33680869e-017,
          4.33680869e-017, 4.33680869e-017, 4.33680869e-017,
          4.33680869e-017, 4.33680869e-017, 4.33680869e-017,
          4.33680869e-017, 4.33680869e-017, 4.33680869e-017,
          4.33680869e-017, 4.33680869e-017, 4.33680869e-017,
          4.33680869e-017, -5.57576399e-003, -4.53112694e-003,
          -1.55739235e-002, -2.78853625e-002, -3.97645542e-003,
          3.59121454e-003, -1.54020760e-004, 2.27386467e-002,
          -2.03398671e-002, 1.21183498e-002, 2.69110408e-003,
          -8.27495568e-003, 3.23888287e-002, 3.25051844e-002,
          2.46848986e-002, 2.46068425e-002, 2.04817057e-002,
          1.92913786e-002, -5.98795852e-003, 1.54103301e-002,
          2.73386855e-002, -1.65471695e-002, 5.36805828e-006,
          -1.17377043e-002, 2.27398388e-002, -7.00542424e-003,
          1.34222442e-003, -8.14958010e-003, -3.95911857e-002,
          -1.82049274e-002, -3.48838232e-002, -3.15538235e-002,
          1.92033853e-002, 5.32159442e-003, -1.28822420e-002,
          -2.40360126e-002, 3.18560936e-002, 1.57414488e-002,
          1.33115780e-002, -1.00914286e-002, 8.50270782e-003,
          7.18397787e-003, 3.00100911e-002, -1.30160181e-002,
          6.60665042e-004, 1.47186704e-002, 1.29786795e-002,
          2.04414930e-002, 6.98573561e-003, 4.33680869e-017,
          4.33680869e-017, 4.33680869e-017, 4.33680869e-017,
          4.33680869e-017, 4.33680869e-017, 4.33680869e-017,
          4.33680869e-017, 4.33680869e-017, 4.33680869e-017,
          4.33680869e-017, 4.33680869e-017, 4.33680869e-017,
          4.33680869e-017, 4.33680869e-017, -5.57576399e-003,
          -4.53112694e-003, -1.37664769e-002, -1.48738697e-002,
          1.44616915e-002, 8.62565078e-003, 8.71139579e-004,
          -3.71981086e-003, -3.02704442e-002, 8.16938281e-003,
          1.06368534e-004, 1.50397997e-002, 3.44910170e-003,
          -2.48537562e-003, 9.59479157e-003, -1.26240437e-003,
          7.75258150e-003, -1.43392663e-003, -3.26900906e-003,
          2.72437520e-002, -2.20687147e-002, -1.56555716e-002,
          1.11987477e-003, 9.45047196e-003, 4.43709716e-002,
          3.59365763e-003, 8.32320936e-003, -1.52211252e-003,
          -2.56464351e-002, -1.76640134e-002, -3.67595293e-002,
          -2.28750389e-002, -2.14488134e-002, -1.84274316e-002,
          -4.19178866e-002, -1.38475478e-003, -1.63488428e-003,
          1.93233732e-002, -7.91339204e-003, 6.71538152e-003,
          1.70569271e-002, 2.55413670e-002, 2.37477198e-003,
          -1.11848337e-003, -1.39197297e-002, 1.23319617e-002,
          2.07210928e-002, 1.93346497e-002, 4.33680869e-017,
          4.33680869e-017, 4.33680869e-017, 4.33680869e-017,
          4.33680869e-017, 4.33680869e-017, 4.33680869e-017,
          4.33680869e-017, 4.33680869e-017, 4.33680869e-017,
          4.33680869e-017, 4.33680869e-017, 4.33680869e-017,
          4.33680869e-017, 4.33680869e-017, 4.33680869e-017,
          -5.57576399e-003, -4.53112694e-003, -1.90629661e-002,
          1.07065169e-002, 6.96734944e-003, 1.01189101e-002,
          6.65863231e-003, -7.21822213e-003, -1.18096638e-002,
          -1.29530430e-002, 2.29206365e-002, -1.10377567e-002,
          -2.95420806e-003, 6.03351276e-003, -1.33951998e-003,
          1.31204091e-002, 1.19925011e-002, 3.77920642e-003,
          3.26942257e-003, 2.20502205e-002, 3.92473117e-003,
          -1.94804929e-002, 1.25222867e-002, 8.62185750e-003,
          3.73098403e-002, -9.14810225e-003, 7.89966248e-003,
          -3.02025340e-002, -7.04641314e-003, -4.28233370e-002,
          -1.72995701e-002, -2.64367294e-002, 5.95587492e-003,
          2.95187882e-003, -1.03356447e-002, -6.50738319e-003,
          -1.64536126e-002, -6.34750957e-003, 2.11810996e-003,
          2.21343827e-003, 2.12157033e-002, 1.36783822e-002,
          -6.92175794e-003, 3.30906082e-003, 4.21793433e-003,
          8.02441221e-003, 3.55276070e-003, 1.09944334e-002,
          4.33680869e-017, 4.33680869e-017, 4.33680869e-017,
          4.33680869e-017, 4.33680869e-017, 4.33680869e-017,
          4.33680869e-017, 4.33680869e-017, 4.33680869e-017,
          4.33680869e-017, 4.33680869e-017, 4.33680869e-017,
          4.33680869e-017, 4.33680869e-017, 4.33680869e-017,
          4.33680869e-017, -5.57576399e-003, -4.53112694e-003,
          -1.00928200e-002, 1.76922530e-002, 3.86495412e-005,
          1.16981356e-003, -3.08950292e-003, -8.92265793e-003,
          -2.17986628e-002, 2.57080328e-003, 9.69159883e-003,
          7.88770057e-003, 1.18860099e-002, 1.45356609e-002,
          2.49500740e-002, 4.93436307e-002, -2.07913079e-004,
          4.80272481e-003, 2.12382693e-002, 3.29628810e-002,
          2.76452694e-002, -1.90729145e-002, 3.08708590e-003,
          2.48831268e-002, 2.62825284e-002, 1.84586048e-002,
          -2.91395071e-003, 3.44092660e-002, 5.60246175e-003,
          -6.03479659e-003, -5.47622377e-003, -6.18994748e-003,
          2.03899145e-002, 3.09796799e-002, -6.15932420e-003,
          1.12494519e-002, -1.27360262e-002, -3.46182995e-002,
          8.36755894e-003, -1.27179630e-003, 2.63726264e-002,
          5.78057766e-003, -1.89106129e-002, 4.98333131e-004,
          7.96815322e-004, -1.04704394e-003, -9.72521491e-003,
          -1.15710674e-002, 4.33680869e-017, 4.33680869e-017,
          4.33680869e-017, 4.33680869e-017, 4.33680869e-017,
          4.33680869e-017, 4.33680869e-017, 4.33680869e-017,
          4.33680869e-017, 4.33680869e-017, 4.33680869e-017,
          4.33680869e-017, 4.33680869e-017, 4.33680869e-017,
          4.33680869e-017, 4.33680869e-017, 4.33680869e-017,
          -8.74690886e-004, 2.30889185e-003, 1.26578165e-002,
          5.29625686e-003, 4.60595684e-003, 1.82776414e-002,
          -1.59643982e-002, -6.41335547e-003, -3.63301020e-003,
          4.36151633e-003, 9.99017153e-003, -1.84734035e-002,
          9.36377607e-003, 2.27110926e-002, 1.75173003e-002,
          -1.47444969e-002, -9.73121671e-004, 3.83253433e-002,
          3.74133624e-002, 1.16976835e-002, 2.64171772e-002,
          2.75980514e-002, 2.24109795e-002, 8.49797297e-003,
          2.53573656e-002, 3.64739150e-002, 5.04774526e-002,
          2.52837203e-002, 2.09229980e-002, 2.76755933e-002,
          1.43833142e-002, 5.96291898e-003, 3.41244601e-002,
          2.46344954e-002, 7.04721501e-003, -1.74650084e-003,
          -1.72387920e-002, 6.47687120e-003, 1.77557468e-002,
          -1.24037010e-003, -1.45007279e-002, -1.39693338e-002,
          -1.13396756e-002, 1.65112643e-003, 7.63127347e-003,
          -2.67897788e-002, -1.50601100e-002, 4.33680869e-017,
          4.33680869e-017, 4.33680869e-017, 4.33680869e-017,
          4.33680869e-017, 4.33680869e-017, 4.33680869e-017,
          4.33680869e-017, 4.33680869e-017, 4.33680869e-017,
          4.33680869e-017, 4.33680869e-017, 4.33680869e-017,
          4.33680869e-017, 4.33680869e-017, 4.33680869e-017,
          4.33680869e-017, 4.15974529e-003, -1.18015066e-003,
          7.93378148e-003, 1.22692529e-002, 1.86200365e-002,
          2.88222935e-002, 2.07850337e-002, 1.49145713e-002,
          1.20993750e-002, 3.66466609e-003, -2.31858585e-002,
          -8.61389283e-003, 2.15015337e-002, 1.50211267e-002,
          4.68596024e-003, -5.49733127e-003, 2.49872599e-002,
          1.86704528e-002, 1.27369445e-002, -4.49625868e-003,
          7.41029810e-003, 4.97269034e-002, -1.02151057e-003,
          3.72817218e-002, 5.83182238e-002, 8.92004520e-002,
          9.90090147e-002, 6.32242709e-002, 4.66014296e-002,
          4.17489558e-002, -9.85589903e-003, -2.39445139e-002,
          -2.91666705e-002, -8.95985961e-003, -1.14514800e-002,
          1.07664056e-002, 1.31343659e-002, 1.16171613e-002,
          -1.53446449e-002, -4.50036861e-003, -2.22839229e-003,
          -1.34463133e-002, -1.74681544e-002, -1.65672824e-002,
          -1.81257501e-002, -1.74845904e-002, -2.16708779e-002,
          -6.53463230e-003, 4.33680869e-017, 4.33680869e-017,
          4.33680869e-017, 4.33680869e-017, 4.33680869e-017,
          4.33680869e-017, 4.33680869e-017, 4.33680869e-017,
          4.33680869e-017, 4.33680869e-017, 4.33680869e-017,
          4.33680869e-017, 4.33680869e-017, 4.33680869e-017,
          4.33680869e-017, 3.93571053e-003, 9.73550882e-003,
          -6.49386132e-003, 7.93378148e-003, 2.13861465e-002,
          3.57040465e-002, 1.41815245e-002, 2.12863702e-002,
          4.62063700e-002, 2.07685437e-002, 3.85030959e-004,
          3.29602440e-003, 2.78445911e-002, 2.45037917e-002,
          -4.03717719e-003, -5.71825821e-003, -1.61877051e-002,
          -1.74658597e-002, -8.62711295e-003, -1.96868666e-002,
          -1.07276803e-002, -7.87259173e-003, -3.07570547e-002,
          8.27099103e-003, 4.69818385e-003, -2.88996920e-002,
          -4.52326387e-002, -3.60053889e-002, 6.46227039e-003,
          4.64615114e-002, 5.38541973e-002, 3.92144592e-003,
          -1.74612203e-003, -6.32131333e-003, -5.31745516e-003,
          4.13035834e-003, 1.28848320e-002, -9.86271261e-005,
          1.26352189e-002, -4.93728882e-003, -1.13280211e-002,
          -1.92675199e-002, -1.42843137e-002, 3.91409686e-003,
          -2.14198940e-002, -2.38808282e-002, -1.12221353e-002,
          -1.29103074e-002, -6.53463230e-003, 4.33680869e-017,
          4.33680869e-017, 4.33680869e-017, 4.33680869e-017,
          4.33680869e-017, 4.33680869e-017, 4.33680869e-017,
          4.33680869e-017, 4.33680869e-017, 4.33680869e-017,
          4.33680869e-017, 4.33680869e-017, 4.33680869e-017,
          4.33680869e-017, 4.33680869e-017, 3.93571053e-003,
          9.73550882e-003, 4.26019123e-003, 2.48410460e-002,
          1.78352352e-002, 3.93557847e-002, 1.19879106e-002,
          3.97011871e-003, 2.90215258e-002, 1.42718051e-002,
          -1.17077008e-002, -2.34942939e-002, -9.63277556e-003,
          2.07116101e-002, -2.44986685e-003, -2.00745407e-002,
          -1.53372269e-002, -9.25718620e-003, -6.19328674e-003,
          -2.15027444e-002, -1.05589461e-002, -1.92459691e-002,
          -3.23145203e-002, 2.27397983e-003, -8.66588950e-003,
          1.00980569e-002, -4.84121479e-002, -5.22968965e-003,
          6.12620078e-003, 4.13372793e-004, -9.29551292e-003,
          3.26626636e-002, 2.12460826e-003, -1.23484768e-002,
          -1.36101339e-003, 2.70967698e-003, 3.02234641e-003,
          2.46627107e-002, -2.20904332e-002, -6.09565899e-003,
          -4.50815912e-003, 8.55603628e-003, 1.04996003e-002,
          1.25267077e-002, 2.72148335e-003, -1.08624808e-002,
          -1.17985560e-002, -1.34867281e-002, -6.53463230e-003,
          4.33680869e-017, 4.33680869e-017, 4.33680869e-017,
          4.33680869e-017, 4.33680869e-017, 4.33680869e-017,
          4.33680869e-017, 4.33680869e-017, 4.33680869e-017,
          4.33680869e-017, 4.33680869e-017, 4.33680869e-017,
          4.33680869e-017, 4.33680869e-017, 4.33680869e-017,
          3.93571053e-003, 9.73550882e-003, 1.21556027e-002,
          1.48790414e-002, 3.47543135e-002, 2.04656888e-002,
          2.99252216e-002, 8.60358682e-003, -1.08919702e-002,
          -2.88854223e-002, -1.38835087e-002, -1.93202421e-002,
          1.22163063e-002, 2.99803622e-004, 2.24437774e-003,
          -1.37338173e-002, 6.97861367e-004, 2.25755363e-003,
          -3.66130308e-003, -2.43890733e-002, -2.62461789e-002,
          -6.26784796e-003, -1.92549429e-004, -3.32443342e-002,
          -4.93264561e-005, -3.84571552e-002, -1.42292585e-002,
          -1.42302131e-002, 6.16303179e-003, -7.53757637e-003,
          -1.65503398e-002, -3.12180966e-002, -3.10617429e-003,
          -1.03536360e-002, -2.21761819e-002, -1.12322567e-003,
          -1.23610522e-003, 4.87626297e-003, -2.18218043e-002,
          -2.13255081e-002, 6.05712039e-003, 1.14707751e-002,
          1.81359258e-002, 3.11713293e-002, 2.23439932e-002,
          6.95969583e-003, -2.25198851e-003, -1.50539931e-002,
          4.33680869e-017, 4.33680869e-017, 4.33680869e-017,
          4.33680869e-017, 4.33680869e-017, 4.33680869e-017,
          4.33680869e-017, 4.33680869e-017, 4.33680869e-017,
          4.33680869e-017, 4.33680869e-017, 4.33680869e-017,
          4.33680869e-017, 4.33680869e-017, 4.33680869e-017,
          4.33680869e-017, 3.93571053e-003, 9.73550882e-003,
          2.23564059e-002, 3.20669971e-002, 3.76409851e-002,
          3.43287340e-003, -1.75833958e-003, -3.31002218e-003,
          -1.62885506e-002, -3.64708938e-002, 1.39904758e-002,
          -1.46945314e-002, -5.96202910e-003, -9.50744469e-003,
          -3.15378308e-002, -1.96393616e-002, -5.76571655e-003,
          2.79917824e-003, 5.46248583e-003, -3.89699787e-002,
          -3.00472938e-002, -4.06465903e-002, -2.15639267e-002,
          -5.14825396e-002, -2.15983652e-002, -1.56333931e-002,
          1.22224139e-002, -9.27750778e-004, -9.42516886e-003,
          1.18767439e-005, -2.78204884e-002, -4.27576639e-002,
          -4.16516932e-003, 9.39026009e-003, -1.64615624e-002,
          -1.38933016e-002, 7.50844367e-003, 1.52656743e-002,
          -4.15171031e-003, -1.17547868e-003, 2.21741851e-002,
          1.03054913e-002, 8.89587775e-003, 3.37501206e-002,
          2.83262357e-002, 1.18150860e-002, -4.67547594e-004,
          -3.94016132e-003, 6.61688577e-003, 4.33680869e-017,
          4.33680869e-017, 4.33680869e-017, 4.33680869e-017,
          4.33680869e-017, 4.33680869e-017, 4.33680869e-017,
          4.33680869e-017, 4.33680869e-017, 4.33680869e-017,
          4.33680869e-017, 4.33680869e-017, 4.33680869e-017,
          4.33680869e-017, 4.33680869e-017, 3.93571053e-003,
          9.73550882e-003, 2.46328209e-002, 9.07736178e-003,
          5.73052000e-003, -1.58321671e-002, -1.06675113e-002,
          -1.43508073e-002, -3.18243913e-002, -6.22133072e-003,
          -5.25138946e-003, -3.29212882e-002, -2.09619477e-002,
          -6.45922171e-003, -4.52723308e-003, -1.21573256e-002,
          7.77604943e-003, 8.49619601e-003, -2.38732062e-002,
          -4.72200215e-002, -5.31244650e-002, -6.21908344e-003,
          -4.09223735e-002, -2.61964891e-002, -1.49211753e-003,
          -1.56238815e-002, -3.16038984e-003, -7.18850689e-003,
          3.63140623e-003, -2.17286106e-002, -3.49544510e-002,
          -1.78003944e-002, 1.12699522e-002, 1.15761021e-002,
          -1.50824441e-002, -3.13153230e-002, 8.56741704e-003,
          1.22753782e-002, -3.31560127e-003, -1.20941279e-002,
          2.47093830e-002, 2.39573214e-002, 2.03253645e-002,
          2.94535998e-002, 2.51952671e-002, 8.36638920e-003,
          1.28152058e-003, 7.86795467e-003, 6.61688577e-003,
          4.33680869e-017, 4.33680869e-017, 4.33680869e-017,
          4.33680869e-017, 4.33680869e-017, 4.33680869e-017,
          4.33680869e-017, 4.33680869e-017, 4.33680869e-017,
          4.33680869e-017, 4.33680869e-017, 4.33680869e-017,
          4.33680869e-017, 4.33680869e-017, 4.33680869e-017,
          -3.43281101e-003, 1.48511948e-002, -5.93806431e-003,
          -1.08872037e-002, -2.66962145e-002, -1.21307792e-002,
          -1.31937144e-002, -3.29118259e-002, -2.94346511e-002,
          -6.56440854e-003, -1.48758236e-002, -1.51393870e-002,
          1.02162976e-002, 1.13012176e-002, 4.45735268e-003,
          -1.84874590e-002, 2.78530437e-002, -1.01918308e-002,
          -1.51013630e-002, -9.07742884e-003, -1.70501450e-003,
          -1.19946450e-002, -1.86252827e-003, -1.55596929e-002,
          1.27689680e-002, -3.44293118e-002, 5.32028079e-003,
          1.54044190e-002, -1.40553284e-002, -1.33076841e-002,
          -2.57198606e-002, 6.42233063e-003, 2.39506867e-002,
          4.32616333e-003, -1.03881983e-002, 6.43438241e-003,
          3.17391418e-002, 1.63385589e-002, -1.54023394e-002,
          -6.34401338e-003, 1.59788243e-002, 2.19858773e-002,
          2.19621081e-002, 2.61561908e-002, 2.10869219e-002,
          1.67434551e-002, -2.63873022e-004, 7.28444336e-003,
          6.61688577e-003, 4.33680869e-017, 4.33680869e-017,
          4.33680869e-017, 4.33680869e-017, 4.33680869e-017,
          4.33680869e-017, 4.33680869e-017, 4.33680869e-017,
          4.33680869e-017, 4.33680869e-017, 4.33680869e-017,
          4.33680869e-017, 4.33680869e-017, 4.33680869e-017,
          4.33680869e-017, -8.13514180e-003, 2.07926682e-003,
          -2.48581264e-002, -3.66159640e-002, -2.88182106e-002,
          -2.79518552e-002, -1.46236261e-002, -1.99263114e-002,
          -2.78721806e-002, -1.23320650e-002, -7.64196133e-003,
          3.06905732e-002, 3.48528512e-002, -8.18773825e-003,
          -7.21712783e-003, -1.92926973e-002, -2.48183776e-003,
          -9.82464384e-003, -1.39335981e-002, -2.21339744e-002,
          -2.49827979e-003, 5.16589091e-004, -1.15458164e-002,
          -4.64631543e-002, -5.53354844e-002, -2.23267749e-002,
          7.19143916e-003, -9.40795802e-003, -2.51004882e-002,
          -2.01769955e-002, -2.42479835e-002, 1.53498920e-002,
          1.86220519e-002, -9.16075706e-003, -4.05075494e-003,
          -9.25697107e-003, 3.72138135e-002, 1.24982344e-002,
          -1.32357627e-002, -1.63681693e-002, 1.01068625e-002,
          1.51220914e-002, 1.91267468e-002, 2.91160550e-002,
          2.18346026e-002, 1.88326146e-002, 7.22516794e-003,
          1.69555638e-002, 6.61688577e-003, 4.33680869e-017,
          4.33680869e-017, 4.33680869e-017, 4.33680869e-017,
          4.33680869e-017, 4.33680869e-017, 4.33680869e-017,
          4.33680869e-017, 4.33680869e-017, 4.33680869e-017,
          4.33680869e-017, 4.33680869e-017, 4.33680869e-017,
          4.33680869e-017, -4.70233057e-003, 8.81662685e-003,
          -1.21319145e-002, -2.04378609e-002, -3.53099741e-002,
          -3.44793797e-002, -3.78942303e-002, -2.24420894e-003,
          -7.32886326e-003, -2.92658489e-002, -1.04915053e-002,
          1.64409413e-003, 2.80471686e-002, 1.52838677e-002,
          -8.70085787e-003, -2.61865258e-002, -5.22314869e-002,
          -8.99991207e-003, -9.47893690e-003, -3.99920857e-003,
          8.17900233e-004, -2.82853027e-003, 6.59081212e-004,
          -1.84955075e-002, -4.38405722e-002, -4.94423788e-003,
          -2.04232931e-002, -2.63090618e-003, -1.81093812e-002,
          -2.92682089e-002, -1.21436445e-002, -9.47967928e-004,
          2.83382423e-002, 3.95056494e-002, -2.57453825e-002,
          -5.80187072e-004, 1.55444741e-002, 1.16465762e-002,
          -1.38155296e-002, -1.84727926e-002, -9.73852293e-004,
          3.42140789e-003, -1.02352137e-002, 1.18308021e-002,
          2.46909447e-002, 1.83455609e-002, 2.41902694e-002,
          7.73794157e-003, 1.68954991e-002, 6.61688577e-003,
          4.33680869e-017, 4.33680869e-017, 4.33680869e-017,
          4.33680869e-017, 4.33680869e-017, 4.33680869e-017,
          4.33680869e-017, 4.33680869e-017, 4.33680869e-017,
          4.33680869e-017, 4.33680869e-017, 4.33680869e-017,
          4.33680869e-017, 4.33680869e-017, 4.33680869e-017,
          -1.73579995e-002, -9.39307641e-003, -1.68687869e-002,
          -7.11243600e-003, 5.34203183e-003, -1.04235234e-002,
          -2.27215979e-003, -6.62183575e-003, -1.26471194e-002,
          -4.32538241e-003, -2.46250927e-002, -7.19988346e-003,
          -8.68427381e-003, -3.96459661e-002, -4.85075936e-002,
          -3.28154452e-002, -3.70497927e-002, 1.17610153e-002,
          -1.48584100e-003, -1.18534535e-003, -3.23249325e-002,
          -3.68585065e-002, -3.44370157e-002, -1.05702700e-002,
          -1.48795638e-002, 2.83171213e-003, -3.43259759e-002,
          -3.62249948e-002, -2.11521816e-002, 2.63794735e-002,
          -2.39758723e-004, -9.77347232e-003, 2.18262314e-003,
          -1.61257833e-002, -8.59612785e-003, 2.15043724e-002,
          1.49680115e-002, -2.25260369e-002, -1.16313742e-002,
          -6.50384091e-003, 8.60046968e-003, -5.59214037e-003,
          2.09218194e-003, 2.09606998e-002, 2.23250240e-002,
          2.54107863e-002, 1.48699936e-002, 1.72082204e-002,
          4.33680869e-017, 4.33680869e-017, 4.33680869e-017,
          4.33680869e-017, 4.33680869e-017, 4.33680869e-017,
          4.33680869e-017, 4.33680869e-017, 4.33680869e-017,
          4.33680869e-017, 4.33680869e-017, 4.33680869e-017,
          4.33680869e-017, 4.33680869e-017, 4.33680869e-017,
          4.33680869e-017, -1.14729479e-002, -5.46983385e-004,
          1.32396165e-002, 1.57292765e-002, 1.73813049e-002,
          -6.59770239e-003, -1.64327994e-002, -8.32388643e-003,
          -1.28205994e-003, 3.20606097e-003, -5.10299904e-003,
          1.14797167e-002, -1.27847791e-002, -2.68078619e-003,
          -8.25240929e-003, 3.98418953e-004, -1.25864008e-003,
          1.75024197e-002, 1.51287382e-002, -1.41287930e-002,
          -2.58407119e-004, 1.71412304e-002, 5.78411017e-003,
          -2.97790579e-002, 6.07994664e-003, -2.05759518e-002,
          -2.02411972e-002, -3.82449292e-003, 2.22108867e-002,
          2.18233261e-002, 5.96664473e-003, 2.97086290e-003,
          2.56620627e-003, -1.57161970e-002, 2.28360277e-002,
          1.69676840e-002, -1.42552275e-002, -3.69698065e-003,
          -2.41826428e-003, -1.44636631e-003, -1.49492538e-002,
          -2.54755537e-003, 7.60474475e-003, 1.61053110e-002,
          1.94291566e-002, 2.19396912e-002, 1.08748376e-002,
          1.11288251e-002, 4.33680869e-017, 4.33680869e-017,
          4.33680869e-017, 4.33680869e-017, 4.33680869e-017,
          4.33680869e-017, 4.33680869e-017, 4.33680869e-017,
          4.33680869e-017, 4.33680869e-017, 4.33680869e-017,
          4.33680869e-017, 4.33680869e-017, 4.33680869e-017,
          4.33680869e-017, 4.33680869e-017, 6.93513639e-003,
          8.13682200e-005, 1.92931890e-002, 2.27778368e-002,
          1.61665701e-003, 4.98644495e-003, -1.16200903e-002,
          1.34836463e-003, -2.61624460e-003, -1.28588527e-002,
          -2.37530505e-004, 1.38680299e-003, 1.68434791e-002,
          -3.72520089e-003, -6.70999987e-003, -1.40659150e-003,
          2.24889610e-002, -1.14253545e-002, -3.16307954e-002,
          -4.36460786e-003, 3.89631110e-004, -1.79640502e-002,
          -3.67092993e-003, -7.52652809e-003, -1.82969589e-002,
          -3.53247561e-002, 3.58415418e-003, 5.86593198e-003,
          9.64315515e-003, 9.37120896e-003, -2.30914392e-002,
          -7.96974450e-003, 1.11510903e-002, -9.42932628e-003,
          7.75639759e-003, 2.59698294e-002, -9.81311686e-003,
          1.87807844e-003, 1.32899741e-002, -1.19556217e-002,
          -2.48499922e-002, -1.96888065e-003, -3.31315072e-003,
          2.15715412e-002, 1.27614737e-002, 1.94010828e-002,
          1.22460593e-002, -4.21786262e-003, -8.62785615e-004,
          4.33680869e-017, 4.33680869e-017, 4.33680869e-017,
          4.33680869e-017, 4.33680869e-017, 4.33680869e-017,
          4.33680869e-017, 4.33680869e-017, 4.33680869e-017,
          4.33680869e-017, 4.33680869e-017, 4.33680869e-017,
          4.33680869e-017, 4.33680869e-017, 4.33680869e-017,
          -6.48573739e-004, 1.69398971e-002, 1.22857578e-002,
          -9.41401441e-003, -1.91978198e-002, -2.19491273e-002,
          -6.32087409e-004, -6.99186977e-003, -1.55560498e-003,
          -1.59313772e-002, 1.16473483e-002, 1.74844135e-002,
          7.36350706e-003, 5.74482512e-003, 1.83425304e-002,
          -1.10749314e-002, -3.11227310e-002, -2.82260198e-002,
          -3.04961652e-002, -4.93550906e-003, -1.44759230e-002,
          -2.40216609e-002, -8.11721105e-003, -5.87498536e-003,
          -3.45252431e-003, -1.01651549e-002, 1.00613302e-002,
          1.51773859e-002, -1.54289426e-002, -2.27117594e-002,
          -1.45174926e-002, -2.19848603e-002, 1.42624872e-002,
          1.20140025e-002, 7.37108476e-003, -1.12506403e-002,
          -4.60721925e-003, 8.44806246e-003, -1.20321475e-003,
          -1.41098257e-002, -2.23825797e-002, -2.01359158e-003,
          7.83127034e-004, 2.03876980e-002, 2.14912780e-002,
          2.29544099e-002, 5.03731798e-003, -7.24525750e-003,
          -8.62785615e-004, 4.33680869e-017, 4.33680869e-017,
          4.33680869e-017, 4.33680869e-017, 4.33680869e-017,
          4.33680869e-017, 4.33680869e-017, 4.33680869e-017,
          4.33680869e-017, 4.33680869e-017, 4.33680869e-017,
          4.33680869e-017, 4.33680869e-017, 4.33680869e-017,
          4.33680869e-017, -1.35328081e-002, 3.31074931e-002,
          1.07093453e-002, -5.18285623e-003, -1.06858993e-002,
          -7.59359263e-003, -3.19982530e-003, -5.76528255e-003,
          -2.73297485e-002, -1.32952761e-002, -1.98756289e-002,
          1.12311856e-003, -9.79259145e-003, 4.73697390e-003,
          1.42632390e-003, -2.53877230e-002, -3.59858498e-002,
          -7.66964583e-003, -8.58078338e-003, 4.27296720e-002,
          1.72232073e-002, -3.07332538e-003, -1.37323688e-003,
          -2.74776504e-003, 5.37708588e-003, -1.40312538e-002,
          -9.94544756e-003, -1.92174595e-002, -8.68187472e-003,
          5.37577458e-003, -2.30848771e-002, 6.25247788e-003,
          3.47114466e-002, 3.21881846e-002, -4.05977778e-002,
          -4.04695841e-003, 3.77573585e-003, 1.55692105e-003,
          -1.16269272e-002, -2.40306668e-002, -4.48818086e-003,
          1.58519782e-002, 1.52303698e-002, 1.15280040e-002,
          2.65257135e-002, 1.28760776e-002, -8.96825362e-003,
          -8.13232455e-003, 4.33680869e-017, 4.33680869e-017,
          4.33680869e-017, 4.33680869e-017, 4.33680869e-017,
          4.33680869e-017, 4.33680869e-017, 4.33680869e-017,
          4.33680869e-017, 4.33680869e-017, 4.33680869e-017,
          4.33680869e-017, 4.33680869e-017, 4.33680869e-017,
          4.33680869e-017, 4.33680869e-017, -1.37543287e-002,
          -2.47379038e-002, -1.51912728e-002, 9.61275026e-003,
          -6.89169567e-004, -1.49832172e-002, -1.74708311e-002,
          -2.90639531e-002, -2.34045945e-002, -1.32899405e-002,
          -6.64414000e-003, -1.74653239e-003, -1.29471160e-003,
          -1.03594214e-002, 4.81683528e-003, -3.00809778e-002,
          -1.04797864e-002, -1.08887302e-002, 2.11952403e-002,
          -6.07225904e-003, -7.17079779e-003, 3.05672479e-003,
          -2.27080891e-003, -2.13356428e-002, -9.60657932e-003,
          -7.38834823e-003, -2.11926177e-002, -2.09873170e-002,
          3.23302997e-003, -2.18518022e-002, 1.17639089e-002,
          1.89523362e-002, 1.45174554e-002, -8.20602011e-003,
          -1.12700434e-002, -7.90492259e-003, 8.12929682e-003,
          -2.91861058e-003, -1.31207071e-002, -1.14976680e-002,
          9.48687375e-006, -3.03670135e-003, 1.42884851e-002,
          1.63509995e-002, 6.43111393e-003, -6.98633306e-003,
          -1.00657847e-002, -6.08890736e-003, 4.33680869e-017,
          4.33680869e-017, 4.33680869e-017, 4.33680869e-017,
          4.33680869e-017, 4.33680869e-017, 4.33680869e-017,
          4.33680869e-017, 4.33680869e-017, 4.33680869e-017,
          4.33680869e-017, 4.33680869e-017, 4.33680869e-017,
          4.33680869e-017, 4.33680869e-017, 4.33680869e-017,
          -8.34235642e-003, -4.62284265e-003, -2.51085740e-002,
          -1.20856566e-002, -1.24430638e-002, -3.98165099e-002,
          -6.36578798e-002, -3.84077542e-002, -1.93169732e-002,
          -2.41672285e-002, 1.64889768e-002, -2.07628807e-004,
          -1.69243140e-004, 8.18998029e-004, -1.27912639e-002,
          -7.45497644e-003, -4.30730265e-003, -1.58116650e-002,
          8.63774738e-004, -1.06419902e-002, 5.03124762e-003,
          -1.75473411e-002, 1.23719533e-003, 2.43870653e-002,
          -7.59156770e-004, -7.41163455e-003, -8.43122602e-003,
          2.85708555e-003, 1.73308197e-002, 1.97125301e-002,
          1.85285918e-002, 4.51858994e-003, -2.62888037e-002,
          -1.03067011e-002, -1.37956766e-003, -1.38186365e-002,
          -2.93065258e-003, 2.90765706e-003, -2.84407870e-003,
          1.12364851e-002, -5.03772288e-004, 3.61790485e-003,
          -7.68643757e-003, -1.30461785e-003, -1.37382373e-002,
          -2.18046997e-002, -1.33844996e-002, -6.08890736e-003,
          4.33680869e-017, 4.33680869e-017, 4.33680869e-017,
          4.33680869e-017, 4.33680869e-017, 4.33680869e-017,
          4.33680869e-017, 4.33680869e-017, 4.33680869e-017,
          4.33680869e-017, 4.33680869e-017, 4.33680869e-017,
          4.33680869e-017, 4.33680869e-017, 4.33680869e-017,
          4.33680869e-017, -5.51133696e-003, -3.32447402e-002,
          -2.62596004e-004, -1.02601452e-002, -1.40837589e-002,
          2.35926535e-004, -1.82252494e-003, -2.12094095e-002,
          -3.05829346e-002, -2.04345733e-002, 4.62752581e-003,
          -1.05116833e-002, -2.08853092e-002, -1.67171180e-003,
          -1.01607237e-002, -1.86066665e-002, -1.99152958e-002,
          -1.57118235e-002, 8.38139327e-004, 1.77055914e-002,
          5.65069020e-002, 1.88400745e-002, 1.77374762e-002,
          8.45479965e-003, -1.08456193e-003, 6.96306117e-003,
          -9.24672280e-003, 3.46873142e-002, 3.68049070e-002,
          -1.64771155e-002, -2.43814122e-002, -1.84886232e-002,
          -3.78010944e-002, -1.41817098e-002, 7.82148272e-004,
          -2.04098281e-002, 2.00968003e-003, -2.49716118e-002,
          -1.25740459e-002, -8.66767298e-003, -1.51352733e-002,
          -1.69663671e-002, -1.96235087e-002, -1.27413785e-002,
          -1.50159411e-002, -2.14392729e-002, -2.29857415e-002,
          -2.08578613e-002, -8.12218990e-003, 4.33680869e-017,
          4.33680869e-017, 4.33680869e-017, 4.33680869e-017,
          4.33680869e-017, 4.33680869e-017, 4.33680869e-017,
          4.33680869e-017, 4.33680869e-017, 4.33680869e-017,
          4.33680869e-017, 4.33680869e-017, 4.33680869e-017,
          4.33680869e-017, -8.73269234e-003, -2.69939601e-002,
          -4.84241499e-003, 5.11698599e-004, -1.39165139e-002,
          -5.39656868e-003, -2.05625384e-003, -6.03004079e-003,
          -2.53190473e-002, -1.59037896e-002, -2.43032351e-002,
          -9.57524590e-003, -2.80668549e-002, -1.39572313e-002,
          -1.81501713e-002, 2.03891285e-002, 2.08838331e-003,
          -2.00237557e-002, 2.36519310e-003, -7.29211746e-003,
          1.88883375e-002, 2.14305613e-002, 1.23356786e-002,
          7.92902615e-003, -3.01927840e-003, 4.84585622e-003,
          6.64955413e-004, -1.50385462e-002, 9.49319080e-003,
          2.22440362e-002, -2.26984848e-003, -1.39613608e-002,
          -2.98369918e-002, -1.07903378e-002, 6.37486577e-003,
          1.45740574e-002, -1.63539648e-002, -2.36494374e-002,
          -5.83483314e-004, -6.66972017e-003, 4.05594427e-003,
          4.05788794e-003, -3.76647175e-003, -1.06725991e-002,
          -1.56097990e-002, -2.64166966e-002, -2.80896313e-002,
          -2.77994126e-002, -9.69710387e-003, 4.33680869e-017,
          4.33680869e-017, 4.33680869e-017, 4.33680869e-017,
          4.33680869e-017, 4.33680869e-017, 4.33680869e-017,
          4.33680869e-017, 4.33680869e-017, 4.33680869e-017,
          4.33680869e-017, 4.33680869e-017, 4.33680869e-017,
          4.33680869e-017, 4.33680869e-017, -1.61012132e-002,
          -1.67604964e-002, -8.85238219e-003, 3.98241403e-003,
          3.57421604e-003, 2.08134158e-003, -6.88975723e-003,
          -1.82646494e-002, -3.04465275e-002, -4.83348705e-002,
          -2.86499429e-002, -1.54478820e-002, -1.13463607e-002,
          9.22268163e-003, 2.04211082e-002, 1.08407708e-002,
          -3.49494889e-002, -1.43263228e-002, -1.48889115e-002,
          -1.54405320e-002, 7.38476776e-003, -6.72177528e-004,
          -9.51213390e-003, 2.73653655e-003, -1.67394057e-002,
          -1.42532568e-002, -8.86767451e-003, 5.75631810e-003,
          1.67373493e-002, 6.41649356e-003, -8.27849656e-003,
          -1.70459021e-002, -1.61027666e-002, -5.54003101e-003,
          -1.52799385e-005, -1.92732390e-004, -1.07447430e-002,
          3.26995086e-003, -9.65967122e-003, -5.41258417e-003,
          -5.31894574e-003, -4.93280031e-003, -7.27933459e-003,
          -1.37623549e-002, -2.55103707e-002, -3.06325182e-002,
          -2.80896313e-002, -1.96772218e-002, -1.18439849e-002,
          4.33680869e-017, 4.33680869e-017, 4.33680869e-017,
          4.33680869e-017, 4.33680869e-017, 4.33680869e-017,
          4.33680869e-017, 4.33680869e-017, 4.33680869e-017,
          4.33680869e-017, 4.33680869e-017, 4.33680869e-017,
          4.33680869e-017, 4.33680869e-017, 4.33680869e-017,
          -1.37228016e-002, -1.80244371e-002, -6.02187170e-003,
          8.29541590e-003, -5.10094222e-003, -1.18320389e-002,
          -1.62100717e-002, -2.61019450e-002, -2.68701222e-002,
          -1.54662887e-002, -1.32403579e-002, -2.78161163e-003,
          9.83910984e-004, -3.60665563e-003, 4.22762036e-002,
          2.41688620e-002, -2.47710552e-002, -6.48486614e-003,
          -3.83882993e-003, 1.10753700e-002, 2.00116504e-002,
          4.19019535e-003, 3.05593945e-002, 1.97384842e-002,
          1.52046103e-002, -1.90902706e-002, -4.05667676e-003,
          1.97622832e-002, 2.28334200e-002, -7.77141098e-003,
          -1.63016915e-002, -2.24390663e-002, -1.44424671e-002,
          -1.18629131e-002, -3.04949638e-002, -1.86662674e-002,
          -1.44388061e-002, -1.73303150e-002, -1.70879271e-002,
          -1.50366277e-002, -1.57063063e-002, -1.59092583e-002,
          -1.27749285e-002, -2.27124915e-002, -2.09535770e-002,
          -3.51182632e-002, -1.90450232e-002, -1.81533359e-002,
          -1.18439849e-002, 4.33680869e-017, 4.33680869e-017,
          4.33680869e-017, 4.33680869e-017, 4.33680869e-017,
          4.33680869e-017, 4.33680869e-017, 4.33680869e-017,
          4.33680869e-017, 4.33680869e-017, 4.33680869e-017,
          4.33680869e-017, 4.33680869e-017, 4.33680869e-017,
          -7.36852130e-003, -1.58071108e-002, -1.06143393e-002,
          -1.24885107e-003, -3.50116345e-004, -9.90028866e-003,
          -7.82963354e-003, -2.16706023e-002, -3.22921388e-002,
          -3.00148446e-002, -1.35265496e-002, -7.51656713e-003,
          1.19649444e-003, 1.07686948e-002, 3.47585939e-002,
          2.62724273e-002, 2.53865067e-002, -1.89437475e-002,
          -5.78380143e-003, 1.84625166e-003, 1.15524065e-002,
          2.42389683e-002, 2.28424799e-002, 1.48243981e-003,
          4.71468549e-003, -4.12449660e-003, -3.16488394e-003,
          1.12061226e-003, 1.52025530e-002, 1.17836450e-003,
          1.01396802e-003, -3.71791013e-002, -4.12635021e-002,
          -9.81942378e-003, -4.14313702e-003, -2.44626459e-002,
          1.31001482e-002, -7.58958468e-003, -6.11115573e-003,
          -1.04873450e-002, -1.25751058e-002, -4.33785096e-003,
          -7.10576912e-003, -3.97481862e-003, -7.93466903e-003,
          -2.11673770e-002, -2.37298571e-002, -2.54710913e-002,
          -1.81533359e-002, -1.18439849e-002, 4.33680869e-017,
          4.33680869e-017, 4.33680869e-017, 4.33680869e-017,
          4.33680869e-017, 4.33680869e-017, 4.33680869e-017,
          4.33680869e-017, 4.33680869e-017, 4.33680869e-017,
          4.33680869e-017, 4.33680869e-017, 4.33680869e-017,
          4.33680869e-017, -1.37228016e-002, -1.37228016e-002,
          -1.58840287e-002, 6.13577478e-003, -7.57563533e-003,
          -1.12614855e-002, 1.04158074e-002, -4.64502461e-002,
          -3.46276164e-002, -2.46339105e-002, -1.36226192e-002,
          -1.09389145e-002, 8.59837234e-003, 1.28819412e-002,
          8.48663878e-003, 2.21605524e-002, 1.71930138e-002,
          -1.76239405e-002, -5.43611823e-003, 1.00572808e-002,
          -9.36784409e-003, -1.33875832e-002, -2.41172989e-003,
          -1.02154016e-002, -4.34737327e-003, -1.42416470e-002,
          -9.66998655e-003, -1.22797478e-003, 1.08948012e-003,
          9.44778509e-003, -2.78183469e-003, -2.89943069e-002,
          -2.46800911e-002, -1.89999286e-002, 4.81508626e-003,
          -4.16287854e-002, -5.36427693e-003, -3.34333116e-003,
          -8.64059012e-003, -1.25751058e-002, -1.25513123e-002,
          -1.41941328e-002, -6.24135416e-003, -3.68460896e-004,
          -6.34864857e-003, -2.41720229e-002, -2.53700614e-002,
          -2.53700614e-002, -1.69404056e-002, -1.51626999e-002,
          4.33680869e-017, 4.33680869e-017, 4.33680869e-017,
          4.33680869e-017, 4.33680869e-017, 4.33680869e-017,
          4.33680869e-017, 4.33680869e-017, 4.33680869e-017,
          4.33680869e-017, 4.33680869e-017, 4.33680869e-017,
          4.33680869e-017, 4.33680869e-017, -1.37228016e-002,
          -1.23415189e-002, -1.13964900e-002, -6.84935367e-003,
          -3.49853560e-003, -1.02954619e-002, -1.60539802e-002,
          -4.03503366e-002, -2.45291181e-002, -1.52018787e-002,
          -7.78975664e-003, 6.30311063e-003, 1.41284708e-002,
          2.14258730e-002, 1.06288400e-002, 2.33056098e-002,
          2.81225564e-003, -2.36460809e-002, -5.25275618e-003,
          -1.03642419e-002, -9.85445082e-003, -2.50819121e-002,
          -3.65011976e-003, 3.56452586e-003, -1.29906796e-002,
          6.73147896e-003, 8.79687781e-004, -1.26254493e-002,
          1.09774237e-002, -5.42739173e-003, 7.76527077e-003,
          1.31227039e-002, -2.05051154e-002, -2.32539494e-002,
          1.84172690e-002, -2.11576167e-002, -7.80098513e-003,
          1.20774331e-003, -2.23705824e-002, -1.78031269e-002,
          -1.18384939e-002, -1.15452865e-002, -6.45348104e-003,
          -7.28154881e-003, -1.36163644e-002, -1.87086575e-002,
          -2.53700614e-002, -2.54171696e-002, -1.71809271e-002,
          -1.35704987e-002, -5.75507712e-003, 4.33680869e-017,
          4.33680869e-017, 4.33680869e-017, 4.33680869e-017,
          4.33680869e-017, 4.33680869e-017, 4.33680869e-017,
          4.33680869e-017, 4.33680869e-017, 4.33680869e-017,
          4.33680869e-017, 4.33680869e-017, -1.20708523e-002,
          -1.06895696e-002, -1.06895696e-002, -2.81863492e-002,
          -1.56168612e-002, -1.49989184e-002, -2.40775291e-002,
          -4.25290987e-002, -5.37502766e-002, -2.74194218e-002,
          -2.88726576e-002, 2.10166145e-002, 1.76951364e-002,
          2.73391884e-002, 8.04461725e-003, -1.60427783e-002,
          6.02391548e-003, -6.09889440e-003, -6.02572924e-003,
          -1.84193050e-004, -8.14403780e-003, -1.07694715e-002,
          -7.72957085e-003, 2.94831372e-003, 2.95425374e-002,
          8.50978773e-003, 1.08896978e-002, 8.40957183e-003,
          1.56555865e-002, -1.25133721e-002, 3.20756529e-003,
          1.28413979e-002, -7.42483512e-003, -1.00946948e-002,
          -1.19110104e-002, 2.54769600e-003, -2.77287159e-002,
          -3.22413445e-003, -2.32307967e-002, -2.79294234e-002,
          -1.42661761e-002, -5.52716898e-003, -5.65805892e-003,
          -5.60417119e-003, -1.58005469e-002, -2.13447232e-002,
          -1.17570888e-002, -2.35107858e-002, -2.35107858e-002,
          -2.01920699e-002, -1.25354938e-002, 4.33680869e-017,
          4.33680869e-017, 4.33680869e-017, 4.33680869e-017,
          4.33680869e-017, 4.33680869e-017, 4.33680869e-017,
          4.33680869e-017, 4.33680869e-017, 4.33680869e-017,
          4.33680869e-017, 4.33680869e-017, 4.33680869e-017,
          -4.70233057e-003, -1.06895696e-002, -1.06895696e-002,
          -1.73948370e-002, -1.30491154e-002, -3.70438285e-002,
          -3.61140296e-002, -5.12145646e-002, -5.69325127e-002,
          -4.83959466e-002, -3.51019017e-002, 9.26752691e-004,
          -2.88644936e-002, 1.42827001e-003, 2.14395169e-002,
          4.94395569e-003, -8.87557748e-004, 8.03683978e-003,
          -1.53758908e-002, 9.99279204e-004, 1.18168732e-002,
          1.69752724e-002, 1.46448826e-002, 1.47251403e-002,
          1.64933521e-002, 1.46515099e-002, 1.94661841e-002,
          -2.61009089e-003, 4.93253395e-003, 1.52076846e-002,
          -2.49135238e-003, -2.44069435e-002, -1.92053448e-002,
          -4.12703212e-003, -2.54665259e-002, -4.50588111e-003,
          -3.90658714e-002, -1.47162406e-002, -1.61049869e-002,
          -1.45790074e-002, -2.41647498e-003, -4.67978511e-003,
          -7.14768423e-003, -8.64662975e-003, -4.16199164e-003,
          -6.38745353e-003, -6.38745353e-003, -1.43179791e-002,
          -8.22408125e-003, -8.22408125e-003, -9.06326168e-004,
          4.33680869e-017, 4.33680869e-017, 4.33680869e-017,
          4.33680869e-017, 4.33680869e-017, 4.33680869e-017,
          4.33680869e-017, 4.33680869e-017, 4.33680869e-017,
          4.33680869e-017, 4.33680869e-017, 4.33680869e-017,
          4.33680869e-017, 4.33680869e-017, 4.33680869e-017,
          4.33680869e-017, -1.49853984e-002, -2.62285285e-002,
          -4.16325107e-002, -5.94186485e-002, -6.46359175e-002,
          -3.11355535e-002, -1.90911777e-002, -2.82861311e-002,
          -3.11734620e-002, -2.31191423e-002, -1.36628570e-002,
          -9.61208902e-003, 9.71072260e-003, 2.45839432e-002,
          1.21100396e-002, -8.33953917e-003, 8.37692060e-005,
          3.63599434e-002, 3.66000198e-002, 2.95728445e-002,
          2.75823288e-002, 2.54772939e-002, 5.53916488e-003,
          -9.08228394e-004, -8.64178594e-003, -1.22017099e-003,
          -3.35067743e-003, -9.00448021e-003, 2.74477643e-003,
          -3.19329351e-002, -3.70852314e-002, -4.10700217e-002,
          -2.73171701e-002, -2.34285779e-002, -1.42670013e-002,
          -1.08081885e-002, -4.06014174e-003, -8.10151640e-003,
          -8.68526660e-003, -8.68526660e-003, -5.21083642e-003,
          -3.82317067e-003, -6.04863232e-003, -6.04863232e-003,
          -1.20472517e-002, -1.20472517e-002, -1.20472517e-002,
          -5.99861890e-003, 4.33680869e-017, 4.33680869e-017,
          4.33680869e-017, 4.33680869e-017, 4.33680869e-017,
          4.33680869e-017, 4.33680869e-017, 4.33680869e-017,
          4.33680869e-017, 4.33680869e-017, 4.33680869e-017,
          4.33680869e-017, 4.33680869e-017, 4.33680869e-017,
          4.33680869e-017, 4.33680869e-017, 4.33680869e-017,
          4.33680869e-017, 4.33680869e-017, 4.33680869e-017,
          4.33680869e-017, 4.33680869e-017, 4.33680869e-017,
          4.33680869e-017, 4.33680869e-017, 4.33680869e-017,
          4.33680869e-017, 4.33680869e-017, 4.33680869e-017,
          4.33680869e-017, 1.60047377e-004, 1.60047377e-004,
          1.60047377e-004, 1.60047377e-004, 1.60047377e-004,
          1.60047377e-004, 1.60047377e-004, 1.60047377e-004,
          1.60047377e-004, 1.60047377e-004, 1.60047377e-004,
          1.60047377e-004, 1.60047377e-004, 1.60047377e-004,
          4.33680869e-017, 4.33680869e-017, 4.33680869e-017,
          4.33680869e-017, 4.33680869e-017, 4.33680869e-017,
          4.33680869e-017, 4.33680869e-017, 4.33680869e-017,
          4.33680869e-017, 4.33680869e-017, 4.33680869e-017,
          4.33680869e-017, 4.33680869e-017, 4.33680869e-017,
          4.33680869e-017, 4.33680869e-017, 4.33680869e-017,
          4.33680869e-017, 4.33680869e-017, 4.33680869e-017,
          4.33680869e-017, 4.33680869e-017, 4.33680869e-017,
          4.33680869e-017, 4.33680869e-017, 4.33680869e-017,
          4.33680869e-017, 4.33680869e-017, 4.33680869e-017,
          4.33680869e-017, 4.33680869e-017, 4.33680869e-017,
          4.33680869e-017, 4.33680869e-017, 4.33680869e-017,
          4.33680869e-017, 4.33680869e-017, 4.33680869e-017,
          4.33680869e-017, 4.33680869e-017, 4.33680869e-017,
          4.33680869e-017, 4.33680869e-017, 4.33680869e-017,
          4.33680869e-017, 4.33680869e-017, 4.33680869e-017,
          4.33680869e-017, 4.33680869e-017, 4.33680869e-017,
          4.33680869e-017, 4.33680869e-017, 4.33680869e-017,
          4.33680869e-017, 4.33680869e-017, 4.33680869e-017,
          4.33680869e-017, 4.33680869e-017, 4.33680869e-017,
          4.33680869e-017, 4.33680869e-017, 4.33680869e-017,
          4.33680869e-017, 4.33680869e-017, 4.33680869e-017,
          4.33680869e-017, 4.33680869e-017, 4.33680869e-017,
          4.33680869e-017, 4.33680869e-017, 4.33680869e-017,
          4.33680869e-017, 4.33680869e-017, 4.33680869e-017,
          4.33680869e-017, 4.33680869e-017, 4.33680869e-017,
          4.33680869e-017, 4.33680869e-017, 4.33680869e-017,
          4.33680869e-017, 4.33680869e-017, 4.33680869e-017,
          4.33680869e-017, 4.33680869e-017, 4.33680869e-017,
          4.33680869e-017, 4.33680869e-017, 4.33680869e-017,
          4.33680869e-017, 4.33680869e-017, 4.33680869e-017,
          4.33680869e-017, 4.33680869e-017, 4.33680869e-017,
          4.33680869e-017, 4.33680869e-017, 4.33680869e-017,
          4.33680869e-017, 4.33680869e-017, 4.33680869e-017,
          4.33680869e-017, 4.33680869e-017, 4.33680869e-017,
          4.33680869e-017, 4.33680869e-017, 4.33680869e-017,
          4.33680869e-017, 4.33680869e-017, 4.33680869e-017,
          4.33680869e-017, 4.33680869e-017, 4.33680869e-017,
          4.33680869e-017, 4.33680869e-017, 4.33680869e-017,
          4.33680869e-017, 4.33680869e-017, 4.33680869e-017,
          4.33680869e-017, 4.33680869e-017, 4.33680869e-017,
          4.33680869e-017, 4.33680869e-017, 4.33680869e-017,
          4.33680869e-017, 4.33680869e-017, 4.33680869e-017,
          4.33680869e-017, 4.33680869e-017, 4.33680869e-017,
          4.33680869e-017, 4.33680869e-017, 4.33680869e-017,
          4.33680869e-017, 4.33680869e-017, 4.33680869e-017,
          4.33680869e-017, 4.33680869e-017, 4.33680869e-017,
          4.33680869e-017, 4.33680869e-017, 4.33680869e-017,
          4.33680869e-017, 4.33680869e-017, 4.33680869e-017,
          4.33680869e-017, 4.33680869e-017, 4.33680869e-017,
          4.33680869e-017, 4.33680869e-017, 4.33680869e-017,
          4.33680869e-017, 4.33680869e-017, 4.33680869e-017,
          4.33680869e-017, 4.33680869e-017, 4.33680869e-017,
          4.33680869e-017, 4.33680869e-017, 4.33680869e-017,
          4.33680869e-017, 4.33680869e-017, 4.33680869e-017,
          4.33680869e-017, 4.33680869e-017, 4.33680869e-017,
          4.33680869e-017, 4.33680869e-017, 4.33680869e-017,
          4.33680869e-017, 4.33680869e-017, 4.33680869e-017,
          4.33680869e-017, 4.33680869e-017, 4.33680869e-017,
          4.33680869e-017, 4.33680869e-017, 4.33680869e-017,
          4.33680869e-017, 4.33680869e-017, 4.33680869e-017,
          4.33680869e-017, 4.33680869e-017, 4.33680869e-017,
          4.33680869e-017, 4.33680869e-017, 4.33680869e-017,
          4.33680869e-017, 4.33680869e-017, 4.33680869e-017,
          4.33680869e-017, 4.33680869e-017, 4.33680869e-017,
          4.33680869e-017, 4.33680869e-017, 4.33680869e-017,
          4.33680869e-017, 4.33680869e-017, 4.33680869e-017,
          4.33680869e-017, 4.33680869e-017, 4.33680869e-017,
          4.33680869e-017, 4.33680869e-017, 4.33680869e-017,
          4.33680869e-017, 4.33680869e-017, 4.33680869e-017,
          4.33680869e-017, 4.33680869e-017, 4.33680869e-017,
          4.33680869e-017, 4.33680869e-017, 4.33680869e-017,
          4.33680869e-017, 4.33680869e-017, 4.33680869e-017,
          4.33680869e-017, 4.33680869e-017, 4.33680869e-017,
          4.33680869e-017, 4.33680869e-017, 4.33680869e-017,
          4.33680869e-017, 4.33680869e-017, 4.33680869e-017,
          4.33680869e-017, 4.33680869e-017, 4.33680869e-017,
          4.33680869e-017, 4.33680869e-017, 4.33680869e-017,
          4.33680869e-017, 4.33680869e-017, 4.33680869e-017,
          4.33680869e-017, 4.33680869e-017, 4.33680869e-017,
          4.33680869e-017, 4.33680869e-017, 4.33680869e-017,
          4.33680869e-017, 4.33680869e-017, 4.33680869e-017,
          4.33680869e-017, 4.33680869e-017, 4.33680869e-017,
          4.33680869e-017, 4.33680869e-017, 4.33680869e-017,
          4.33680869e-017, 4.33680869e-017, 4.33680869e-017,
          4.33680869e-017, 4.33680869e-017, 4.33680869e-017,
          4.33680869e-017, 4.33680869e-017, 4.33680869e-017,
          4.33680869e-017, 4.33680869e-017, 4.33680869e-017,
          4.33680869e-017, 4.33680869e-017, 4.33680869e-017,
          4.33680869e-017, 4.33680869e-017, 4.33680869e-017,
          4.33680869e-017, 4.33680869e-017, 4.33680869e-017,
          4.33680869e-017, 4.33680869e-017, 4.33680869e-017,
          4.33680869e-017, 4.33680869e-017, 4.33680869e-017,
          4.33680869e-017, 4.33680869e-017, 4.33680869e-017,
          4.33680869e-017, 4.33680869e-017, 4.33680869e-017,
          4.33680869e-017, 4.33680869e-017, 4.33680869e-017,
          4.33680869e-017, 4.33680869e-017, 4.33680869e-017,
          4.33680869e-017, 4.33680869e-017, 4.33680869e-017,
          4.33680869e-017, 4.33680869e-017, 4.33680869e-017,
          4.33680869e-017, 4.33680869e-017, 4.33680869e-017,
          4.33680869e-017, 4.33680869e-017, 4.33680869e-017,
          4.33680869e-017, 4.33680869e-017, 4.33680869e-017,
          4.33680869e-017, 4.33680869e-017, 4.33680869e-017,
          4.33680869e-017, 4.33680869e-017, 4.33680869e-017,
          4.33680869e-017, 4.33680869e-017, 4.33680869e-017,
          4.33680869e-017, 4.33680869e-017, 4.33680869e-017,
          4.33680869e-017, 4.33680869e-017, 4.33680869e-017,
          4.33680869e-017, 4.33680869e-017, 4.33680869e-017,
          4.33680869e-017, 4.33680869e-017, 4.33680869e-017,
          4.33680869e-017, 4.33680869e-017, 4.33680869e-017,
          4.33680869e-017, 4.33680869e-017, 4.33680869e-017,
          4.33680869e-017, 4.33680869e-017, 4.33680869e-017,
          4.33680869e-017, 4.33680869e-017, 4.33680869e-017,
          4.33680869e-017, 4.33680869e-017, 4.33680869e-017,
          4.33680869e-017, 4.33680869e-017, 4.33680869e-017,
          4.33680869e-017, 4.33680869e-017, 4.33680869e-017,
          4.33680869e-017, 4.33680869e-017, 4.33680869e-017,
          4.33680869e-017, 4.33680869e-017, 4.33680869e-017,
          4.33680869e-017, 4.33680869e-017, 4.33680869e-017,
          4.33680869e-017, 4.33680869e-017, 4.33680869e-017,
          4.33680869e-017, 4.33680869e-017, 4.33680869e-017,
          4.33680869e-017, 4.33680869e-017, 4.33680869e-017,
          4.33680869e-017, 4.33680869e-017, 4.33680869e-017,
          4.33680869e-017, 4.33680869e-017, 4.33680869e-017,
          4.33680869e-017, 4.33680869e-017, 4.33680869e-017,
          4.33680869e-017, 4.33680869e-017, 4.33680869e-017,
          4.33680869e-017, 4.33680869e-017, 4.33680869e-017,
          4.33680869e-017, 4.33680869e-017, 4.33680869e-017,
          4.33680869e-017, 4.33680869e-017, 4.33680869e-017,
          4.33680869e-017, 4.33680869e-017, 4.33680869e-017,
          4.33680869e-017, 4.33680869e-017, 4.33680869e-017,
          4.33680869e-017, 4.33680869e-017, 4.33680869e-017,
          4.33680869e-017, 4.33680869e-017, 4.33680869e-017,
          4.33680869e-017, 4.33680869e-017, 4.33680869e-017,
          4.33680869e-017, 4.33680869e-017, 4.33680869e-017,
          4.33680869e-017, 4.33680869e-017, 4.33680869e-017,
          4.33680869e-017, 4.33680869e-017, 4.33680869e-017,
          4.33680869e-017 ]
      - [ -3.25260652e-018, -3.25260652e-018, -3.25260652e-018,
          -3.25260652e-018, -3.25260652e-018, -3.25260652e-018,
          -3.25260652e-018, -3.25260652e-018, -3.25260652e-018,
          -3.25260652e-018, -3.25260652e-018, -3.25260652e-018,
          -3.25260652e-018, -3.25260652e-018, -3.25260652e-018,
          -3.25260652e-018, -3.25260652e-018, -3.25260652e-018,
          -3.25260652e-018, -3.25260652e-018, -3.25260652e-018,
          -3.25260652e-018, -3.25260652e-018, -3.25260652e-018,
          -3.25260652e-018, -3.25260652e-018, -3.25260652e-018,
          -3.25260652e-018, -3.25260652e-018, -3.25260652e-018,
          -3.25260652e-018, -3.25260652e-018, -3.25260652e-018,
          -3.25260652e-018, -3.25260652e-018, -3.25260652e-018,
          -3.25260652e-018, -3.25260652e-018, -3.25260652e-018,
          -3.25260652e-018, -3.25260652e-018, -3.25260652e-018,
          -3.25260652e-018, -3.25260652e-018, -3.25260652e-018,
          -3.25260652e-018, -3.25260652e-018, -3.25260652e-018,
          -3.25260652e-018, -3.25260652e-018, -3.25260652e-018,
          -3.25260652e-018, -3.25260652e-018, -3.25260652e-018,
          -3.25260652e-018, -3.25260652e-018, -3.25260652e-018,
          -3.25260652e-018, -3.25260652e-018, -3.25260652e-018,
          -3.25260652e-018, -3.25260652e-018, -3.25260652e-018,
          -3.25260652e-018, -3.25260652e-018, -3.25260652e-018,
          -3.25260652e-018, -3.25260652e-018, -3.25260652e-018,
          -3.25260652e-018, -3.25260652e-018, -3.25260652e-018,
          -3.25260652e-018, -3.25260652e-018, -3.25260652e-018,
          -3.25260652e-018, -3.25260652e-018, -3.25260652e-018,
          -3.25260652e-018, -3.25260652e-018, -3.25260652e-018,
          -3.25260652e-018, -3.25260652e-018, -3.25260652e-018,
          -3.25260652e-018, -3.25260652e-018, -3.25260652e-018,
          -3.25260652e-018, -3.25260652e-018, -3.25260652e-018,
          -3.25260652e-018, -3.25260652e-018, -3.25260652e-018,
          -3.25260652e-018, -3.25260652e-018, -3.25260652e-018,
          -3.25260652e-018, -3.25260652e-018, -3.25260652e-018,
          -3.25260652e-018, -3.25260652e-018, -3.25260652e-018,
          -3.25260652e-018, -3.25260652e-018, -3.25260652e-018,
          -3.25260652e-018, -3.25260652e-018, -3.25260652e-018,
          -3.25260652e-018, -3.25260652e-018, -3.25260652e-018,
          -3.25260652e-018, -3.25260652e-018, -3.25260652e-018,
          -3.25260652e-018, -3.25260652e-018, -3.25260652e-018,
          -3.25260652e-018, -3.25260652e-018, -3.25260652e-018,
          -3.25260652e-018, -3.25260652e-018, -3.25260652e-018,
          -3.25260652e-018, -3.25260652e-018, -3.25260652e-018,
          -3.25260652e-018, -3.25260652e-018, -3.25260652e-018,
          -3.25260652e-018, -3.25260652e-018, -3.25260652e-018,
          -3.25260652e-018, -3.25260652e-018, -3.25260652e-018,
          -3.25260652e-018, -3.25260652e-018, -3.25260652e-018,
          -3.25260652e-018, -3.25260652e-018, -3.25260652e-018,
          -3.25260652e-018, -3.25260652e-018, -3.25260652e-018,
          -3.25260652e-018, -3.25260652e-018, -3.25260652e-018,
          -3.25260652e-018, -3.25260652e-018, -3.25260652e-018,
          -3.25260652e-018, -3.25260652e-018, -3.25260652e-018,
          -3.25260652e-018, -3.25260652e-018, -3.25260652e-018,
          -3.25260652e-018, -3.25260652e-018, -3.25260652e-018,
          -3.25260652e-018, -3.25260652e-018, -3.25260652e-018,
          -3.25260652e-018, -3.25260652e-018, -3.25260652e-018,
          -3.25260652e-018, -3.25260652e-018, -3.25260652e-018,
          -3.25260652e-018, -3.25260652e-018, -3.25260652e-018,
          -3.25260652e-018, -3.25260652e-018, -3.25260652e-018,
          -3.25260652e-018, -3.25260652e-018, -3.25260652e-018,
          -3.25260652e-018, -3.25260652e-018, -3.25260652e-018,
          -3.25260652e-018, -3.25260652e-018, -3.25260652e-018,
          -3.25260652e-018, -3.25260652e-018, -3.25260652e-018,
          -3.25260652e-018, -3.25260652e-018, -3.25260652e-018,
          -3.25260652e-018, -3.25260652e-018, -3.25260652e-018,
          -3.25260652e-018, -3.25260652e-018, -3.25260652e-018,
          -3.25260652e-018, -3.25260652e-018, -3.25260652e-018,
          -3.25260652e-018, -3.25260652e-018, -3.25260652e-018,
          -3.25260652e-018, -3.25260652e-018, -3.25260652e-018,
          -3.25260652e-018, -3.25260652e-018, -3.25260652e-018,
          -3.25260652e-018, -3.25260652e-018, -3.25260652e-018,
          -3.25260652e-018, -3.25260652e-018, -3.25260652e-018,
          -3.25260652e-018, -3.25260652e-018, -3.25260652e-018,
          -3.25260652e-018, -3.25260652e-018, -3.25260652e-018,
          -3.25260652e-018, -3.25260652e-018, -3.25260652e-018,
          -3.25260652e-018, -3.25260652e-018, -3.25260652e-018,
          -3.25260652e-018, -3.25260652e-018, -3.25260652e-018,
          -3.25260652e-018, -3.25260652e-018, -3.25260652e-018,
          -3.25260652e-018, -3.25260652e-018, -3.25260652e-018,
          -3.25260652e-018, -3.25260652e-018, -3.25260652e-018,
          -3.25260652e-018, -3.25260652e-018, -3.25260652e-018,
          -3.25260652e-018, -3.25260652e-018, -3.25260652e-018,
          -3.25260652e-018, -3.25260652e-018, -3.25260652e-018,
          -3.25260652e-018, -3.25260652e-018, -3.25260652e-018,
          -3.25260652e-018, -3.25260652e-018, -3.25260652e-018,
          -3.25260652e-018, -3.25260652e-018, -3.25260652e-018,
          -3.25260652e-018, -3.25260652e-018, -3.25260652e-018,
          -3.25260652e-018, -3.25260652e-018, -3.25260652e-018,
          -3.25260652e-018, -3.25260652e-018, -3.25260652e-018,
          -3.25260652e-018, -3.25260652e-018, -3.25260652e-018,
          -3.25260652e-018, -3.25260652e-018, -3.25260652e-018,
          -3.25260652e-018, -3.25260652e-018, -3.25260652e-018,
          -3.25260652e-018, -3.25260652e-018, -3.25260652e-018,
          -3.25260652e-018, -3.25260652e-018, -3.25260652e-018,
          -3.25260652e-018, -3.25260652e-018, -3.25260652e-018,
          -3.25260652e-018, -3.25260652e-018, -3.25260652e-018,
          -3.25260652e-018, -3.25260652e-018, -3.25260652e-018,
          -3.25260652e-018, -3.25260652e-018, -3.25260652e-018,
          -3.25260652e-018, -3.25260652e-018, -3.25260652e-018,
          -3.25260652e-018, -3.25260652e-018, -3.25260652e-018,
          -3.25260652e-018, -3.25260652e-018, -3.25260652e-018,
          -3.25260652e-018, -3.25260652e-018, -3.25260652e-018,
          -3.25260652e-018, -3.25260652e-018, -3.25260652e-018,
          -3.25260652e-018, -3.25260652e-018, -3.25260652e-018,
          -3.25260652e-018, -3.25260652e-018, -3.25260652e-018,
          -3.25260652e-018, -3.25260652e-018, -3.25260652e-018,
          -3.25260652e-018, -3.25260652e-018, -3.25260652e-018,
          -3.25260652e-018, -3.25260652e-018, -3.25260652e-018,
          -3.25260652e-018, -3.25260652e-018, -3.25260652e-018,
          -3.25260652e-018, -3.25260652e-018, -3.25260652e-018,
          -3.25260652e-018, -3.25260652e-018, -3.25260652e-018,
          -3.25260652e-018, -3.25260652e-018, -3.25260652e-018,
          -3.25260652e-018, -3.25260652e-018, -3.25260652e-018,
          -3.25260652e-018, -3.25260652e-018, -3.25260652e-018,
          -3.25260652e-018, -3.25260652e-018, -3.25260652e-018,
          -3.25260652e-018, -3.25260652e-018, -3.25260652e-018,
          -3.25260652e-018, -3.25260652e-018, -3.25260652e-018,
          -3.25260652e-018, -3.25260652e-018, -3.25260652e-018,
          -3.25260652e-018, -3.25260652e-018, -3.25260652e-018,
          -3.25260652e-018, -3.25260652e-018, -3.25260652e-018,
          -3.25260652e-018, -3.25260652e-018, -3.25260652e-018,
          -3.25260652e-018, -3.25260652e-018, -3.25260652e-018,
          -3.25260652e-018, -3.25260652e-018, -3.25260652e-018,
          -3.25260652e-018, -3.25260652e-018, -3.25260652e-018,
          -3.25260652e-018, -3.25260652e-018, -3.25260652e-018,
          -3.25260652e-018, -3.25260652e-018, -3.25260652e-018,
          -3.25260652e-018, -3.25260652e-018, -3.25260652e-018,
          -3.25260652e-018, -3.25260652e-018, -3.25260652e-018,
          -3.25260652e-018, -3.25260652e-018, -3.25260652e-018,
          -3.25260652e-018, -3.25260652e-018, -3.25260652e-018,
          -3.25260652e-018, -3.25260652e-018, -3.25260652e-018,
          -3.25260652e-018, -3.25260652e-018, -3.25260652e-018,
          -3.25260652e-018, -3.25260652e-018, -3.25260652e-018,
          -3.25260652e-018, -3.25260652e-018, -3.25260652e-018,
          -3.25260652e-018, -3.25260652e-018, -3.25260652e-018,
          -3.25260652e-018, -3.25260652e-018, -3.25260652e-018,
          -3.25260652e-018, -3.25260652e-018, -3.25260652e-018,
          -3.25260652e-018, -3.25260652e-018, -3.25260652e-018,
          -3.25260652e-018, -3.25260652e-018, -3.25260652e-018,
          -3.25260652e-018, -3.25260652e-018, -3.25260652e-018,
          -3.25260652e-018, -3.25260652e-018, -3.25260652e-018,
          -3.25260652e-018, -3.25260652e-018, -3.25260652e-018,
          -3.25260652e-018, -3.25260652e-018, -3.25260652e-018,
          -3.25260652e-018, -3.25260652e-018, -3.25260652e-018,
          -3.25260652e-018, -3.25260652e-018, -3.25260652e-018,
          -3.25260652e-018, -3.25260652e-018, -3.25260652e-018,
          -3.25260652e-018, -3.25260652e-018, -3.25260652e-018,
          -3.25260652e-018, -3.25260652e-018, -3.25260652e-018,
          -3.25260652e-018, -3.25260652e-018, -3.25260652e-018,
          -3.25260652e-018, -3.25260652e-018, -3.25260652e-018,
          -3.25260652e-018, -3.25260652e-018, -3.25260652e-018,
          -3.25260652e-018, -3.25260652e-018, -3.25260652e-018,
          -3.25260652e-018, -3.25260652e-018, -3.25260652e-018,
          -3.25260652e-018, -3.25260652e-018, -3.25260652e-018,
          -3.25260652e-018, -3.25260652e-018, -3.25260652e-018,
          -3.25260652e-018, -3.25260652e-018, -3.25260652e-018,
          -3.25260652e-018, -3.25260652e-018, -3.25260652e-018,
          -3.25260652e-018, -3.25260652e-018, -3.25260652e-018,
          -3.25260652e-018, -3.25260652e-018, -3.25260652e-018,
          -3.25260652e-018, -3.25260652e-018, -3.25260652e-018,
          -3.25260652e-018, -3.25260652e-018, -3.25260652e-018,
          -3.25260652e-018, -3.25260652e-018, -3.25260652e-018,
          -3.25260652e-018, -3.25260652e-018, -3.25260652e-018,
          -3.25260652e-018, -4.10580076e-003, -4.10580076e-003,
          -4.10580076e-003, -4.10580076e-003, -4.10580076e-003,
          -3.25260652e-018, -3.25260652e-018, -3.25260652e-018,
          -3.25260652e-018, -3.25260652e-018, -3.25260652e-018,
          -3.25260652e-018, -3.25260652e-018, -3.25260652e-018,
          -3.25260652e-018, -3.25260652e-018, -3.25260652e-018,
          -3.25260652e-018, -3.25260652e-018, -3.25260652e-018,
          -3.25260652e-018, -3.25260652e-018, -3.25260652e-018,
          -3.25260652e-018, -3.25260652e-018, -3.25260652e-018,
          -3.25260652e-018, -3.25260652e-018, -3.25260652e-018,
          -3.25260652e-018, -3.25260652e-018, -3.25260652e-018,
          -3.25260652e-018, -3.25260652e-018, -3.25260652e-018,
          -3.25260652e-018, -3.25260652e-018, -3.25260652e-018,
          -3.25260652e-018, -3.25260652e-018, -3.25260652e-018,
          -3.25260652e-018, -5.31985890e-003, -6.48200046e-003,
          -1.00289686e-002, -1.03107607e-002, -1.03107607e-002,
          -6.76379260e-003, -4.88233753e-003, -2.14986149e-002,
          -2.08079387e-002, -1.42590387e-003, -8.74285586e-003,
          -1.77977066e-002, -6.22135261e-003, 3.37610096e-002,
          4.56347838e-002, 4.69340347e-002, 2.74944976e-002,
          5.11868335e-002, 4.73974310e-002, 5.38680404e-002,
          2.93005668e-002, 5.32360151e-002, 6.19827174e-002,
          3.15323547e-002, 3.58694606e-002, 3.50925960e-002,
          2.92704646e-002, 1.12687526e-002, 1.38189353e-003,
          3.48952087e-003, 1.93062908e-004, -3.26908659e-003,
          2.92914966e-003, -7.51256756e-003, -1.17154159e-002,
          -2.36989278e-003, 4.15194198e-004, -2.50587892e-003,
          -3.25260652e-018, -3.25260652e-018, -3.25260652e-018,
          -3.25260652e-018, -3.25260652e-018, -3.25260652e-018,
          -3.25260652e-018, -3.25260652e-018, -3.25260652e-018,
          -3.25260652e-018, -3.25260652e-018, -3.25260652e-018,
          -3.25260652e-018, -3.25260652e-018, -3.25260652e-018,
          -3.25260652e-018, -3.25260652e-018, -3.25260652e-018,
          -3.25260652e-018, -3.25260652e-018, -3.25260652e-018,
          -3.25260652e-018, -3.25260652e-018, -3.25260652e-018,
          -3.25260652e-018, -3.25260652e-018, -5.31985890e-003,
          -1.15284910e-002, -1.08091775e-002, -1.18102832e-002,
          -1.18102832e-002, -1.22740772e-002, -8.95385724e-003,
          -2.34379228e-002, -1.57901645e-002, -3.39784194e-003,
          -6.58580242e-003, -1.64397098e-002, -4.98028297e-004,
          7.39665562e-003, 9.44615249e-003, 1.16663817e-002,
          -1.34755550e-002, 9.64520965e-003, 3.07736769e-002,
          4.42366526e-002, 3.38392034e-002, 2.25163959e-002,
          1.88418664e-002, 2.02685129e-002, -5.90811064e-003,
          -9.35918279e-003, -7.17947818e-003, -9.95756406e-003,
          -1.29572405e-002, -7.31141260e-003, 1.60708185e-002,
          1.40312016e-002, 9.64279473e-003, -6.96721300e-003,
          -2.91302428e-003, -4.08327207e-003, 3.76574718e-003,
          3.76574718e-003, 4.08700388e-003, -3.25260652e-018,
          -3.25260652e-018, -3.25260652e-018, -3.25260652e-018,
          -3.25260652e-018, -3.25260652e-018, -3.25260652e-018,
          -3.25260652e-018, -3.25260652e-018, -3.25260652e-018,
          -3.25260652e-018, -3.25260652e-018, -3.25260652e-018,
          -3.25260652e-018, -3.25260652e-018, -3.25260652e-018,
          -3.25260652e-018, 5.68605727e-003, 8.40679556e-003,
          8.40679556e-003, 8.40679556e-003, 8.40679556e-003,
          8.40679556e-003, 8.40679556e-003, 8.40679556e-003,
          3.08693689e-003, -3.12169502e-003, -2.40238104e-003,
          -5.34279505e-003, -3.95759847e-003, -7.74445944e-003,
          -1.05423238e-002, 3.52410134e-003, -5.54800918e-003,
          1.19111883e-002, 1.98281966e-002, 1.02506147e-003,
          8.26706178e-003, 2.87245642e-002, 1.73837394e-002,
          -9.86518338e-003, -4.62980336e-003, 1.94035973e-002,
          6.31725648e-003, 1.87798627e-002, 2.38230918e-002,
          1.87976342e-002, 1.45961465e-002, 8.54823831e-003,
          3.17389704e-003, 7.53383199e-003, 4.87691676e-003,
          -4.23615007e-003, 1.08179115e-002, 1.12408474e-002,
          1.08191324e-002, 3.46757099e-002, 2.33193468e-002,
          5.46141528e-003, 9.08202585e-003, 1.25159938e-002,
          1.41476402e-002, 1.12110823e-002, 2.02920195e-003,
          -3.25260652e-018, -3.25260652e-018, -3.25260652e-018,
          -3.25260652e-018, -3.25260652e-018, -3.25260652e-018,
          -3.25260652e-018, -3.25260652e-018, -3.25260652e-018,
          -3.25260652e-018, -3.25260652e-018, -3.25260652e-018,
          -3.25260652e-018, -3.25260652e-018, -3.25260652e-018,
          -3.25260652e-018, -3.25260652e-018, 5.68605727e-003,
