%YAML:1.0
opencv_ml_svm:
   format: 3
   svmType: C_SVC
   kernel:
      type: LINEAR
   C: 1.0000000000000001e-001
   term_criteria: { iterations:100000 }
   var_count: 4096
   class_count: 10
   class_labels: !!opencv-matrix
      rows: 10
      cols: 1
      dt: i
      data: [ 0, 1, 2, 3, 4, 5, 6, 7, 8, 9 ]
   sv_total: 45
   support_vectors:
      - [ -1.42247325e-016, -1.42247325e-016, -1.42247325e-016,
          -1.42247325e-016, -1.42247325e-016, -1.42247325e-016,
          -1.42247325e-016, -1.42247325e-016, -1.42247325e-016,
          -1.42247325e-016, -1.42247325e-016, -1.42247325e-016,
          -1.42247325e-016, -1.42247325e-016, -1.42247325e-016,
          -1.42247325e-016, -1.42247325e-016, -1.42247325e-016,
          -1.42247325e-016, -1.42247325e-016, -1.42247325e-016,
          -1.42247325e-016, -1.42247325e-016, -1.42247325e-016,
          -1.42247325e-016, -1.42247325e-016, -1.42247325e-016,
          -1.42247325e-016, -1.42247325e-016, -1.42247325e-016,
          -1.42247325e-016, -1.42247325e-016, -1.42247325e-016,
          -1.42247325e-016, -1.42247325e-016, -1.42247325e-016,
          -1.42247325e-016, -1.42247325e-016, -1.42247325e-016,
          -1.42247325e-016, -1.42247325e-016, -1.42247325e-016,
          -1.42247325e-016, -1.42247325e-016, -1.42247325e-016,
          -1.42247325e-016, -1.42247325e-016, -1.42247325e-016,
          -1.42247325e-016, -1.42247325e-016, -1.42247325e-016,
          -1.42247325e-016, -1.42247325e-016, -1.42247325e-016,
          -1.42247325e-016, -1.42247325e-016, -1.42247325e-016,
          -1.42247325e-016, -1.42247325e-016, -1.42247325e-016,
          -1.42247325e-016, -1.42247325e-016, -1.42247325e-016,
          -1.42247325e-016, -1.42247325e-016, -1.42247325e-016,
          -1.42247325e-016, -1.42247325e-016, -1.42247325e-016,
          -1.42247325e-016, -1.42247325e-016, -1.42247325e-016,
          -1.42247325e-016, -1.42247325e-016, -1.42247325e-016,
          -1.42247325e-016, -1.42247325e-016, -1.42247325e-016,
          -1.42247325e-016, -1.42247325e-016, -1.42247325e-016,
          -1.42247325e-016, -1.42247325e-016, -1.42247325e-016,
          -1.42247325e-016, -1.42247325e-016, -1.42247325e-016,
          -1.42247325e-016, -1.42247325e-016, -1.42247325e-016,
          -1.42247325e-016, -1.42247325e-016, -1.42247325e-016,
          -1.42247325e-016, -1.42247325e-016, -1.42247325e-016,
          -1.42247325e-016, -1.42247325e-016, -1.42247325e-016,
          -1.42247325e-016, -1.42247325e-016, -1.42247325e-016,
          -1.42247325e-016, -1.42247325e-016, -1.42247325e-016,
          -1.42247325e-016, -1.42247325e-016, -1.42247325e-016,
          -1.42247325e-016, -1.42247325e-016, -1.42247325e-016,
          -1.42247325e-016, -1.42247325e-016, -1.42247325e-016,
          -1.42247325e-016, -1.42247325e-016, -1.42247325e-016,
          -1.42247325e-016, -1.42247325e-016, -1.42247325e-016,
          -1.42247325e-016, -1.42247325e-016, -1.42247325e-016,
          -1.42247325e-016, -1.42247325e-016, -1.42247325e-016,
          -1.42247325e-016, -1.42247325e-016, -1.42247325e-016,
          -1.42247325e-016, -1.42247325e-016, -1.42247325e-016,
          -1.42247325e-016, -1.42247325e-016, -1.42247325e-016,
          -1.42247325e-016, -1.42247325e-016, -1.42247325e-016,
          -1.42247325e-016, -1.42247325e-016, -1.42247325e-016,
          -1.42247325e-016, -1.42247325e-016, -1.42247325e-016,
          -1.42247325e-016, -1.42247325e-016, -1.42247325e-016,
          -1.42247325e-016, -1.42247325e-016, -1.42247325e-016,
          -1.42247325e-016, -1.42247325e-016, -1.42247325e-016,
          -1.42247325e-016, -1.42247325e-016, -1.42247325e-016,
          -1.42247325e-016, -1.42247325e-016, -1.42247325e-016,
          -1.42247325e-016, -1.42247325e-016, -1.42247325e-016,
          -1.42247325e-016, -1.42247325e-016, -1.42247325e-016,
          -1.42247325e-016, -1.42247325e-016, -1.42247325e-016,
          -1.42247325e-016, -1.42247325e-016, -1.42247325e-016,
          -1.42247325e-016, -1.42247325e-016, -1.42247325e-016,
          -1.42247325e-016, -1.42247325e-016, -1.42247325e-016,
          -1.42247325e-016, -1.42247325e-016, -1.42247325e-016,
          -1.42247325e-016, -1.42247325e-016, -1.42247325e-016,
          -1.42247325e-016, -1.42247325e-016, -1.42247325e-016,
          -1.42247325e-016, -1.42247325e-016, -1.42247325e-016,
          -1.42247325e-016, -1.42247325e-016, -1.42247325e-016,
          -1.42247325e-016, -1.42247325e-016, -1.42247325e-016,
          -1.42247325e-016, -1.42247325e-016, -1.42247325e-016,
          -1.42247325e-016, -1.42247325e-016, -1.42247325e-016,
          -1.42247325e-016, -1.42247325e-016, -1.42247325e-016,
          -1.42247325e-016, -1.42247325e-016, -1.42247325e-016,
          -1.42247325e-016, -1.42247325e-016, -1.42247325e-016,
          -1.42247325e-016, -1.42247325e-016, -1.42247325e-016,
          -1.42247325e-016, -1.42247325e-016, -1.42247325e-016,
          -1.42247325e-016, -1.42247325e-016, -1.42247325e-016,
          -1.42247325e-016, -1.42247325e-016, -1.42247325e-016,
          -1.42247325e-016, -1.42247325e-016, -1.42247325e-016,
          -1.42247325e-016, -1.42247325e-016, -1.42247325e-016,
          -1.42247325e-016, -1.42247325e-016, -1.42247325e-016,
          -1.42247325e-016, -1.42247325e-016, -1.42247325e-016,
          -1.42247325e-016, -1.42247325e-016, -1.42247325e-016,
          -1.42247325e-016, -1.42247325e-016, -1.42247325e-016,
          -1.42247325e-016, -1.42247325e-016, -1.42247325e-016,
          -1.42247325e-016, -1.42247325e-016, -1.42247325e-016,
          -1.42247325e-016, -1.42247325e-016, -1.42247325e-016,
          -1.42247325e-016, -1.42247325e-016, -1.42247325e-016,
          -1.42247325e-016, -1.42247325e-016, -1.42247325e-016,
          -1.42247325e-016, -1.42247325e-016, -1.42247325e-016,
          -1.42247325e-016, -1.42247325e-016, -1.42247325e-016,
          -1.42247325e-016, -1.42247325e-016, -1.42247325e-016,
          -1.42247325e-016, -1.42247325e-016, -1.42247325e-016,
          -1.42247325e-016, -1.42247325e-016, -1.42247325e-016,
          -1.42247325e-016, -1.42247325e-016, -1.42247325e-016,
          -1.42247325e-016, -1.42247325e-016, -1.42247325e-016,
          -1.42247325e-016, -1.42247325e-016, -1.42247325e-016,
          -1.42247325e-016, -1.42247325e-016, -1.42247325e-016,
          -1.42247325e-016, -1.42247325e-016, -1.42247325e-016,
          -1.42247325e-016, -1.42247325e-016, -1.42247325e-016,
          -1.42247325e-016, -1.42247325e-016, -1.42247325e-016,
          -1.42247325e-016, -1.42247325e-016, -1.42247325e-016,
          -1.42247325e-016, -1.42247325e-016, -1.42247325e-016,
          -1.42247325e-016, -1.42247325e-016, -1.42247325e-016,
          -1.42247325e-016, -1.42247325e-016, -1.42247325e-016,
          -1.42247325e-016, -1.42247325e-016, -1.42247325e-016,
          -1.42247325e-016, -1.42247325e-016, -1.42247325e-016,
          -1.42247325e-016, -1.42247325e-016, -1.42247325e-016,
          -1.42247325e-016, -1.42247325e-016, -1.42247325e-016,
          -1.42247325e-016, -1.42247325e-016, -1.42247325e-016,
          -1.42247325e-016, -1.42247325e-016, -1.42247325e-016,
          -1.42247325e-016, -1.42247325e-016, -1.42247325e-016,
          -1.42247325e-016, -1.42247325e-016, -1.42247325e-016,
          -1.42247325e-016, -1.42247325e-016, -1.42247325e-016,
          -1.42247325e-016, -1.42247325e-016, -1.42247325e-016,
          -1.42247325e-016, -1.42247325e-016, -1.42247325e-016,
          -1.42247325e-016, -1.42247325e-016, -1.42247325e-016,
          -1.42247325e-016, -1.42247325e-016, -1.42247325e-016,
          -1.42247325e-016, -1.42247325e-016, -1.42247325e-016,
          -1.42247325e-016, -1.42247325e-016, -1.42247325e-016,
          -1.42247325e-016, -1.42247325e-016, -1.42247325e-016,
          -1.42247325e-016, -1.42247325e-016, -1.42247325e-016,
          -1.42247325e-016, -1.42247325e-016, -1.42247325e-016,
          -1.42247325e-016, -1.42247325e-016, -1.42247325e-016,
          -1.42247325e-016, -1.42247325e-016, -1.42247325e-016,
          -1.42247325e-016, -1.42247325e-016, -1.42247325e-016,
          -1.42247325e-016, -1.42247325e-016, -1.42247325e-016,
          -1.42247325e-016, -1.42247325e-016, -1.42247325e-016,
          -1.42247325e-016, -1.42247325e-016, -1.42247325e-016,
          -1.42247325e-016, -1.42247325e-016, -1.42247325e-016,
          -1.42247325e-016, -1.42247325e-016, -1.42247325e-016,
          -1.42247325e-016, -1.42247325e-016, -1.42247325e-016,
          -1.42247325e-016, -1.42247325e-016, -1.42247325e-016,
          -1.42247325e-016, -1.42247325e-016, -1.42247325e-016,
          -1.42247325e-016, -1.42247325e-016, -1.42247325e-016,
          -1.42247325e-016, -1.42247325e-016, -1.42247325e-016,
          -1.42247325e-016, -1.42247325e-016, -1.42247325e-016,
          -1.42247325e-016, -1.42247325e-016, -1.42247325e-016,
          -1.42247325e-016, -1.42247325e-016, -1.42247325e-016,
          -1.42247325e-016, -1.42247325e-016, -1.42247325e-016,
          -1.42247325e-016, -1.42247325e-016, -1.42247325e-016,
          -1.42247325e-016, -1.42247325e-016, -1.42247325e-016,
          -1.42247325e-016, -1.42247325e-016, -1.42247325e-016,
          -1.42247325e-016, -1.42247325e-016, -1.42247325e-016,
          -1.42247325e-016, -1.42247325e-016, -1.42247325e-016,
          -1.42247325e-016, -1.42247325e-016, -1.42247325e-016,
          -1.42247325e-016, -1.42247325e-016, -1.42247325e-016,
          -1.42247325e-016, -1.42247325e-016, -1.42247325e-016,
          -1.42247325e-016, -1.42247325e-016, -1.42247325e-016,
          -1.42247325e-016, -1.42247325e-016, -1.42247325e-016,
          -1.42247325e-016, -1.42247325e-016, -1.42247325e-016,
          -1.42247325e-016, -1.42247325e-016, -1.42247325e-016,
          -1.42247325e-016, -1.42247325e-016, -1.42247325e-016,
          -1.42247325e-016, -1.42247325e-016, -1.42247325e-016,
          -1.42247325e-016, -1.42247325e-016, -1.42247325e-016,
          -1.42247325e-016, -1.42247325e-016, -1.42247325e-016,
          -1.42247325e-016, -1.42247325e-016, -1.42247325e-016,
          -1.42247325e-016, -1.42247325e-016, 4.26307524e-005,
          4.26307524e-005, 4.26307524e-005, 4.26307524e-005,
          4.26307524e-005, 4.26307524e-005, 4.26307524e-005,
          4.26307524e-005, 2.09996389e-004, 2.09996389e-004,
          2.09996389e-004, 2.09996389e-004, 2.09996389e-004,
          2.09996389e-004, 2.09996389e-004, 2.09996389e-004,
          2.09996389e-004, 2.09996389e-004, 2.09996389e-004,
          2.09996389e-004, 2.09996389e-004, 4.26307524e-005,
          -1.42247325e-016, -1.42247325e-016, -1.42247325e-016,
          -1.42247325e-016, -2.23267614e-003, -2.23267614e-003,
          -2.23267614e-003, -2.23267614e-003, -2.23267614e-003,
          -1.42247325e-016, -1.42247325e-016, -1.42247325e-016,
          -1.42247325e-016, -1.42247325e-016, -1.42247325e-016,
          -1.42247325e-016, -1.42247325e-016, -1.42247325e-016,
          -1.42247325e-016, -1.42247325e-016, -1.42247325e-016,
          -1.42247325e-016, -1.42247325e-016, -1.42247325e-016,
          -1.42247325e-016, -1.42247325e-016, -1.42247325e-016,
          -1.42247325e-016, -1.42247325e-016, -1.42247325e-016,
          -1.42247325e-016, -1.42247325e-016, -1.42247325e-016,
          -1.42247325e-016, -1.42247325e-016, -1.42247325e-016,
          -1.42247325e-016, -1.42247325e-016, 2.84890318e-003,
          3.42216250e-003, 1.57214375e-003, 9.00450349e-003,
          9.39881895e-003, 1.17053734e-002, 1.81343406e-002,
          1.25877550e-002, 1.05583938e-002, 3.70238349e-003,
          5.23513590e-004, 8.33165087e-003, 1.22586796e-002,
          1.38942692e-002, 2.67023258e-002, 1.19156437e-002,
          1.67002324e-002, 2.04328541e-002, 1.19258417e-002,
          -9.81264468e-003, 1.68183772e-003, 2.00365428e-002,
          3.73684354e-002, 4.37790751e-002, 9.81020555e-003,
          1.72840748e-002, 6.51807757e-003, 3.80054191e-002,
          3.94711643e-002, 4.51949649e-002, 5.37029020e-002,
          3.70672233e-002, 3.79397608e-002, 1.04590952e-002,
          1.31703177e-002, 1.69836972e-002, 3.14647052e-003,
          1.40909385e-002, 1.16865421e-002, 1.00148600e-002,
          2.43876819e-002, 6.13497384e-003, -1.96611229e-002,
          -1.61066521e-002, -1.19835744e-002, -9.83912218e-003,
          -1.35627110e-003, 1.37893518e-003, -1.42247325e-016,
          -1.42247325e-016, -1.42247325e-016, -1.42247325e-016,
          -1.42247325e-016, -1.42247325e-016, -1.42247325e-016,
          -1.42247325e-016, -1.42247325e-016, -1.42247325e-016,
          -1.42247325e-016, -1.42247325e-016, -1.42247325e-016,
          -1.42247325e-016, -1.42247325e-016, -1.42247325e-016,
          3.08900140e-003, 1.01102125e-002, 1.54997082e-002,
          1.60729680e-002, 1.43771656e-002, 1.80654582e-002,
          2.04787813e-002, 1.24997729e-002, 9.20111407e-003,
          3.64120351e-003, 8.35230947e-003, 6.80466508e-003,
          8.65365192e-003, 6.79633347e-003, 1.13116764e-002,
          4.99632675e-003, 1.89951137e-002, 1.10792853e-002,
          9.66525450e-003, 2.41347449e-003, 4.15976765e-003,
          1.69830900e-002, 1.31990677e-002, 1.91774983e-002,
          -1.39083632e-003, 2.34272387e-002, 2.30721943e-002,
          2.28323992e-002, 1.91362984e-002, 1.85254999e-002,
          9.42069106e-003, 1.17080780e-002, -8.84092506e-003,
          4.12423396e-003, 2.29620133e-002, -1.51238581e-002,
          -2.46714037e-002, -3.08199245e-002, -5.57352509e-003,
          -1.90217942e-002, 1.05455372e-004, 2.02132971e-003,
          1.32276956e-002, -7.38737592e-003, -1.13347713e-002,
          -1.70385502e-002, -1.22343004e-002, 1.37893518e-003,
          -1.42247325e-016, -1.42247325e-016, -1.42247325e-016,
          -1.42247325e-016, -1.42247325e-016, -1.42247325e-016,
          -1.42247325e-016, -1.42247325e-016, -1.42247325e-016,
          -1.42247325e-016, -1.42247325e-016, -1.42247325e-016,
          -1.42247325e-016, -1.42247325e-016, -1.42247325e-016,
          -1.42247325e-016, 3.08900140e-003, 1.50885591e-002,
          1.01102125e-002, 1.05213616e-002, 1.88117232e-002,
          2.11182777e-002, 2.04787813e-002, 1.24997729e-002,
          3.90608469e-003, -4.07616235e-003, 6.34943950e-004,
          -2.51597445e-003, -1.73204439e-003, -3.58936260e-003,
          -5.75261004e-003, 1.25208907e-002, 7.43551692e-003,
          1.30741559e-002, -3.96295130e-004, 7.96708837e-003,
          1.01894438e-002, 3.32678854e-002, 1.83526054e-002,
          2.85772961e-002, 1.08878920e-002, -1.06718792e-002,
          -5.85815543e-003, 2.22803303e-003, -6.73797633e-003,
          5.37221134e-003, 1.80240944e-002, 1.20282788e-002,
          1.35957478e-002, -1.44377374e-003, 2.54145544e-003,
          -6.16562669e-004, 1.69818837e-003, 6.59635710e-003,
          1.40210195e-003, 1.91145623e-003, 1.02365268e-002,
          4.25548526e-003, 3.33634438e-003, 1.17883049e-002,
          4.01085382e-003, -9.95052513e-003, -1.43787535e-002,
          -1.42247325e-016, -1.42247325e-016, -1.42247325e-016,
          -1.42247325e-016, -1.42247325e-016, -1.42247325e-016,
          -1.42247325e-016, -1.42247325e-016, -1.42247325e-016,
          -1.42247325e-016, -1.42247325e-016, -1.42247325e-016,
          -1.42247325e-016, -1.42247325e-016, -1.42247325e-016,
          -1.42247325e-016, -1.42247325e-016, 3.08900140e-003,
          1.01102125e-002, 1.01102125e-002, 1.01102125e-002,
          1.78273153e-002, 2.07071286e-002, 1.87828932e-002,
          1.32081509e-002, 3.90608469e-003, -1.59727165e-003,
          -3.28831188e-003, -5.66528505e-003, -2.69474625e-003,
          -4.55206446e-003, -8.64049140e-003, 5.58890693e-004,
          2.01395480e-003, 3.80261126e-003, 9.76326934e-004,
          6.03667460e-003, 2.98439525e-003, 2.60192193e-002,
          2.76513472e-002, 1.04438625e-002, 1.95883997e-002,
          1.01521509e-002, 1.57089811e-002, 1.26069589e-002,
          5.29904244e-003, 2.00038422e-002, 3.21738049e-002,
          -7.57997902e-003, -1.31956628e-002, -5.12095354e-003,
          3.49234790e-002, 3.01646274e-002, -8.62614065e-003,
          1.29842637e-002, 6.91753300e-003, 2.95495186e-002,
          6.49776449e-003, -9.22362972e-003, 5.54802082e-003,
          5.71586471e-003, 1.35598956e-002, 6.61825202e-003,
          -6.60768664e-003, 1.06550672e-003, 1.37893518e-003,
          -1.42247325e-016, -1.42247325e-016, -1.42247325e-016,
          -1.42247325e-016, -1.42247325e-016, -1.42247325e-016,
          -1.42247325e-016, -1.42247325e-016, -1.42247325e-016,
          -1.42247325e-016, -1.42247325e-016, -1.42247325e-016,
          -1.42247325e-016, -1.42247325e-016, -1.42247325e-016,
          4.31647245e-003, 4.31647245e-003, 1.23003861e-002,
          6.66091312e-003, 1.20335752e-002, 1.49133885e-002,
          1.26724700e-002, 7.06540607e-003, -3.72079480e-003,
          -9.32650547e-003, -1.01839006e-002, -3.64818214e-003,
          -5.11345512e-004, 1.05684493e-002, 1.02223111e-002,
          7.31632812e-003, 4.29049367e-003, 2.23564170e-002,
          2.34185643e-002, 1.67847611e-002, 2.53857281e-002,
          3.39496918e-002, 3.04504707e-002, 1.89173296e-002,
          4.04225197e-003, 1.98743846e-002, 1.67503506e-002,
          1.99740417e-002, 4.14016917e-002, 1.77846998e-002,
          1.96343549e-002, 3.10809221e-002, 2.21560132e-002,
          2.08783858e-002, 2.77932659e-002, 2.66179107e-002,
          1.39019229e-002, 7.45897926e-003, 3.32050328e-003,
          -1.30571164e-002, 6.90602325e-003, 8.59844871e-003,
          -1.68957189e-003, 2.34829653e-002, 1.92430746e-002,
          7.64535926e-003, 1.35304751e-002, 1.37893518e-003,
          1.37893518e-003, -1.42247325e-016, -1.42247325e-016,
          -1.42247325e-016, -1.42247325e-016, -1.42247325e-016,
          -1.42247325e-016, -1.42247325e-016, -1.42247325e-016,
          -1.42247325e-016, -1.42247325e-016, -1.42247325e-016,
          -1.42247325e-016, -1.42247325e-016, -1.42247325e-016,
          1.22747105e-003, 4.07637423e-003, 4.31647245e-003,
          6.66091312e-003, 6.66091312e-003, 1.20335752e-002,
          1.51650878e-002, 1.24323713e-002, 3.95273650e-003,
          -7.23340968e-003, -1.07091861e-002, -1.13264825e-002,
          -1.07833575e-002, 6.94589037e-003, 6.10846747e-003,
          -5.14112087e-003, -4.56488971e-003, 1.68859083e-002,
          1.38110509e-002, 5.73270081e-004, 1.65479686e-002,
          2.05873139e-002, 2.02092733e-002, 7.92475138e-003,
          1.57562066e-002, 6.41814107e-003, 3.02309333e-003,
          5.69482008e-003, 1.67986471e-002, 1.55595569e-002,
          1.40729602e-002, 2.34224778e-002, 3.97138372e-002,
          3.22551765e-002, -9.55061894e-003, 7.75410049e-003,
          2.33576968e-002, 2.72028177e-004, 6.03763247e-003,
          -6.62375195e-003, 1.87202170e-002, 2.43509412e-002,
          1.20537318e-002, 4.35704552e-003, 1.31530864e-002,
          1.82417929e-002, 4.46111057e-003, 1.35304751e-002,
          1.37893518e-003, -1.42247325e-016, -1.42247325e-016,
          -1.42247325e-016, -1.42247325e-016, -1.42247325e-016,
          -1.42247325e-016, -1.42247325e-016, -1.42247325e-016,
          -1.42247325e-016, -1.42247325e-016, -1.42247325e-016,
          -1.42247325e-016, -1.42247325e-016, -1.42247325e-016,
          -1.42247325e-016, 1.22747105e-003, 4.07637423e-003,
          4.07637423e-003, 9.54674464e-003, 9.54674464e-003,
          1.59844626e-002, 1.69092789e-002, 1.25977471e-002,
          -7.47573586e-006, -4.24255664e-003, -6.17309986e-003,
          -4.46586451e-003, -1.41675281e-003, 1.14953406e-002,
          -8.62764847e-003, 1.02520664e-003, 3.10463388e-003,
          2.89270170e-002, 1.75009966e-002, 1.88287385e-002,
          2.55488176e-002, 2.13664155e-002, 1.89877879e-002,
          -9.40971356e-003, -1.10617708e-002, 2.42202077e-003,
          1.32170971e-002, -3.46648460e-003, 5.15745545e-004,
          5.29786106e-003, 1.24748219e-002, 8.31568986e-003,
          8.94095935e-003, 1.22342315e-002, -2.43049189e-002,
          -1.32130440e-002, -9.62441415e-003, 1.53342243e-002,
          -5.32973674e-004, -4.92715044e-003, 2.36792993e-002,
          8.95653013e-003, 1.51358293e-002, 2.91669611e-002,
          1.96775477e-002, 8.69948696e-003, 1.29798357e-003,
          8.87809228e-003, 6.17165538e-003, 1.37893518e-003,
          1.37893518e-003, -1.42247325e-016, -1.42247325e-016,
          -1.42247325e-016, -1.42247325e-016, -1.42247325e-016,
          -1.42247325e-016, -1.42247325e-016, -1.42247325e-016,
          -1.42247325e-016, -1.42247325e-016, -1.42247325e-016,
          -1.42247325e-016, -1.42247325e-016, -1.42247325e-016,
          7.20230350e-003, 7.20230350e-003, 9.54674464e-003,
          9.54674464e-003, 1.10061169e-002, 1.39487246e-002,
          1.16350455e-002, 2.07628869e-003, -1.09373569e-003,
          1.22664720e-002, -9.15891398e-003, -1.28044738e-002,
          1.74378452e-003, 8.16603191e-003, 5.93972392e-003,
          5.05076069e-003, 2.04069857e-002, 2.25592386e-002,
          3.23116556e-002, 2.01008692e-002, 1.70248188e-002,
          -5.36704203e-003, -1.24640055e-002, -9.06973612e-003,
          -1.80481169e-002, -2.15965286e-002, 1.83234992e-003,
          1.72587540e-002, 9.03153047e-003, -3.51747411e-004,
          -1.54616609e-002, -6.96996972e-003, 8.85453075e-003,
          1.48337018e-002, 1.75983217e-002, -7.35640386e-003,
          1.27031449e-002, -6.48222631e-003, 5.29200956e-003,
          2.69845258e-002, 2.30767904e-003, 1.10711148e-002,
          1.25915399e-002, 1.14271780e-002, 1.00358184e-002,
          -8.34801421e-003, 5.58304414e-003, 1.37893518e-003,
          1.37893518e-003, 1.37893518e-003, -1.42247325e-016,
          -1.42247325e-016, -1.42247325e-016, -1.42247325e-016,
          -1.42247325e-016, -1.42247325e-016, -1.42247325e-016,
          -1.42247325e-016, -1.42247325e-016, -1.42247325e-016,
          -1.42247325e-016, -1.42247325e-016, -1.42247325e-016,
          -1.42247325e-016, 3.88471573e-003, 5.11218654e-003,
          7.45662767e-003, 6.22915663e-003, 1.26668755e-002,
          1.27212536e-002, 8.76925793e-003, 1.23619651e-002,
          -1.03081693e-004, -2.31149793e-003, -2.82504334e-004,
          3.38951908e-002, 1.79062765e-002, 2.74436381e-002,
          5.29903360e-003, 5.59976138e-003, 1.77083875e-003,
          1.02956491e-002, -5.82368625e-003, 4.24444862e-003,
          -6.79121492e-003, -1.38507169e-002, -7.46791949e-003,
          9.41201951e-003, 2.27921363e-002, 1.75313894e-002,
          5.30607067e-002, 5.23416996e-002, 4.98630293e-002,
          3.15438136e-002, 3.89991365e-002, 3.32861058e-002,
          3.74020189e-002, 6.40186248e-003, 1.72072332e-002,
          6.41152961e-003, 8.59837886e-003, -4.37577348e-003,
          -6.18398096e-003, 2.78655011e-002, 3.59218306e-004,
          -6.31321035e-003, 2.26667151e-002, 3.91021781e-002,
          8.37554457e-004, -6.28288370e-003, -1.26266692e-004,
          1.37893518e-003, 1.37893518e-003, -1.42247325e-016,
          -1.42247325e-016, -1.42247325e-016, -1.42247325e-016,
          -1.42247325e-016, -1.42247325e-016, -1.42247325e-016,
          -1.42247325e-016, -1.42247325e-016, -1.42247325e-016,
          -1.42247325e-016, -1.42247325e-016, -1.42247325e-016,
          -1.42247325e-016, -1.42247325e-016, 3.88471573e-003,
          3.88471573e-003, 6.22915663e-003, 7.29421340e-003,
          9.70632210e-003, 1.06311366e-002, 9.70573165e-003,
          1.71977119e-003, -4.23864648e-003, 2.35008001e-002,
          2.87987143e-002, 2.42897291e-002, 1.52219385e-002,
          1.51203908e-002, 4.34254250e-003, 1.43306600e-002,
          1.31854159e-003, 3.27291228e-002, 1.22904265e-002,
          1.30050881e-002, 2.23096204e-003, 1.99177377e-002,
          9.65920649e-003, 4.16005440e-002, 3.10912393e-002,
          6.87120529e-003, 3.96664254e-002, 2.77174897e-002,
          2.43719779e-002, 5.58857899e-003, -1.23502230e-002,
          -1.02114081e-002, 7.57568236e-003, 7.32078170e-003,
          1.53792789e-002, 1.55641828e-002, 1.72685646e-002,
          6.61392231e-003, -6.93443813e-004, -8.43165326e-004,
          -2.13555228e-002, 1.86093822e-002, 3.44642513e-002,
          4.94099483e-002, 3.15212235e-002, 4.13275324e-002,
          2.49504973e-003, 1.37893518e-003, 1.37893518e-003,
          -1.42247325e-016, -1.42247325e-016, -1.42247325e-016,
          -1.42247325e-016, -1.42247325e-016, -1.42247325e-016,
          -1.42247325e-016, -1.42247325e-016, -1.42247325e-016,
          -1.42247325e-016, -1.42247325e-016, -1.42247325e-016,
          -1.42247325e-016, -1.42247325e-016, -1.42247325e-016,
          7.58786220e-004, 7.58786220e-004, 3.10322735e-003,
          4.16828366e-003, 1.29155652e-003, 4.96516703e-003,
          2.86981417e-003, 2.58092606e-003, 1.46688130e-002,
          9.75784194e-003, 5.83508750e-004, 2.92676091e-002,
          1.82858352e-002, 2.28281505e-002, -7.64509197e-003,
          1.32586136e-002, 3.29198502e-002, 3.21706012e-002,
          -2.05390924e-003, 1.00032547e-002, -8.99914466e-003,
          -1.31140929e-002, 2.35088840e-002, 3.81085612e-002,
          1.74536612e-002, 6.59534754e-003, 2.02397071e-002,
          1.43598830e-002, 6.27078488e-003, -5.11254789e-003,
          -3.90946791e-002, -6.19641272e-003, -1.37128425e-003,
          4.87580616e-003, -1.51123218e-002, -2.92222574e-002,
          2.90542617e-002, 1.02599943e-002, 1.52306166e-002,
          1.43967234e-002, 1.20374176e-003, 1.98843163e-002,
          4.68259230e-002, 5.49895503e-002, 4.24633920e-002,
          1.23417927e-002, 4.04598713e-002, 1.37893518e-003,
          -1.42247325e-016, -1.42247325e-016, -1.42247325e-016,
          -1.42247325e-016, -1.42247325e-016, -1.42247325e-016,
          -1.42247325e-016, -1.42247325e-016, -1.42247325e-016,
          -1.42247325e-016, -1.42247325e-016, -1.42247325e-016,
          -1.42247325e-016, -1.42247325e-016, -1.42247325e-016,
          -1.42247325e-016, 7.58786220e-004, 7.58786220e-004,
          1.72148820e-003, -4.39059734e-003, 7.82635715e-003,
          -1.56963384e-003, 1.32566970e-002, 2.56979708e-002,
          -6.65489165e-003, 8.92059784e-003, 2.10770010e-003,
          6.28453959e-003, -3.89340264e-003, -1.23846922e-002,
          -1.01875588e-002, -6.80656312e-003, 7.04637356e-003,
          -1.64185148e-002, 3.10069579e-003, -3.68112070e-003,
          -6.63339999e-003, 3.22321691e-002, 1.31975859e-002,
          9.38058551e-003, 3.65971262e-003, 2.01304965e-002,
          3.78242880e-002, 3.20456997e-002, 5.39116887e-003,
          1.15327891e-002, 1.05762556e-002, 2.61983778e-002,
          6.77330559e-003, -5.05673187e-003, -9.39593744e-003,
          -7.52112712e-004, 3.88149247e-002, 6.93847053e-003,
          3.04965489e-003, 8.10195692e-004, -1.44076059e-002,
          2.98498552e-002, 5.45051098e-002, 2.34575830e-002,
          5.03824800e-002, 1.97310373e-003, -6.32982992e-004,
          -1.65764103e-003, -1.42247325e-016, -1.42247325e-016,
          -1.42247325e-016, -1.42247325e-016, -1.42247325e-016,
          -1.42247325e-016, -1.42247325e-016, -1.42247325e-016,
          -1.42247325e-016, -1.42247325e-016, -1.42247325e-016,
          -1.42247325e-016, -1.42247325e-016, -1.42247325e-016,
          -1.42247325e-016, -1.42247325e-016, 7.58786220e-004,
          7.58786220e-004, -3.87683930e-003, -6.52790116e-003,
          2.84801074e-003, 1.27143087e-002, 2.99532823e-002,
          -6.74158102e-003, -1.98706780e-002, -2.01984141e-002,
          7.65954843e-003, -1.50834105e-003, 1.34048807e-002,
          -6.32270053e-003, -1.69082470e-002, -2.00340115e-002,
          -1.83070321e-002, 3.63464700e-003, 1.06480485e-002,
          2.03811340e-002, 2.21549869e-002, 2.35582292e-002,
          2.13463102e-002, 1.82367098e-002, -1.18045323e-002,
          -2.29378343e-002, 4.92417533e-003, 9.50828020e-004,
          -2.59728655e-002, -1.52503001e-002, -2.21383385e-003,
          1.12408912e-002, 5.98456338e-003, 1.19642382e-002,
          -1.71934571e-002, -3.12477145e-002, -1.02675064e-002,
          -3.59491119e-003, -1.32428398e-002, 7.37166218e-003,
          1.01805478e-002, 2.84892973e-003, 2.49700975e-002,
          2.80900374e-002, 1.69862285e-002, 2.32832842e-002,
          4.03391458e-002, 4.97169094e-003, -1.42247325e-016,
          -1.42247325e-016, -1.42247325e-016, -1.42247325e-016,
          -1.42247325e-016, -1.42247325e-016, -1.42247325e-016,
          -1.42247325e-016, -1.42247325e-016, -1.42247325e-016,
          -1.42247325e-016, -1.42247325e-016, -1.42247325e-016,
          -1.42247325e-016, -1.42247325e-016, 1.72097341e-003,
          2.47975951e-003, -3.11856787e-003, -2.80907610e-003,
          1.72787288e-003, 8.36989097e-003, 1.18530840e-002,
          8.23327620e-003, -8.61992966e-003, -1.14612223e-004,
          8.28363001e-004, 1.73637681e-002, 1.91118941e-002,
          1.37929339e-003, -2.25663800e-002, -3.68012786e-002,
          -3.86513257e-003, 4.14933972e-002, 4.87964265e-002,
          2.16196966e-003, 1.63043942e-002, -4.45689866e-003,
          -9.79382638e-003, -1.58376675e-002, -3.96053633e-003,
          -1.87555943e-002, 1.98592618e-003, 1.45904357e-002,
          -1.80604914e-003, -1.45794842e-002, -3.33467894e-003,
          -9.67775565e-003, -4.40668128e-003, 2.03987490e-002,
          1.44887017e-002, -1.31552527e-002, 2.46422784e-003,
          3.62480544e-002, 2.49925051e-002, -7.44839478e-003,
          2.23411247e-002, 5.46665862e-003, 1.75861251e-002,
          -6.22183783e-004, -1.07049942e-004, 2.02237833e-002,
          4.44983989e-002, 4.93434668e-002, 9.26374178e-003,
          -1.42247325e-016, -1.42247325e-016, -1.42247325e-016,
          -1.42247325e-016, -1.42247325e-016, -1.42247325e-016,
          -1.42247325e-016, -1.42247325e-016, -1.42247325e-016,
          -1.42247325e-016, -1.42247325e-016, -1.42247325e-016,
          -1.42247325e-016, -1.42247325e-016, -1.42247325e-016,
          -1.42247325e-016, -4.53004939e-003, -3.11856787e-003,
          -2.80907610e-003, 6.05400652e-003, -1.68520603e-002,
          -8.20524525e-004, -8.93950742e-003, 9.88360215e-003,
          1.27563840e-002, 3.52340229e-002, 1.02696177e-002,
          1.16791567e-002, -2.26132292e-003, -2.17725728e-002,
          -1.07843978e-002, 3.60490531e-002, 5.12422584e-002,
          3.67637314e-002, 4.85957880e-003, -5.21339197e-003,
          1.05097853e-002, -9.53893643e-003, 9.27821849e-004,
          -1.51171815e-002, -1.36086624e-002, -8.55747238e-003,
          2.56102695e-003, 4.36499761e-003, -1.63785871e-002,
          -2.08295509e-002, -1.62110745e-003, 1.19322641e-002,
          1.75272264e-002, -4.44976799e-003, 1.60248782e-002,
          2.39045825e-002, 9.34950728e-003, -8.60666111e-003,
          -3.10622305e-002, -1.66024765e-004, 2.58662719e-002,
          2.41048932e-002, 2.46147886e-002, -4.41991491e-003,
          6.89086970e-003, 2.49945186e-002, 3.08824964e-002,
          1.40772406e-002, -1.42247325e-016, -1.42247325e-016,
          -1.42247325e-016, -1.42247325e-016, -1.42247325e-016,
          -1.42247325e-016, -1.42247325e-016, -1.42247325e-016,
          -1.42247325e-016, -1.42247325e-016, -1.42247325e-016,
          -1.42247325e-016, -1.42247325e-016, -1.42247325e-016,
          -1.42247325e-016, -1.42247325e-016, -4.83954139e-003,
          -4.53004939e-003, -4.53004939e-003, -1.92876458e-002,
          -8.74111243e-003, -1.48716951e-002, -1.92785915e-003,
          5.19494899e-003, 2.72985138e-002, 3.48701850e-002,
          2.09910814e-002, -7.36770802e-004, -2.42043380e-003,
          6.95487903e-003, 3.25091667e-002, 4.99101654e-002,
          2.11625397e-002, 1.15500474e-002, -1.14898641e-004,
          -2.84257308e-002, 2.30769664e-002, -1.73064303e-002,
          -1.18268449e-002, -1.44245429e-002, -5.26693976e-003,
          9.85059235e-003, -2.13243905e-002, -3.03432569e-002,
          -4.37004352e-003, -1.54889608e-002, 6.10061269e-003,
          1.08537497e-002, 3.54330940e-003, 6.49045082e-003,
          9.34275426e-003, -1.84906914e-003, 1.99780632e-002,
          -3.10611110e-002, -1.99532136e-002, -8.09256639e-003,
          1.51139842e-002, 2.76320498e-003, -5.25716506e-003,
          -1.16316620e-002, 2.13870537e-002, 3.19206417e-002,
          1.52745256e-002, 2.55135931e-002, -1.42247325e-016,
          -1.42247325e-016, -1.42247325e-016, -1.42247325e-016,
          -1.42247325e-016, -1.42247325e-016, -1.42247325e-016,
          -1.42247325e-016, -1.42247325e-016, -1.42247325e-016,
          -1.42247325e-016, -1.42247325e-016, -1.42247325e-016,
          -1.42247325e-016, -1.42247325e-016, -1.42247325e-016,
          -4.83954139e-003, -4.53004939e-003, -2.25026011e-002,
          -1.68542415e-002, -3.03775159e-004, -8.98017827e-003,
          6.20536692e-003, 1.21440217e-002, 2.23147403e-002,
          2.26354320e-002, 7.20069092e-003, 7.16476934e-003,
          5.12405299e-003, 7.41293188e-003, 1.06119399e-003,
          8.01389571e-003, -5.96734369e-003, 1.02336751e-003,
          -8.62320699e-003, -5.48404502e-003, -1.58402547e-002,
          -3.43026742e-002, 5.76719502e-003, -1.03677614e-002,
          -7.10006803e-004, -5.00211073e-003, -1.82256084e-002,
          -1.32066421e-002, -2.07883436e-002, 8.36753659e-003,
          -5.45106363e-003, 1.34154167e-002, 3.15097459e-002,
          7.63082760e-004, -9.76791419e-003, 1.98515318e-002,
          1.01663936e-002, 9.15379357e-003, 2.94471742e-003,
          3.70973814e-003, -1.26535706e-002, 6.70353358e-004,
          4.23593726e-003, -2.51712510e-004, 1.76972337e-002,
          1.80361886e-002, 2.79686339e-002, 2.13256795e-002,
          -1.42247325e-016, -1.42247325e-016, -1.42247325e-016,
          -1.42247325e-016, -1.42247325e-016, -1.42247325e-016,
          -1.42247325e-016, -1.42247325e-016, -1.42247325e-016,
          -1.42247325e-016, -1.42247325e-016, -1.42247325e-016,
          -1.42247325e-016, -1.42247325e-016, -1.42247325e-016,
          -5.59832761e-003, -4.53004939e-003, -4.53004939e-003,
          -3.03811897e-002, -8.35275091e-003, -2.57712579e-003,
          -3.95237608e-003, 1.08000943e-002, 2.12227069e-002,
          3.44836898e-002, 6.52774656e-003, 5.73706720e-003,
          2.23379526e-002, 2.86221281e-002, 3.12686637e-002,
          7.02097127e-003, 1.86048802e-002, 2.00543669e-003,
          5.68166841e-003, -2.47307476e-002, 3.58042563e-003,
          -8.36645067e-003, 1.11352447e-002, 6.67446235e-004,
          2.69883685e-002, -2.93338727e-002, -3.00092227e-003,
          -3.27169336e-002, 2.66115591e-002, -9.71473288e-003,
          -2.21705567e-002, 8.52712896e-003, 1.55889215e-002,
          1.04572000e-002, -6.70272624e-003, 6.12337200e-004,
          -1.59717388e-002, 1.24955988e-002, 9.55020729e-003,
          5.71112568e-003, -6.43422175e-003, 4.43881890e-003,
          2.56806929e-002, 1.85884461e-002, 3.27256299e-003,
          8.05766787e-003, 1.80361886e-002, 3.33879814e-002,
          1.65121816e-002, -1.42247325e-016, -1.42247325e-016,
          -1.42247325e-016, -1.42247325e-016, -1.42247325e-016,
          -1.42247325e-016, -1.42247325e-016, -1.42247325e-016,
          -1.42247325e-016, -1.42247325e-016, -1.42247325e-016,
          -1.42247325e-016, -1.42247325e-016, -1.42247325e-016,
          -1.42247325e-016, -5.59832761e-003, -4.53004939e-003,
          -1.56233264e-002, -2.78658681e-002, -3.92678194e-003,
          3.61992954e-003, -4.12839036e-005, 2.29126923e-002,
          -2.05048807e-002, 1.20474454e-002, 2.57571763e-003,
          -8.33794847e-003, 3.25036608e-002, 3.25239189e-002,
          2.48746518e-002, 2.46318355e-002, 2.05809157e-002,
          1.94181111e-002, -6.02052361e-003, 1.54703837e-002,
          2.72320826e-002, -1.66525897e-002, 2.35794105e-005,
          -1.16533143e-002, 2.27922648e-002, -7.04087224e-003,
          1.12181110e-003, -8.09018407e-003, -3.97526398e-002,
          -1.81895271e-002, -3.48137729e-002, -3.16105485e-002,
          1.91795137e-002, 5.15675545e-003, -1.28056305e-002,
          -2.41061449e-002, 3.19298208e-002, 1.56239141e-002,
          1.33002950e-002, -1.00054704e-002, 8.35662056e-003,
          7.11888541e-003, 3.00820135e-002, -1.29974615e-002,
          5.72736142e-004, 1.47265047e-002, 1.30706644e-002,
          2.04472598e-002, 7.01038260e-003, -1.42247325e-016,
          -1.42247325e-016, -1.42247325e-016, -1.42247325e-016,
          -1.42247325e-016, -1.42247325e-016, -1.42247325e-016,
          -1.42247325e-016, -1.42247325e-016, -1.42247325e-016,
          -1.42247325e-016, -1.42247325e-016, -1.42247325e-016,
          -1.42247325e-016, -1.42247325e-016, -5.59832761e-003,
          -4.53004939e-003, -1.37934815e-002, -1.48828616e-002,
          1.45062963e-002, 8.69575795e-003, 8.48240103e-004,
          -3.74724157e-003, -3.03575285e-002, 8.09575710e-003,
          3.00415832e-005, 1.51009215e-002, 3.51953064e-003,
          -2.41806847e-003, 9.43510327e-003, -1.31785905e-003,
          7.71065289e-003, -1.52844703e-003, -3.40416911e-003,
          2.71721911e-002, -2.22144816e-002, -1.57417096e-002,
          9.91324778e-004, 9.43257287e-003, 4.44423966e-002,
          3.67833721e-003, 8.19284935e-003, -1.38239469e-003,
          -2.54963785e-002, -1.76504087e-002, -3.67164239e-002,
          -2.29277257e-002, -2.13097576e-002, -1.85319204e-002,
          -4.22540717e-002, -1.35846797e-003, -1.68763474e-003,
          1.94138419e-002, -8.12868495e-003, 6.69351174e-003,
          1.72013957e-002, 2.56629493e-002, 2.47860933e-003,
          -1.26770884e-003, -1.39804399e-002, 1.23056965e-002,
          2.06707865e-002, 1.93862822e-002, -1.42247325e-016,
          -1.42247325e-016, -1.42247325e-016, -1.42247325e-016,
          -1.42247325e-016, -1.42247325e-016, -1.42247325e-016,
          -1.42247325e-016, -1.42247325e-016, -1.42247325e-016,
          -1.42247325e-016, -1.42247325e-016, -1.42247325e-016,
          -1.42247325e-016, -1.42247325e-016, -1.42247325e-016,
          -5.59832761e-003, -4.53004939e-003, -1.90823171e-002,
          1.06798997e-002, 7.04494864e-003, 1.01547306e-002,
          6.72957301e-003, -7.21213827e-003, -1.19187189e-002,
          -1.29905120e-002, 2.29497515e-002, -1.10721691e-002,
          -2.96306610e-003, 6.11663098e-003, -1.44148851e-003,
          1.31115792e-002, 1.20651033e-002, 3.62352957e-003,
          3.07077612e-003, 2.19498295e-002, 3.78604187e-003,
          -1.94167122e-002, 1.24660367e-002, 8.62939190e-003,
          3.73582393e-002, -9.19563510e-003, 7.81051349e-003,
          -3.02301161e-002, -7.25073693e-003, -4.27863412e-002,
          -1.73520334e-002, -2.66304500e-002, 6.07808679e-003,
          3.01839155e-003, -1.04618510e-002, -6.57928269e-003,
          -1.66220926e-002, -6.40254375e-003, 2.09101010e-003,
          1.88823172e-003, 2.13637985e-002, 1.36640053e-002,
          -6.87514851e-003, 3.21551505e-003, 4.20838781e-003,
          7.95601960e-003, 3.56147601e-003, 1.10610882e-002,
          -1.42247325e-016, -1.42247325e-016, -1.42247325e-016,
          -1.42247325e-016, -1.42247325e-016, -1.42247325e-016,
          -1.42247325e-016, -1.42247325e-016, -1.42247325e-016,
          -1.42247325e-016, -1.42247325e-016, -1.42247325e-016,
          -1.42247325e-016, -1.42247325e-016, -1.42247325e-016,
          -1.42247325e-016, -5.59832761e-003, -4.53004939e-003,
          -1.01072630e-002, 1.76902823e-002, 1.50159161e-004,
          1.14953646e-003, -3.04954126e-003, -8.86799302e-003,
          -2.18726546e-002, 2.54179793e-003, 9.63803194e-003,
          7.90185388e-003, 1.22137358e-002, 1.45796342e-002,
          2.51207445e-002, 4.93434258e-002, -3.24526598e-004,
          4.78607649e-003, 2.11421903e-002, 3.31116319e-002,
          2.78574526e-002, -1.91106237e-002, 3.08328820e-003,
          2.48698108e-002, 2.62531918e-002, 1.86571181e-002,
          -2.99937581e-003, 3.43028978e-002, 5.62599069e-003,
          -5.89255430e-003, -5.44496579e-003, -6.08646031e-003,
          2.05306392e-002, 3.10683586e-002, -6.29046746e-003,
          1.13121048e-002, -1.29059209e-002, -3.47421132e-002,
          8.23752675e-003, -1.24996691e-003, 2.63913106e-002,
          5.72572788e-003, -1.88899823e-002, 4.83445503e-004,
          7.03652797e-004, -9.96260205e-004, -9.68270376e-003,
          -1.16185695e-002, -1.42247325e-016, -1.42247325e-016,
          -1.42247325e-016, -1.42247325e-016, -1.42247325e-016,
          -1.42247325e-016, -1.42247325e-016, -1.42247325e-016,
          -1.42247325e-016, -1.42247325e-016, -1.42247325e-016,
          -1.42247325e-016, -1.42247325e-016, -1.42247325e-016,
          -1.42247325e-016, -1.42247325e-016, -1.42247325e-016,
          -9.40316706e-004, 2.30737892e-003, 1.26144541e-002,
          5.30788722e-003, 4.58034687e-003, 1.83840394e-002,
          -1.58495270e-002, -6.48837164e-003, -3.63448728e-003,
          4.15613176e-003, 9.99165047e-003, -1.84489936e-002,
          9.42596141e-003, 2.27113068e-002, 1.76031645e-002,
          -1.46668097e-002, -1.27823371e-003, 3.82841416e-002,
          3.74702886e-002, 1.17377425e-002, 2.63528936e-002,
          2.75832340e-002, 2.23735236e-002, 8.44118372e-003,
          2.52525583e-002, 3.64064239e-002, 5.03927283e-002,
          2.52429787e-002, 2.08449569e-002, 2.78722625e-002,
          1.44425984e-002, 5.80221228e-003, 3.43817696e-002,
          2.47269999e-002, 6.88614463e-003, -1.72106246e-003,
          -1.73872337e-002, 6.43789070e-003, 1.78670175e-002,
          -1.38176722e-003, -1.44981127e-002, -1.39398389e-002,
          -1.14008216e-002, 1.68945687e-003, 7.66687095e-003,
          -2.66772825e-002, -1.50775602e-002, -1.42247325e-016,
          -1.42247325e-016, -1.42247325e-016, -1.42247325e-016,
          -1.42247325e-016, -1.42247325e-016, -1.42247325e-016,
          -1.42247325e-016, -1.42247325e-016, -1.42247325e-016,
          -1.42247325e-016, -1.42247325e-016, -1.42247325e-016,
          -1.42247325e-016, -1.42247325e-016, -1.42247325e-016,
          -1.42247325e-016, 4.13551228e-003, -1.15161145e-003,
          7.95607641e-003, 1.22548956e-002, 1.86014976e-002,
          2.88830120e-002, 2.08362900e-002, 1.47719653e-002,
          1.19926138e-002, 3.52723431e-003, -2.32372619e-002,
          -8.65357276e-003, 2.14101709e-002, 1.48574514e-002,
          4.61187167e-003, -5.40631730e-003, 2.51147319e-002,
          1.87052749e-002, 1.29002435e-002, -4.25612880e-003,
          7.54268095e-003, 4.97837625e-002, -1.19614485e-003,
          3.74723673e-002, 5.83699085e-002, 8.92997757e-002,
          9.92621556e-002, 6.33987561e-002, 4.66906466e-002,
          4.19230647e-002, -9.96478926e-003, -2.40486115e-002,
          -2.92300861e-002, -8.82425252e-003, -1.14116743e-002,
          1.09482463e-002, 1.34266522e-002, 1.16115883e-002,
          -1.51542583e-002, -4.44436446e-003, -2.04948010e-003,
          -1.33337686e-002, -1.76002569e-002, -1.65948365e-002,
          -1.80788934e-002, -1.74067374e-002, -2.17269715e-002,
          -6.56359456e-003, -1.42247325e-016, -1.42247325e-016,
          -1.42247325e-016, -1.42247325e-016, -1.42247325e-016,
          -1.42247325e-016, -1.42247325e-016, -1.42247325e-016,
          -1.42247325e-016, -1.42247325e-016, -1.42247325e-016,
          -1.42247325e-016, -1.42247325e-016, -1.42247325e-016,
          -1.42247325e-016, 3.89922457e-003, 9.73383989e-003,
          -6.53693220e-003, 7.95607641e-003, 2.13810075e-002,
          3.57797705e-002, 1.43651534e-002, 2.12926958e-002,
          4.61841784e-002, 2.06234753e-002, 3.43038526e-004,
          3.52042401e-003, 2.79151537e-002, 2.44942289e-002,
          -4.00981680e-003, -5.82532538e-003, -1.62295494e-002,
          -1.75425913e-002, -8.54113791e-003, -2.00235061e-002,
          -1.08118774e-002, -8.11356772e-003, -3.09807900e-002,
          8.21094867e-003, 4.68267594e-003, -2.90022474e-002,
          -4.53068130e-002, -3.61795649e-002, 6.40665926e-003,
          4.64432724e-002, 5.38907014e-002, 3.76534462e-003,
          -1.88208767e-003, -6.54701702e-003, -5.33956476e-003,
          4.29748744e-003, 1.29977269e-002, 1.84193501e-004,
          1.25625618e-002, -4.86607198e-003, -1.13942930e-002,
          -1.92702468e-002, -1.42516103e-002, 3.90525535e-003,
          -2.13531926e-002, -2.38879863e-002, -1.12004522e-002,
          -1.29514039e-002, -6.56359456e-003, -1.42247325e-016,
          -1.42247325e-016, -1.42247325e-016, -1.42247325e-016,
          -1.42247325e-016, -1.42247325e-016, -1.42247325e-016,
          -1.42247325e-016, -1.42247325e-016, -1.42247325e-016,
          -1.42247325e-016, -1.42247325e-016, -1.42247325e-016,
          -1.42247325e-016, -1.42247325e-016, 3.89922457e-003,
          9.73383989e-003, 4.24193265e-003, 2.48544272e-002,
          1.78351011e-002, 3.94687131e-002, 1.19705424e-002,
          3.92206199e-003, 2.89037600e-002, 1.42474258e-002,
          -1.17551880e-002, -2.35573966e-002, -9.82365571e-003,
          2.08992437e-002, -2.26254808e-003, -2.00025029e-002,
          -1.52956685e-002, -9.25643742e-003, -6.28833426e-003,
          -2.12111734e-002, -1.05073703e-002, -1.93828139e-002,
          -3.22579741e-002, 2.26078299e-003, -8.79836082e-003,
          1.00858398e-002, -4.84428704e-002, -5.15327044e-003,
          6.26964075e-003, 2.89147400e-004, -9.43379011e-003,
          3.27014625e-002, 2.27103988e-003, -1.23420591e-002,
          -1.33404636e-003, 2.79419031e-003, 2.85502826e-003,
          2.48332657e-002, -2.22288836e-002, -6.15277281e-003,
          -4.48678341e-003, 8.57600197e-003, 1.05301794e-002,
          1.23780845e-002, 2.70730793e-003, -1.10084517e-002,
          -1.18010296e-002, -1.35519812e-002, -6.56359456e-003,
          -1.42247325e-016, -1.42247325e-016, -1.42247325e-016,
          -1.42247325e-016, -1.42247325e-016, -1.42247325e-016,
          -1.42247325e-016, -1.42247325e-016, -1.42247325e-016,
          -1.42247325e-016, -1.42247325e-016, -1.42247325e-016,
          -1.42247325e-016, -1.42247325e-016, -1.42247325e-016,
          3.89922457e-003, 9.73383989e-003, 1.21951383e-002,
          1.49346450e-002, 3.47796679e-002, 2.05911379e-002,
          2.99599003e-002, 8.54433421e-003, -1.09586585e-002,
          -2.90465504e-002, -1.36887757e-002, -1.93251111e-002,
          1.22406455e-002, 3.68981535e-004, 2.18970864e-003,
          -1.37096867e-002, 7.51360494e-004, 2.26422632e-003,
          -3.75899184e-003, -2.43194886e-002, -2.63952836e-002,
          -6.33460982e-003, 5.47592608e-005, -3.35568376e-002,
          1.34711430e-004, -3.84489931e-002, -1.41284131e-002,
          -1.40184751e-002, 6.12417050e-003, -7.57166464e-003,
          -1.65975485e-002, -3.11819334e-002, -3.09005543e-003,
          -1.03124259e-002, -2.23353915e-002, -1.01422286e-003,
          -1.39321468e-003, 5.11403475e-003, -2.16836203e-002,
          -2.13058684e-002, 5.89650404e-003, 1.15238084e-002,
          1.81874596e-002, 3.11283730e-002, 2.24273354e-002,
          6.88338513e-003, -2.22539855e-003, -1.50509402e-002,
          -1.42247325e-016, -1.42247325e-016, -1.42247325e-016,
          -1.42247325e-016, -1.42247325e-016, -1.42247325e-016,
          -1.42247325e-016, -1.42247325e-016, -1.42247325e-016,
          -1.42247325e-016, -1.42247325e-016, -1.42247325e-016,
          -1.42247325e-016, -1.42247325e-016, -1.42247325e-016,
          -1.42247325e-016, 3.89922457e-003, 9.73383989e-003,
          2.23925989e-002, 3.21584009e-002, 3.77344824e-002,
          3.31282592e-003, -1.55384291e-003, -3.34212440e-003,
          -1.62427556e-002, -3.65781970e-002, 1.42203094e-002,
          -1.48419160e-002, -5.86847216e-003, -9.18492954e-003,
          -3.16956304e-002, -1.97038241e-002, -5.73514309e-003,
          2.89742602e-003, 5.97299170e-003, -3.90207507e-002,
          -3.01751308e-002, -4.06715907e-002, -2.17739139e-002,
          -5.16292639e-002, -2.18401682e-002, -1.55568356e-002,
          1.21761682e-002, -8.42034759e-004, -9.51506477e-003,
          1.82611228e-004, -2.78822873e-002, -4.28622402e-002,
          -4.26037470e-003, 9.52314679e-003, -1.63580868e-002,
          -1.38554499e-002, 7.41087552e-003, 1.51564460e-002,
          -3.96920694e-003, -1.28708722e-003, 2.21094228e-002,
          1.03649842e-002, 8.93930998e-003, 3.36329117e-002,
          2.83430181e-002, 1.17857996e-002, -5.04425087e-004,
          -3.97635018e-003, 6.67603081e-003, -1.42247325e-016,
          -1.42247325e-016, -1.42247325e-016, -1.42247325e-016,
          -1.42247325e-016, -1.42247325e-016, -1.42247325e-016,
          -1.42247325e-016, -1.42247325e-016, -1.42247325e-016,
          -1.42247325e-016, -1.42247325e-016, -1.42247325e-016,
          -1.42247325e-016, -1.42247325e-016, 3.89922457e-003,
          9.73383989e-003, 2.46523004e-002, 9.12995078e-003,
          5.75984642e-003, -1.57825407e-002, -1.04407975e-002,
          -1.42196137e-002, -3.19414884e-002, -6.33719191e-003,
          -5.23040723e-003, -3.30913141e-002, -2.10185461e-002,
          -6.24200376e-003, -4.62609995e-003, -1.23981414e-002,
          7.61131709e-003, 8.63980688e-003, -2.37100814e-002,
          -4.70245704e-002, -5.33266775e-002, -6.17668778e-003,
          -4.10519391e-002, -2.63850205e-002, -1.23703515e-003,
          -1.57197583e-002, -3.24371830e-003, -7.08160037e-003,
          3.62739293e-003, -2.17189640e-002, -3.48950624e-002,
          -1.77988969e-002, 1.11642489e-002, 1.16034262e-002,
          -1.49369901e-002, -3.12959366e-002, 8.60795192e-003,
          1.23347975e-002, -3.38990195e-003, -1.20932190e-002,
          2.46259887e-002, 2.41101682e-002, 2.04060022e-002,
          2.94312704e-002, 2.51964424e-002, 8.28265306e-003,
          1.25263096e-003, 7.76720792e-003, 6.67603081e-003,
          -1.42247325e-016, -1.42247325e-016, -1.42247325e-016,
          -1.42247325e-016, -1.42247325e-016, -1.42247325e-016,
          -1.42247325e-016, -1.42247325e-016, -1.42247325e-016,
          -1.42247325e-016, -1.42247325e-016, -1.42247325e-016,
          -1.42247325e-016, -1.42247325e-016, -1.42247325e-016,
          -3.51332268e-003, 1.48717696e-002, -5.99475531e-003,
          -1.07909860e-002, -2.66645104e-002, -1.20720034e-002,
          -1.31076304e-002, -3.28816138e-002, -2.94517428e-002,
          -6.74610306e-003, -1.49892876e-002, -1.54250981e-002,
          1.02375085e-002, 1.13459025e-002, 4.31124261e-003,
          -1.85080394e-002, 2.79102847e-002, -1.01415170e-002,
          -1.48045179e-002, -9.02122911e-003, -1.70594116e-003,
          -1.19400406e-002, -1.96980056e-003, -1.54646020e-002,
          1.28901470e-002, -3.45552675e-002, 5.27840061e-003,
          1.55672273e-002, -1.42567009e-002, -1.34718390e-002,
          -2.58202609e-002, 6.42259046e-003, 2.40281168e-002,
          4.21085395e-003, -1.03721991e-002, 6.42435951e-003,
          3.17347087e-002, 1.62713118e-002, -1.54202590e-002,
          -6.40698941e-003, 1.58945192e-002, 2.21141912e-002,
          2.19866261e-002, 2.62231287e-002, 2.10631173e-002,
          1.66639015e-002, -3.64207546e-004, 7.31950160e-003,
          6.67603081e-003, -1.42247325e-016, -1.42247325e-016,
          -1.42247325e-016, -1.42247325e-016, -1.42247325e-016,
          -1.42247325e-016, -1.42247325e-016, -1.42247325e-016,
          -1.42247325e-016, -1.42247325e-016, -1.42247325e-016,
          -1.42247325e-016, -1.42247325e-016, -1.42247325e-016,
          -1.42247325e-016, -8.17068946e-003, 2.17126892e-003,
          -2.47711819e-002, -3.65379527e-002, -2.87222266e-002,
          -2.79583503e-002, -1.45646362e-002, -1.99253950e-002,
          -2.77966242e-002, -1.23951994e-002, -7.66795501e-003,
          3.06632090e-002, 3.47256325e-002, -8.02998152e-003,
          -7.34813046e-003, -1.93087514e-002, -2.44215690e-003,
          -9.90339834e-003, -1.38121899e-002, -2.21735425e-002,
          -2.54732557e-003, 4.69811057e-004, -1.15774842e-002,
          -4.63349745e-002, -5.55814095e-002, -2.24864986e-002,
          7.07105966e-003, -9.43232886e-003, -2.53772829e-002,
          -2.03472115e-002, -2.43246853e-002, 1.54298246e-002,
          1.85752418e-002, -9.25486721e-003, -4.04314511e-003,
          -9.41629242e-003, 3.73650417e-002, 1.24280099e-002,
          -1.31953442e-002, -1.64378155e-002, 1.00890268e-002,
          1.52739119e-002, 1.91347618e-002, 2.91283801e-002,
          2.18327921e-002, 1.88806225e-002, 7.11736595e-003,
          1.69617385e-002, 6.67603081e-003, -1.42247325e-016,
          -1.42247325e-016, -1.42247325e-016, -1.42247325e-016,
          -1.42247325e-016, -1.42247325e-016, -1.42247325e-016,
          -1.42247325e-016, -1.42247325e-016, -1.42247325e-016,
          -1.42247325e-016, -1.42247325e-016, -1.42247325e-016,
          -1.42247325e-016, -4.65736631e-003, 8.75923038e-003,
          -1.21717844e-002, -2.02787295e-002, -3.53475697e-002,
          -3.42427269e-002, -3.78871895e-002, -2.22908519e-003,
          -7.29195913e-003, -2.93038785e-002, -1.05118146e-002,
          1.62488373e-003, 2.80913971e-002, 1.54688619e-002,
          -8.76403973e-003, -2.62101423e-002, -5.20676933e-002,
          -8.64276569e-003, -9.32034664e-003, -3.98505805e-003,
          8.87054368e-004, -2.66878703e-003, 7.09721062e-004,
          -1.85186379e-002, -4.39313203e-002, -4.91351774e-003,
          -2.04997770e-002, -2.51366012e-003, -1.79514680e-002,
          -2.93104462e-002, -1.22529818e-002, -9.78000229e-004,
          2.83708423e-002, 3.95884775e-002, -2.58009341e-002,
          -5.17531589e-004, 1.55907478e-002, 1.17458384e-002,
          -1.39051788e-002, -1.85099691e-002, -1.06669706e-003,
          3.41777201e-003, -1.01705603e-002, 1.19012790e-002,
          2.46613808e-002, 1.83738023e-002, 2.41489168e-002,
          7.66695617e-003, 1.68276019e-002, 6.67603081e-003,
          -1.42247325e-016, -1.42247325e-016, -1.42247325e-016,
          -1.42247325e-016, -1.42247325e-016, -1.42247325e-016,
          -1.42247325e-016, -1.42247325e-016, -1.42247325e-016,
          -1.42247325e-016, -1.42247325e-016, -1.42247325e-016,
          -1.42247325e-016, -1.42247325e-016, -1.42247325e-016,
          -1.74869113e-002, -9.35874507e-003, -1.67944171e-002,
          -6.95001334e-003, 5.38079720e-003, -1.04438439e-002,
          -2.20621284e-003, -6.50666142e-003, -1.26351072e-002,
          -4.26496798e-003, -2.46577840e-002, -7.04841502e-003,
          -8.62923916e-003, -3.96974683e-002, -4.83695567e-002,
          -3.28687467e-002, -3.71906050e-002, 1.18527254e-002,
          -1.50204857e-003, -1.31397799e-003, -3.24815996e-002,
          -3.70629057e-002, -3.44405472e-002, -1.07205017e-002,
          -1.46488603e-002, 2.83493684e-003, -3.44505087e-002,
          -3.63509804e-002, -2.11115945e-002, 2.63567585e-002,
          -2.46059091e-004, -9.85179562e-003, 2.24949978e-003,
          -1.62141770e-002, -8.61527957e-003, 2.15145480e-002,
          1.50388172e-002, -2.25444976e-002, -1.17190843e-002,
          -6.59563066e-003, 8.62763729e-003, -5.60392346e-003,
          2.15396262e-003, 2.09175013e-002, 2.23662201e-002,
          2.52582394e-002, 1.47411712e-002, 1.71967447e-002,
          -1.42247325e-016, -1.42247325e-016, -1.42247325e-016,
          -1.42247325e-016, -1.42247325e-016, -1.42247325e-016,
          -1.42247325e-016, -1.42247325e-016, -1.42247325e-016,
          -1.42247325e-016, -1.42247325e-016, -1.42247325e-016,
          -1.42247325e-016, -1.42247325e-016, -1.42247325e-016,
          -1.42247325e-016, -1.15958415e-002, -5.04740921e-004,
          1.32749071e-002, 1.57242101e-002, 1.73514988e-002,
          -6.56437734e-003, -1.62831675e-002, -8.31603911e-003,
          -1.35450182e-003, 3.14659206e-003, -5.17105963e-003,
          1.15900394e-002, -1.28228003e-002, -2.61836522e-003,
          -8.10878072e-003, 4.03086538e-004, -1.25669222e-003,
          1.74142830e-002, 1.51687535e-002, -1.41356150e-002,
          -1.65059377e-004, 1.71993189e-002, 6.00132812e-003,
          -2.95686647e-002, 6.24131085e-003, -2.05479227e-002,
          -2.02527978e-002, -3.87753267e-003, 2.22147703e-002,
          2.18719672e-002, 5.98217966e-003, 3.20032192e-003,
          2.59364676e-003, -1.58292092e-002, 2.29457282e-002,
          1.69803035e-002, -1.41562559e-002, -3.74868116e-003,
          -2.48848344e-003, -1.57820946e-003, -1.50560094e-002,
          -2.53226166e-003, 7.60835828e-003, 1.60150863e-002,
          1.93623565e-002, 2.19753757e-002, 1.09195663e-002,
          1.11979842e-002, -1.42247325e-016, -1.42247325e-016,
          -1.42247325e-016, -1.42247325e-016, -1.42247325e-016,
          -1.42247325e-016, -1.42247325e-016, -1.42247325e-016,
          -1.42247325e-016, -1.42247325e-016, -1.42247325e-016,
          -1.42247325e-016, -1.42247325e-016, -1.42247325e-016,
          -1.42247325e-016, -1.42247325e-016, 7.04796007e-003,
          1.85005396e-004, 1.92117654e-002, 2.27076877e-002,
          1.56633754e-003, 5.09730633e-003, -1.14642177e-002,
          1.33504835e-003, -2.82082940e-003, -1.28051378e-002,
          -4.22321427e-005, 1.34132628e-003, 1.65751297e-002,
          -3.69384792e-003, -6.74285786e-003, -1.49957568e-003,
          2.25449204e-002, -1.15746949e-002, -3.16773951e-002,
          -4.17132722e-003, 4.44358942e-004, -1.78828854e-002,
          -3.51305120e-003, -7.48534733e-003, -1.83109213e-002,
          -3.53086963e-002, 3.65433819e-003, 5.97315142e-003,
          9.62789543e-003, 9.35968664e-003, -2.31641941e-002,
          -7.84842391e-003, 1.10784415e-002, -9.57652647e-003,
          7.55512062e-003, 2.59611569e-002, -9.80801042e-003,
          1.85473217e-003, 1.32591557e-002, -1.21500939e-002,
          -2.49919184e-002, -1.98460510e-003, -3.34681151e-003,
          2.15597879e-002, 1.26569234e-002, 1.93699412e-002,
          1.22526102e-002, -4.16407455e-003, -7.57198373e-004,
          -1.42247325e-016, -1.42247325e-016, -1.42247325e-016,
          -1.42247325e-016, -1.42247325e-016, -1.42247325e-016,
          -1.42247325e-016, -1.42247325e-016, -1.42247325e-016,
          -1.42247325e-016, -1.42247325e-016, -1.42247325e-016,
          -1.42247325e-016, -1.42247325e-016, -1.42247325e-016,
          -5.33883984e-004, 1.67705659e-002, 1.22195482e-002,
          -9.52759106e-003, -1.92271769e-002, -2.19033435e-002,
          -4.74660686e-004, -7.07065128e-003, -1.44654978e-003,
          -1.60584785e-002, 1.16484538e-002, 1.74170490e-002,
          7.20783696e-003, 5.78289106e-003, 1.83563735e-002,
          -1.12002445e-002, -3.11362464e-002, -2.82883812e-002,
          -3.05819679e-002, -4.89860261e-003, -1.44346142e-002,
          -2.39295773e-002, -8.11120495e-003, -5.88798290e-003,
          -3.54838930e-003, -1.02983639e-002, 1.00241704e-002,
          1.50960255e-002, -1.54653527e-002, -2.27317363e-002,
          -1.46282725e-002, -2.20791604e-002, 1.41767394e-002,
          1.19463857e-002, 7.41642481e-003, -1.12407766e-002,
          -4.62394254e-003, 8.36169161e-003, -1.20116642e-003,
          -1.42618027e-002, -2.24488042e-002, -1.95800024e-003,
          8.20653222e-004, 2.02748310e-002, 2.14681011e-002,
          2.30314229e-002, 5.07605402e-003, -7.27948966e-003,
          -7.57198373e-004, -1.42247325e-016, -1.42247325e-016,
          -1.42247325e-016, -1.42247325e-016, -1.42247325e-016,
          -1.42247325e-016, -1.42247325e-016, -1.42247325e-016,
          -1.42247325e-016, -1.42247325e-016, -1.42247325e-016,
          -1.42247325e-016, -1.42247325e-016, -1.42247325e-016,
          -1.42247325e-016, -1.35287633e-002, 3.30922082e-002,
          1.05963890e-002, -5.21943020e-003, -1.05655082e-002,
          -7.53726345e-003, -3.02857137e-003, -5.78988576e-003,
          -2.73249242e-002, -1.32234674e-002, -1.98261496e-002,
          1.11285923e-003, -9.92730353e-003, 4.77739330e-003,
          1.34272780e-003, -2.52889935e-002, -3.57930101e-002,
          -7.79649476e-003, -8.69745668e-003, 4.28203158e-002,
          1.74145382e-002, -3.08964448e-003, -1.29419856e-003,
          -2.74389866e-003, 5.42703876e-003, -1.41077517e-002,
          -9.86801274e-003, -1.93515141e-002, -8.76826514e-003,
          5.35673648e-003, -2.31840629e-002, 6.25138078e-003,
          3.48293334e-002, 3.22486088e-002, -4.06852700e-002,
          -4.04434744e-003, 3.72577086e-003, 1.60749396e-003,
          -1.16901305e-002, -2.41628289e-002, -4.51683719e-003,
          1.59373134e-002, 1.52296908e-002, 1.15121547e-002,
          2.65439302e-002, 1.29217571e-002, -8.91172234e-003,
          -8.04783683e-003, -1.42247325e-016, -1.42247325e-016,
          -1.42247325e-016, -1.42247325e-016, -1.42247325e-016,
          -1.42247325e-016, -1.42247325e-016, -1.42247325e-016,
          -1.42247325e-016, -1.42247325e-016, -1.42247325e-016,
          -1.42247325e-016, -1.42247325e-016, -1.42247325e-016,
          -1.42247325e-016, -1.42247325e-016, -1.38102593e-002,
          -2.48049367e-002, -1.56048890e-002, 9.58213862e-003,
          -7.21334189e-004, -1.50494939e-002, -1.73468292e-002,
          -2.91100387e-002, -2.33641677e-002, -1.34151997e-002,
          -6.68092864e-003, -1.67407771e-003, -1.32895866e-003,
          -1.04194405e-002, 4.79274057e-003, -3.00406199e-002,
          -1.04277991e-002, -1.09146275e-002, 2.12699939e-002,
          -5.85809723e-003, -7.31198257e-003, 3.12636537e-003,
          -2.30834680e-003, -2.13812534e-002, -9.53752082e-003,
          -7.35996803e-003, -2.12389939e-002, -2.10396759e-002,
          3.27108311e-003, -2.19994448e-002, 1.16827292e-002,
          1.87466014e-002, 1.43150557e-002, -8.33971146e-003,
          -1.12462984e-002, -7.76232174e-003, 8.11523478e-003,
          -2.95559317e-003, -1.33459056e-002, -1.16256056e-002,
          -5.61145589e-006, -3.15910834e-003, 1.43530779e-002,
          1.64775308e-002, 6.48181234e-003, -7.08668679e-003,
          -1.01378718e-002, -6.14805659e-003, -1.42247325e-016,
          -1.42247325e-016, -1.42247325e-016, -1.42247325e-016,
          -1.42247325e-016, -1.42247325e-016, -1.42247325e-016,
          -1.42247325e-016, -1.42247325e-016, -1.42247325e-016,
          -1.42247325e-016, -1.42247325e-016, -1.42247325e-016,
          -1.42247325e-016, -1.42247325e-016, -1.42247325e-016,
          -8.38523824e-003, -4.58593341e-003, -2.51695253e-002,
          -1.20314667e-002, -1.23687712e-002, -3.97401899e-002,
          -6.36754185e-002, -3.83439735e-002, -1.91992391e-002,
          -2.42554136e-002, 1.65462214e-002, -1.89752434e-004,
          -2.37365704e-004, 7.76242989e-004, -1.30060418e-002,
          -7.39188679e-003, -4.42807004e-003, -1.57981813e-002,
          9.39299178e-004, -1.04681356e-002, 5.11452602e-003,
          -1.75737236e-002, 1.32097234e-003, 2.44206544e-002,
          -7.60975818e-004, -7.36146187e-003, -8.44411366e-003,
          2.85226898e-003, 1.73223950e-002, 1.97710991e-002,
          1.85362902e-002, 4.45206650e-003, -2.63186861e-002,
          -1.02518843e-002, -1.46363699e-003, -1.38610788e-002,
          -2.97765480e-003, 2.79187015e-003, -2.84951902e-003,
          1.12363622e-002, -3.59489204e-004, 3.83281894e-003,
          -7.70697277e-003, -1.25424610e-003, -1.37843862e-002,
          -2.18276568e-002, -1.33947507e-002, -6.14805659e-003,
          -1.42247325e-016, -1.42247325e-016, -1.42247325e-016,
          -1.42247325e-016, -1.42247325e-016, -1.42247325e-016,
          -1.42247325e-016, -1.42247325e-016, -1.42247325e-016,
          -1.42247325e-016, -1.42247325e-016, -1.42247325e-016,
          -1.42247325e-016, -1.42247325e-016, -1.42247325e-016,
          -1.42247325e-016, -5.45308972e-003, -3.32567953e-002,
          -2.28049059e-004, -1.04068657e-002, -1.40889119e-002,
          1.99522314e-004, -1.81612861e-003, -2.13554874e-002,
          -3.05581111e-002, -2.05337256e-002, 4.72342735e-003,
          -1.05309179e-002, -2.11569592e-002, -1.78075011e-003,
          -1.02202846e-002, -1.86845735e-002, -2.00467110e-002,
          -1.58161018e-002, 8.45202594e-004, 1.78041887e-002,
          5.65746129e-002, 1.88238155e-002, 1.78962145e-002,
          8.49033985e-003, -1.14080869e-003, 6.94423262e-003,
          -9.32895113e-003, 3.49122100e-002, 3.68936881e-002,
          -1.64756533e-002, -2.46372093e-002, -1.85425654e-002,
          -3.79016660e-002, -1.41612738e-002, 7.12329580e-004,
          -2.02486143e-002, 2.11466779e-003, -2.52055749e-002,
          -1.25724403e-002, -8.65025353e-003, -1.50838234e-002,
          -1.69598386e-002, -1.96689926e-002, -1.28410552e-002,
          -1.49466805e-002, -2.14213990e-002, -2.29573604e-002,
          -2.09464990e-002, -8.06468725e-003, -1.42247325e-016,
          -1.42247325e-016, -1.42247325e-016, -1.42247325e-016,
          -1.42247325e-016, -1.42247325e-016, -1.42247325e-016,
          -1.42247325e-016, -1.42247325e-016, -1.42247325e-016,
          -1.42247325e-016, -1.42247325e-016, -1.42247325e-016,
          -1.42247325e-016, -8.70737154e-003, -2.70600878e-002,
          -4.93407622e-003, 4.54350782e-004, -1.38281286e-002,
          -5.50211081e-003, -2.12282897e-003, -5.86602697e-003,
          -2.53431890e-002, -1.57933049e-002, -2.43369713e-002,
          -9.36291739e-003, -2.81653944e-002, -1.40304035e-002,
          -1.82409715e-002, 2.04450190e-002, 2.00514542e-003,
          -2.02190634e-002, 2.28452031e-003, -7.30636343e-003,
          1.88995413e-002, 2.13690177e-002, 1.21361073e-002,
          8.06019735e-003, -2.96564191e-003, 4.71502682e-003,
          7.35888199e-004, -1.50443455e-002, 9.62854363e-003,
          2.22240388e-002, -2.22289725e-003, -1.39262248e-002,
          -3.00494917e-002, -1.08349836e-002, 6.31597824e-003,
          1.45924045e-002, -1.63165163e-002, -2.37678457e-002,
          -6.45954278e-004, -6.77334238e-003, 3.99055891e-003,
          4.07058047e-003, -3.81907099e-003, -1.06555400e-002,
          -1.56741459e-002, -2.64595579e-002, -2.81167179e-002,
          -2.78195404e-002, -9.84478276e-003, -1.42247325e-016,
          -1.42247325e-016, -1.42247325e-016, -1.42247325e-016,
          -1.42247325e-016, -1.42247325e-016, -1.42247325e-016,
          -1.42247325e-016, -1.42247325e-016, -1.42247325e-016,
          -1.42247325e-016, -1.42247325e-016, -1.42247325e-016,
          -1.42247325e-016, -1.42247325e-016, -1.61199197e-002,
          -1.66856945e-002, -8.87236651e-003, 3.93014075e-003,
          3.59260268e-003, 2.18900247e-003, -6.75365096e-003,
          -1.81405507e-002, -3.03065628e-002, -4.83232327e-002,
          -2.87325010e-002, -1.54701220e-002, -1.14279026e-002,
          9.27621778e-003, 2.02543717e-002, 1.08842133e-002,
          -3.49343494e-002, -1.44160427e-002, -1.49855288e-002,
          -1.54115492e-002, 7.59118935e-003, -8.37450556e-004,
          -9.78938770e-003, 2.76482641e-003, -1.67037901e-002,
          -1.43294130e-002, -8.98291077e-003, 5.65537298e-003,
          1.68092307e-002, 6.47833152e-003, -8.13984685e-003,
          -1.69681441e-002, -1.61955468e-002, -5.69054252e-003,
          -3.15516954e-005, -2.28669931e-004, -1.05471760e-002,
          3.37876379e-003, -9.61945392e-003, -5.44473715e-003,
          -5.25021134e-003, -4.90180403e-003, -7.24324724e-003,
          -1.37686376e-002, -2.56154593e-002, -3.06963678e-002,
          -2.81167179e-002, -1.97548531e-002, -1.19571481e-002,
          -1.42247325e-016, -1.42247325e-016, -1.42247325e-016,
          -1.42247325e-016, -1.42247325e-016, -1.42247325e-016,
          -1.42247325e-016, -1.42247325e-016, -1.42247325e-016,
          -1.42247325e-016, -1.42247325e-016, -1.42247325e-016,
          -1.42247325e-016, -1.42247325e-016, -1.42247325e-016,
          -1.37577448e-002, -1.79943498e-002, -6.04836131e-003,
          8.26243684e-003, -5.07932808e-003, -1.18136425e-002,
          -1.61210038e-002, -2.60130242e-002, -2.67839618e-002,
          -1.54501237e-002, -1.32858874e-002, -2.79830117e-003,
          9.69062850e-004, -3.66458273e-003, 4.24333438e-002,
          2.42189150e-002, -2.48222817e-002, -6.42066635e-003,
          -3.91419232e-003, 1.11004962e-002, 2.01437622e-002,
          4.19773581e-003, 3.05636339e-002, 1.97963677e-002,
          1.51952785e-002, -1.91141795e-002, -3.93482298e-003,
          1.99000407e-002, 2.30150782e-002, -7.92780332e-003,
          -1.63600072e-002, -2.23993175e-002, -1.44835142e-002,
          -1.18826218e-002, -3.02756000e-002, -1.85593907e-002,
          -1.43273761e-002, -1.72110144e-002, -1.71644576e-002,
          -1.50008295e-002, -1.56270526e-002, -1.59482677e-002,
          -1.27053782e-002, -2.26286743e-002, -2.08655335e-002,
          -3.50690410e-002, -1.90294795e-002, -1.81048159e-002,
          -1.19571481e-002, -1.42247325e-016, -1.42247325e-016,
          -1.42247325e-016, -1.42247325e-016, -1.42247325e-016,
          -1.42247325e-016, -1.42247325e-016, -1.42247325e-016,
          -1.42247325e-016, -1.42247325e-016, -1.42247325e-016,
          -1.42247325e-016, -1.42247325e-016, -1.42247325e-016,
          -7.41254725e-003, -1.58044342e-002, -1.06145758e-002,
          -1.25564111e-003, -2.18830071e-004, -9.85903107e-003,
          -7.90412538e-003, -2.18053535e-002, -3.22756395e-002,
          -2.99218092e-002, -1.35693755e-002, -7.60177849e-003,
          1.21731160e-003, 1.08592631e-002, 3.48071754e-002,
          2.62872372e-002, 2.54650582e-002, -1.88600980e-002,
          -5.84820053e-003, 1.70284463e-003, 1.15585662e-002,
          2.44417433e-002, 2.28420887e-002, 1.59223541e-003,
          4.78752982e-003, -4.14887862e-003, -3.18667316e-003,
          1.35962910e-003, 1.53483637e-002, 1.19044422e-003,
          9.69949644e-004, -3.72699164e-002, -4.11826298e-002,
          -9.91597027e-003, -4.11230046e-003, -2.43591554e-002,
          1.32821286e-002, -7.47455051e-003, -6.09733770e-003,
          -1.05351135e-002, -1.25302803e-002, -4.29932866e-003,
          -7.05559785e-003, -4.00070800e-003, -7.86170177e-003,
          -2.12278459e-002, -2.37358250e-002, -2.54638921e-002,
          -1.81048159e-002, -1.19571481e-002, -1.42247325e-016,
          -1.42247325e-016, -1.42247325e-016, -1.42247325e-016,
          -1.42247325e-016, -1.42247325e-016, -1.42247325e-016,
          -1.42247325e-016, -1.42247325e-016, -1.42247325e-016,
          -1.42247325e-016, -1.42247325e-016, -1.42247325e-016,
          -1.42247325e-016, -1.37577448e-002, -1.37577448e-002,
          -1.59388408e-002, 6.12820964e-003, -7.65078561e-003,
          -1.12961400e-002, 1.05034150e-002, -4.66392376e-002,
          -3.47414203e-002, -2.44365484e-002, -1.36641003e-002,
          -1.11467522e-002, 8.58339388e-003, 1.29881101e-002,
          8.30632076e-003, 2.20914427e-002, 1.71044823e-002,
          -1.75334048e-002, -5.52366534e-003, 1.00197447e-002,
          -9.43522993e-003, -1.34852557e-002, -2.37427978e-003,
          -1.02085788e-002, -4.22185054e-003, -1.41879739e-002,
          -9.80244949e-003, -1.17523759e-003, 9.63058148e-004,
          9.49225947e-003, -2.61484156e-003, -2.89370064e-002,
          -2.47079674e-002, -1.90036148e-002, 4.73787310e-003,
          -4.15622219e-002, -5.29679656e-003, -3.36631993e-003,
          -8.66686646e-003, -1.25302803e-002, -1.25417458e-002,
          -1.41259879e-002, -6.20466052e-003, -3.32058902e-004,
          -6.29250333e-003, -2.42039468e-002, -2.53096540e-002,
          -2.53096540e-002, -1.68799646e-002, -1.52140269e-002,
          -1.42247325e-016, -1.42247325e-016, -1.42247325e-016,
          -1.42247325e-016, -1.42247325e-016, -1.42247325e-016,
          -1.42247325e-016, -1.42247325e-016, -1.42247325e-016,
          -1.42247325e-016, -1.42247325e-016, -1.42247325e-016,
          -1.42247325e-016, -1.42247325e-016, -1.37577448e-002,
          -1.23788100e-002, -1.13362335e-002, -6.80983486e-003,
          -3.54119786e-003, -1.02011655e-002, -1.60544720e-002,
          -4.04509790e-002, -2.45188456e-002, -1.50735872e-002,
          -7.92260095e-003, 6.18430646e-003, 1.41271139e-002,
          2.15690881e-002, 1.07034240e-002, 2.31931470e-002,
          2.82824878e-003, -2.36308724e-002, -5.39806113e-003,
          -1.04797604e-002, -9.84642934e-003, -2.51378417e-002,
          -3.77701921e-003, 3.47321387e-003, -1.29560698e-002,
          6.70229876e-003, 8.39087588e-004, -1.26324669e-002,
          1.11002047e-002, -5.24194585e-003, 7.82278273e-003,
          1.33817047e-002, -2.04398744e-002, -2.34256703e-002,
          1.84772983e-002, -2.11635735e-002, -7.79249985e-003,
          1.22727314e-003, -2.23321747e-002, -1.77969635e-002,
          -1.18266037e-002, -1.14808455e-002, -6.43324805e-003,
          -7.35817663e-003, -1.35516794e-002, -1.86564624e-002,
          -2.53096540e-002, -2.53952686e-002, -1.71287395e-002,
          -1.36102540e-002, -5.80909150e-003, -1.42247325e-016,
          -1.42247325e-016, -1.42247325e-016, -1.42247325e-016,
          -1.42247325e-016, -1.42247325e-016, -1.42247325e-016,
          -1.42247325e-016, -1.42247325e-016, -1.42247325e-016,
          -1.42247325e-016, -1.42247325e-016, -1.20699136e-002,
          -1.06909787e-002, -1.06909787e-002, -2.82772481e-002,
          -1.56752225e-002, -1.52116539e-002, -2.40053181e-002,
          -4.26276661e-002, -5.40133007e-002, -2.75257267e-002,
          -2.90588439e-002, 2.10391190e-002, 1.76053587e-002,
          2.73336917e-002, 8.13653041e-003, -1.60436984e-002,
          5.87063096e-003, -5.94155351e-003, -5.93445404e-003,
          -3.87966225e-004, -8.24871473e-003, -1.07860677e-002,
          -7.69028300e-003, 2.79200217e-003, 2.95903906e-002,
          8.51678289e-003, 1.07282568e-002, 8.30829330e-003,
          1.56757757e-002, -1.25427386e-002, 3.15979379e-003,
          1.27659701e-002, -7.48560484e-003, -1.01728244e-002,
          -1.18165510e-002, 2.50974298e-003, -2.79229004e-002,
          -3.24886013e-003, -2.32734233e-002, -2.79681496e-002,
          -1.42502738e-002, -5.55819413e-003, -5.65810641e-003,
          -5.58072003e-003, -1.58620775e-002, -2.13732515e-002,
          -1.17643736e-002, -2.35223472e-002, -2.35223472e-002,
          -2.02654693e-002, -1.25591699e-002, -1.42247325e-016,
          -1.42247325e-016, -1.42247325e-016, -1.42247325e-016,
          -1.42247325e-016, -1.42247325e-016, -1.42247325e-016,
          -1.42247325e-016, -1.42247325e-016, -1.42247325e-016,
          -1.42247325e-016, -1.42247325e-016, -1.42247325e-016,
          -4.65736631e-003, -1.06909787e-002, -1.06909787e-002,
          -1.74131822e-002, -1.30743869e-002, -3.72227877e-002,
          -3.59940343e-002, -5.12222759e-002, -5.70606627e-002,
          -4.86232229e-002, -3.52379531e-002, 1.04116462e-003,
          -2.90010404e-002, 1.30794442e-003, 2.13811658e-002,
          4.83722612e-003, -9.00722865e-004, 8.18565488e-003,
          -1.54055934e-002, 1.00673724e-003, 1.19758658e-002,
          1.71115994e-002, 1.46063799e-002, 1.46195218e-002,
          1.64737459e-002, 1.46672437e-002, 1.94871128e-002,
          -2.71752756e-003, 4.84544924e-003, 1.52648957e-002,
          -2.53645307e-003, -2.44637970e-002, -1.91862825e-002,
          -4.02926560e-003, -2.54761688e-002, -4.60212119e-003,
          -3.92110646e-002, -1.46574061e-002, -1.61269438e-002,
          -1.45811075e-002, -2.33451184e-003, -4.72741947e-003,
          -7.17332913e-003, -8.67732242e-003, -4.21865890e-003,
          -6.47295313e-003, -6.47295313e-003, -1.43594900e-002,
          -8.20317678e-003, -8.20317678e-003, -8.44099792e-004,
          -1.42247325e-016, -1.42247325e-016, -1.42247325e-016,
          -1.42247325e-016, -1.42247325e-016, -1.42247325e-016,
          -1.42247325e-016, -1.42247325e-016, -1.42247325e-016,
          -1.42247325e-016, -1.42247325e-016, -1.42247325e-016,
          -1.42247325e-016, -1.42247325e-016, -1.42247325e-016,
          -1.42247325e-016, -1.51146455e-002, -2.63450406e-002,
          -4.18075994e-002, -5.94058707e-002, -6.47230595e-002,
          -3.12888958e-002, -1.93023346e-002, -2.84547452e-002,
          -3.06227282e-002, -2.33700946e-002, -1.36895338e-002,
          -9.76672210e-003, 9.55079682e-003, 2.46204119e-002,
          1.21472189e-002, -8.35807994e-003, 4.13660164e-005,
          3.64907123e-002, 3.68930288e-002, 2.98256986e-002,
          2.78722495e-002, 2.57092062e-002, 5.63495606e-003,
          -9.30488808e-004, -8.60857777e-003, -1.19002245e-003,
          -3.36234132e-003, -9.02210828e-003, 2.78399675e-003,
          -3.20023000e-002, -3.71363498e-002, -4.11189906e-002,
          -2.73845978e-002, -2.34305989e-002, -1.43208187e-002,
          -1.08575309e-002, -3.99436336e-003, -8.09967984e-003,
          -8.71707499e-003, -8.71707499e-003, -5.22103254e-003,
          -3.87143763e-003, -6.12573186e-003, -6.12573186e-003,
          -1.20746149e-002, -1.20746149e-002, -1.20746149e-002,
          -5.94888255e-003, -1.42247325e-016, -1.42247325e-016,
          -1.42247325e-016, -1.42247325e-016, -1.42247325e-016,
          -1.42247325e-016, -1.42247325e-016, -1.42247325e-016,
          -1.42247325e-016, -1.42247325e-016, -1.42247325e-016,
          -1.42247325e-016, -1.42247325e-016, -1.42247325e-016,
          -1.42247325e-016, -1.42247325e-016, -1.42247325e-016,
          -1.42247325e-016, -1.42247325e-016, -1.42247325e-016,
          -1.42247325e-016, -1.42247325e-016, -1.42247325e-016,
          -1.42247325e-016, -1.42247325e-016, -1.42247325e-016,
          -1.42247325e-016, -1.42247325e-016, -1.42247325e-016,
          -1.42247325e-016, 1.67365637e-004, 1.67365637e-004,
          1.67365637e-004, 1.67365637e-004, 1.67365637e-004,
          1.67365637e-004, 1.67365637e-004, 1.67365637e-004,
          1.67365637e-004, 1.67365637e-004, 1.67365637e-004,
          1.67365637e-004, 1.67365637e-004, 1.67365637e-004,
          -1.42247325e-016, -1.42247325e-016, -1.42247325e-016,
          -1.42247325e-016, -1.42247325e-016, -1.42247325e-016,
          -1.42247325e-016, -1.42247325e-016, -1.42247325e-016,
          -1.42247325e-016, -1.42247325e-016, -1.42247325e-016,
          -1.42247325e-016, -1.42247325e-016, -1.42247325e-016,
          -1.42247325e-016, -1.42247325e-016, -1.42247325e-016,
          -1.42247325e-016, -1.42247325e-016, -1.42247325e-016,
          -1.42247325e-016, -1.42247325e-016, -1.42247325e-016,
          -1.42247325e-016, -1.42247325e-016, -1.42247325e-016,
          -1.42247325e-016, -1.42247325e-016, -1.42247325e-016,
          -1.42247325e-016, -1.42247325e-016, -1.42247325e-016,
          -1.42247325e-016, -1.42247325e-016, -1.42247325e-016,
          -1.42247325e-016, -1.42247325e-016, -1.42247325e-016,
          -1.42247325e-016, -1.42247325e-016, -1.42247325e-016,
          -1.42247325e-016, -1.42247325e-016, -1.42247325e-016,
          -1.42247325e-016, -1.42247325e-016, -1.42247325e-016,
          -1.42247325e-016, -1.42247325e-016, -1.42247325e-016,
          -1.42247325e-016, -1.42247325e-016, -1.42247325e-016,
          -1.42247325e-016, -1.42247325e-016, -1.42247325e-016,
          -1.42247325e-016, -1.42247325e-016, -1.42247325e-016,
          -1.42247325e-016, -1.42247325e-016, -1.42247325e-016,
          -1.42247325e-016, -1.42247325e-016, -1.42247325e-016,
          -1.42247325e-016, -1.42247325e-016, -1.42247325e-016,
          -1.42247325e-016, -1.42247325e-016, -1.42247325e-016,
          -1.42247325e-016, -1.42247325e-016, -1.42247325e-016,
          -1.42247325e-016, -1.42247325e-016, -1.42247325e-016,
          -1.42247325e-016, -1.42247325e-016, -1.42247325e-016,
          -1.42247325e-016, -1.42247325e-016, -1.42247325e-016,
          -1.42247325e-016, -1.42247325e-016, -1.42247325e-016,
          -1.42247325e-016, -1.42247325e-016, -1.42247325e-016,
          -1.42247325e-016, -1.42247325e-016, -1.42247325e-016,
          -1.42247325e-016, -1.42247325e-016, -1.42247325e-016,
          -1.42247325e-016, -1.42247325e-016, -1.42247325e-016,
          -1.42247325e-016, -1.42247325e-016, -1.42247325e-016,
          -1.42247325e-016, -1.42247325e-016, -1.42247325e-016,
          -1.42247325e-016, -1.42247325e-016, -1.42247325e-016,
          -1.42247325e-016, -1.42247325e-016, -1.42247325e-016,
          -1.42247325e-016, -1.42247325e-016, -1.42247325e-016,
          -1.42247325e-016, -1.42247325e-016, -1.42247325e-016,
          -1.42247325e-016, -1.42247325e-016, -1.42247325e-016,
          -1.42247325e-016, -1.42247325e-016, -1.42247325e-016,
          -1.42247325e-016, -1.42247325e-016, -1.42247325e-016,
          -1.42247325e-016, -1.42247325e-016, -1.42247325e-016,
          -1.42247325e-016, -1.42247325e-016, -1.42247325e-016,
          -1.42247325e-016, -1.42247325e-016, -1.42247325e-016,
          -1.42247325e-016, -1.42247325e-016, -1.42247325e-016,
          -1.42247325e-016, -1.42247325e-016, -1.42247325e-016,
          -1.42247325e-016, -1.42247325e-016, -1.42247325e-016,
          -1.42247325e-016, -1.42247325e-016, -1.42247325e-016,
          -1.42247325e-016, -1.42247325e-016, -1.42247325e-016,
          -1.42247325e-016, -1.42247325e-016, -1.42247325e-016,
          -1.42247325e-016, -1.42247325e-016, -1.42247325e-016,
          -1.42247325e-016, -1.42247325e-016, -1.42247325e-016,
          -1.42247325e-016, -1.42247325e-016, -1.42247325e-016,
          -1.42247325e-016, -1.42247325e-016, -1.42247325e-016,
          -1.42247325e-016, -1.42247325e-016, -1.42247325e-016,
          -1.42247325e-016, -1.42247325e-016, -1.42247325e-016,
          -1.42247325e-016, -1.42247325e-016, -1.42247325e-016,
          -1.42247325e-016, -1.42247325e-016, -1.42247325e-016,
          -1.42247325e-016, -1.42247325e-016, -1.42247325e-016,
          -1.42247325e-016, -1.42247325e-016, -1.42247325e-016,
          -1.42247325e-016, -1.42247325e-016, -1.42247325e-016,
          -1.42247325e-016, -1.42247325e-016, -1.42247325e-016,
          -1.42247325e-016, -1.42247325e-016, -1.42247325e-016,
          -1.42247325e-016, -1.42247325e-016, -1.42247325e-016,
          -1.42247325e-016, -1.42247325e-016, -1.42247325e-016,
          -1.42247325e-016, -1.42247325e-016, -1.42247325e-016,
          -1.42247325e-016, -1.42247325e-016, -1.42247325e-016,
          -1.42247325e-016, -1.42247325e-016, -1.42247325e-016,
          -1.42247325e-016, -1.42247325e-016, -1.42247325e-016,
          -1.42247325e-016, -1.42247325e-016, -1.42247325e-016,
          -1.42247325e-016, -1.42247325e-016, -1.42247325e-016,
          -1.42247325e-016, -1.42247325e-016, -1.42247325e-016,
          -1.42247325e-016, -1.42247325e-016, -1.42247325e-016,
          -1.42247325e-016, -1.42247325e-016, -1.42247325e-016,
          -1.42247325e-016, -1.42247325e-016, -1.42247325e-016,
          -1.42247325e-016, -1.42247325e-016, -1.42247325e-016,
          -1.42247325e-016, -1.42247325e-016, -1.42247325e-016,
          -1.42247325e-016, -1.42247325e-016, -1.42247325e-016,
          -1.42247325e-016, -1.42247325e-016, -1.42247325e-016,
          -1.42247325e-016, -1.42247325e-016, -1.42247325e-016,
          -1.42247325e-016, -1.42247325e-016, -1.42247325e-016,
          -1.42247325e-016, -1.42247325e-016, -1.42247325e-016,
          -1.42247325e-016, -1.42247325e-016, -1.42247325e-016,
          -1.42247325e-016, -1.42247325e-016, -1.42247325e-016,
          -1.42247325e-016, -1.42247325e-016, -1.42247325e-016,
          -1.42247325e-016, -1.42247325e-016, -1.42247325e-016,
          -1.42247325e-016, -1.42247325e-016, -1.42247325e-016,
          -1.42247325e-016, -1.42247325e-016, -1.42247325e-016,
          -1.42247325e-016, -1.42247325e-016, -1.42247325e-016,
          -1.42247325e-016, -1.42247325e-016, -1.42247325e-016,
          -1.42247325e-016, -1.42247325e-016, -1.42247325e-016,
          -1.42247325e-016, -1.42247325e-016, -1.42247325e-016,
          -1.42247325e-016, -1.42247325e-016, -1.42247325e-016,
          -1.42247325e-016, -1.42247325e-016, -1.42247325e-016,
          -1.42247325e-016, -1.42247325e-016, -1.42247325e-016,
          -1.42247325e-016, -1.42247325e-016, -1.42247325e-016,
          -1.42247325e-016, -1.42247325e-016, -1.42247325e-016,
          -1.42247325e-016, -1.42247325e-016, -1.42247325e-016,
          -1.42247325e-016, -1.42247325e-016, -1.42247325e-016,
          -1.42247325e-016, -1.42247325e-016, -1.42247325e-016,
          -1.42247325e-016, -1.42247325e-016, -1.42247325e-016,
          -1.42247325e-016, -1.42247325e-016, -1.42247325e-016,
          -1.42247325e-016, -1.42247325e-016, -1.42247325e-016,
          -1.42247325e-016, -1.42247325e-016, -1.42247325e-016,
          -1.42247325e-016, -1.42247325e-016, -1.42247325e-016,
          -1.42247325e-016, -1.42247325e-016, -1.42247325e-016,
          -1.42247325e-016, -1.42247325e-016, -1.42247325e-016,
          -1.42247325e-016, -1.42247325e-016, -1.42247325e-016,
          -1.42247325e-016, -1.42247325e-016, -1.42247325e-016,
          -1.42247325e-016, -1.42247325e-016, -1.42247325e-016,
          -1.42247325e-016, -1.42247325e-016, -1.42247325e-016,
          -1.42247325e-016, -1.42247325e-016, -1.42247325e-016,
          -1.42247325e-016, -1.42247325e-016, -1.42247325e-016,
          -1.42247325e-016, -1.42247325e-016, -1.42247325e-016,
          -1.42247325e-016, -1.42247325e-016, -1.42247325e-016,
          -1.42247325e-016, -1.42247325e-016, -1.42247325e-016,
          -1.42247325e-016, -1.42247325e-016, -1.42247325e-016,
          -1.42247325e-016, -1.42247325e-016, -1.42247325e-016,
          -1.42247325e-016, -1.42247325e-016, -1.42247325e-016,
          -1.42247325e-016, -1.42247325e-016, -1.42247325e-016,
          -1.42247325e-016, -1.42247325e-016, -1.42247325e-016,
          -1.42247325e-016, -1.42247325e-016, -1.42247325e-016,
          -1.42247325e-016, -1.42247325e-016, -1.42247325e-016,
          -1.42247325e-016, -1.42247325e-016, -1.42247325e-016,
          -1.42247325e-016, -1.42247325e-016, -1.42247325e-016,
          -1.42247325e-016, -1.42247325e-016, -1.42247325e-016,
          -1.42247325e-016, -1.42247325e-016, -1.42247325e-016,
          -1.42247325e-016, -1.42247325e-016, -1.42247325e-016,
          -1.42247325e-016, -1.42247325e-016, -1.42247325e-016,
          -1.42247325e-016, -1.42247325e-016, -1.42247325e-016,
          -1.42247325e-016, -1.42247325e-016, -1.42247325e-016,
          -1.42247325e-016, -1.42247325e-016, -1.42247325e-016,
          -1.42247325e-016, -1.42247325e-016, -1.42247325e-016,
          -1.42247325e-016, -1.42247325e-016, -1.42247325e-016,
          -1.42247325e-016, -1.42247325e-016, -1.42247325e-016,
          -1.42247325e-016, -1.42247325e-016, -1.42247325e-016,
          -1.42247325e-016 ]
      - [ -9.25908655e-017, -9.25908655e-017, -9.25908655e-017,
          -9.25908655e-017, -9.25908655e-017, -9.25908655e-017,
          -9.25908655e-017, -9.25908655e-017, -9.25908655e-017,
          -9.25908655e-017, -9.25908655e-017, -9.25908655e-017,
          -9.25908655e-017, -9.25908655e-017, -9.25908655e-017,
          -9.25908655e-017, -9.25908655e-017, -9.25908655e-017,
          -9.25908655e-017, -9.25908655e-017, -9.25908655e-017,
          -9.25908655e-017, -9.25908655e-017, -9.25908655e-017,
          -9.25908655e-017, -9.25908655e-017, -9.25908655e-017,
          -9.25908655e-017, -9.25908655e-017, -9.25908655e-017,
          -9.25908655e-017, -9.25908655e-017, -9.25908655e-017,
          -9.25908655e-017, -9.25908655e-017, -9.25908655e-017,
          -9.25908655e-017, -9.25908655e-017, -9.25908655e-017,
          -9.25908655e-017, -9.25908655e-017, -9.25908655e-017,
          -9.25908655e-017, -9.25908655e-017, -9.25908655e-017,
          -9.25908655e-017, -9.25908655e-017, -9.25908655e-017,
          -9.25908655e-017, -9.25908655e-017, -9.25908655e-017,
          -9.25908655e-017, -9.25908655e-017, -9.25908655e-017,
          -9.25908655e-017, -9.25908655e-017, -9.25908655e-017,
          -9.25908655e-017, -9.25908655e-017, -9.25908655e-017,
          -9.25908655e-017, -9.25908655e-017, -9.25908655e-017,
          -9.25908655e-017, -9.25908655e-017, -9.25908655e-017,
          -9.25908655e-017, -9.25908655e-017, -9.25908655e-017,
          -9.25908655e-017, -9.25908655e-017, -9.25908655e-017,
          -9.25908655e-017, -9.25908655e-017, -9.25908655e-017,
          -9.25908655e-017, -9.25908655e-017, -9.25908655e-017,
          -9.25908655e-017, -9.25908655e-017, -9.25908655e-017,
          -9.25908655e-017, -9.25908655e-017, -9.25908655e-017,
          -9.25908655e-017, -9.25908655e-017, -9.25908655e-017,
          -9.25908655e-017, -9.25908655e-017, -9.25908655e-017,
          -9.25908655e-017, -9.25908655e-017, -9.25908655e-017,
          -9.25908655e-017, -9.25908655e-017, -9.25908655e-017,
          -9.25908655e-017, -9.25908655e-017, -9.25908655e-017,
          -9.25908655e-017, -9.25908655e-017, -9.25908655e-017,
          -9.25908655e-017, -9.25908655e-017, -9.25908655e-017,
          -9.25908655e-017, -9.25908655e-017, -9.25908655e-017,
          -9.25908655e-017, -9.25908655e-017, -9.25908655e-017,
          -9.25908655e-017, -9.25908655e-017, -9.25908655e-017,
          -9.25908655e-017, -9.25908655e-017, -9.25908655e-017,
          -9.25908655e-017, -9.25908655e-017, -9.25908655e-017,
          -9.25908655e-017, -9.25908655e-017, -9.25908655e-017,
          -9.25908655e-017, -9.25908655e-017, -9.25908655e-017,
          -9.25908655e-017, -9.25908655e-017, -9.25908655e-017,
          -9.25908655e-017, -9.25908655e-017, -9.25908655e-017,
          -9.25908655e-017, -9.25908655e-017, -9.25908655e-017,
          -9.25908655e-017, -9.25908655e-017, -9.25908655e-017,
          -9.25908655e-017, -9.25908655e-017, -9.25908655e-017,
          -9.25908655e-017, -9.25908655e-017, -9.25908655e-017,
          -9.25908655e-017, -9.25908655e-017, -9.25908655e-017,
          -9.25908655e-017, -9.25908655e-017, -9.25908655e-017,
          -9.25908655e-017, -9.25908655e-017, -9.25908655e-017,
          -9.25908655e-017, -9.25908655e-017, -9.25908655e-017,
          -9.25908655e-017, -9.25908655e-017, -9.25908655e-017,
          -9.25908655e-017, -9.25908655e-017, -9.25908655e-017,
          -9.25908655e-017, -9.25908655e-017, -9.25908655e-017,
          -9.25908655e-017, -9.25908655e-017, -9.25908655e-017,
          -9.25908655e-017, -9.25908655e-017, -9.25908655e-017,
          -9.25908655e-017, -9.25908655e-017, -9.25908655e-017,
          -9.25908655e-017, -9.25908655e-017, -9.25908655e-017,
          -9.25908655e-017, -9.25908655e-017, -9.25908655e-017,
          -9.25908655e-017, -9.25908655e-017, -9.25908655e-017,
          -9.25908655e-017, -9.25908655e-017, -9.25908655e-017,
          -9.25908655e-017, -9.25908655e-017, -9.25908655e-017,
          -9.25908655e-017, -9.25908655e-017, -9.25908655e-017,
          -9.25908655e-017, -9.25908655e-017, -9.25908655e-017,
          -9.25908655e-017, -9.25908655e-017, -9.25908655e-017,
          -9.25908655e-017, -9.25908655e-017, -9.25908655e-017,
          -9.25908655e-017, -9.25908655e-017, -9.25908655e-017,
          -9.25908655e-017, -9.25908655e-017, -9.25908655e-017,
          -9.25908655e-017, -9.25908655e-017, -9.25908655e-017,
          -9.25908655e-017, -9.25908655e-017, -9.25908655e-017,
          -9.25908655e-017, -9.25908655e-017, -9.25908655e-017,
          -9.25908655e-017, -9.25908655e-017, -9.25908655e-017,
          -9.25908655e-017, -9.25908655e-017, -9.25908655e-017,
          -9.25908655e-017, -9.25908655e-017, -9.25908655e-017,
          -9.25908655e-017, -9.25908655e-017, -9.25908655e-017,
          -9.25908655e-017, -9.25908655e-017, -9.25908655e-017,
          -9.25908655e-017, -9.25908655e-017, -9.25908655e-017,
          -9.25908655e-017, -9.25908655e-017, -9.25908655e-017,
          -9.25908655e-017, -9.25908655e-017, -9.25908655e-017,
          -9.25908655e-017, -9.25908655e-017, -9.25908655e-017,
          -9.25908655e-017, -9.25908655e-017, -9.25908655e-017,
          -9.25908655e-017, -9.25908655e-017, -9.25908655e-017,
          -9.25908655e-017, -9.25908655e-017, -9.25908655e-017,
          -9.25908655e-017, -9.25908655e-017, -9.25908655e-017,
          -9.25908655e-017, -9.25908655e-017, -9.25908655e-017,
          -9.25908655e-017, -9.25908655e-017, -9.25908655e-017,
          -9.25908655e-017, -9.25908655e-017, -9.25908655e-017,
          -9.25908655e-017, -9.25908655e-017, -9.25908655e-017,
          -9.25908655e-017, -9.25908655e-017, -9.25908655e-017,
          -9.25908655e-017, -9.25908655e-017, -9.25908655e-017,
          -9.25908655e-017, -9.25908655e-017, -9.25908655e-017,
          -9.25908655e-017, -9.25908655e-017, -9.25908655e-017,
          -9.25908655e-017, -9.25908655e-017, -9.25908655e-017,
          -9.25908655e-017, -9.25908655e-017, -9.25908655e-017,
          -9.25908655e-017, -9.25908655e-017, -9.25908655e-017,
          -9.25908655e-017, -9.25908655e-017, -9.25908655e-017,
          -9.25908655e-017, -9.25908655e-017, -9.25908655e-017,
          -9.25908655e-017, -9.25908655e-017, -9.25908655e-017,
          -9.25908655e-017, -9.25908655e-017, -9.25908655e-017,
          -9.25908655e-017, -9.25908655e-017, -9.25908655e-017,
          -9.25908655e-017, -9.25908655e-017, -9.25908655e-017,
          -9.25908655e-017, -9.25908655e-017, -9.25908655e-017,
          -9.25908655e-017, -9.25908655e-017, -9.25908655e-017,
          -9.25908655e-017, -9.25908655e-017, -9.25908655e-017,
          -9.25908655e-017, -9.25908655e-017, -9.25908655e-017,
          -9.25908655e-017, -9.25908655e-017, -9.25908655e-017,
          -9.25908655e-017, -9.25908655e-017, -9.25908655e-017,
          -9.25908655e-017, -9.25908655e-017, -9.25908655e-017,
          -9.25908655e-017, -9.25908655e-017, -9.25908655e-017,
          -9.25908655e-017, -9.25908655e-017, -9.25908655e-017,
          -9.25908655e-017, -9.25908655e-017, -9.25908655e-017,
          -9.25908655e-017, -9.25908655e-017, -9.25908655e-017,
          -9.25908655e-017, -9.25908655e-017, -9.25908655e-017,
          -9.25908655e-017, -9.25908655e-017, -9.25908655e-017,
          -9.25908655e-017, -9.25908655e-017, -9.25908655e-017,
          -9.25908655e-017, -9.25908655e-017, -9.25908655e-017,
          -9.25908655e-017, -9.25908655e-017, -9.25908655e-017,
          -9.25908655e-017, -9.25908655e-017, -9.25908655e-017,
          -9.25908655e-017, -9.25908655e-017, -9.25908655e-017,
          -9.25908655e-017, -9.25908655e-017, -9.25908655e-017,
          -9.25908655e-017, -9.25908655e-017, -9.25908655e-017,
          -9.25908655e-017, -9.25908655e-017, -9.25908655e-017,
          -9.25908655e-017, -9.25908655e-017, -9.25908655e-017,
          -9.25908655e-017, -9.25908655e-017, -9.25908655e-017,
          -9.25908655e-017, -9.25908655e-017, -9.25908655e-017,
          -9.25908655e-017, -9.25908655e-017, -9.25908655e-017,
          -9.25908655e-017, -9.25908655e-017, -9.25908655e-017,
          -9.25908655e-017, -9.25908655e-017, -9.25908655e-017,
          -9.25908655e-017, -9.25908655e-017, -9.25908655e-017,
          -9.25908655e-017, -9.25908655e-017, -9.25908655e-017,
          -9.25908655e-017, -9.25908655e-017, -9.25908655e-017,
          -9.25908655e-017, -9.25908655e-017, -9.25908655e-017,
          -9.25908655e-017, -9.25908655e-017, -9.25908655e-017,
          -9.25908655e-017, -9.25908655e-017, -9.25908655e-017,
          -9.25908655e-017, -9.25908655e-017, -9.25908655e-017,
          -9.25908655e-017, -9.25908655e-017, -9.25908655e-017,
          -9.25908655e-017, -9.25908655e-017, -9.25908655e-017,
          -9.25908655e-017, -9.25908655e-017, -9.25908655e-017,
          -9.25908655e-017, -9.25908655e-017, -9.25908655e-017,
          -9.25908655e-017, -9.25908655e-017, -9.25908655e-017,
          -9.25908655e-017, -9.25908655e-017, -9.25908655e-017,
          -9.25908655e-017, -9.25908655e-017, -9.25908655e-017,
          -9.25908655e-017, -9.25908655e-017, -9.25908655e-017,
          -9.25908655e-017, -9.25908655e-017, -9.25908655e-017,
          -9.25908655e-017, -9.25908655e-017, -9.25908655e-017,
          -9.25908655e-017, -9.25908655e-017, -9.25908655e-017,
          -9.25908655e-017, -9.25908655e-017, -9.25908655e-017,
          -9.25908655e-017, -9.25908655e-017, -9.25908655e-017,
          -9.25908655e-017, -9.25908655e-017, -9.25908655e-017,
          -9.25908655e-017, -9.25908655e-017, -9.25908655e-017,
          -9.25908655e-017, -9.25908655e-017, -9.25908655e-017,
          -9.25908655e-017, -9.25908655e-017, -9.25908655e-017,
          -9.25908655e-017, -9.25908655e-017, -9.25908655e-017,
          -9.25908655e-017, -9.25908655e-017, -9.25908655e-017,
          -9.25908655e-017, -9.25908655e-017, -9.25908655e-017,
          -9.25908655e-017, -9.25908655e-017, -9.25908655e-017,
          -9.25908655e-017, -9.25908655e-017, -9.25908655e-017,
          -9.25908655e-017, -9.25908655e-017, -9.25908655e-017,
          -9.25908655e-017, -9.25908655e-017, -9.25908655e-017,
          -9.25908655e-017, -9.25908655e-017, -9.25908655e-017,
          -9.25908655e-017, -9.25908655e-017, -9.25908655e-017,
          -9.25908655e-017, -4.10710881e-003, -4.10710881e-003,
          -4.10710881e-003, -4.10710881e-003, -4.10710881e-003,
          -9.25908655e-017, -9.25908655e-017, -9.25908655e-017,
          -9.25908655e-017, -9.25908655e-017, -9.25908655e-017,
          -9.25908655e-017, -9.25908655e-017, -9.25908655e-017,
          -9.25908655e-017, -9.25908655e-017, -9.25908655e-017,
          -9.25908655e-017, -9.25908655e-017, -9.25908655e-017,
          -9.25908655e-017, -9.25908655e-017, -9.25908655e-017,
          -9.25908655e-017, -9.25908655e-017, -9.25908655e-017,
          -9.25908655e-017, -9.25908655e-017, -9.25908655e-017,
          -9.25908655e-017, -9.25908655e-017, -9.25908655e-017,
          -9.25908655e-017, -9.25908655e-017, -9.25908655e-017,
          -9.25908655e-017, -9.25908655e-017, -9.25908655e-017,
          -9.25908655e-017, -9.25908655e-017, -9.25908655e-017,
          -9.25908655e-017, -5.32068638e-003, -6.47310819e-003,
          -1.00235175e-002, -1.03057101e-002, -1.03057101e-002,
          -6.75530080e-003, -4.88733500e-003, -2.15007551e-002,
          -2.08020024e-002, -1.43193593e-003, -8.73847492e-003,
          -1.78001057e-002, -6.22123107e-003, 3.37649956e-002,
          4.56375666e-002, 4.69350889e-002, 2.74976287e-002,
          5.11880517e-002, 4.74126935e-002, 5.38783111e-002,
          2.93069128e-002, 5.32378852e-002, 6.19894117e-002,
          3.15260217e-002, 3.58767323e-002, 3.51017341e-002,
          2.92791482e-002, 1.12741813e-002, 1.38124020e-003,
          3.48656322e-003, 1.92154126e-004, -3.27164424e-003,
          2.92941858e-003, -7.51256989e-003, -1.17113255e-002,
          -2.37031886e-003, 4.16145544e-004, -2.50490103e-003,
          -9.25908655e-017, -9.25908655e-017, -9.25908655e-017,
          -9.25908655e-017, -9.25908655e-017, -9.25908655e-017,
          -9.25908655e-017, -9.25908655e-017, -9.25908655e-017,
          -9.25908655e-017, -9.25908655e-017, -9.25908655e-017,
          -9.25908655e-017, -9.25908655e-017, -9.25908655e-017,
          -9.25908655e-017, -9.25908655e-017, -9.25908655e-017,
          -9.25908655e-017, -9.25908655e-017, -9.25908655e-017,
          -9.25908655e-017, -9.25908655e-017, -9.25908655e-017,
          -9.25908655e-017, -9.25908655e-017, -5.32068638e-003,
          -1.15302755e-002, -1.08147319e-002, -1.18124681e-002,
          -1.18124681e-002, -1.22664319e-002, -8.95461813e-003,
          -2.34397352e-002, -1.57902427e-002, -3.39945103e-003,
          -6.57972088e-003, -1.64415054e-002, -4.99198388e-004,
          7.39958370e-003, 9.44626238e-003, 1.16612986e-002,
          -1.34834610e-002, 9.64874029e-003, 3.07863932e-002,
          4.42469977e-002, 3.38487625e-002, 2.25173514e-002,
          1.88384429e-002, 2.02584043e-002, -5.90782706e-003,
          -9.35697090e-003, -7.18155177e-003, -9.95774008e-003,
          -1.29593555e-002, -7.31747458e-003, 1.60717051e-002,
          1.40319988e-002, 9.64209251e-003, -6.96726469e-003,
          -2.91428389e-003, -4.08097729e-003, 3.76652228e-003,
          3.76652228e-003, 4.08550864e-003, -9.25908655e-017,
